double *biases[2] = {
    (double[]) {
        1.2237977237798885,
        -3.164808367557336,
        -0.9145348413890646,
        0.5904054368425249,
        -1.2199305383502808,
        -1.1766197083874885,
        2.4130964028742308,
        -2.5813476216334985,
        -1.8213893891194517,
        -1.1083508888545748,
        -0.2624942704769866,
        -0.5297083066265093,
        -2.7869140697959356,
        1.8998846488131056,
        -0.40549531051362286,
        -4.3883681981301494,
        -0.517611035262486,
        0.8986808591821941,
        -0.5102805522830053,
        4.881375394196877,
        -1.9899244508997849,
        -2.786080386352857,
        -1.0273754215083872,
        -1.7556484071225766,
        0.08477761228052938,
        0.7494008817505778,
        -0.4846739718904529,
        -1.7150928010028244,
        -4.1628665904372495,
        -1.0924635241422074,
    },
    (double[]) {
        -4.734271241866825,
        -5.949933437023342,
        -3.551674496560813,
        -5.192631942589693,
        -0.9676436341755164,
        -7.0959560026988076,
        -8.272939560798925,
        -2.6449671483970842,
        -4.916284576991491,
        -7.5313596602789366,
    },
};
