double biases_hl[30][1] = {
        {0.8447764777501766},
        {-0.16649781912594652},
        {-2.5928293407716585},
        {-2.0998603442092647},
        {-1.363981639271497},
        {1.3417097067296886},
        {-0.22642358857208367},
        {0.7548715755062924},
        {1.0219940538049155},
        {-1.9973203987622983},
        {-1.9433010008390437},
        {-1.666425575880575},
        {-1.208521390651891},
        {0.8375692373284926},
        {-3.423784166910469},
        {-2.3638505290244827},
        {0.30324449171401063},
        {1.0334708429614228},
        {-4.128272664098203},
        {1.8621604412304191},
        {-4.105324126630715},
        {1.6119148644122745},
        {-2.028330485274122},
        {-1.4875549266589456},
        {-1.4280212655342708},
        {-1.06249715322432},
        {-2.4951966195827766},
        {1.9071858044351289},
        {-0.3309305439278165},
        {0.40458636974693735},
};
double biases_ol[10][1] = {
        {-4.963089559770483},
        {-0.7977637339321256},
        {-4.48767558530195},
        {-8.153376911844989},
        {-6.453249429446811},
        {-3.2867513910594144},
        {-3.7907416899032245},
        {-6.102198382690264},
        {-4.355954107517616},
        {-6.700181834490715},
};
