[array([[-0.76312811,  0.16179419,  0.80845141, ..., -1.37821744,
        -0.98428362, -0.69801868],
       [-0.01192292, -0.60346679,  0.8146905 , ..., -0.48985802,
        -0.87530274, -0.05740604],
       [ 0.84790588, -0.31757217, -0.29256998, ...,  1.02860304,
        -1.65809909,  0.0299199 ],
       ...,
       [-0.82454458, -0.76547337,  0.67164159, ...,  1.07606245,
        -0.22808104,  1.05264443],
       [ 0.36375854,  0.42741968,  0.51765276, ..., -1.48763282,
         0.34344296,  0.2383185 ],
       [-0.98091332, -0.52137788, -0.45172364, ...,  0.4518731 ,
         0.52635523, -0.19812205]]), array([[-0.91619774, -3.14555586, -2.89126873,  1.93609694, -4.4543697 ,
        -4.13945864,  3.73829506, -4.34340565,  0.12773198, -2.21016176,
        -0.34737432, -2.04827966, -2.59345977, -3.44615559, -2.86704793,
         3.70103499,  1.32628168, -1.73094256, -1.54455684,  4.91082821,
         1.41872885, -2.30569308,  1.15340498, -7.03210893, -0.69394012,
         3.85848974, -0.44378178,  1.79224896, -4.56187651, -0.74581968],
       [ 3.75619463, -3.40599663,  1.87531375,  4.49653567, -0.16206125,
        -4.29662737, -3.87604833, -2.49512687,  2.57037495, -2.67950411,
        -4.48020553,  2.68713547, -5.10428804,  0.09614423, -1.72583527,
         5.83752179,  1.18633696, -3.35257443,  4.77454761, -2.22998416,
         3.18138644, -1.74750644, -1.72051503,  3.30340188,  1.23304421,
        -2.55732655, -6.8524598 , -0.091553  , -0.80089444, -0.1948364 ],
       [ 2.02053549,  0.96320425,  1.41519294,  1.10948469,  5.92642359,
        -1.94250274, -2.14888351,  3.36909399, -0.78569594, -6.88385161,
         0.86161969,  1.96634284, -3.19389799,  0.11715228, -3.0540959 ,
        -3.0224975 ,  0.12230565, -5.22173982, -2.38708114,  2.35731121,
        -2.16140008, -2.04155649, -2.38551831, -5.18179567,  0.31022853,
        -1.79588922,  7.8344776 , -5.39330241, -1.86881428, -0.86384023],
       [ 2.46952321, -0.18046314,  3.66350832,  1.0094639 , -4.73730746,
        -4.28664247,  0.96025399, -4.63049558,  0.18302668,  2.92856736,
         5.15171192, -4.22512566, -1.91291177, -1.54954403,  6.02800526,
        -1.72456775, -4.76462356,  0.60270489, -3.97978009, -4.83739803,
        -0.27458778, -4.8949012 , -5.42070656, -1.10902313, -0.64614219,
        -3.10363803, -0.09823592, -0.49123393,  0.49335003,  1.84143282],
       [-2.23168338,  3.15106872, -6.1595175 , -7.03410852, -2.44643493,
         0.38618598, -5.22607994, -3.64194914,  5.13721712,  2.6695745 ,
         0.49094131, -1.14009534, -7.12626746, -2.33960815, -1.43052607,
        -4.87682144,  0.58706287,  1.02340836,  1.17987431,  0.2600141 ,
        -2.71522335, -3.77313139,  0.74526483,  0.73993924, -3.54640378,
        -0.09374948, -0.29393344, -3.03950983, -1.84399206, -3.25614631],
       [ 0.91103042, -3.21971468, -2.22749529,  3.72060678, -0.80054055,
        -2.54325053,  0.24644128,  3.57115009, -2.40333062,  0.74345152,
        -6.20609255, -3.01811635,  9.07100977,  1.65579873,  3.82937356,
        -6.07317206,  3.59901119, -1.24097031,  2.43903847, -9.85240156,
         6.08873062,  1.77293489,  3.61902785,  0.53171864, -0.7804286 ,
         5.84439769, -2.10183362, -4.82780049,  1.29854617,  1.63179364],
       [-3.35553808, -4.02636809,  4.49903355, -0.47024354, -3.63943746,
        -3.80135958, -3.30425188,  2.90190842,  1.68178185,  3.41137093,
        -0.49122004,  4.27331506, -2.43795899, -3.49280963, -7.33772166,
         3.46104765, -0.24700078, -1.01049183, -1.87657998, -0.08766465,
         0.23258376,  3.35523973, -2.46133223, -2.33845653, -3.4422256 ,
         3.25087876, -1.94860575,  4.59311798,  0.12739495, -0.88614814],
       [ 3.96808267, -4.49395996,  2.13729379, -5.76812224,  5.29471367,
        -4.2853198 ,  2.24794108, -4.7533853 ,  0.15356944,  0.01795544,
        -0.72803899, -1.70983707,  3.18359612, -2.59252332, -4.48996744,
         2.87892052, -0.09141845,  2.84569871, -2.55046988, -0.71484869,
        -1.16346197,  2.01578746,  0.12669649,  6.66184466,  2.02007925,
         0.50865805, -0.57184998,  1.70479512,  3.87638503, -4.56594585],
       [-1.98941091, -5.32798879, -3.78724035,  7.29074827, -0.776138  ,
        -5.43714362, -1.14677368, -4.35808842,  0.63642159, -2.41051449,
         0.86796997, -2.2228498 , -6.02857239,  4.71269486, -7.26293434,
        -3.59271195,  2.67224842,  7.54348976, -5.64726394, -3.9439278 ,
        -4.2464597 ,  2.48086283, -1.98855242, -2.32065942,  1.14482823,
        -0.17450543, -0.90902426,  2.87580357,  0.21956042,  0.59307137],
       [-5.49127386, -2.60645229, -4.91461509, -5.55567862, -4.82226177,
        -3.55504739,  2.24005622, -0.5430783 , -4.06428507, -2.95723077,
        -3.54060758,  3.25254477, -1.6303072 ,  3.90366792,  1.67434308,
        -4.17408072, -2.06068658, -2.27274308,  2.61634542,  0.59023161,
        -3.00072476, -0.66337373,  2.53117087,  1.373292  ,  4.37041644,
        -0.42828563,  0.02497457,  3.82556574,  0.35411195,  6.5342155 ]])]