int32_t weights_hl[30][784] = {
        { 1676, -776, 9503, -421, 7203, -7822, -3157, 3452, -6628, -2169, -455, 3138, 3551, -1636, -3598, 65, -2045, -1926, -1614, 2022, 3792, -5412, 6660, -2530, 6859, -3046, 4975, -3502, 645, -3526, 3490, -3398, 1528, -3011, -228, -244, 5178, 3923, -2491, 3455, 3614, 11166, 5273, 5258, 996, 3414, 776, -3355, -3573, 1391, -1482, -2782, 4016, 2039, -3767, -10465, -5435, 3918, 184, -1006, 3224, -5648, -94, -3435, -387, 6433, 2459, -1837, 1048, -4314, 4549, 2469, 158, -2155, -36, 5821, 2377, 511, 2814, 5033, -1019, 5241, -2979, -775, -3722, 1344, 1143, -565, -4388, 1326, -3310, -3052, -1692, -1116, 7686, -814, -4482, -726, 7213, 7173, 11394, -1135, 3398, 2437, -3854, -1260, 4717, -7582, -2228, -6672, 1339, -203, -5191, -1222, -3971, -6137, -6071, 1221, -1971, -3612, 8567, -1572, 6865, -2876, 553, -5253, 9646, 11003, 4473, 7995, -994, -1800, 1583, -8486, 741, 1424, -2150, 6678, 2971, -4730, 1322, -3780, 2035, -7841, -2154, -4918, -685, 1554, 1514, -1803, -1240, 4336, -3929, 4127, 4574, 8235, 16568, 8367, 127, 8626, -9306, -5325, -3823, -3174, 2029, -6083, 7340, 4749, 3806, 4916, -1000, -6476, 1835, -5554, -9668, 3997, 5654, -1361, -7154, -5041, -4096, 2402, 977, 4092, 27665, 15091, 2507, -3170, -5345, 3658, -2855, -726, -2034, -475, -2226, 3451, 1552, 85, -4868, -1194, 2497, -5037, -4333, 568, -184, 2548, 196, -1143, -1765, -7870, 5227, 8570, 19364, 10589, -6197, -6699, 1883, 5273, -8383, -1005, -1683, 2903, -3185, -1800, -7213, -2736, -3734, 1815, 2230, -6377, -721, 5968, 5442, 5133, -971, 2821, -1801, -3167, 1844, 14387, 21663, 4222, -6123, 2974, -2203, 1347, -700, 3878, -7021, 611, -277, 1723, -1258, -651, 5151, -1099, -9263, 1045, -5315, 4935, 1394, 1035, 5991, -4072, -8023, 2261, -444, 17380, 13218, -1098, -80, 2277, -1812, -2524, -6981, -2127, 3480, -7740, -1650, 7122, -4155, -3356, -956, -1349, -9324, -797, -285, 2250, -4467, 5201, 649, -2500, -3584, -835, 5297, 10592, -77, -4164, -6482, -2871, -1614, -2350, -1486, 5107, -5013, -4501, 1126, -912, 1110, -3836, 1183, -3392, 4224, -1004, 999, -3570, 4603, -4048, 2818, -8741, -7336, -4150, 3619, 10267, 381, 1131, 684, -2790, -1087, 319, -1008, 2321, 5305, -5891, 7616, -987, -3699, 5737, 2236, -1777, 1888, 4698, 3979, -4390, -4570, 4878, 2209, -4125, -2435, -11699, 3312, 438, 5155, 570, -6783, -6837, -3280, -1436, 736, 5520, 1589, -4119, 1139, -275, 4865, 425, 1839, 4333, -1943, 3351, 95, 6000, -1256, -5039, -3208, -145, -2083, 4447, 162, 3203, 900, -8808, 2601, -894, 2351, -5303, -4779, -1333, -5078, 3556, 2966, 2895, -1002, -1725, 923, -8476, 339, -1867, -303, -1821, 6075, -1021, -800, 1500, 3196, 2461, -563, -1207, 3532, -3987, 3140, -5712, -10610, 6682, 3782, 4844, 1533, 4503, 1437, 1303, -2668, 1233, 918, -1835, 3196, 6945, 4800, 1990, 3388, -4598, 56, 2012, -1781, 2180, -974, 1180, -1842, -66, -3907, -3107, 704, 161, 6875, 2479, 961, -37, 4804, -392, 73, 639, -2227, -5286, 2989, 7912, -1781, -7978, -1288, 1817, 2347, 2544, -288, -2363, 673, -3036, 1323, 138, 4685, 2403, 9836, -7860, 3192, -2181, 6127, 3446, 11487, 1366, -1155, 879, -2272, -1447, -575, 6990, 2807, 1388, 1992, 275, -2221, 569, -2562, 8536, -6005, 4029, 6584, 1308, 7212, 2406, 441, 7731, -342, -2426, -8159, 1587, 5076, -2308, -2364, 241, 1269, 421, 3262, -6095, -4679, -193, -2984, 416, 5218, 6, -7855, -4927, 3933, 3825, -7509, -284, -2577, 3875, -6968, 36, 6539, 3706, 1538, 2750, -9096, -2901, -11591, -8432, -3404, -6309, 1911, -2654, 4152, 824, -5158, -1417, 38, 5695, 731, 961, 1520, -3162, 12254, 4075, -3702, 4802, 1139, -2104, 3889, -5691, 1811, -3903, 2991, 3842, 139, 1795, -11234, -7238, 10584, 2684, 2075, 3391, 3700, 4690, 5766, 395, -1899, 1889, -869, -5714, 433, -411, -5031, -111, 1058, -85, -940, 5501, 2002, 5101, -7209, 280, -2374, -2733, -5300, 456, -2280, -5876, -266, 284, 1711, 1558, 4130, 2846, 249, -441, -3550, 10346, -1522, -1763, -343, 2903, 1120, 4992, 2841, -1777, 1078, 1648, 5985, 2239, 4132, 2193, 5093, 56, 2371, -6189, -7800, -6285, -2717, 1551, -233, -2218, -4702, 7209, 4037, -8662, -3445, 3284, -1246, -4355, 1525, 6073, 5067, 9989, -2323, -5252, -2566, -409, -4380, -6819, -2348, 800, 110, 9045, 2225, -3591, 6567, -3230, -5881, 6185, -488, 26, 3622, -50, -40, 4321, -6114, -4172, -292, -9037, -440, 3932, 407, -6936, -3611, -6049, 3550, -4726, -2561, -9055, 1678, 3142, 413, 3002, 3165, 3017, -3411, -434, -3141, -1565, -3695, -73, 2863, 6625, 675, 2921, 8607, 4375, -5712, -99, 8992, -9109, 298, 124, -2252, -665, 749, -5527, -1458, -974, 946, 2263, -1161, 10114, 1330, 4105, -1331, -3939, -802, -3731, 400, 4759, 8850, 5269, 9891, 1467, -6348, -492, 1809, -4098, -619, 723, 2294, 316, 4624, 1935, 3157, 5532, 2883, -128, 6518, 4780, 2483, -423, 5933, 7711, 323, 1485, 4969, -2770, -2122, 2075, 10360, 2527, 6922, 2574, 201, 8396, 2916, 2616, 606, 11028, 3610, 948, -7607, -8275, 3069, -3558, -1023, 1005, 1935, -1517, 1847, -3285, 168, -267, 4037, -3588, -981, 2393, -1938, -2129, 1535, 5147, -7940, 5813, 3964, -1363, },
        { -2378, -6354, 2259, -1507, 1738, -2771, 272, 2581, 3154, 620, 911, 2307, -6874, 627, 3169, -4627, 7503, 4942, 5669, -931, 756, -6289, -3530, 1188, 1137, -2661, -6748, -5003, -2143, -2105, 5291, 10093, -4335, -133, -6122, 684, 111, -232, 3654, -1440, -2473, -4392, 6014, -1335, -556, 3859, 31, -1671, -1483, 781, 1260, 1111, -4615, 2008, 6590, -6478, 1423, -7214, 3921, 809, 821, 887, -2206, -4725, -1678, -8769, -429, 5895, 3837, 5431, -3447, -515, -2955, 1227, -1620, -1726, -3599, 9014, -1246, 3997, -1822, -3601, 3676, 914, -4601, -4106, 2226, -6616, 4165, 2111, 3806, 1101, -2365, 532, -4918, -7663, -2525, -3163, -3651, 2359, -4161, 5537, 3418, -4613, 264, 4007, -5427, -1888, 1124, -1202, 1846, 3619, 10661, 1287, -6561, -1171, 5525, 5040, 5862, -5514, -1307, -6061, -3617, -5685, 839, -4500, 6480, -3448, 932, -3693, -2763, 1242, 3183, 456, 4893, 6987, 2102, -1568, -2510, 2347, -5474, 1898, -10698, 5354, -5742, 385, 2979, -9019, 1900, -4613, -9008, -6960, -3432, 3324, -3739, -2828, -1483, 3203, -36, 138, -2835, -3664, -257, -301, 7024, -3482, 1226, -134, 4140, 5318, -412, 1077, 5032, -573, 4235, 1207, 7157, -1578, 1181, -9621, 3030, 183, 2471, -3887, -5208, -1085, 4494, 173, 346, 2086, -4434, 1317, -2127, -1833, -9652, 1243, 222, 2268, 1099, 2288, 4255, 4331, -649, -4738, -1614, 988, 2977, -6396, 3853, 3948, -7228, 7571, 7831, 222, 4946, 803, 6095, -922, 91, 8206, 4041, 979, 745, 3197, -832, -9747, 1242, 1318, 2199, 7101, -2637, -2314, -4176, 2455, -1770, 106, -2608, 1066, 4974, 3406, 3804, 2600, 10597, -1739, -281, 8038, 3668, -3402, 2526, 1512, -1041, 5799, 3330, -2706, 4652, 5918, 6438, -1973, -1007, 3602, -1463, 10271, 151, -3657, -3826, 5885, 9585, 1221, 2588, -4176, -8259, 4255, -3016, 1237, 1748, 6855, 2019, 68, 941, -5667, -437, -2600, 1089, 2114, 3659, -106, -7251, -2935, -1315, -5737, -9948, 1972, 9991, 10803, 519, 3864, -4488, 3234, -3511, -3211, 8562, 1140, 4810, 4086, 3966, 3300, 305, -677, 3319, -3748, 4131, 9418, 4895, -7212, 450, -1353, 6673, -475, 8299, 972, 8026, 11362, 9617, 8003, 10300, 11495, 3993, -1160, 165, 777, 2661, 3554, 4854, 4294, -4918, 9751, 520, -1059, 5734, -6494, -3284, -1758, -7801, -5030, -1248, 2772, 13454, 8631, 14587, 13073, 6995, 7370, 6162, 7956, 8502, 2715, -1888, -1370, -2293, 420, -856, -4601, 1257, -3751, -148, -2772, -2929, 3277, 1460, 8981, -984, 1458, -2774, 11754, 3149, 6969, 2448, -3118, 4003, -3464, 8203, 4921, 3712, 2756, -2130, 429, -6146, -6527, 1212, -8407, 6655, -1370, -1613, 1776, -7038, -7789, -1856, -2458, -231, -15516, -7013, 13111, -5855, -2675, 3681, 381, -15, 3411, 539, -762, -746, 6035, -964, 3080, -6251, -2410, -1769, -4993, -7402, -1972, -9060, -98, 4290, -7868, -1796, 1067, -8108, -1075, 493, -1889, 1036, -1759, 2889, 414, 4516, -8832, 1392, -603, 10351, 107, 5117, 4216, 9875, -4940, -8896, -6626, -5611, -54, 1872, 3642, -1684, -4138, 749, -362, -13508, -2723, -5003, -473, -9067, 1482, -6674, -5488, 3715, -6819, -5510, 954, 5249, 7590, -646, -3887, -4312, -4092, -7271, -11164, -1932, 1031, 2025, 5514, 4420, -5, 4517, 468, -5414, -45, 270, -9525, -1918, -5141, -7151, -162, -843, -2260, -2265, -6547, 2594, -1042, -2223, -7379, -6523, -2145, -6565, -10569, -4972, 885, -1984, 3681, -1717, -4477, -2622, -7960, -7227, -13604, -11609, -577, -3652, 74, -4403, -3367, -1689, -5231, 4096, 4238, 5557, -5583, -1468, -814, -8676, -6973, -11820, -3016, 3219, 2387, -3358, 396, 238, 3341, 1108, 6915, -4043, 380, -4617, 379, -6518, -6170, -4805, -4427, -3468, 1184, -2837, -4698, 570, 4079, -4089, -5346, -7758, -9356, -2206, -6768, 7946, 4243, -324, -9392, -4085, -6154, -780, 4891, 2000, 188, -3164, -4278, -1535, -10535, 1574, 1188, -4698, -2119, -5896, -148, 293, -9303, -1063, -2291, -9904, -3445, -6813, 311, 2998, 680, 1099, 1490, -1506, 4330, -10093, -6644, 7487, 6295, -3861, 1213, 744, 3909, 1399, -4895, -636, -188, -4235, 4850, -8827, -7052, -4415, -9389, -12979, -12891, -5408, 2238, 3647, 4820, 6783, 5775, -3619, 1187, 1193, -2580, 3142, 3893, -177, 3119, -2750, -4219, -2092, 4667, 709, 7601, -406, -6731, -2050, 2094, -6519, -4651, -7470, -5316, 3111, -7295, 596, 1540, 158, 7086, -4985, 2484, 8153, 1131, -3356, 2339, 6112, -1179, 2442, 1983, 3092, 7896, 5809, 7254, 3594, -1307, -1372, -8349, 2760, -3616, -225, -7942, 1406, -1487, 1701, 225, -3966, -410, 2728, -608, 5242, -2167, 8461, 5834, -2239, 6728, 7984, 7785, 9376, 14389, 6050, 7464, 11733, 3307, 11784, -2387, 3232, -2389, -795, -1367, -2405, 2105, -3854, -3073, 4229, 2708, -4459, -3988, 2403, 481, 6259, 7003, 3289, 8706, 7466, 5506, 4557, 4334, -4967, 5901, 7715, 4323, -3078, -1250, 6472, -3827, 1671, 2261, 439, -2405, -139, -3954, -6072, -2340, 4947, 1795, 924, -2851, 654, 6097, 10649, 3989, 2527, -866, -6263, 3633, 4493, -5034, -524, -4493, -4236, 5406, 5879, 3495, -2065, -4738, -476, -7166, 4217, -2925, -1425, -5558, -426, -3606, 3062, 431, 1118, -5915, 5967, -2016, 385, -1410, 3828, -395, -7150, 2175, -538, -5915, 4006, -3157, 12278, -5420, -1289, -3484, 6863, 3277, 5916, 1089, },
        { -3863, 2060, -1590, -3328, -691, -1373, 621, 5553, -2595, -9121, -9245, -1292, 996, -4811, 7667, 20, -4850, 2066, 1491, -925, -3055, -2631, 2152, -1937, 3041, 646, 2258, -3552, 4591, 9249, 1184, 5388, 4197, 1885, -354, 4718, -370, 2596, 892, 154, 7299, -1666, 6099, 2097, -1479, 5838, 2407, -3286, 3980, -6455, 748, -11312, 751, 2055, -5322, 5518, -8120, 1744, -2421, -4371, -1906, -1590, 2263, -5562, -434, -215, -338, 5289, 66, -316, -6383, 478, 7957, -2247, -3340, 3825, 4774, 1631, 268, -1142, -907, 314, 4287, -2832, 1448, -3356, -5133, -74, 4903, -2595, -3588, 1811, 334, -2708, 303, -6232, -56, 96, 400, 1338, 3347, 4295, 951, 4804, 8115, 716, 5309, -3636, 3826, 241, 5461, -3890, 2087, -1903, 2614, -4075, 2483, -2010, 5239, -5489, 515, 1451, 3292, -1026, 2409, 5336, 1708, -3390, 5747, 6365, -203, -1223, 4572, 6355, 2292, -1152, 5878, -4333, -5864, -2990, -983, 9631, -6705, -496, -6625, -273, 4797, 7585, -266, -6291, -10362, 1566, 5175, -3198, -2653, -4128, -57, 11038, -623, -2197, 1053, -67, 9099, 7796, 4410, 4052, -2542, -9196, -427, 1020, 5117, -1854, 3039, 10685, 3942, 1736, 9308, -2523, -2665, -12209, -6464, -6046, -5001, -5587, -5978, -2528, -10129, -471, 3314, 3493, 3142, 665, 1675, 2296, 1901, -3880, 1892, -4557, 5956, -714, 3451, 4330, 4652, 14268, -1769, -2427, -11698, -9291, -16628, -2818, 545, -7056, -4458, -2151, -12570, -6086, -9030, -8674, -4322, 7082, 8938, 6120, 3226, -3652, 2247, -6786, 3526, 1320, 4720, -1550, 3549, 11842, 3136, 793, -6073, 16, -7931, -6277, -14597, -10260, -7432, -6502, -8047, -4976, -6968, -7575, -4359, 1678, 6406, 6854, -3143, 2531, -3691, -3457, -2882, 1242, 2175, 2646, -207, -6461, 2019, 8332, -8429, -6721, -4773, -15945, -1353, -5376, -7044, -4304, -1678, -708, 2212, -2084, -883, 4311, 8271, -8607, -334, -3487, -2256, -2082, -156, 4094, -2213, 1293, -521, -1910, -7773, -2991, 2435, 4784, 5451, 12182, 3623, -2138, 1789, 3387, 5738, 1408, 3804, 1784, -6114, 2295, 3178, -7832, 4444, 4450, 3577, -1153, -2051, 3622, -4885, -907, -2234, 1523, -70, 10903, 4882, 3865, 10907, 2541, -4442, 6590, 438, -5729, -4267, 2589, -7392, -2771, 543, 1257, 1068, -2446, -2054, 93, -4481, 3412, 648, -589, -4729, 1943, -328, 7164, 8047, 9359, 8362, 11798, 10873, 5798, -853, 1934, 8023, -4027, -8753, -2163, -6945, 731, 3878, -1257, -1840, 3343, -3911, -2723, -1047, -1401, -159, 205, 2480, 4428, 2653, 2290, 4815, 606, 2953, 4231, 1253, -7947, -8674, 4228, -7900, -371, -2292, 511, -6346, -1547, 5000, 2364, 383, 10311, -818, -1938, 13495, 4588, 1389, -2993, 2963, 7834, 1597, 3471, -3743, -236, 2985, 1711, 2164, -3395, -2657, 222, -3592, 4565, 426, 1760, 875, 9790, 6017, 1809, 190, -5344, -663, -6222, 5046, -3251, -5498, -2480, 5031, 5435, -270, 4527, -3002, 4017, 2816, -5893, 12089, -5745, 2649, -946, 5407, 3717, -2658, 10087, -394, 7943, 2954, -206, -1280, -2252, 1835, 6830, 1719, 1266, -7658, -1678, -3778, -5057, -3903, 6029, -825, 3456, 29, 424, -2531, -1845, 4208, 11803, 7947, -1829, 7062, 2987, 7231, 5088, 6470, 4460, 3642, -412, 878, -1090, -1533, -5024, 4686, 5506, -6110, -9898, -4104, -32, 1480, 3287, -836, -538, 660, 2799, -1721, 5430, 4641, 5575, 142, 10570, 11052, 12444, 2557, 9103, -6193, -2702, -3391, 1033, -543, 4643, 682, 1627, 595, 2427, -5645, -1206, -633, -903, -1655, -4809, 7080, 2189, 411, -4425, 8680, -1303, 548, 2275, 3192, 448, 1385, 84, -3622, 4669, -3514, -1278, -4978, -1275, 78, -3083, -7487, 935, 6413, -3101, -4181, -1602, 564, 5108, 4217, -853, 4397, 5668, -962, -5699, -2698, -4717, -4020, -1, -7380, -1108, -4138, 882, -8725, -4337, -2324, -231, -5281, -6290, -3693, -55, -2914, -3953, -2058, 11511, 2802, -104, 6772, -159, -3558, -1972, -3165, 2202, 2200, -2981, -1531, -477, -10303, -2799, 4602, 1189, 11087, 955, 603, -2533, -2892, -908, 3526, 337, -3286, -4987, 1814, -311, 3075, 10872, 4212, 1270, 4728, 2765, 5326, 1445, 5528, -5738, -1462, -1586, -101, 146, -10214, 1317, 4646, -3970, 3427, 634, 2649, -2073, 6176, 3229, -4379, 1426, -3780, -1756, -1755, 961, -2444, 3018, -1846, 9662, 5159, 4260, 4868, 10568, 5392, 3906, -1538, -12793, 2653, -4648, 3119, -836, -3572, -279, 2831, -2018, 9496, 6938, 5442, -3717, -2498, -815, -1696, 4771, 654, 2120, 4941, -1746, 2103, 930, 5050, -4648, 2151, -1068, -769, -11343, -2429, 7447, -320, -6266, 1115, 5889, -1811, 914, -4351, -493, -5600, 2363, 1922, 5488, 1841, 1233, -7064, 2483, 1485, -5369, 2569, -7133, -839, -3960, -9350, -4407, 2668, -1100, -11, -3472, -753, -3847, 1329, -4076, -1349, -1763, 2498, -2667, 2831, 1038, -4955, -1777, -2704, -6729, -6353, -8559, -3965, -4252, -6155, -4186, -4571, -2846, -7305, -3126, -4233, 6662, 8293, -405, 430, -782, -5159, 1629, 369, 8840, 4531, 5336, 3828, 3361, -6084, -2962, -3065, -4503, -10551, -11039, -5980, -12724, -8308, -2723, -1651, 728, 525, -4259, -6703, -1250, -4791, 1330, -1066, -2062, 6557, 2895, 402, -1538, 2755, -1986, -3715, 117, 1049, -6973, 4828, 4315, -8768, -7662, -3838, 6340, -4604, -5466, -5754, 171, 6592, 1909, -7199, -6102, 2690, -892, 657, -2230, },
        { 7092, -2939, -4296, -3293, -1341, -4504, -2707, 678, 5804, -52, -2443, 1214, 6813, 10623, 2223, -6803, 1142, -374, -876, -1155, 8222, 1277, 962, 5228, -10693, 1327, -9481, 872, 2394, 4578, 7834, 1897, -863, -110, 5129, 423, -5032, 7048, -3294, -6051, 4625, -1972, 1969, -2898, -1399, -3040, 7962, -83, 3726, 4879, -4079, -1068, -3994, -837, -2972, -1893, 4900, -884, -3228, -301, 56, -486, 23, 7152, 1857, -5704, -5928, 476, -1326, 4577, -6115, -1680, -1175, -4097, 1314, 508, -74, -436, -1036, 3247, -1689, -3515, 2492, 4206, -265, 1637, -7025, 5597, 6747, -6558, -5667, -1929, 7249, -318, -8132, 709, 2184, 5028, -7716, -2631, -6071, -5638, 8630, -4258, 3424, -1084, -1360, -5542, -2282, -2957, 1892, -2888, -3418, 6186, -2740, -1553, -1860, 1379, -5790, 3741, -358, 371, 2036, 2724, -4599, -1420, 4826, -4579, -505, 6756, -3497, -3680, 1269, 4725, -3972, 1922, -5557, -2732, 371, -569, -586, 4852, -6744, -2751, 261, 1890, 46, -4793, -8619, -3842, 1334, -1793, 674, 5335, -2898, 163, -1752, 2896, 1528, 5780, 3927, -1346, -4526, -12825, 873, -1839, -2043, 726, -2767, -3703, 6136, 1890, 7237, -1882, -5150, -5387, -6042, -4090, 1681, 12214, 265, 1181, -4998, -53, -2282, 397, -763, 3588, -9839, 377, 686, 4462, -1779, -4064, -3931, -2787, 3077, 1082, -1271, -869, 2385, -3523, -4445, -588, -899, -5979, -736, -5231, -6241, 4034, 607, 1452, -4438, 3568, 3055, -6649, -3582, 2673, 2617, -6412, -2591, -1435, -6492, -366, -1246, 6273, 5151, 148, 380, 3005, -2074, -1801, -7382, 2159, -2748, -2452, 4656, -4341, -2072, 8396, -1217, 3710, -1153, 3151, 3509, -2911, -2453, -742, -7696, -4185, -1288, -96, 779, 1887, -575, 6518, 2080, -1431, 4051, 3173, -344, 1401, 1524, -3421, -139, 1901, 568, 3040, 7792, 849, 1258, 2209, -4837, 489, 7507, -5343, -3916, -2293, -5293, 4987, -2683, 3658, -3309, -812, 289, -1773, 2933, 323, 3093, -3248, 4697, 413, 5727, 1290, 1817, 4740, -3387, 10820, 2717, -1389, 3601, 4482, -4017, -1478, -7450, -1986, 483, -277, 2805, 6020, -2035, 4270, 1687, 11696, 1993, -7078, 2882, 3906, 9319, 3765, 51, -3672, -11778, -3881, -1455, 823, 5961, -1223, 4114, 5144, 720, 7737, -3287, 410, -5030, -1483, 2520, 720, 3153, -939, 4259, -1487, 6383, 1100, 5674, -4661, -2567, -3593, -959, -7516, -6953, -5745, 3727, 3784, 1583, 1011, 1787, -1120, 5000, 1391, -1529, -1131, -4541, -639, -7189, 3347, 3818, -1359, -5534, -1147, 697, -4430, 2201, -3691, -4770, -9432, -8241, -11586, -12796, -11785, -2390, 782, -1686, -10818, -4990, 1464, 1649, -3830, 1625, -1936, 1684, 338, -866, -3084, -2578, -767, -3210, 8414, -4114, 3802, -7113, -1342, -693, -2569, 2314, -6057, -7881, 119, -6246, -7082, -10180, -3117, -107, -6212, -1633, 18, 3887, 1371, -5600, -9656, 3153, 239, 3736, 603, -683, -2459, 1111, 630, -5635, -4991, 1229, -9047, -7686, -9586, -16899, -2540, 115, 1398, -4040, -6720, 9174, -3310, 2006, 10650, -1796, 7074, 1442, -1129, -3299, -4047, 24, 8453, -3324, -4473, 4937, 4044, 4257, -7120, -7907, -5546, -5770, -7813, -5552, -1920, -6817, 2417, -684, 3600, 6730, 7288, 9995, 7857, 4103, 1644, -5946, -1626, -1584, 2096, -9678, 1597, 6513, -3223, 11324, 2578, 4239, 4271, 1212, -6035, 1099, -7603, -4409, 1375, 2307, 10643, 7301, 9973, 8008, -5056, 2978, 405, -2818, -1608, -2910, -1821, -5618, -2158, -659, -6499, 3028, 1795, -2107, 4386, 8097, 3263, 4654, -2561, -954, -3195, 406, 2363, 6648, 4972, 5431, 897, 2234, 1897, -3372, -3225, -5835, 9101, 485, -6228, 2728, 2657, 2811, -1719, -164, 3216, 5165, 10356, 7422, 10538, 8881, 11714, 7122, 3401, 18952, 541, 8955, 8462, -2250, 3295, -8708, 5056, -10020, -999, 12, -4336, 553, 2116, -2706, 3882, 6410, -425, 4198, 4015, -2550, 4331, 4784, 5553, 3202, 10043, 5085, 5964, 328, -1852, -788, -3126, 2136, 3135, -2936, 3352, 2341, -4803, 1515, -1912, 4299, -3634, 4725, -4722, -407, 1851, 5698, -6228, 499, -2736, 782, 330, 1349, 1579, 3475, 2200, -3843, -1540, 464, -6089, 3358, 4693, 5566, 85, 1426, -3740, 2996, -3199, 1374, -3235, 5092, -432, -2167, -2060, 6011, 8898, 154, -1241, -4590, 3164, 43, -5211, -6408, 2221, -4098, 854, 571, 3361, 1613, -683, 2307, 460, -166, -3196, -64, -3647, -3, 2876, 2745, 1704, -4562, 1750, -1477, -4472, 5538, 1152, -4248, -1954, -3330, 2178, 1427, -4702, 4695, 2623, -12869, 311, -1840, -2480, -1030, -2622, 1646, -8784, -2331, 1248, -7900, 2330, 955, 2855, -4622, 3293, 2348, 2359, 9093, -131, -6652, 1995, -6788, -5840, -7187, -1302, -1502, -4844, -2105, 2661, 4172, -4457, 2580, 257, -3502, 1714, 4249, 1796, -1736, -449, 4393, -8174, 3318, -735, -5683, 4687, -2448, 456, -1861, 3798, -3769, -3092, 6043, 216, -4841, -951, -2500, 1935, 640, 4460, -748, -560, -5195, -5633, -1626, 858, -6035, -5804, -5884, -189, -2418, -3301, 5194, 1266, 4791, -5221, 2704, -2318, -748, 12962, -4607, 3233, -484, 6896, -1617, 488, 4035, 3701, 440, -9495, 6889, -4990, -6486, -4907, -3541, -1089, -6002, -780, 5338, 1345, 1938, -2135, 4705, -4524, -1883, -3183, -2704, -1287, -65, 2109, -474, 3395, -10995, -76, 1353, -5182, 2424, -1746, -4011, 2982, 1764, 2584, -4769, -2439, },
        { -1572, -5199, 3166, -2699, -6695, 5580, -3278, 78, -300, 2402, -1832, -1868, -1215, 337, 1014, 7664, -1580, -2187, -1608, 4577, -2367, 3167, -1468, -6776, -864, 1162, -196, 5688, -2993, -1945, -113, 6097, -1058, -2499, -5317, -3441, 4514, -1997, -7969, 8119, 1153, 4672, 683, -107, 2107, -767, 7096, 462, -3470, -3003, 5716, -7740, -3032, 5136, -4917, -5162, -2444, 2019, -8983, -55, 3129, -7695, -2359, 40, -2207, 4634, 20, -5611, 4059, 2143, -2775, -6306, -9271, -3518, 5561, -1416, -2400, -3726, 2332, -1452, -892, -405, 1021, -2426, 1290, -1502, 2190, -1001, -6396, 4571, -2991, 874, 1408, -7305, 1032, 778, 4870, 2087, 8312, -5547, 324, -3580, 2808, 3495, -2891, 7262, -3586, 5107, 6349, 484, -7055, -8316, -1109, -434, -6987, -7149, -43, -6401, 2358, 2300, -3876, 5330, 3039, 11779, 3377, 5443, 8628, 1964, 3109, -3259, 1470, 4372, -569, -6110, -3129, -1017, -6134, 4302, 3914, 4104, -10036, -2712, 825, -2351, 2309, -2073, -1870, -7836, 3079, 7774, -154, 3596, 7052, 8056, -807, 2656, -115, 13153, 7895, 4310, -7786, 3882, 4324, 1011, -916, 3217, -4296, 1731, 1082, 7406, 134, -5629, 10553, -3676, 7293, 3080, 8896, 9430, 3840, -1153, 1432, 1196, 2895, 6462, 4544, -5168, -1638, 5500, -742, -3869, -1332, -9578, -5039, 147, -615, 7615, 3370, -5977, 5333, -4172, -4006, 1860, 1051, 3107, 1253, 6990, 3506, -6452, 4169, 920, -5506, -3944, 4753, 3990, 1966, 2174, 2884, -2660, -2573, -1910, -3636, 149, -3568, -6187, -605, -4088, -1205, -5442, -5068, -2230, -3329, 5715, 4111, 8389, 7540, -595, 528, 2252, -7956, -2901, -3820, 1142, -1300, 2291, 4759, -3213, -2179, 3435, -2046, -2562, -4591, 4637, -1797, 7371, -742, -7232, -5337, 3186, -791, 1844, 721, 5529, 1201, 1365, 477, -5317, -921, -6542, -6664, -4294, 656, 6980, -8290, -2436, -5068, -5350, -4426, -1989, -677, -6859, 1, -4279, -2121, 13302, -5607, -1788, 3865, 11021, 2847, 3560, 5226, 748, 7862, -4795, -7118, -1131, 3231, 4314, 1530, -6315, -528, -6449, -4241, -7878, -8447, -17275, -1506, 3105, 7576, -1655, -621, -8069, -5629, -5136, -782, -2084, 1567, -2104, 1109, -343, -1605, 4846, -6561, -6912, 9176, 2858, 7193, 8777, -5647, -4321, -2079, -2938, 1139, -6308, -7417, 908, -5881, -9481, 4695, 1966, -1364, 1695, 4998, 2955, -567, 3429, 1967, -3275, -7268, -8664, -4137, 4115, 4540, 15070, 12030, 12727, 3158, 12431, -60, 2823, -2856, -5521, -3518, -6106, 10214, 2217, 1085, 3364, -5096, 2867, 2612, 2156, 6296, -3208, -149, 4244, -2136, -3500, -4689, 6624, -3936, 2096, 11159, 16230, 9135, 13640, 8261, 9932, -1541, -1371, 1811, -2809, 889, 674, -5783, 397, 1336, -5585, 1666, -1324, 4855, -5661, 3480, -729, -691, -152, 4432, 29, 811, -1771, -440, 10971, 6647, 8669, 9134, 3275, 5761, -9206, 5407, -559, -1585, -832, -500, 4239, 5836, 244, 2899, -1227, -1584, -2203, -2004, 847, 522, 1661, -5187, 6287, 481, 1740, 1899, 982, 2664, 6936, 8290, 3678, 44, 4345, -10738, -792, -2563, 7085, -2679, 4412, 2003, -2678, 7161, 1678, -1790, 4095, 8496, 155, -2183, 1232, 1966, 3765, 5109, -961, -4307, 3829, 3106, 2991, 8921, 5071, 7326, -377, -2759, 1459, -5023, 588, -7210, -1954, 1605, -9452, 2543, 6745, 7477, 11387, 1646, 2858, 75, 1428, 4428, -7057, -2391, 1491, 8176, -2419, 10892, 7480, -1188, -3524, -6390, -335, 346, 3280, 4071, 3966, -777, 1956, -294, 2343, -1607, -8649, -1834, -1257, -3671, 3601, -2025, -7645, -2861, -6833, -1607, -1424, 2777, 1829, 7080, 5003, -1508, 4021, -1896, 196, -6603, -2232, 584, 3369, 1159, 1962, -5088, 4980, 1337, -5020, 6557, 6836, 1989, 3830, -1128, -3550, -994, -753, -111, 6226, -3998, -4594, 4250, 10337, 1619, 507, -4482, 3663, 2304, -3710, 2191, -5635, 1059, -1224, 7406, 6386, -1247, 85, 1297, -4076, 54, -1199, -602, -124, -3599, -2470, -3721, 1613, -1171, 5522, -3247, 1496, 6547, -3837, 1057, 4063, -4964, 7222, 1045, -2396, -5312, 6896, 4308, -762, 6571, 324, 1974, 4437, -513, 8154, -9377, 4971, -4805, -5883, -2923, 1524, 1463, 65, -1020, 4114, 6142, 9131, 4289, 2918, 283, 3796, 1820, -9710, 7212, 2913, 6345, 465, 1281, 7019, -4263, 6727, 1128, -2278, -1084, -1471, 5553, -6363, -3996, -8241, -3353, 1584, 412, 1333, 1718, 1193, -3040, 4397, -6248, -6282, 231, -1528, -3357, -5344, -9805, -4812, 7952, 4632, -2083, 4018, -3524, -3743, 803, 4361, 968, 5759, 7656, 4035, 2825, 5851, 3017, 2746, 4714, -3802, -4786, -1786, 5271, -2088, 1072, -8347, 2488, 1641, 4566, -1601, 1811, 5001, 6776, 1887, -3134, -573, 3931, -1697, 1553, 7355, 5257, -1699, 7073, -980, 4234, 4764, 1699, -8347, -5129, 2392, 4594, -5175, 4093, 815, 3448, -3510, -3776, 3046, 2861, 1454, 6437, -5671, 693, 1308, -3166, -4649, -665, -835, -703, 3142, 915, 2768, 6531, 4207, -236, -1951, -188, -1177, -1234, -3241, -3336, -7735, -1365, 685, 5594, -1109, -927, 1364, -2075, -5753, 1818, -2578, -1103, -1656, 44, -3824, 1511, -3192, 8806, -303, 2201, -5715, 5442, -5207, -4418, 8141, 6866, 2012, 423, -7327, -1831, 7467, 2725, -823, 6152, -3258, 7928, 1144, 2755, -1481, 6614, -1067, 3778, 4060, -3492, -2410, 4695, 1477, -5233, -1492, -7128, -2361, 10234, -464, -2294, 3320, },
        { 1094, -3376, -483, -464, 2040, -1109, 710, -8856, 1068, 7028, -3908, 651, -4001, -4517, 1692, 1896, -1522, -3209, 1314, 2093, 4829, -5076, 6137, -98, 454, -2563, 4247, -4700, -1053, -973, -5526, -2068, 390, -1692, 3566, 443, 4817, 875, 6131, -4419, 374, -3558, 6252, -503, 1378, 1332, 3308, -3542, -2081, 369, -4732, 3810, 1153, -1250, 4114, -3705, -2834, 4265, 1384, 152, 2326, -3188, 5501, 1411, -2627, 2297, 3299, 2803, 6903, -6875, -5492, -1054, 6696, 6271, -1516, 3813, 94, -6493, 8383, 7004, -2759, -5798, 1626, 3656, -1044, -5226, -900, -4971, 232, 1572, -2544, 876, 3034, -2119, -5624, 2683, -4459, 4184, -6684, -7406, 1696, -2152, -5250, -2342, 3762, -5229, 5864, 4030, 4456, -7674, 6792, -7995, -46, 1610, -2475, -1513, -229, -7715, 2294, 5057, 4368, -283, 928, -1148, -5438, 1385, 2992, -4695, -3496, 3130, -2674, -1568, -1874, -1068, 7324, -5391, 1396, 1125, -189, -954, -1307, 886, 1838, 1124, -2157, -6576, -4854, -3414, -1217, 456, -5571, 3401, -1346, 206, -715, -96, -4657, 3893, 3185, 702, 3167, 2835, -2803, -9357, -5646, -1158, 5876, 2682, -3134, 3727, -9067, -783, -2585, 342, 5506, -3851, -1924, -4655, -5471, 896, -3912, -3000, -2818, 4101, 3026, 4593, 1849, -403, -1515, 56, -3331, -4069, 446, 630, 439, 1674, -6649, -2084, 7449, -4069, 7059, 100, -3884, -6456, 2232, -1956, -4387, -262, -2370, -8857, -1973, -5335, 9753, -479, 1472, -2240, -2062, -388, 4312, -4288, -10502, 1563, -2542, -427, -2041, -118, -103, 3044, 9742, -861, 5402, 8355, 7951, 2810, -4496, 1502, 3736, -11761, -3427, 3211, 588, 5685, 1812, -1036, -5381, -3002, -3943, -7820, -7019, -5925, -2555, -2872, 1735, 2388, 3057, -1418, 5450, 11145, 4042, 2137, 5628, 8266, 4448, -4363, -12850, -16829, -1323, 7239, -2878, 4912, 7172, 6889, 4366, 1644, -350, -6518, -8084, -2813, -2589, -7223, 7028, 3102, 195, -27, -2471, -451, 4861, -2601, 2215, -4631, -980, -10091, -12557, -4390, 9682, 13091, 5555, 7433, 11344, 7348, 9228, 4372, -2926, 3813, 363, -5847, -4376, -2976, 2116, 1462, 8796, 524, 859, 2140, 2367, -6863, -7534, -4578, -3190, -7635, -430, 3506, 23070, 11279, -5444, 8273, 629, 9583, 7350, 11265, 18717, 2747, 8714, 239, -3563, -10195, 1745, 3482, 3795, -1093, -167, -2730, 72, -3591, -10043, -4993, -6338, -3737, -426, -1057, 13742, 10623, 4466, 14254, 2610, 5799, 5916, -162, 2914, 4114, 5015, -320, 4319, 1263, 3778, 1898, -45, -4585, -4022, -6550, 2121, -3609, -853, -252, -8188, -1534, -1412, 3555, 7611, 13699, 6473, 7113, 225, 8407, 9033, -7543, -2895, 5743, 3368, -83, -1087, 3044, -3013, 3199, 5951, 93, -5756, -4299, -12436, -4139, -3408, -6412, -5009, 11239, -1167, 4448, 7997, 12376, 12100, 13125, 2063, 2731, -668, 3876, -9658, -8426, -3668, -1038, -5770, -4841, 5255, 4103, 1084, -2834, -1945, 4230, -7985, 694, -7213, -4983, -6927, 2267, 3185, -891, 5711, 11346, 11869, 5487, 317, 7647, -2853, -9118, 5272, -1858, -5355, 625, 1773, 659, 2682, 7229, 3592, -1055, -3217, -2240, 5601, -1746, 2870, 5662, -1725, -5877, 2814, 7569, 6103, 6228, 9501, -1308, -4436, -5397, -8378, -7529, -3376, -6998, -6688, 4479, 1739, -3438, -3851, -3688, 289, 2626, -2849, 2473, -5363, 3407, 4188, 7649, -5435, 3304, 11391, 2314, 17905, 8129, 8708, -70, -2426, -3801, -1476, -3947, -640, -3344, -2414, 3645, 541, -3328, -224, 3237, 8178, -1861, -4554, 4554, -3401, 2636, 5784, 1983, 10323, 2016, 5891, 15302, 16493, 7178, -8402, -7912, -4645, -7917, -3446, -338, -1646, -6347, -2577, -978, -3002, 1041, 2457, -869, -781, -4924, 105, -4550, 6819, 156, -931, 4300, 4883, -2081, 5895, 6288, 6284, -7411, -10803, -2376, 1101, 1828, -1858, -2736, 815, -4586, 3122, -7589, -891, -3522, 4654, -1780, 3713, -2346, 733, 3795, 73, 1976, -2353, -3484, 1167, -5580, 409, -9827, 1169, -6333, -2075, -2343, -1087, 513, 3152, 3045, 5142, -865, -1004, 2009, 4537, 5, -3063, 6741, -3913, -5935, -2363, 3450, 5802, 7605, -8224, 4691, -3764, -8429, -6656, -1513, -5791, -1952, 136, -404, -4610, -2852, -8978, -3575, 1629, 1993, -4520, -1157, -858, 872, -162, -864, -3349, 1663, 2594, 4412, 4597, 6181, -2875, -571, 487, -12545, -4401, -3608, 1872, 867, -6164, 460, -6000, 2410, -3516, -2387, -4597, -2180, -4487, 494, -1280, 4530, -1136, -127, -1800, -2705, -1556, 2164, 8464, 4986, -3470, 1712, -7183, 5162, 1368, -4763, -661, 331, -693, -3029, 6279, 4073, -2820, -1225, -705, 585, -497, -670, -2067, 4403, -3623, -4629, -736, 1247, -1317, 926, -6063, 2615, -5226, -2568, -221, -8229, 145, -7202, 1978, 212, -2256, -2533, -134, -5174, -2654, -3104, -8486, -4808, 5053, 4673, -621, 3329, -2408, 4131, 3157, -4385, 364, 4832, 2663, 8812, -1590, 930, -2007, 344, 502, -831, -6803, -2655, -6382, -10908, -5341, -5218, 4330, -702, -5422, -2037, -3250, -1639, 6446, -5710, 3996, 5180, -1510, 1772, 6621, 1216, -4775, 1022, 197, 8187, 4235, -2523, -1412, 4371, -6176, 870, 1331, 7540, -5497, -2101, -5089, 2973, 1499, 1706, 2018, 3734, -441, 2231, 2114, -14306, -4519, 2088, 1801, -1771, 8343, 3506, -243, -927, 1781, -8550, 1051, 1191, -3740, 1091, -6162, 2405, 4530, -7879, 3149, -1354, -2386, 1927, -4364, 1054, -1781, 985, },
        { -481, -670, -3902, 2781, -101, 931, -3144, -2786, 1561, -995, 3637, -1649, 53, -3542, -1388, -1206, -3280, 1999, -3703, 2617, 1193, -4464, 1386, 1890, -4747, 878, 4141, 1865, 2593, 8118, 593, 864, 6254, -58, 6048, -3846, 3828, 1605, 3576, 8163, -4219, -1048, 2372, -3144, 5344, -4886, -2165, 4358, -2687, -5968, 3597, 5630, 6386, -1679, -807, -2802, -890, 4386, 302, -1709, 589, 7059, 309, 3152, 492, -82, 2733, 4495, -66, -760, -4416, 265, -110, 3931, -10352, 3866, -2028, -2308, -2401, -808, -4677, 1364, 3414, 2743, -11579, -504, -2541, -3159, 5319, -6006, 1470, -3237, 2923, -4352, -956, -5832, -1779, 1818, 3661, 5866, -389, -816, -659, -6728, 1241, -2844, 65, 1008, -712, -2927, 4568, -1451, -2013, 370, 3021, -7726, -521, 4016, -584, 1210, 2119, 4982, 290, 2231, -2180, -23, 1350, 5253, 7604, -9131, 2514, 6271, 3183, 3982, 1518, -1865, 1318, -469, -1133, -6320, 8813, 3807, -191, -177, 7045, -243, -895, 5059, -483, 1592, 3331, 4208, 36, 3837, -1424, -3211, 61, -2055, -42, -2615, -5191, 3933, -4553, -1863, -3565, -1228, -2457, 580, -7078, 5451, -1350, 3002, -1494, -208, 2684, 3776, -2493, 2981, -5016, -110, 3263, -549, -3421, -744, 10029, 1807, -209, 1638, 1577, 5150, -3151, 383, 8060, -4334, 6905, 685, -4460, 10081, -606, 1257, -2324, 10555, 1947, 552, 11304, -147, -4697, -3515, 2704, -925, -18, -6561, 576, 6574, -3591, 3768, 2521, 3208, -1094, -1322, 6200, 408, -4462, -3630, 346, -2148, 4083, 153, 2733, -3809, 1871, -999, -135, -460, 4176, 2140, 3185, -3373, 3356, -3887, 1611, -228, 6976, 1033, 241, -6130, 1116, -5617, -2861, 2696, -5256, 59, -2421, -2529, -15404, -428, 2201, 780, -1066, 2610, -1553, 4357, -6088, 7832, -7270, 3289, 2504, -4271, 3781, 6412, 4451, 5702, 75, -1200, -937, 413, 3268, -3393, -1035, 1139, -4672, -4393, 547, -11881, 51, 3180, 3126, 1851, 6521, 2233, 1139, 3796, 4960, -1025, 4993, 5440, 2512, -2149, -3017, 6273, -2283, -6684, -5696, 4182, 4936, -510, -5649, 6568, -886, -3496, -3398, -10423, -3373, -1141, -7261, -2740, 7147, 4784, -110, 9599, 4195, 1740, -2338, 1135, -1020, 3159, 7805, 1431, -4550, 1735, 1281, 4329, -2810, -5985, -197, -557, -3003, -2893, 5588, -4289, 3869, 623, 7195, -1020, 4998, -4338, -1906, 101, -46, 6700, -5857, -632, -8995, -6387, 2475, 5376, 591, -3090, 4208, 8472, 4627, 1877, -11061, -372, 1069, -449, 120, 4497, 426, -2142, 1129, 2942, -8894, -3678, -443, -7266, 4377, -1064, 4141, 6143, -4546, 1391, -5164, 3887, 399, 2884, -7578, 3446, -2931, -1285, 7482, -698, 363, -2562, -1442, -3046, 2957, 5130, -6837, -3108, -539, 501, -295, 6653, 5068, 1479, 184, 2963, 3079, -1319, 2700, 4327, 435, 4663, 6136, 2355, -1182, -133, 2931, -1171, 3894, -1977, 3611, -2153, 1135, -2194, 2625, -2830, -424, 1742, -6518, 2732, 2925, 2381, 10202, 1913, 271, -4527, -6131, 4237, -2527, 4900, -5495, -1142, -7665, 207, -7358, -4681, 390, 7512, 2200, 489, 1687, 775, 1255, 415, 935, -150, 4273, 2568, 7352, -4339, 1497, -2415, 7032, -1562, 8717, 4643, 2694, -1486, 2077, -195, -6050, 2124, 1053, 5117, 478, -2252, -2347, -7910, 3976, 1834, 3454, -746, 2556, 1350, 3557, -1554, 4618, -6028, 6175, -7339, -878, 1030, 2253, 1934, 8386, -305, -335, -1575, -3418, 3061, 2244, -2619, -704, -3094, -1637, -9748, -4915, -2621, 1022, 5767, 2465, -1908, -6105, 4120, 10409, 2525, -164, 2039, -1224, -734, 1163, -3759, 4455, -2901, -307, 248, -6922, 5621, 47, 1634, -2728, 461, 947, -4421, -3451, -1767, -137, 690, -3031, 3298, -560, 570, -6621, 4760, 1908, -1981, 702, 2658, -8783, -4034, 3544, -3411, -5889, -132, -6819, 4883, 3151, -1196, 816, 3119, -5662, -1077, -724, -1331, 5223, 146, -1263, 7088, -2247, 2423, 3042, 1159, 8482, 2048, 1347, 271, 308, 575, -4364, 767, 928, 3468, -3761, -805, 1865, -2465, -163, -846, 4543, 1457, 2101, -1164, -1824, 974, -893, 9724, 146, -604, 922, -4873, 1862, 2417, -3198, -43, -5402, 4540, -257, 2127, -2726, -1029, -3138, -3653, 4818, 2621, 2074, -1020, -2869, 12763, -6228, -45, -7444, 5945, 1371, 2799, -3477, -3806, 10122, -948, 3800, -3489, 8688, 4203, 5051, -3651, -762, 4363, -1089, -1706, -2408, -6435, 1080, -4327, 1752, 2205, 2520, -1293, -13246, 2465, -2715, -186, 11, 3041, -1232, -4740, 573, 2843, 6107, -4082, -3876, -2483, 2672, 1200, -1436, -5684, 1942, -8170, 1059, -622, -417, -3275, 3140, -2344, 680, 4429, -327, 7562, 601, -12108, -1847, -621, 5245, 750, -1240, -2421, -4959, -2158, 839, -3736, 3636, 3895, -239, 287, 863, 2905, 6707, 1007, 1698, -967, 1708, -2247, -5203, -4947, 872, -3916, -1836, 6429, -4060, 4526, 5668, 1055, -712, 9251, 2071, 3409, 3741, -2235, 331, -3443, 7947, 2370, 1691, 1622, -10, 255, -1534, -5283, 149, 314, -9031, 7776, 2573, 4169, 955, -4944, 374, -1226, 4724, -2766, 3883, -3603, -522, -4195, -1904, -1310, 1565, -10286, -3001, 2028, -3999, 460, -10612, 2849, -3561, -3683, -3564, 1181, -816, 1002, 3619, 1152, -2407, -6487, -3080, 3495, 5322, 3598, 5612, 327, -5653, -1608, -4953, 4643, -520, 258, -6252, 3541, -1184, 3564, 5648, -8045, 8672, 9329, },
        { -3044, -1265, 5261, -4097, -4677, 6666, -4194, 1443, -121, -333, 9016, -2599, 5837, -1187, 1493, -2229, 3090, 678, -1512, 3118, 1478, 4702, 10849, -487, -9435, -3200, -2037, -11016, 1426, 930, -6418, -7570, 372, 1062, 3331, -4559, 6324, 3910, 8044, 53, -6383, -1850, -8096, 2660, -2529, 3403, 4010, 5052, 1862, -2769, 7678, -1523, -2855, 329, 2428, 3298, -431, -2499, -10128, -9157, 5731, -5071, -6065, -3868, 3269, -5342, 13, -4831, 1986, -2135, -2159, 5953, 2660, 512, -2523, 946, 4293, -3005, 4855, 5717, 407, -168, -5601, -4706, 5633, -4576, 6300, 1011, -2168, 639, -5872, 5995, 3847, -6536, -439, -986, -6636, -6443, -2636, -5964, -2235, -10539, -1526, -2498, -2675, 957, 1223, 4285, 882, -4004, 2987, -376, -1815, -5174, 2693, -5009, 5282, 3692, -3228, -3386, 5943, -8101, 3538, -2687, -4322, -789, 1461, 2023, -714, -2753, -3246, 2642, -6422, -1067, 298, -2512, 1301, 187, -1784, -842, -10819, 4375, -5064, 248, -5487, -2260, -2593, 1669, -1694, 1144, -5316, -12817, -3174, -1841, -8235, -2786, 6747, -4379, 2682, -2021, -922, -330, -1283, 5470, 5942, -1726, 1285, -2099, 3704, -3802, 1407, 4030, -6415, 2026, 5961, -192, -8829, -11556, -5328, -990, -3146, 2322, 4463, 1775, 94, 3379, -7434, -2603, 685, -506, 3736, -2245, -520, 3304, -962, 1141, -1190, -832, -4889, -4812, -3566, -699, -12961, -3037, -4700, -7006, -8050, -1952, 4236, -3966, -1285, 1122, -967, -6533, 2586, -131, -1644, -1866, 713, 4385, 4559, 11212, -6346, 1349, -2249, -5929, 1617, -3176, -1319, -4237, -4613, 3145, -6850, -2305, -1227, -3557, -5212, -5292, -3612, 929, -4489, -551, -3424, 1127, 1979, 502, -3786, 197, -1933, 2921, 1943, 1590, -594, -4396, 2507, -4763, -2303, -7146, -5355, -4648, -5107, 3651, -2105, 1917, -5775, -3025, 6422, -3125, 15, 441, 8044, -2604, -3251, -3607, 3893, 1783, 9984, 8824, 4189, -1471, -4874, 2329, 2912, -166, -5869, -3738, -6020, -5537, -4303, -6329, 3956, 1999, 1260, 8903, 2473, 6821, 11140, 2706, 1912, -1044, -3214, 4750, 1254, 3854, 11879, 14185, 8285, 6546, 826, -3116, -4582, -3026, -5411, 2463, 2216, -3810, 2040, -3009, 4949, 3000, -6628, 6036, 10184, 5663, 3044, 788, -54, -11122, -6931, -3439, -5852, 585, -548, 242, -1690, -833, -2763, 80, -2849, -1368, -10882, 4265, -505, 1141, -4211, -3031, 1510, -4095, 151, 5049, 7696, 584, -2424, -3164, 2882, -8317, -6001, -11199, -3448, -1089, -7942, 3198, 184, -2443, 2828, -3898, -8421, 5906, 4710, -6892, -1299, 5185, -2889, -3558, 1521, 1551, -6143, -728, -2015, 1697, 6415, -1159, -2389, -6828, -10411, -11656, -10038, -6385, -5566, 691, -5511, -2523, -3343, -5017, -5504, -4619, 3210, 6519, 2802, 4824, -1071, 747, -1130, 1140, -2937, 7695, 2071, -2633, -616, -3627, -6337, -2333, -7805, -1546, -6468, -2998, 846, 605, -6300, 1323, 81, 6008, -6906, 10818, -85, -618, -1818, 7602, 5178, 3600, -3627, 2072, 4465, -4854, -6244, -749, 5015, -2893, 1100, -12346, -1816, -13304, -6247, -5563, 2100, -6394, -1811, -6560, 1032, 6907, -183, -3341, 6012, -4930, -2259, -13292, -3448, 362, -1507, -5281, -5118, 662, -7533, -1929, -1344, -1394, -105, -6338, -2047, -4866, -558, 2270, -2733, -2881, -7404, 2738, 2937, -2887, -5533, 3699, 3169, 3198, 3175, 2299, -10094, -7658, -4536, -4052, -7626, 778, 4162, -844, 2144, 2156, -4049, -3220, -5152, -6916, -3844, -3608, 3261, -1812, 1444, -878, 888, -1066, -812, 4316, 5031, -2167, 1870, 1623, 1260, -3602, -7708, 522, 779, 490, 233, 4061, -5848, 1831, -2283, -5342, -3842, -12876, -3989, 168, -183, -773, -1711, -60, 1331, -1736, -151, -7698, -2452, 965, -60, 2750, 2377, 5764, 2024, 4431, 2665, 10015, 3696, -4860, 3121, -1944, -12, -6525, -688, -474, 5514, -405, 2729, -2808, 9509, -3670, -41, -1988, 4731, -2249, -231, -11638, 3386, -4128, 10334, 6955, 2258, 5161, 7733, -1544, 2346, -1458, -821, -8017, 1997, 5356, -8495, 2060, 2571, -3515, -4690, -3628, 6224, -4358, 7488, -1300, -4626, 1798, -2917, -2183, -325, -2751, 1389, -4915, 3274, 3480, 1224, -2602, 2177, -4385, -2118, -6218, -6420, -1366, -8901, -4784, 103, 5761, 4482, 6842, 3742, -4160, -1629, 5510, 6132, 1763, -617, 2334, -1981, -5864, 1117, 7255, -4328, -4810, -7475, -8295, 529, -7904, 5202, -3864, 4533, -5930, -3905, -6422, -3589, -2254, 1692, 2659, -3247, 1751, -45, 1675, -2286, 5854, -1883, 1681, 2885, 494, 3270, -3393, -1641, 911, 2939, -1652, -3987, 1893, -261, 73, -5036, -4233, 4885, -4204, -7035, 4129, 4793, 489, -1564, -2212, 5161, 328, -3556, -7195, 545, 2274, -3020, 1129, 580, 3100, 240, 42, -5944, -347, -5761, -3522, -5763, 6847, 6803, 1290, 2181, 977, -2801, 3046, -1488, -5541, -4944, 1100, -4459, -101, 4849, -997, -516, 2726, -803, -4590, -4384, 3563, -6269, 575, 571, -4450, -835, -7333, 3921, 4585, 1691, 5248, -141, -5589, -154, -7426, 1935, 2976, -4580, -1276, 2420, 7680, -9059, -1296, 617, 1050, 773, 414, -7725, -4165, -6791, 1777, 4990, 2238, -7036, -114, 3737, -6235, -1060, -3287, 2010, -1688, -8378, -5483, 226, 306, -517, 5899, -6982, 10296, -415, 2183, 470, -1151, -1223, 1814, 2041, -4332, -1538, -1675, 196, 494, -7256, 1346, 592, 6668, -3406, -207, 4476, 8160, 2226, -6807, -6484, -625, 1003, 1705, },
        { -2860, -9056, 1955, -2745, 6773, -6220, 4999, 6970, 2608, -6430, -4163, -4400, -4724, 4476, 588, -3658, -615, -1816, 5052, -5003, -2459, -3650, 22, 343, 587, -66, -6740, 1734, 838, 5731, 2363, 1501, 803, 5652, 4025, 1120, -1458, 8214, -109, 1576, -4989, -67, 3246, -3097, 411, 11329, 10031, -78, -5946, -358, -6315, -1187, 5118, -4130, 2869, -1933, -3677, 381, 13, 3876, -216, 1590, -2100, 3936, 4726, -1578, 3206, 4876, -3968, 2831, 1469, -1844, -2586, 1280, 3929, 4201, 1918, 2176, -711, 1053, -2804, 3999, 3996, -3321, 849, 3244, -2573, 1899, -5044, 1401, 15, -4786, 846, 6373, 1931, -1481, 2191, 2130, -819, -5855, 456, -4250, -1237, 3209, -2978, -2959, 3206, 4066, 3017, 4495, 2803, 3082, 8556, -1959, -3788, 2440, 5294, 6537, -3666, -3187, -5968, 1625, 2201, -5169, -7212, -2691, -1809, -3700, 4187, -3722, -5021, -3604, 2574, 2112, 2095, -2827, -1745, 1910, 691, 1027, 824, -2134, -6540, 4478, -9614, -1142, 236, -775, -3972, -4579, 2270, -2209, -6888, 3461, 4327, 106, -4691, 2412, 1433, -4115, 5299, -666, -5333, 4570, -4539, -4481, 288, -5582, -2329, 4675, 934, -403, 722, -858, -6498, -1448, -4408, -4850, -3893, -3231, -7852, 124, -1577, 153, 4747, 503, 3901, -10331, -2126, -5829, 772, -5808, 6850, -6600, -7398, 6905, -5720, -1489, 7742, -329, 3622, 5662, 5714, -213, -2183, -2908, -4759, -2285, -8059, -5541, -3199, -1063, -4661, -4316, 1071, 2277, -7881, -8301, -8574, -9274, -11202, -1148, -3061, 3307, 2033, 4056, -8705, -663, -4370, 737, 180, -1963, -7912, 965, -3910, -3756, -4877, -1032, 644, -6110, 1381, 436, -3383, -8232, -6985, 604, -10849, -5853, -7422, -5540, -3598, -2136, -6723, 2418, 6355, -366, -8187, 2416, -1303, -8384, -6695, -4596, -1225, 2114, -4353, -2449, -3351, 1201, 740, 1293, -5679, 1003, -4588, 2007, -9563, -3036, -11551, -5748, -590, -24, 29, 2098, 491, 7152, -3707, -1313, -2931, 1229, -6885, -2407, -475, -217, -8227, 3803, -3710, 2046, -4613, -3111, 2864, 1667, -6003, -4391, -4933, -7287, -15652, -10225, 3635, -5863, 638, 6662, 1144, -1049, -133, 5305, 1811, -5599, -10629, -3642, -2407, -795, -5326, -6743, -3050, -5437, -1970, -8215, -1323, 571, 7625, 1717, -8936, -5767, -7396, -8387, -6252, 4114, -2455, -1949, -3967, -3871, 4887, 164, -6142, -8445, -7713, 8247, -5139, -1151, -1365, -293, -14418, -6541, -2306, 370, 1474, 1178, 1293, -807, 7747, 1521, 3752, 413, 4261, 4402, 2035, -2979, 332, 3242, 1626, -5865, 5341, -4436, -1236, -1105, -1646, -1112, 72, -996, 1, -11047, -7150, -2013, 2502, -32, -1595, 4459, -3422, -3819, 946, 4199, -3889, -5162, -309, 3605, -2927, 2064, 4083, -523, 7199, -663, 1649, 6203, -2715, 69, -2290, -1909, -6769, -8406, -1139, 1409, -6207, -5109, 5931, 7380, 7787, -5675, 7038, 2154, -1122, 341, -553, 2470, -3944, -7609, -4122, 5333, 4997, 8293, 10928, 6746, 3492, 9431, -3640, -5584, -2922, -6699, -3415, 6686, -1889, 3137, 4409, 5381, -3836, -7794, 6947, 3569, 1937, -4154, -5176, 84, 615, -2913, -4256, 2940, -180, 596, 5441, 9296, 6234, 8702, 1177, -3259, -1648, -3768, -3093, 5919, 7205, 9170, 5439, 3010, 633, 928, 4955, 8561, 1008, -3963, 1316, 3651, -2483, -6503, 319, 4013, 1464, 8117, 8002, 15369, 15638, 2692, 7394, 7655, 4872, 1563, 2962, 7514, 9295, 4104, 3607, -2650, 2792, 7740, 10335, 7610, -2103, -1778, 500, -782, -3441, -3889, 843, 538, -3235, -4983, 3201, 4702, 6628, 9874, 10369, 3998, 2685, 11029, 12702, 6044, 4556, 3298, 5629, 2839, 3277, 1016, -448, -2151, -323, 2711, 2138, 7097, -1799, -1040, 4471, 3967, 6140, 83, -2880, -2996, 176, 2425, 9426, 4069, 4960, 7898, 4600, 1924, 1529, 5363, 9605, 4274, 2275, 3065, 13757, 1890, 5442, 4174, -2885, 1901, 622, -303, 2554, 6808, 2618, -581, -5921, 5587, 2948, -4025, 2100, 1970, 167, 1558, 9006, 3002, 3046, -104, 386, 5075, 7661, -4113, 315, 5013, 2235, -4745, -6062, 2816, 1426, -5651, 2242, -271, 1385, 5157, 1464, 1599, -3689, -1601, -765, -8726, 5710, -6568, 6294, -871, 1938, 8728, -201, -372, 989, 4188, 9042, 2600, -1776, -2640, 4414, 1530, -5806, -1462, 89, 6088, -1623, -6514, -4247, 5556, -2268, 3994, 1826, -956, -1811, -4198, -1071, -3420, 39, -7891, -6090, 2252, 7236, -1541, 5115, -1066, 1170, -2595, -4385, -1999, 7189, 3532, 181, -2736, -3398, 498, 6413, 2652, -1824, -3329, -2255, -9345, -2593, -2400, -7826, -5606, -4003, -6752, 157, -1463, 4268, 1168, -3094, -254, -4499, 2863, 12, 1909, 615, -3894, 1426, -4763, -8314, 515, -3653, 3946, -5585, 2568, -598, -724, -11558, -11783, -10814, -3420, -4166, 2958, 228, -7593, -1580, 9396, 188, -3508, -1381, 4710, 1381, 3161, 6497, -2386, 860, -7282, -9515, 477, -4180, -8657, -2638, 693, -9547, -1235, 1417, -9246, -4856, -8622, -5427, -8933, 4796, -6485, -2419, -8113, -3663, 2298, 1028, -1070, 10, 5915, -752, 4196, 4299, 5659, 1326, -1377, -3685, -2448, -7410, 1251, -810, -355, 3219, -6575, -4493, -1386, -1033, -2294, 1616, -3932, -1063, 1027, 293, -2811, 553, -483, 3950, -8020, 3601, -4561, -76, 1141, 3188, 3215, -2570, 3179, -4914, -4224, -3066, 2034, 4253, -3692, -3, -1919, 3854, 272, -794, 1519, -6272, -2436, 2772, 293, 3359, -1036, },
        { 4974, 2097, -1532, -360, -2678, -3540, -4714, -10406, -1278, 2882, -4943, 3267, 2787, -7062, 3548, 4559, -8768, 3584, -3007, -2977, -3624, -5787, 850, 2192, 2865, 2830, -1007, -4920, -3277, 110, -5172, -3057, -555, -1518, 7455, -2650, 839, -7596, 7342, -4018, -1605, -777, 1127, -6572, -4957, 3985, -5756, 2342, 2963, -2403, -2730, -205, 2084, 948, 2677, 45, -1503, -1458, 300, 2385, 759, 1495, 2311, 562, -2219, 650, 957, 3241, -3828, 3843, 4744, 6306, 4849, -923, 1825, -1976, -2027, -1926, -4320, 1334, -6176, 3151, -6385, -6226, -7702, -7977, -1863, 40, -3721, -555, -2610, -857, 1871, 4437, 8690, 4276, 8407, 9006, 8961, 8538, 3780, -7, 534, -3842, -1836, -874, 2367, -9537, 1234, -7700, 276, 3346, -4974, -339, -3743, 6660, -1546, -1955, -993, 1906, 8632, 15192, 6468, 3738, 4080, 8085, -422, 7769, 5627, -3548, 2743, -1845, 1566, -4862, -572, -3234, -7614, 5486, 3586, -1468, -8828, -1640, -1096, 113, 2985, 1199, 5675, 7652, 2107, -3289, 7869, 7050, -238, 5664, 6686, -5420, 8283, -110, 3665, 4257, -3356, 5159, -1630, 4071, 844, 4833, 4185, 519, -5815, -3142, -4276, 6047, -4973, 3061, 333, 2343, 7372, 4433, 5406, 3582, -1090, 6435, 8739, -1159, 7673, 2535, 6865, 1234, 3558, 2712, 3366, 3582, 2220, 2851, -4011, 4583, -5665, -2705, -616, -6, 6995, 1933, 1219, -4060, -3386, 439, -5536, 2335, 5192, 1321, 11860, 3462, 4288, 1427, 4051, 7131, 7737, -1096, 3699, 6156, 4951, 7128, 4753, -5908, -3080, 2458, 2436, 3023, 5487, 1866, 791, 1000, 986, -2895, 71, 3272, -3212, -5887, 8487, 9586, 689, 5162, 2064, 2421, 1282, -11716, -492, -2684, 1196, -2727, -5858, -7304, 2092, 3729, 4948, -255, 5953, -2231, -1539, 5547, -183, 7445, -5111, -6447, -4865, -6613, -12656, -3192, -3918, -3700, -7475, -6431, -3181, -5856, -7966, -6132, 1783, -3811, -2935, -2845, 2181, -5920, -5122, 3771, 5875, -7251, 4607, -945, -750, -11269, -6398, -3348, -15162, -7877, -12664, 478, -4897, -4955, -11223, -12861, -7732, -4211, -3889, -8198, -5641, 3152, -2123, 3964, 6937, 1910, 3154, -3516, -2327, 3294, -2931, -17821, -16700, -5391, -15150, -14155, -2922, -9792, -4059, -2372, 1996, 1077, 1070, -1748, -5566, -5885, -10284, -3148, -1742, 1020, 2936, 1349, -541, 1179, -3617, 4682, 2591, -5950, -7877, -15928, -11586, -13875, -5047, 726, 974, -2178, -3704, -7403, 167, 138, 2216, 2912, -8477, -15257, -11992, -3722, -4860, 2136, 4017, 4692, -2823, -1411, -1352, -7711, 1421, -5475, -11009, -4193, -2910, 5830, -3534, -3867, -2575, 676, 147, 3208, -7537, -1136, 1426, 701, -3424, -4930, 927, -5697, 6801, 790, -2053, -173, 2936, 4428, -3082, -1541, 2234, -7353, -3142, -2011, 585, -4127, 531, -3477, 403, -3110, 1345, 783, 643, -807, -343, -8139, 3821, 1522, -3797, -57, -8769, 4520, -1074, 6744, 5086, 531, 2207, 637, 4325, -5951, -4101, -6223, -7526, -5171, -529, -4438, -2664, -2099, -2986, -3605, 3493, -2114, -5499, 6886, -2091, -3454, -10261, 6135, -3351, 4662, 7005, -2612, 289, 1025, 555, 8048, -3031, 752, -4184, -11939, -8558, -5150, -5298, -2345, 2406, 1566, -2773, -189, -2757, 545, 3223, 5588, 2896, -4107, -1246, -1187, 4703, 3887, 11685, 3109, 5184, 851, 369, 7870, 2192, 1024, -5039, -11425, -12067, -14634, -11744, -6710, -13996, -6558, -7669, -3601, -9481, -2790, -2769, -3807, 2661, 3637, -6622, 5530, -410, 9561, -51, -3809, 10348, 1228, -609, 9827, 11698, 16924, 2618, -4562, -3174, -3774, -12320, -16259, -11551, -6671, -662, -580, 5240, 4212, 1783, 4567, 297, 5640, 7542, 3330, 4156, 560, -2632, -2533, 4567, -2811, 1723, 5898, 13041, 13749, 1610, 7086, 1667, -808, 6959, 4749, -3001, -1794, 1753, 2451, 5845, 1701, -2589, 1641, 5578, 8043, 1659, -2613, 4056, -1544, -4264, 935, -3652, 5076, -1101, 6061, 8888, 7690, 2972, 970, 7495, 6093, 1480, 9821, 6243, 7391, -572, 5202, 4440, 152, 9185, 2033, -4192, 2109, -2763, 6995, 4585, -3002, -3098, -4844, -1003, -3553, -1762, 1989, 13520, 7587, 4920, 11343, 12994, 4597, 4450, 4629, 5228, -85, 2810, 5004, -219, 8020, 4934, 1567, 7165, 192, -3650, 3928, 1530, 4739, -4858, 2210, -4608, 492, -4264, -6387, 6571, 6832, 259, -2822, 7402, 699, 3943, -3417, -2721, 2855, 753, -2264, 1272, -1077, -2809, -1708, 2081, 9340, 796, 1974, -3868, -2409, -5720, -3098, -4303, 2774, -491, 5305, 6761, 5069, 5844, 4553, -4866, 2107, -4728, 1107, -329, 2728, 1939, 2316, 788, 2208, 4502, 1805, 4302, 1289, 6568, 1167, 2331, -2626, -1050, 5304, -8419, -5169, 4699, -5333, 3182, -792, 9667, 7233, 2819, 6035, -1248, 4045, 2418, 2060, 5040, -2318, 2965, 8315, -3538, 249, 2464, 867, 2098, 4089, 691, 4214, 2677, 4980, -279, -6657, -7551, 880, -1872, 4621, 3272, 6706, 5695, 8162, 3639, 4905, -502, 5695, 4277, 1298, 1025, -198, 2100, -2104, -5830, 3266, 845, -8236, -3206, 656, -4191, 1639, -116, -4406, -3582, 1365, -5886, 3577, -1054, 724, -889, -5836, -744, -4860, 6406, -4686, 742, 7501, 5738, 4455, 4019, -206, 3, -4847, 1683, 1121, -2955, 2283, -4477, -443, 2253, 6687, -1548, 3979, 7605, -3850, -2377, -1958, 3184, 5579, 3044, -2764, 4182, -83, 4339, -570, -3917, 1228, 3295, -679, 2583, 5610, -473, -593, 626, 5155, -2975, 3524, },
        { -1686, -5338, 3548, -3512, 3792, 1888, 1424, -2645, 256, 1175, -1799, -96, 805, 314, 1311, 1253, 3036, 449, -4973, 1442, 2338, -433, -1311, 463, -3124, -1647, 4588, 313, -1156, 3040, -2470, 120, 5460, -1382, -9213, -6282, -1197, -1416, -4265, -4090, -1200, 3036, 1403, 3250, -4244, -2386, -267, 2186, -1966, -1054, 6792, 7779, -1629, 2695, -580, -2916, 4361, 7675, -6605, -6656, -5734, -4094, 2452, 2673, 3532, 1181, -1535, 6288, -2154, -3666, -73, -5052, -4720, 780, 6479, -98, 194, 2000, 313, 2301, -3107, -2713, -6925, -1645, -4081, 489, -3871, -4822, -700, 1769, 4700, -652, -1627, -1171, 1279, -944, 253, -738, -3944, 7860, 7993, 2398, 5506, 8105, -6446, 3754, 4984, -2767, -2812, 388, 10056, 3214, -2670, -1351, -2345, -4957, 96, -4769, -7428, -5453, 2988, 2502, -2598, -2359, -1803, 2757, -4876, -3809, 2389, 1263, 505, 531, -2220, 3558, -1300, 1403, 3107, -3770, 416, -1371, 6174, 4321, 281, -5304, -6937, -2523, 4496, -3085, 2263, -262, -3418, -2147, 1537, -3038, 7199, -444, 767, 5197, -512, -166, 6050, -226, -537, -1545, 2426, -2777, 1195, -8870, 3287, -6305, -230, 3963, -2292, 846, -387, -1014, 2098, 4974, 2288, -3638, -5012, -6015, 7027, 5398, -57, -3574, -5101, -5130, -5428, 1262, 3025, -271, -1875, -6309, 1064, -3805, -4305, -5615, -677, 2638, 3153, -3130, -919, 2348, 1519, -559, 543, 6110, -3506, -2839, -1731, -6704, 1160, 480, -2642, 7581, 1171, 2252, 3135, -3213, -6392, 4954, -819, -3062, -4247, -1373, -4142, -3755, 1503, -9464, 1707, -1143, -3045, 2651, -1835, 4767, 3963, 9636, 4789, -6040, -7691, -5493, -2452, 4678, 3345, -2845, 2473, -4806, -6186, -4465, -1583, -4541, 1983, -33, 327, -7936, -4105, 452, -795, 438, -4297, -1912, -2995, 1989, 8771, 11522, 8530, 6326, -2336, 1052, -180, -6120, -5426, 2200, -8016, -7664, -4163, 1031, -5083, -1691, 9991, -8697, 5193, -2658, 288, -8889, 1140, -11780, 5734, 1407, 2718, -53, -7135, 8095, 13659, 5863, 1143, -2772, -8968, -6903, -7798, -5659, -2253, -7479, -3406, 5470, -1071, 5698, -2131, 949, 939, -2834, 2167, -1048, -544, -3056, -3677, 298, -4706, 537, -9560, -5654, -7, 3729, -2462, -5023, -4865, -6965, -5851, 4239, -5611, -3502, -2208, -7658, -7163, -780, 5502, 7691, -5911, 1604, 412, -5080, -10794, -9365, -8647, -6412, -8730, -8373, -11905, -9460, -7546, 3275, -3243, -11440, -2870, -5615, -3332, -6368, -4219, 7523, -7139, -4151, -3056, -1635, -2805, -2955, 7527, -2889, 1050, 357, -9673, -9099, -17626, -9487, -9486, -8026, -5561, -6134, -2689, 2601, 273, 5849, -5844, -6835, -4311, 151, -954, -4166, -3386, 5510, 3735, -5825, -2885, 777, 2692, -9048, -2649, 3325, -3422, -5172, -1455, -4780, 5816, -373, -817, -3354, 939, -3396, 4823, -4248, -7114, -7222, -3706, -3926, -5135, -3932, -5543, 3814, 4458, -4354, 434, -505, 3914, -3681, 1601, -4604, -1485, 3915, 969, 3587, -3063, 1050, 4316, -233, 6268, 636, 6257, -226, -7114, -7227, -4409, 2874, 2418, -2409, -3509, 2391, -864, -1846, -7, -2715, 4259, 3303, 0, -2941, 6601, 3118, 5146, 7653, 5733, -2739, 863, 4095, 9577, -1222, -745, -2605, -2277, -321, -4970, -3915, 5449, 107, -4512, 3741, -143, -2297, 4747, -470, -541, -2597, 3631, -2718, 10783, 749, 2335, 3014, 8290, 1382, 10137, 8536, 9215, 3879, -3230, -12863, -9136, -1187, -5475, -2724, 6759, -5547, -2841, 4430, 1733, 122, 5631, -1885, 2402, -8738, -6486, -379, -5479, 3960, -6028, 2242, 9509, 3546, 6809, -412, 1145, 4091, -1313, -2712, -1476, 642, 709, -6980, 1229, -3087, 5070, 3389, 2595, -7043, -135, 2006, -625, -2912, -6101, 1802, 5497, 182, 7, 6186, 6381, 2971, 4993, -3768, 4609, 2833, -1440, -5674, 8329, 118, 1796, 3952, -6139, 595, -1935, -7635, 279, 2356, 156, 2333, -3149, 4264, 5242, 3570, 6818, -2644, 1313, 6415, 2797, 5040, -560, -3553, 3410, -2283, 1525, 2734, -1479, 360, -360, 143, 3214, 1026, 5608, 2726, -825, -744, 7009, -1171, -2992, -3858, 4816, -2274, 2740, -3200, 999, 5241, -250, 1114, -855, 1979, -5964, 1823, -1815, 3348, 3771, 1381, -4345, 1928, -727, 4164, 3392, 4323, -19, -4367, -5401, -3058, -4323, -1556, 10006, 3263, -47, -3597, 6103, 2338, 131, -3022, -1146, -3315, -904, -7504, 847, 4037, 8693, 5670, 1229, 4173, 8072, 357, 7012, 1795, -6087, -2903, 6193, 1679, 1623, -6090, 8747, 4536, 4697, -9876, -1213, 120, -7052, -8734, -1028, 1027, -1431, -5797, 335, -704, 5083, 7491, 9219, -3728, -2453, 60, -3440, 4566, -2678, 6568, 3398, 2439, 3312, -1821, -5237, -5499, -1758, -2244, -640, -2369, -2913, 5012, -1284, -2027, -4985, -2984, 820, 7072, -1940, 10301, -4394, 486, -4772, 3197, -926, -1449, -6388, 1427, -10800, 4245, -4861, -2282, 3886, -372, -863, -4542, -7574, 5317, -8935, -4481, -3844, -3185, -5052, 5675, -5760, 1571, -71, 5228, -7045, -4435, -13141, -87, -3156, 1045, 4768, -697, 4594, 6520, -86, -6909, -5600, 654, -3302, 2096, 5396, -3894, -4232, -8926, 2687, 1770, -2667, 4718, 7950, 4848, -981, 152, -1578, -186, -1802, 5212, 1977, -1093, -2197, 5401, 2943, -2297, -2089, -4671, 3544, 274, -1653, -5257, -3002, 2522, 538, 2851, -7091, -6172, 1657, 4450, -2739, -244, -3586, 5114, -3685, 69, 5077, -1528, 16, -6092, -4315, 2263, },
        { 2562, -1952, 4190, 5655, -1564, 977, -4931, -6496, -2202, 2645, -3937, 1001, 3150, 6338, -5526, 2652, -1745, 4410, -1981, 691, 2690, 2365, 5503, -207, -2235, -5577, 3314, 780, -1642, -3124, -554, 286, -1096, -2995, -4594, -1333, 520, 3319, -1145, -1676, -4940, -6505, -2709, -1232, -2271, -10570, -314, -7457, 2518, 3322, 3729, -3512, -942, -2619, -6323, 4831, -4189, -3312, -47, 644, 1451, -3131, 4299, -3917, 1364, -293, -8846, -7978, -3671, -2712, -6256, 1875, -3363, 374, -7414, 1846, -6893, -2076, 8297, -512, -81, 4439, -2727, 6199, -6288, 3108, 5120, -2035, 3778, -3704, -1387, -5029, -6459, -6608, 4523, -1567, -5260, -7765, -5391, -7667, 152, -5671, -307, -9510, -1096, -2357, 6076, 654, -1514, 218, 6560, -1952, -1525, 1901, -7138, 1169, -3344, -1606, -3847, -214, -7932, 4189, -11133, 2781, -4404, -1855, 9162, 4029, 3346, -4335, -770, -1538, -6464, -6624, -6496, -6512, -3445, 816, 1225, 3819, 555, 9468, -5756, -6986, -2581, -2341, -296, -2996, -197, -2445, -1136, -1598, -2289, -8926, -2684, -1668, -2528, 3619, -332, 1424, -3469, -4903, -3780, -686, 1716, 4341, 9137, 4310, 460, -4251, -6709, -5311, 2735, 1119, 800, 3585, 3248, -2993, -3154, -10189, -8716, -13437, -10322, 2702, -5743, -560, -2591, -2093, -10188, -3248, 5729, 11948, 8140, -1537, -531, 1345, 3001, -8480, -1104, -3520, 1184, -3586, -120, 5631, 471, 687, -1948, -7202, -2855, -12261, -11395, -5881, -5320, -2964, -2311, -4874, -4282, 3749, 5642, 6781, 10994, 5759, 3262, 4405, 415, -1307, -412, -4570, 3672, -1303, -1076, 786, -7016, -7715, 2962, -2422, -2984, -5675, -10845, -4091, -2211, 913, 403, -5387, 2485, -3102, -711, 8332, 7066, -1348, 2760, 8176, -1046, -5812, 7615, -3465, -1312, 2689, -10072, -5861, -584, 1792, -3661, -6302, -361, -6741, -14799, -1995, -466, 1849, -2969, 1346, -4672, 3782, 1487, 2858, 4946, -1152, 2062, -5377, -1284, 2786, -783, -1525, -2889, -1268, -5397, 3109, -3865, 179, -6518, -8226, -8172, -12115, -13233, 11367, 3955, -1259, -4350, 6190, 1901, 2244, -1760, -4699, -3482, 2208, -1203, 115, 47, -4274, 1573, -4488, -2890, 2410, -4670, -9746, 623, 4159, 4395, -6025, -7879, -9650, -2705, 3918, 889, -103, -6891, -4419, -8104, -4720, -6849, -11468, -3040, 1972, -4496, -1482, 2575, 911, 3131, -3633, -10068, -7680, 37, 21, -2677, -4502, 5715, 7134, 12537, -1468, 1889, -1931, 24, -3885, -5026, 1648, -3121, -7112, -3916, -11748, -11, -972, 1446, -1002, 7215, -4454, -3386, 1575, -3747, -6533, 8912, -1487, 2872, 2766, 11960, 18154, 7621, -734, -10812, 1104, -4928, -3085, -2276, -5200, -1385, 1094, -144, 176, 2266, -2655, 1646, -1642, 7509, 1243, 1043, 3255, 1057, 12168, 8579, 6786, 8269, 7217, 7192, -196, 14297, 1554, -1617, 1552, 4097, 4167, 9289, -336, 657, 3486, 2794, 3326, -4883, 5770, -6192, -3493, 4002, -70, 559, 2132, -2969, 4778, 2284, 6148, 6063, 18657, -418, 6993, 1829, 6192, 4604, 2091, 1617, 857, -2794, 7042, -941, 1073, 5777, 3313, 405, 3200, -3694, -1149, -2438, 6258, 2337, 4182, 933, 11743, 10527, 8113, 5869, 5822, -3399, -5305, -576, 4360, 6813, 9243, 8402, 6099, 6650, 1988, 10420, 1312, -2739, 4577, 1780, -2954, 3122, -4356, -3588, 1779, 386, 3314, -475, 4515, 11659, 9618, 5943, 5794, -8196, -1688, -4134, 1604, 8380, 11553, 10153, 5783, 8967, -928, -2639, 4818, 2028, 2089, 5339, 4971, 365, 11560, 2948, -333, 2481, -10775, 4821, 7992, 2357, 6009, 600, 3449, -7988, -2193, -6629, 6191, 5517, 4345, 2577, 1921, -3005, -3968, 1332, -200, -4329, 5298, -4434, -357, -1842, 5115, 4848, -4588, 85, 763, 3626, 3725, 2909, 6313, -4188, -5262, -1277, -93, -4919, 3126, 1189, 2606, -2911, -6513, -2796, -2785, -10494, 35, 117, -4003, -4075, 3703, -6536, 6382, -366, -1569, -534, -1501, -4859, 4658, -2160, 2459, 3060, -2120, -4841, -4387, -3293, -9589, -9932, -4607, -3937, -4297, 892, -7977, -3316, -4934, -7710, -3038, 1080, -5558, 1461, -924, -3352, -1081, -3872, 6721, -6820, -2301, 5253, 1845, 1905, -3355, -4305, -3873, -7382, -10428, -5998, -11170, -1051, 2132, -5470, -294, -7276, -2362, -611, -4179, 2158, 133, 5426, -1698, -6225, 3742, 4255, -1878, -7716, -4230, -10997, 8177, -12942, -2797, -8425, 4448, -3096, 385, -8995, 1498, -2175, -2376, 995, 2846, -166, 1973, -1002, -131, 3957, -412, -3281, 4781, 6836, -2339, 5506, -2402, -666, -5232, -7062, -14054, -1338, 1249, -8145, -2798, -5712, 3866, 5186, -1421, -4597, -4025, -4706, -2822, -698, -4568, -11932, -1537, -2864, -5662, 335, 2803, 4481, -3396, -686, -1481, -1589, -1955, -1259, -5243, 550, -11491, -7989, -6316, -13515, -1661, -3675, -399, -3816, 2450, -4918, -6352, 2166, -2773, -1900, 1945, 1266, 6253, -1522, -5987, 3331, -1387, 1279, 2404, 1849, 474, -6290, -1518, -1511, -1105, -8765, -8011, -9361, -7393, -3551, -8509, -3671, -6474, -6183, -10198, -11923, -2189, -5853, 2852, -6919, 2461, 4573, -3370, 3914, 3768, 4495, 1631, 289, -4793, -4942, 2603, -2854, -6463, -5485, -7151, -6285, 569, -12303, -5666, -9105, -13700, -11987, -6898, -3565, -6362, -953, -500, 692, -1067, -599, -146, 7106, 579, 2301, -3525, -3464, -1633, -1681, 5821, -896, 1714, 1082, 1073, -355, -8399, -606, 911, 1716, -1854, -2873, -2816, -3460, -7232, -8354, 323, -5892, 4845, -1147, 8277, },
        { -3230, 947, 7334, -593, -1621, 1014, 3131, -4700, 2769, -3943, 4823, 6400, -452, 3604, -4247, -6824, -8716, 5536, 133, -1575, 2055, -4417, 684, -10009, 3014, -4950, 3932, 7230, -267, 837, 178, 1471, -2369, 3716, -1394, 1048, 7315, 249, -8051, -4238, -1588, 1455, -2023, 637, 3893, -5499, 886, -249, 3708, 214, -2289, 669, 4107, 5502, 376, 3593, 3486, -3521, 1789, -24, 1422, 1142, -5038, -1360, -1301, -4726, 654, 7728, -6434, -664, 5566, 1647, 4575, -2494, 8507, 2887, -286, -3721, -1693, -5658, 2653, -3964, -1419, 5443, 4329, -4605, 9167, -304, 9004, 1069, -9208, 4796, 40, 1220, 184, -1262, 4855, 6302, -4218, 1875, -4830, -1256, -6462, -4798, -2696, -93, 3711, 8171, 2064, 3848, -2436, 786, 3286, -3965, 2620, 909, 2852, -2370, 468, 8495, -7027, 2526, -777, 2336, 2287, 7761, -6177, 2800, 937, 1631, 1215, 365, -6196, -972, -2919, 5286, 3741, 2870, -1641, -3410, -1746, 3008, -7563, -2670, 6167, -9917, 1238, 2719, -96, -2940, -2767, -3087, -5416, 3455, -3692, 7701, -983, 783, -479, 1859, 2880, 4013, 2485, -616, 3150, 1815, 1592, -3828, -2163, 882, 2403, 797, -1948, 6029, -4205, -6069, -2236, -3931, 4958, -4422, 309, 5027, 4130, -5982, 1555, -2522, 2539, -282, 270, 1485, -3068, -5882, 1516, -611, 2777, 7730, -5457, 2541, 3801, 82, 7829, 203, 4548, 3327, -2176, 7632, 642, -2832, -3817, 3602, 5826, -264, -3751, -987, -108, 6230, -4583, 1453, 1539, 4100, -1152, 5273, -325, 1907, -3469, -4748, -1329, -4640, 3229, -1282, 3623, 5294, -1309, 8709, -5115, -598, -5186, -1898, 1609, -3502, -4474, 1418, -1704, 2270, -2385, 1440, -7241, 3987, 1002, 2660, 2590, -2939, 1119, 2337, -3109, 4991, -3409, -757, -4165, 3302, 1635, -3390, 664, 2071, 4458, 1464, 37, 412, 9275, -492, 4003, 3973, 4421, -2691, 1868, -2003, 818, 546, -12003, -4682, -5383, 1946, -2735, -2413, -2871, -4661, -13, -154, -2050, 3291, 7193, 2037, -2265, 2699, -1307, -1392, 4444, 12222, 7364, -1540, -349, 1512, 327, -5996, 3790, -12670, 336, -2116, -2003, 1810, 2488, 7, 5034, -6899, 6150, 3397, -4595, 2382, -1645, 3107, -1577, 784, -1982, 294, 2162, -573, 1191, 558, 4155, 2621, 1388, 3915, 292, 1372, 686, 101, -953, -4944, 8447, 1086, 664, 3547, 8642, -611, 2761, 7843, 1147, 1852, -2533, 3360, 319, 1798, 5522, 4133, 5541, 2031, 1664, 10629, 1929, -4337, -2185, -493, -4561, -1661, 8216, 832, -1860, 3943, 5841, 2200, 4530, -5161, -2149, 623, 2451, -7033, 1944, 1003, -196, 4124, 4187, -8124, -2409, 2417, 56, 5172, 3689, -16, -2405, 4448, -12, 5624, 1810, 2502, 3507, 1808, -734, 5898, -5455, 2101, 2629, 7260, 4143, 1558, 3656, -2326, 2374, -2186, 6556, -677, -1904, 3510, 1463, -3297, 7840, -3390, 902, -742, 12513, -1521, -2321, 2063, 9880, -809, 4259, 11123, -9584, 6901, -2414, -1294, 629, -1581, 4605, 3894, 7474, 6993, 3575, -3202, 3228, 336, 3573, 1947, 2530, -323, -2463, -9800, 1299, 1035, 4420, 5717, -2007, 1212, 3090, 5649, 7393, -1206, -355, 319, 1537, -2004, 4322, -4465, 5906, -733, -6227, -727, 473, 2704, -571, 5350, -6604, 3676, -1945, -5755, 1370, 807, 5187, 3625, 1708, -94, -3805, 6423, 2846, 2585, 6811, 2737, 7497, 1362, 8529, -808, -2923, -3669, 3772, 3302, -1302, -1687, 8393, -1797, 11989, 1326, -4477, -5648, -2140, -6056, 3317, -2431, -2, -1922, -2737, -3666, 1612, -5058, -631, -3415, 8520, 6272, -4373, -150, 14654, 6266, 2416, -925, -548, 188, -2116, 793, 2165, -1565, 2662, 1300, -2855, -5632, -2490, -2336, -1190, -1115, -3906, 3924, -2997, 909, 338, -1450, -143, -432, -2505, -2372, 1072, 458, 5094, -2058, -4231, 397, 6705, -2784, -2535, -6547, 719, 4602, -5461, -683, -1516, -6200, -2438, -11, 3199, 7295, 3303, 5896, 6499, 7043, 3213, -4876, -4116, -701, -7390, 2656, 1016, 6400, 1123, -734, 1163, 1765, -2493, -3221, -3291, 2806, 1073, -4377, -8010, -8112, -9368, 6725, -1304, 755, -546, -5018, -1093, -2711, 3795, 1176, 7014, 3127, -4573, 7504, -1237, -2313, 9301, -379, -2537, 2188, 2050, 658, -5972, -2569, 2899, -2, 1514, 4089, -3500, 5098, 396, -818, 6180, 2756, 729, -850, 3823, 2672, 2304, 4322, 936, 33, -1807, -815, -3162, 1028, -2877, 3502, -284, -195, -7970, -401, -4949, 7675, -5219, 4007, -1507, -2451, 59, 299, 2946, 2868, -1606, -336, 493, -126, 599, 3061, -409, -4564, 5532, -4147, 4328, -10536, -7420, -2316, -4329, 2301, -344, -2895, -3637, 2874, 3759, -4193, 3475, 4065, -4751, -1777, 1748, 3543, 2962, -3203, 132, 6252, -967, -2053, -2780, -1947, -5085, 1649, -5591, 4475, -5092, -1986, 12700, -3223, -3387, 9422, -8253, -2297, -3258, -676, -616, 3986, -2786, -5545, 1395, 2231, 3528, -3492, 2020, -4424, -639, -1408, 2281, 6843, 842, 2756, -4057, -4459, 2020, -4627, -4401, -921, -4800, 2213, 6007, -8270, -2094, -3120, -100, -855, -619, 458, 5147, 5639, 6086, 2955, 850, -1989, 5405, -1287, -3417, -213, -3991, 3639, 3572, -5279, -1830, 1537, 1229, -1057, 1127, 12069, 836, -887, 4257, 2353, -3249, 1498, -7312, 1191, -1408, 384, -5551, 1235, -3601, 1181, 2946, -2928, -1642, 3421, -134, -6683, -1781, 4249, 71, -1650, 1454, 12080, -1592, -5825, 6519, -995, },
        { -5677, 3892, -3502, 4065, 3556, -1371, 552, -1930, 3910, 1431, 1433, 576, 522, 6518, 233, -412, -6747, -7546, 184, -275, -3561, 5300, -2121, 4131, -1072, -280, 1736, -4941, -5124, -2101, 2137, -6921, -1849, 9283, 4330, 265, -3635, 2867, 3954, 7848, -3423, -2973, 3782, -1216, -2979, 1614, 1605, -3565, 5065, -1256, 484, 3348, 2994, -830, 3120, 1669, 437, 2074, -2929, 930, 413, 1637, 1072, -6, -1428, 3890, 5507, -1783, -3340, -5401, -8574, -2309, 3004, -1742, -3441, 468, 5411, 4662, -5684, 4258, 7833, -1627, -5420, 1426, -3827, 2816, -3468, 6656, 3302, 933, -7895, 139, -3908, 670, -2583, -864, -3720, -1255, -2498, -583, -2415, -2807, 1473, -4146, 1080, -19, -1298, 1021, -8816, -1856, 1482, 2277, 7023, 5786, 10654, 333, -2978, 5731, 627, -2711, -7339, -4845, -5861, 1218, 2532, -4336, -5390, 4776, 3332, 6800, -597, -3787, -5865, 3369, -6601, -4431, -6367, -2360, -2750, 5348, -4782, -8517, -6068, -1657, 640, -542, -4203, -780, 5968, 520, -1424, 1533, 966, -4741, -3382, 209, -4640, 2855, -7440, 3849, 1159, -6434, -4658, -2261, 824, 1656, -5960, 6406, 5865, 7499, 1492, 3454, 5375, 1025, 1462, 723, 4316, -7724, -5247, -8280, 396, -6579, -2359, -9817, -1108, -1944, -12, 1219, 2064, 9204, 6929, 7991, -1816, -1109, -775, -5416, -4832, 2236, 6282, 4111, 5166, -1713, 5827, 3128, -648, 2642, 4706, 9454, -2136, -2624, -395, -6653, -871, 3575, 1869, 6771, -3936, 335, 4891, 3899, 2399, 7805, 291, -3001, -3966, 439, 1919, -684, 6028, 530, 1879, 5534, 6373, -334, -3664, 1528, 6134, 4403, 575, -3100, 6381, -1598, -796, -2810, 322, 5846, 3348, 7238, 5333, 6350, 5694, 857, 1500, 2917, -2663, 8579, 1542, -1380, 12120, -4945, -5598, 10519, 1841, 11423, 3967, -4699, 8691, -2027, 341, 2079, 3658, 9734, -377, 1528, 7287, 14029, 13184, 3690, 3243, -4567, -1929, -2444, 2949, 1961, 8659, 2255, 1471, -6503, -4791, 2637, -4333, 3811, 4760, 1167, 530, -5944, 5353, 2305, -3469, 2004, 5131, 2088, 2651, 11449, 9407, -932, 539, 7502, 589, -468, 4567, 4256, 8600, 2985, -5442, -301, -2155, 6683, 5410, 8564, 9824, 9076, -1917, -5627, -7270, 3830, 10494, 3634, 26, 3269, -2550, -2604, 3663, 4041, -1377, 1245, -6122, -369, -546, -3555, 6515, 968, 8087, -193, -1264, 96, 2146, 5202, 5565, 106, 2638, -8806, -7541, 325, -158, -1410, -818, -6722, 114, 232, -1796, -3879, 3353, 482, -5727, 3625, 8433, 9267, 1723, -732, 2371, 1809, -160, -797, 4900, 8272, 331, -1835, -6162, -8688, -3334, -8892, -7409, -13428, 1588, -2344, -6450, -1172, 7756, 290, -1283, -1158, -5739, 4247, 1684, -6197, -3354, 98, -791, -3089, 2266, 1419, 11182, -7013, -3585, -1238, -13213, -1696, -6754, -6035, -5621, -2374, -5433, -4914, -3937, -2919, 2237, -241, 597, 1328, 1592, 1544, 150, -289, 1525, 1985, 8089, 5973, 6231, 1608, 27, -6280, -7769, -8712, -13934, -2600, -9998, -2219, -4542, -4712, -2829, -2894, -7248, 2624, -1806, -2750, -5636, 3538, -3614, 4370, 3019, -1090, 3035, -5177, -4077, 2534, 38, -10842, -1946, -8303, -1870, -2133, -14320, -4492, -3880, -5448, -958, 87, -334, 2060, 6679, 3995, 2397, 4372, -4070, -2467, -1907, -4882, 4393, 1668, 1638, -6108, 866, -5327, -10578, 5787, -3493, -11765, 8177, -14285, -2842, -5446, -6744, -1087, -1847, -6075, -2821, -1068, 1189, 4446, 2250, 2144, 2724, -5791, -11319, -1136, 3824, -4448, 3050, 1490, 749, 2421, 1961, -4718, -7998, 1618, -2343, -2484, -8233, -8227, 2882, 3064, 5284, 2058, -3256, 7293, 5405, -649, 8274, 7441, -1527, -5131, -4091, -4371, 2130, -5766, 1769, 3672, 3309, -5166, 3109, -1235, -2921, -1517, -3306, 1873, 2163, 3124, -1106, -1259, 6691, -3965, 10484, 7839, 3544, 512, 7167, -2115, 541, -1616, 3915, 4306, 762, -4293, 1719, -955, 6982, 10559, -1967, 5338, 2641, -5614, 5467, -3083, -1644, -6845, -5485, -3518, 2308, 3518, -4305, -4742, 2907, 6682, 2388, -1761, -476, -882, -1610, 2514, -4489, -5061, 1353, 3277, 258, 8889, 1240, -8271, 1148, -8006, -1681, -2451, 2165, -1413, 2365, 1628, -2566, -2697, 3778, 2091, 802, -3865, 4125, -629, 8980, 4298, 1542, 389, -4004, -1098, 4506, 4341, 1194, -185, -1585, -1586, 5539, -2639, 9542, -2823, 3201, -2527, -1823, 2948, 6618, -4027, -3969, -6912, -1835, 1688, 2743, -392, 572, -2749, 13, 3464, -1743, 727, -3283, -2302, -2740, -1562, 4575, 8204, -6193, 5337, 4385, 1735, -4090, -2140, 187, -2873, -4858, 2715, -8689, -4499, -3206, 217, -7193, 1207, 4069, 1263, -2097, -1507, -1225, -523, 3495, -1221, -866, -1169, 4806, 175, 1569, -5083, -6541, -929, 1411, 2763, -2967, -3982, 526, 1026, 3180, 5832, 4039, 1742, 1744, 1196, 4185, -4354, 4382, 8069, -1764, -354, -1121, 4098, -9850, 696, -1013, 5043, 1523, -1898, 3614, 839, 6671, 1758, 664, -2388, -1587, 2896, -5757, -3077, 2169, 3318, 7731, -839, 2762, 2172, 7285, 3162, 901, 1621, -1240, 2689, 7956, 329, -1942, -3386, -1909, -4642, 5094, -1193, 381, -2616, 6409, 74, 8075, 9192, -1113, -1302, -1892, 2692, -6088, -5584, 4667, 421, 8699, 5162, -245, 2432, 2061, -7679, 6294, 11233, -3072, 2637, 4981, -4161, 4925, 3218, -1151, 4734, -5798, -5485, -1520, 4711, 27, -7386, -2076, -3322, 3538, 3098, 3414, 135, },
        { -1314, -3920, -4319, -308, 201, -3032, -3483, -889, -2503, -3657, 2793, -5179, 298, 3118, -4923, 973, -4620, -3099, 10549, -6489, -306, -2186, 2079, -2141, -1427, 3689, 2242, 5557, 3046, -1744, 5836, 1175, -2810, 3819, -2177, 3176, -1892, 3280, 4207, -1830, -6614, 2688, 432, 4650, 1505, 6579, -4548, -4313, 7816, 1210, -3129, 3366, 6515, 12086, -4982, -1025, -5802, -2476, 3305, -5692, -958, -2547, -1756, 2536, -1608, 2238, 5622, -5485, -1181, 3787, -1397, 1335, 2016, 5039, 1924, 969, 1388, -4640, 1676, 368, -1013, 791, 1896, -5622, -10425, -753, -4817, 11063, -296, 7362, 1093, -1999, 5212, -2333, -5843, -5425, 1776, -5197, 7137, 6836, 221, 718, -2868, 4964, -6051, 5371, -5139, -2127, 3906, 3528, -851, -5165, 5254, 5059, 3593, -1396, 3406, -2512, 2192, -7801, -5267, -865, -698, -3288, -1103, -3239, -520, 8711, 16, -3069, 3669, -2389, -3611, 4895, 527, 5605, -1137, 1054, -4733, -3537, -2602, 4262, 734, -3937, -679, -9950, 483, -5725, -4439, -943, -47, 4535, 5512, -1243, -488, -1777, -545, 12909, 3504, -5964, -2530, -1569, 1904, 836, 2035, -4593, -4396, 3078, -486, 3748, -3021, -183, -2766, -3552, -3909, 8184, -630, -8159, -4983, -407, 7407, 2754, 2366, -1397, -4, -6349, 5103, 6799, 612, 5119, 1474, 3546, 1317, -1791, -1792, -2764, -843, 1129, -1761, 566, 1349, -2718, -8467, -4416, 6654, 7437, -1236, -2718, 3263, -7814, 2279, 138, 649, 1536, -6463, -666, -637, -1066, 1997, -8091, 486, -7829, -167, -563, -1916, 2470, 446, 533, 885, -3453, 1611, 1504, 3203, 2180, 2115, 5544, -2524, -7683, -8232, -1480, 2365, 1016, 3538, 2590, -193, 3241, -1454, 6432, 232, 657, -5201, 5062, 2263, 4056, -6356, 2753, -1662, 1928, -3370, -1532, 9684, -3113, 7080, 18021, 4913, -22966, -13859, -3050, -8958, -3050, -8349, -5256, -7689, 1564, -88, -972, -1485, -2930, 3257, 4316, 1172, 4965, 7459, 2986, -3497, 7286, 629, 4586, 7467, 13933, 11855, 14374, 8767, -10894, -24133, -2524, 1470, -5885, 794, -916, -6814, -4065, -9499, 1749, -598, 1035, 772, -1058, -1744, -4741, -5965, -7, 1030, 4695, -1714, 6362, -5766, 7948, 9702, 12573, 7654, -2289, -4890, -1185, 291, 4371, -6631, -2575, -1615, -584, -2017, -4799, -8361, 3814, 5223, -912, -876, -3610, 9739, 4431, -1627, -2250, 241, 208, 9365, 11854, 2011, -684, 4898, -4710, -6259, -3249, -5232, 1251, -7517, 628, -975, 8209, -7864, 4538, 1858, -7178, -410, 4058, 5660, -4038, 4736, 4189, 6430, -6566, 4111, -470, -2214, 3510, 1031, 5493, 4441, -6466, -3571, -4762, -959, 238, -1869, 4151, 12382, 784, 3969, 3181, -3259, 3599, -1158, 660, -910, -4788, -668, -7, -654, -5448, -1428, 338, 5559, -2087, -3472, -3012, 6196, 6236, -2423, -699, 4572, 3380, -5078, 2583, 358, -3399, 1166, 5269, -3114, -4953, -3181, -5182, 1565, -3958, 1318, 3670, 1035, -4066, 1112, 6728, 3293, 8792, 626, 1175, 4514, -4267, -8753, -4224, 2564, 858, -200, -3722, 1566, -878, -4726, 2013, 290, -6299, -1744, -2299, 41, -1399, 2677, -5919, 3413, -302, -1862, 1717, -3021, -7436, 4720, 3886, -456, -3032, -4496, -851, 7066, -7326, -983, 3547, -3330, 2065, -5384, -7370, 2318, 4483, -6530, -92, 2111, 1615, -2110, -1127, -2178, -189, -5126, -5962, 1003, 4639, 5090, 6797, 4924, 4929, 696, -6809, 3735, -3204, 1247, -2577, -7520, -1950, -6561, 388, 3247, 4383, -864, 2839, -9, -849, -1245, -4800, -8268, 2880, -5323, -4405, 519, 1198, 12365, 524, 4825, 10167, -2903, -2055, -4911, 5517, -3737, -3534, 4591, -2514, -4344, -1818, 7295, -108, 2104, -7042, -10214, -2596, -423, 7079, -2718, -4171, 4494, 3731, 458, -5841, 2265, 2836, 2754, 1084, -3652, -4196, -9889, -8401, -5953, 1712, -10034, -1087, -7068, -4210, 7196, -492, 1571, 2730, 4673, -1443, -3951, -260, -3138, 884, 1398, -6258, -885, -975, 1934, -427, 6212, 5121, -8079, 330, 1330, -2577, -699, -9941, -8695, -1463, 2711, 2974, -1924, 547, -532, -229, 3642, -114, -8104, -7404, -5677, 5018, 6298, -6149, 2289, -4193, 3662, 5711, -3456, 7783, 3823, -2779, 196, 4942, 2316, 1091, -4091, -4651, -3237, 6815, 1524, -3341, -4143, -2619, -596, 3283, -7652, -156, -1698, 5316, -9321, -4947, -479, 10474, 487, -3288, 3311, -3131, 1405, -3681, 255, 8471, 934, 1656, 1220, -174, 100, 360, -1350, -4317, 53, -4733, -3916, 2084, 3844, 3728, -1127, -204, 395, -2377, -1414, -4216, -3510, -6831, 2597, 632, -1476, 7021, -1622, 260, 1132, 4987, 13166, 4422, 7527, 8750, 257, 15, -5851, -5452, 1321, -4234, 3794, -1869, -1884, 4170, 2816, -2735, 724, -4083, -5611, 6069, -563, -3193, -7671, 2983, 8749, -2265, 9178, 9276, 24, 3273, 6818, 1972, 1445, 1928, -4864, 5186, -3974, 8795, 5915, 3347, -1402, 3190, -5402, -2060, -3849, -822, 267, -4296, 320, -1130, -2758, 4508, -760, 3872, 1922, -6624, 2983, -4609, -7183, -5396, -1970, -6764, 2917, -3241, -907, 4389, -4127, 1173, -1562, -2239, 65, 2287, -2515, -5778, 4909, -4343, -4694, -2572, -2487, -6816, -5641, 4230, -520, -1640, -5643, -1226, -7136, 5714, -5672, -6538, -1299, 1531, -9535, 1702, -277, 3427, -121, 6348, 3807, -2364, 2469, 2443, 3240, 3079, -7285, -2566, -1726, -4396, -9569, 426, -807, -4977, 2774, -786, -210, -169, 1229, -1764, 5254, 2590, },
        { 1974, 2413, -1610, -975, 3616, 573, 1223, -2197, 3866, 540, -2425, -4578, -1875, 642, -3691, -427, 204, -7204, -6753, -1431, -4106, -3013, -3003, -946, 4563, 5164, -3426, -2757, 5324, -1044, 1446, 2289, -1387, 2558, -2434, 8453, 2839, -3915, 3602, 3714, -4130, -4350, 818, -1217, 1329, 4113, 5234, 57, -8536, 3096, 6237, 1464, 4240, -659, -316, 1006, -4040, 557, -988, 8752, 5978, 5217, 3565, -1966, -227, 2216, 2049, 1658, 1028, 1831, 3852, 1647, 5947, -7696, -8484, -3042, 4105, 2143, 2707, -6841, -7879, 2134, -3542, -3769, -2702, 3327, -1847, -338, -5552, -3040, -4358, -253, 5466, 5080, 7571, 3981, 6457, 13246, 4424, 7220, 2170, -4667, 1319, -1348, -139, 6803, -1326, 4444, 3045, 2823, -2528, -7655, -2520, -3117, 569, 90, -504, 4056, 8656, -1988, -94, 5490, -1063, 3064, 1881, 3931, -6214, 874, -4760, -3609, 3169, -1637, 3507, 1263, 3888, -962, 1091, -4139, 1850, 88, 1086, 5797, -1886, 578, -2029, 4687, 1711, 8461, 1783, 3577, -2055, -4094, 1075, -1568, -1723, -1081, -691, -7378, -6039, -8314, -3881, -5264, -3095, -5490, -9318, -2682, -2357, 254, 2554, -730, 1021, -715, -5687, 8633, 1457, -2314, -416, 6390, 3213, -3932, 1556, -4597, -2352, 3514, 483, -1476, -571, -5695, -1092, 3116, -1929, -1441, -5316, 4486, -1254, 1392, -1521, 3092, 2525, 4895, 9633, -1579, 6087, 4259, 628, 3694, 4345, -2244, 300, 1998, 1728, -401, -4865, -649, -3134, 629, 5594, -5403, -7148, -13438, -3395, -6765, -761, -9053, 7041, -3786, 1288, 7865, 1491, 7957, 6442, 3157, 4419, 603, 6261, 2161, 5654, 433, 4549, 2589, -4914, 8567, 2287, -3540, -4731, -5243, 1444, -1418, -3982, -3602, -1034, -927, -143, 414, 1287, -187, 12214, 5951, 4478, -1716, 8165, 3364, 2665, 4043, 1431, -1269, -598, 2203, -2183, 1347, -6844, -3372, -2407, 4783, 527, -6849, -12776, -2035, -4737, -4387, -2334, 3233, 3984, 1425, 1812, 1031, 1838, -2909, 3535, -714, -5848, -5565, -12855, -6282, 1067, -1185, -345, -711, 6346, -3157, -1268, -4008, -2613, 2901, -7618, 1017, 3015, 2479, -3537, 1973, -2685, -2457, -7169, -13901, -12937, -6276, -6960, -14600, -8109, -12792, -15076, -12123, -1782, -2576, -1615, -1980, -1390, -4058, 2191, 4649, -384, -2493, -6994, -2917, -1025, -4978, -4183, 3232, 705, 36, -5655, -15843, -8381, -14682, -16517, -20041, -17208, -4450, -4171, -2894, 710, -779, 3107, 5696, -1769, 2275, -4050, -1506, -947, 7906, -7497, -5502, -4413, 4076, -8098, -3245, -3186, 1015, -4138, -12552, -11977, -9709, -12616, -2363, -1069, 1252, 756, 2259, 4917, -6619, -3207, -1060, -1966, -4742, -4349, -1091, -5749, 1900, 6368, 6375, -9822, -2321, -2494, -5264, 7426, -3717, -4798, -9012, -7617, -4493, -4288, 9643, -3009, 6541, 1499, 1767, -845, 3300, -1169, -73, 948, -607, 1699, 5801, -4479, 5378, -546, -2124, -3111, 822, -2332, 3999, 3208, -4242, 2385, -4174, 2040, 3594, 2305, -1690, 3226, 6617, -1147, 2450, 2642, 1327, -4412, -1007, -3207, 393, 410, 5437, 357, 6987, -2358, -4124, -6147, -917, 2007, -3528, -4824, -2915, 1578, 4952, 483, 535, 2922, -785, -247, 1571, 7449, -1079, 928, -446, -2129, 1275, 4443, 6757, -1934, 491, 1207, 5993, 2729, 6640, 5092, -5437, 3763, 4200, 2548, -5128, 4373, 1978, 1316, 1155, 4082, -3313, 8834, 4508, 5197, 1829, 1810, -3290, 365, -1219, -1590, -3274, 6655, -1953, 3362, 5449, 4322, 2005, -3065, 7044, -2892, 2920, -568, -340, 1835, 1293, -1355, -1039, 1320, -698, -2545, 4316, 2420, -1662, -3216, -968, 346, 1836, 4551, 800, 1911, -255, 8471, 5945, 2377, -2659, 2055, 5804, -1864, 2444, -1238, -6440, 724, 2453, -5860, -13919, -5105, -3761, 3057, -213, 7905, -1161, 6613, 1625, 4360, 3625, 3576, 9036, 51, 2132, 10038, 3828, 1733, 5505, -3407, -7224, 6428, -611, 6421, -7828, 678, -1592, -47, -3208, 1680, 5356, 2377, 2863, 5927, 6322, 6967, 4184, 3304, 5201, 2529, -3659, -2129, -1524, 6897, -948, 5017, -785, -1385, 6151, -6992, -2817, -994, -272, 268, -675, 6, -8469, 4879, -5273, 3532, -4299, 6003, 841, 5728, 736, -1721, 3342, -155, 2016, 3198, -6076, 1917, -5385, -2016, 291, -2294, 1939, -3863, -3866, -1548, -3516, 2175, 3231, 3433, -2809, -2648, 4034, -2563, -4711, -5850, -1757, -4577, -322, 641, -4969, -195, -1544, -4129, -2515, -1320, -14395, 4451, -3220, -2964, 2286, -1988, -1183, -3787, 3184, 7004, 2743, 9428, 9436, 7316, -2113, 2967, 4956, -3232, 1015, 1335, 619, -1112, -7035, 3446, -2522, -9033, 5092, 3302, -2626, 6140, 4750, 2241, 1341, -1341, -1831, -814, -1281, 9312, 5191, 1202, 7849, -150, 3991, -1761, 1963, -1563, 1341, -629, -1166, 326, 3113, -9272, -1653, -2273, -6739, -2428, -5695, 7668, -302, 9720, -1271, 5533, 1080, 3451, -2145, -930, -194, -76, 393, 11536, 1258, 1186, 3281, -80, -6063, 327, -2567, 3335, -1942, -4964, -4013, -4106, -2949, 1990, 1455, 1290, -4348, 381, -5651, -4715, 1180, -7203, -4640, 472, -1925, 9436, -2122, -4711, -5196, -8554, 7730, -104, -8469, -5170, 688, -6020, -6584, 1264, 1012, -6897, -6130, -7102, 4676, -9303, 1655, -2146, 10180, -2616, -5596, -5638, -3077, 4333, -4498, -2766, -3740, -407, -485, 237, 3443, -3460, -645, 598, -471, 1524, -946, 4365, 4973, -960, 6214, -543, 642, 4288, -4239, -3769, 6019, },
        { 2700, -3242, -6799, -7230, -659, 2772, 6798, -7946, 320, -3890, 3596, 4236, -4125, 1221, -1250, 0, 2709, 9209, 2722, 3397, 6331, 24, -5470, 8991, 1819, -524, -1196, -5532, 341, -1564, -2461, 3205, -1300, 989, 5755, -3401, -4269, -7781, 2316, 2180, -4058, -4283, -709, 2729, 1475, -1832, -1306, -4683, 9631, -5718, 2373, -809, 8766, 413, -2777, -270, -4883, 152, -1872, 6191, -972, -8429, 3142, -3292, 94, 2523, -544, 2132, 1361, 3620, 10073, 2826, -2879, 4233, 6202, 11059, -2587, 1180, -12139, 1202, 325, -534, -1122, -2066, 6761, -3904, 581, -632, -2591, 3145, -871, -1692, 2905, 707, 1560, -1650, -3028, -235, 1651, 2719, 1831, 7953, -1853, 674, -5357, 102, 2762, 4289, -303, -3108, 4816, 1665, -6528, -719, -3135, 3000, 979, 176, -6685, -1268, -1899, -6362, -7017, -4151, -1895, -3201, -2372, 2856, 5223, 4985, 1717, -891, 2281, -4443, 1123, -4337, -3048, 1242, -51, -1128, -1804, 11695, 2475, 1317, 2585, -585, 2580, -1067, 1361, 2507, -539, -6166, -2352, -8656, -20836, -5362, 2324, 1342, 6015, 5022, -1330, 2096, 8071, -1664, -120, -1947, 2352, 5613, 6480, 6089, -3032, 3633, -756, 6241, -52, 4598, -3721, 4659, -2317, -2033, 751, -16209, -14262, -11367, 9343, 3727, 6769, 4171, -3488, 4744, 1689, 14457, 1196, -6912, -4525, -957, -242, 219, -2847, 2881, 1101, -1290, 753, -88, 202, 3605, -3450, -5180, -4345, -12156, -23067, 3218, -278, 4482, 3440, 4694, -142, 2977, 5168, -3405, -8913, 513, -2689, 2663, 1627, -1894, -2419, 2335, 1239, -4351, 2398, -3362, -2509, 64, 3314, 1784, -11888, -18311, -7737, 33, -399, 7169, -3147, -3790, 5500, 1997, -3102, -2004, -8642, 2848, -2442, -2172, -3875, -3710, 900, -212, -4445, 667, -1614, -791, 1423, 276, 2124, 3563, -6436, -15003, -4730, -897, 5901, -1547, -4044, 1441, 1557, 355, -7404, -5065, -7836, -9587, 3118, 3000, -4654, -1139, -814, -3745, 426, 5127, -4438, -5104, -29, -4454, 5945, -1551, -8428, -11743, -7494, -3519, 1075, 5467, 3330, -1470, -951, -6219, -3923, -4205, -3555, 611, -450, 2756, 529, 2560, -1538, -2393, 1912, -1809, -3398, -3484, -3530, 537, -6015, -1382, -10135, -5426, -3221, 3048, 15211, 1720, -2786, -2722, 715, -1701, -372, 421, -1875, 280, -4928, 1269, 3066, 4656, 3, -2827, -10026, -700, -232, 3215, 932, -82, 5473, -3519, 194, -4978, -748, -2695, 5177, -1307, 3510, -1983, 2409, 7635, -3977, 1511, -6917, -5074, 812, 257, -514, 5524, 5389, -6837, 1306, 983, 5908, -139, -4087, 5694, 643, 1918, 1060, 3367, -4267, 886, 3525, 2082, 1721, 5630, -270, 2703, -2273, -3054, -1621, -8890, 8636, 6113, -6536, 3957, 4878, 1498, -4657, -232, -3816, 5798, 3639, -2279, 2719, 2524, 552, 3417, -926, 1767, 6693, 4249, 763, -2332, 3562, -5629, -2115, -76, 2054, 3228, 504, -4472, -2326, 5316, 1267, 2426, -2610, 3203, 663, -2937, 1002, 269, 3467, 7498, 3812, -5071, 1533, -2272, 6894, 2279, 1757, 4606, 39, 3144, -6327, -1421, 5869, -412, -655, -9226, 7747, -5031, 29, -3465, 6915, -12131, -5338, 9823, 5437, 8226, -5405, 2382, 2246, 6638, 1010, 811, -8157, -2852, -5141, -3616, -3880, -1897, 2731, -3401, 8156, -3490, 5572, 5001, 67, 295, 5557, 1672, -2214, 2384, -993, -690, -3299, -5074, 102, 4284, 1051, -3847, -676, 3181, 2320, -3892, 112, -3312, -4290, -2276, 1428, 911, -1129, 3279, 3536, -1452, -8040, 2800, 2594, 2327, 243, -5063, -545, 4613, 1822, -888, 1814, 2007, 5041, -4339, -6951, -6247, -8421, -6373, 4907, -7811, 2251, 4583, -2225, -2348, 2763, -2770, 1537, -3744, 297, -814, -2482, -4361, 5600, -234, -5473, -5390, -3702, 7230, -7568, -1106, 1663, 3001, 1224, -8592, -5179, -8218, -3662, 3218, 1094, -4128, -5853, 2245, -2100, -3388, -604, 7077, 1371, 874, 963, 1985, 1737, 75, 6424, -205, 1505, -7067, 3255, -4314, -6782, -4057, -10584, -640, 4867, -2468, -8890, 205, -4417, -2571, -6226, -975, 2063, 3735, 2978, 800, -4913, 2153, 3140, -10380, 5504, -8315, -7256, -4455, -5644, -346, 3174, -6674, -4962, 521, -1684, -787, -5778, -567, -8717, 2169, 2116, -3656, -6039, -414, 4147, -194, 334, 7572, -3549, -7464, 1987, -3567, 3341, 5176, -347, -4935, -712, 492, -6093, -10370, 1671, -7706, 3702, -5804, -2220, 2281, -4336, -467, -3265, 4399, 2599, -2513, 5812, -10981, 84, -3128, -6299, 1195, 2988, 5038, 6164, -1530, -1821, 1918, -2398, -3774, -2996, 1950, 789, -418, -5745, 1476, -1069, 1455, 5313, -2213, 4120, 7137, 1712, 10620, 1512, -1168, 1215, -1304, 4345, -472, 1769, -1977, 4518, -3854, -306, -2763, -2534, 288, -989, -4386, 884, 7572, 3270, 1716, -2073, 9675, 2934, -4590, -3938, -57, 5074, 1989, -494, 542, -2010, 1370, 7632, -1383, -2261, -1885, 758, -2413, 968, -5125, 1872, -3464, -1514, -3618, 1680, 3534, 1703, -3899, 2270, -2357, -2154, -2899, -2501, 1773, -926, 4832, -1630, 4400, 1531, 1030, -5213, -1454, -1313, 3961, 1969, 2468, 1671, 1553, -2490, -4867, 3040, 6654, -8016, -2514, -2681, 4410, 2395, -2535, -1116, 2888, 5908, 1961, 3856, -2065, 1005, -7981, 4058, 3652, -5254, -3168, -2962, 9102, 4758, 838, 3760, 3348, -4429, -14, -1076, 464, 3734, -2409, -3695, -5798, -2181, -1675, 780, 6083, 2485, 4261, -870, 1846, 5334, -4807, -7446, -2986, },
        { -162, 529, -2285, 1238, 3861, -1885, -5022, -2605, 8014, -9219, 1966, -1836, 3017, -5850, -3057, -6898, 1284, -4530, -1375, -4607, -1181, 4938, 4608, -1751, 3026, -3985, 2863, -1075, -1368, -3742, 1127, -8295, -1749, -1315, -2406, 231, 4705, -1959, 2931, 3970, 7689, 1678, 224, -541, 7441, -2659, -9804, 4514, 995, -233, 1471, -383, 4123, -6505, -823, -2309, -7179, -2763, 5419, 4717, 6062, 1973, 621, -980, 1720, -1149, 1663, -4807, -252, -2147, 4100, -8743, 435, -6104, -792, -1968, 930, 5735, -1348, -2334, 8591, -3051, 5849, -3707, 5497, 925, -3759, 5589, -5156, 496, -2577, -5302, -4445, -8571, -5990, 3541, -5348, 11038, 1612, 2905, 3746, 1897, 3331, 1039, -2442, -8281, 2473, 4734, -6290, 2472, 1713, -1466, -3396, -1005, 1409, -5760, -3088, -7805, -3763, -3061, -6060, -3147, 9166, -2993, -7353, 5, 469, 6090, 2467, 6666, 1783, -1046, 7242, 6599, -5660, -407, 4830, -4196, -5604, 2208, 5683, 3606, 3280, -2829, 1998, -2831, 3911, -7869, -1298, 339, -1419, -1248, -3590, 295, -733, 1822, 12217, 5418, 2106, 2229, 1317, -4485, -2669, -1889, 1768, -4605, 4089, 4766, 3762, 1548, 2258, -2005, -3393, -6865, -4310, -10901, -6021, -10649, 3178, -4607, -239, 4239, 608, 4595, 1619, 3745, 8855, 4302, -12, 11478, -2840, 2578, -6612, -1028, -4246, 2128, -689, -3206, -8463, 2008, -1354, -6162, 57, 5847, -2054, 3061, -4177, 2510, 4764, -6923, -1695, 1092, 4582, 9973, 2055, 9493, 2572, 2260, -2983, -1523, -3315, -7601, -10211, 2277, 2847, -2285, 1169, 6918, -605, 2574, 3280, 2731, -3676, -1855, -79, -6639, -1252, -1541, -3104, 972, 11349, 6720, 10494, 3304, 7234, 1340, 5093, -4087, -5646, -2618, -2850, 2406, -4273, 4832, 1621, -3538, -2439, 1277, 3167, 3915, -1142, -1716, 3726, -6947, -721, -2268, -3197, -10455, 667, 243, 10552, 6888, 8673, 4786, 5404, -5386, -7261, -6350, -7100, 1125, -2220, 5306, 8183, 411, -3445, 5536, -3798, -3023, -1728, -3667, -8086, -7599, -10452, -9125, -7793, -6674, 2568, 10163, 12409, 9117, 10255, 150, 1334, -272, 2303, -2495, 2112, -4795, 3131, -1381, 2768, 3270, -859, -11858, -13, -8129, 1089, -13280, -11585, -8659, -2507, -7793, -4719, -15529, -1914, -2612, 8719, 4644, 732, 2939, 9506, 7338, -990, 651, -2382, 3536, 4088, 1174, 2739, 13728, -2454, -281, -14281, -15658, -7963, 3248, 1488, -5271, -3346, -1816, -9649, -5002, -6653, -2167, 4478, -6268, 7615, -860, 3606, 7222, 9094, -1476, -460, 5730, -950, -6748, -2009, 5233, 875, -14128, -2364, -3935, -5314, -934, -1606, -2272, -6919, -8655, -3764, -5226, -6044, -7581, 1918, 5270, -2555, 2422, 1865, 1577, 2500, -997, -470, -1896, -1080, -4798, -4280, 896, 3828, 6706, 1510, 6955, -839, -751, -406, -62, -369, 2588, -6145, -9441, -2599, 7348, -25, -5559, 5629, 6423, 789, 5720, 1676, 2724, -1729, -1748, -2483, -397, 3663, -8780, 6377, 4029, 2172, 4066, 6477, -2248, -5270, 4389, -637, -8163, -1618, -4145, -9034, -3861, 7860, 281, 5155, 2496, -2103, 2182, -1559, -470, -86, -2129, -3131, -193, 1179, 2227, 4022, 1055, -1630, 1358, 1355, 2542, -222, -7371, -5322, -2445, -3790, -6860, -856, -445, -1068, 2354, 2828, 4743, -1808, 2657, -2426, 2955, 6355, 1946, -3103, -2805, 33, -706, 4623, 5162, -2647, -3216, -2811, -306, -5496, -9962, -3102, -6904, -5109, -9530, 128, 5408, 497, 1597, -1564, -4278, 2011, 1422, -3980, -28, 4265, -937, -2545, 3517, -2760, -122, 3052, 883, -1621, -805, 5627, -2229, 6595, -2279, 435, -1946, -1932, -1474, 4555, 3964, -34, 7057, -5383, -6823, -1567, -5321, -659, -2484, 2667, -2582, 7816, 3126, 781, 3274, 3572, 9854, 3289, -3119, 5772, -7058, 9576, -1790, -1715, 2127, 490, 2279, -2499, 1275, -3110, -8953, 4965, 1531, 1393, -11554, -177, 5555, 2625, -4357, -190, -4916, 1206, -84, -3764, -5285, 511, -2257, -4876, -2911, 4849, 4399, 2671, -447, 1231, -4745, 2460, -4179, 4220, -6203, -1500, -1070, -1464, -5235, 2148, 4754, -7285, 3725, 4555, 3194, -2895, 1797, 5265, 3933, -4696, 3, -763, -4281, 9138, 9927, -2150, -2065, -8093, 4514, -3211, 335, -1690, 877, -7865, 8238, 2230, -2597, -4341, -4096, 1221, 5974, 2680, -4786, -1121, 4878, 2497, -10058, 2550, 7073, 1396, -302, -4583, 3648, 1232, -2077, 6039, 3434, 7786, 2475, 4576, 728, -7988, 7308, 3279, 1021, -980, 976, -2545, 2289, 266, 6606, 1398, 600, 3961, -2521, -805, 1315, 2229, 3146, -5661, 7543, 1388, 478, 212, 5220, -2887, -3309, 2105, 3165, 543, 3613, -1900, 2910, 1894, -816, 1047, -5221, -7619, -119, 1, -370, 1087, 6045, 487, 2861, 1763, 1432, -794, -5683, 10201, -7148, -3429, 5387, 820, 7223, 458, -5313, 1957, 2647, 6142, -3307, 2104, -677, 4406, 4671, 2979, 3800, 566, -2551, 647, 2588, 7704, 2301, -850, -6573, -4320, -1376, -1266, -5425, -671, -4269, -1631, 70, -7644, -4457, -88, -1835, 5250, 841, -2807, -423, 5346, 5267, 10028, 54, -2783, -3160, -8741, -1428, 1614, 2927, -4969, -705, -1340, -6080, 4390, -2708, -8542, 878, -1678, -4085, 11218, -4292, -1226, 1016, -3350, 4843, -7558, 4936, -10630, -12618, 896, -757, -936, -5112, -2812, -201, -5774, -4232, 13801, -2091, 4317, 606, 2716, 4992, -5106, 3213, 1391, 5480, -2950, -3721, 5385, -4705, 686, 2270, -177, -1776, 469, -3074, },
        { 1934, 8842, -3359, 6456, 4804, 2200, -1943, -1100, -6899, -4119, -2759, -3035, -4163, -6985, 238, -1838, 2892, -4748, -4293, -1944, 400, -7327, -5997, 1352, -5345, 7065, 4919, -9274, 5571, -4220, -633, 1914, 6770, -1536, 1121, 1502, -564, 477, 2937, -508, -1329, 4929, 318, -2480, 8440, 6632, -4896, -1074, 729, -958, 5932, 2348, -1624, -8664, 6068, -7867, -46, 1601, -1970, -252, 1168, -489, 2794, -3137, -2524, -4257, -6358, -5680, 3372, 945, -6569, -1830, -4393, 1120, -4009, -822, -2119, -3111, -1187, -2409, 1635, -498, 312, -2848, 5650, -3068, 203, 647, 998, -3019, 673, -2683, -1091, -4761, 2257, -3202, -5471, -5772, -4131, -793, -3727, -2835, 6911, 6023, -1241, -2317, -3792, -7989, -4140, 5680, -7865, 3848, 350, 2482, -722, -494, 6089, 862, 3177, 2853, 4046, -520, -271, -2567, -1468, -8387, -2640, -7133, -6541, -3612, -1757, 3426, 624, 6246, -5459, 7893, -1137, -383, 43, -4295, 97, 1710, 1435, -874, -7, -631, 1598, 3132, 298, 850, -2720, 232, -3062, -598, 918, 1586, -6892, 4448, -701, -9898, 312, -6063, 1140, 5002, 4378, -1946, 3834, -4833, -3558, -5765, 4051, -1796, 3775, -2252, 5860, -3501, 9471, 866, -1015, 3907, -4093, 1896, 3301, -1254, -400, -968, 883, -1414, 2421, -1523, -2060, 1142, -4062, -5611, -607, -1775, 1895, 3609, -3890, -4673, -5624, 2935, 3006, 6394, -2169, 9502, -1092, 7341, 2046, 10712, -2024, -2549, 5284, 653, 260, -878, 5748, 3078, 1135, 279, 3466, 881, -2162, 12248, -2859, 3182, -941, -50, 10512, 3524, -154, 208, 2705, 840, 1836, 601, -2893, -2513, 1348, -4022, 1240, 4860, -2585, 4994, -1440, 2456, 3675, -3354, 5075, 8860, 4308, 3590, -447, -1342, 6735, -1595, 972, 7572, -3174, 4195, 6123, 4180, -1722, 3930, 4969, 2694, 5561, 1462, 3384, 1774, 4582, 1717, 4425, -4780, 7268, -4152, 2463, -1267, -6709, -315, -6716, 1343, 2233, -202, 1486, 4884, -10813, -2681, -3391, 2283, 111, 1371, 96, 3409, 931, 1680, -2700, -304, -1067, 2690, 2315, 4768, 1136, -13447, -3640, 1321, -4350, 356, 446, 4631, -3900, 2916, 7272, 3650, 1692, -1657, -5129, 925, 2458, 3893, 432, -4472, -1837, 5998, 4839, 2078, -393, -5363, 4287, -10440, 1789, -3297, -8410, 1990, -2067, -7287, 3607, -1047, -2163, 2537, 6054, 4248, 4022, -1017, -1492, 791, 2512, 1737, -6306, 1507, 2206, 3912, 2384, 4135, 5426, 897, -3302, -92, 2494, -2028, -4750, 4817, -6378, -2362, 5761, -1121, -798, -2099, 9882, 1977, 6088, 593, 3927, -4081, -433, 791, -3018, 1240, 466, -702, 4343, -1888, 2667, 71, -278, 334, -6163, -3126, -6146, -3862, -3559, -5010, 7994, -2438, -1326, 6682, 256, 6963, 6102, 8168, 5524, 2357, 4807, 212, 1705, -867, 3547, 2523, -1963, 3643, 1870, 1679, -1345, 7084, 3149, 1593, -10179, -10022, -6548, 3344, -4283, 2170, -3289, 3552, -2850, 6978, -2300, -55, 2242, 6964, -60, -796, 4731, 1702, -4420, 8809, 3049, 3173, 3738, -3725, 4374, 3232, -1451, 2024, -9058, 1173, 4338, 784, 698, -61, 1056, 2441, -6557, 196, -310, 352, 1708, 3787, 1778, -4725, 6982, -6644, -2223, -1149, 1457, 4070, 4825, 7676, -2730, 2741, 1480, -6926, -8393, -10976, 574, -2098, -4129, -1082, -2746, -1475, 6984, -2979, 1870, 5336, 179, 3747, 5506, -435, 1237, 4392, 3327, 12400, 4962, 1800, 5456, -3488, -3101, 3254, -6725, -5374, -4583, -10225, -6825, 201, 1053, -92, -9946, 1380, -1122, -3963, -9335, -7137, -9738, -12626, -12145, 2673, -2576, -4942, -8218, -1028, -1803, 533, -2417, 4813, 856, -4482, -7404, 1143, -5173, -32, 3652, -4232, -5545, -441, -5927, -2925, -8812, -20216, -9065, -21651, -21226, -15913, -15948, -10809, -15615, -7512, -6468, -8663, -4439, -9459, -7477, 181, -760, -1545, -8036, -7581, -10261, -563, 3868, 3870, 6602, 7723, -3286, -1623, -5271, -10435, -12397, -1799, -15439, -10071, -18931, -15518, -9673, -11109, -6745, -12349, -7090, -2238, -7971, -3842, -3123, -327, 825, -1065, -4947, 4466, -5123, 7694, -5476, -5868, -4688, 5398, -11188, -14520, -9275, -9271, -5740, 1836, 1435, -2640, 990, -3707, -4934, -4734, -2933, -11780, 326, -1858, -4407, -4825, -4734, 3894, 3313, 6331, 2150, -3122, -1201, -5107, -1505, -709, -6241, -2729, 3082, 3893, 3012, 7989, 3234, 1198, 1123, -3979, -1998, -1703, -3189, 1223, -3298, -3212, -272, 3331, -10112, 4119, -3719, -7199, -682, -3006, 5548, 1873, 8233, 5105, -980, 9255, 7518, 7228, 1057, -619, 1182, 1605, -2476, -1092, 971, -7542, -8850, -10319, -12237, -3796, 723, -1481, -5839, -8235, 2369, 3858, 4911, -1523, 134, -4771, 6340, 557, 2085, 4080, 11000, 2082, 2579, -1283, -1192, 1894, -9102, -524, -578, -5229, -4930, 41, -5031, -9377, 1989, -5481, -4751, -2388, -1266, -340, 2190, 1768, -3182, 2472, 1556, -6343, 7663, 8521, -5297, 6347, -3346, 2918, 3777, 64, 7910, 1053, 2950, 5216, 5693, 2124, -3822, 3573, 8953, 7196, 5965, 6204, -2182, 2833, 2594, 6497, 2251, -4182, 5401, -972, -5115, 7177, -710, -4946, -660, -2264, 6476, -2806, 3504, -2406, 5146, -2902, 5024, -8134, 1034, 529, -185, 5617, -9467, -6856, 5615, 4333, -7064, -4519, -4917, -898, 5596, -719, 2244, -3170, 4785, -3443, -2905, 3791, 49, -1559, -5285, -4028, 4490, 2304, -9115, 1684, -3455, -5405, 1153, -1392, 5840, 1067, 369, -1220, -126, 875, },
        { -9144, 5079, 3367, 7776, -10759, 4055, -815, 5914, 7830, -708, 3874, 4384, 3937, -1512, 5159, 4459, 3464, 2810, 10941, -2162, 3813, -1117, -118, 2803, -5355, -3683, 1344, -7483, 238, -2032, -1076, 128, 1432, 3286, -1228, -7695, -12141, -3241, 841, -7690, -464, -2522, 3625, 7055, 6373, 70, 8086, 483, -475, 2179, -545, -1382, -472, -2132, -13492, 2049, -2299, -7164, 1797, 1765, 2465, -2845, 5074, 356, -1335, 3564, 2931, 3418, -2018, -5114, 2097, -2580, 5271, -3747, -3225, -2057, -3992, -76, 5229, -1286, 4609, 4447, 4397, 2462, 3490, -617, -5308, -983, -2988, 4990, -2440, 4786, 1314, -187, -633, -2051, -630, -684, 8560, -3607, 238, -3447, -4627, -4925, -2100, -3525, 1558, -1239, -3939, 1529, 2262, 1775, -2933, -3627, 1046, 2264, -190, 3110, -7610, 721, -6881, -484, -8712, -3720, -2597, -4885, -5347, -2045, 6273, -5119, -4904, -11850, -2893, -1601, -3528, 4804, 2981, -869, 1255, 4705, -416, 19, 2022, 3050, -6687, -8551, -187, -1818, -4968, -2166, -8166, -4423, -6427, -5471, -8702, -3818, -7910, -14487, -1090, -9744, -2393, -9423, 1266, 2457, -732, -3439, -3982, 2885, -5723, -3513, -4292, -8404, -587, -5234, -1869, -120, -1315, -4210, -2101, -1993, -417, 1472, -2671, 5697, 8286, 3457, 1237, -4546, -4332, -1907, -7386, -8290, -1360, -9851, -1172, 1684, -6493, 1921, 6507, -177, -77, -3693, -6399, -2061, -4702, 4446, 1687, -2120, -6606, 1938, 3704, 8339, 9506, 10543, 5113, -1619, 2811, 510, 7450, -9043, -8845, 859, -424, -3450, 1706, 3667, 215, 825, -771, -7242, -4357, 3731, -3221, 51, 3536, 1008, -58, -3783, 3736, -105, 10660, 4486, -5963, 6102, -3458, 3187, -6802, -1537, -8982, -2522, 838, 325, 448, -4279, -1726, -4214, -386, -3086, 1050, 1042, -141, -809, 8651, 838, -158, -3189, 8869, 11969, 2853, 6105, 9474, -2637, -1485, -1714, 707, -6893, 5411, -2199, -506, -4717, -180, 677, 7169, 7365, 550, -1264, 8033, -1006, -1112, -259, 5475, 1422, 800, -2660, -666, 14406, 5349, -2133, -4374, 1757, -1903, -33, 169, -2451, -5733, -2595, 19, -1648, -1996, 863, 3976, 3068, 7476, 3386, 5686, 7075, -4523, 4354, 4619, 2583, -5472, 6490, 8326, 12718, 4988, 6097, 2421, 747, 5771, 7578, 3147, 6430, -4394, -1524, 2331, -2572, -5063, -2460, -2012, 6287, 6580, 1739, 8, 7842, -1372, -578, -4344, -2061, -5727, -9463, 5038, 882, 6234, 8127, -5096, 6474, 7746, -1233, -9151, 225, -2581, 6394, -33, 458, 4265, -1850, 3206, 3958, 3225, -409, 2660, -2656, -1376, -5006, -841, -5594, -4523, -3826, 4955, -5594, 8130, 6651, 613, -803, 1360, 4907, -735, 3147, -7253, 2320, -3163, 3926, -5963, -493, -6140, -2134, -3169, -5708, -1351, -5774, 5235, -6613, 521, -5471, -3826, -2358, -4530, 54, 2215, -2305, 4760, 5864, 6377, 1879, 5326, -3717, 2151, 5423, 545, 804, -1365, 5000, -3268, -1659, -2307, -610, 3349, -6941, 2981, -2218, -1328, -1253, 1415, -4255, 1037, -805, 3848, 7169, 6986, -630, 3398, -3492, 4834, -5672, 143, 6450, 3461, -4696, -2562, 4627, -2328, 4333, 795, -8214, -8466, 8481, 6089, 72, -2805, -7972, -6652, 1316, 3408, 1989, 3293, 8915, -4902, 5997, 1465, 301, -4936, 1220, 3662, -1419, 2747, 926, 4259, 1423, -11083, -272, 2430, 4614, -4645, 6809, -872, -1970, -911, -1962, 577, -2854, -1798, 6916, -5761, -3725, -2490, -1409, -6306, 9920, 1916, 272, -1961, -4506, -3686, -90, 1881, -4060, -3000, 3218, -5094, -1465, -4021, -4019, -333, -1892, 8159, -1327, -8133, 1710, -5657, -3360, -7487, 5919, -982, -5586, 1829, 2729, -1016, 2464, 1198, 3388, 968, 4711, -9528, -1818, 132, 2421, -823, -4634, 746, -2800, -2843, -4794, -6491, 196, 1602, 2177, -3317, -314, -5337, 985, -5635, -924, 1724, -1550, -2575, 5593, 4134, -2072, 5542, -1610, 2054, -127, 3240, 3579, -3287, -4233, -411, -10444, -2349, -6703, 501, -4864, -5612, 1520, -3712, 578, -9885, 2223, -2725, -10607, -1782, -2009, -8986, 5491, -4233, 3445, 887, 2677, -1103, -2571, 3988, -7786, 3382, -8775, -6936, -5910, -6898, 5479, -9962, -2815, -7190, -8514, 932, -4439, -1165, -10364, -7469, -8724, -1369, -9718, -10991, -11232, 1689, 225, 7235, 4947, -574, 5733, 8315, -3800, -6841, -6497, 19, -7138, -4068, -7335, -129, -6373, -4465, -764, -2615, 2490, -5654, -3360, -6225, -7276, -5739, -6640, -7393, 8390, 4393, 3957, -2850, -7736, -779, 6820, 341, 328, -1092, 82, -653, -2269, -3835, -4972, 1752, 1494, -1555, 1093, -6780, 116, -1981, -3776, -7017, -8515, -5231, -144, -2666, -3118, -3058, 3700, 2401, 3658, 294, 2985, 3701, -891, 2347, 4554, 4093, -5382, 5714, -5479, -2942, -11328, -10338, -9421, -7926, -878, -4308, 1211, -600, -2594, -3516, 353, 261, -4027, 8518, 4209, 1820, 3705, 1265, -1932, 128, -4979, -526, -4283, 142, -2162, 2915, -279, -1316, -576, 1285, 1594, -390, -6718, 5217, 5486, 10899, 2463, 8649, 7064, 1023, 10447, 4155, -2489, -5779, 5711, 2858, 6500, 1878, 3295, 4958, 655, -345, 3761, -1708, 5038, 1243, 313, 2569, 3790, 12687, 3898, 30, 5734, -4938, 5778, 2513, 2681, -9554, -5550, -3630, 390, -2878, -4989, 7737, -385, 825, -2999, 5225, 3047, 4109, 315, 1426, -477, 389, 3184, 491, -8444, -3473, 4341, -6041, 4828, 5150, 5886, 2226, 731, 3789, 2651, -5758, 3073, -1048, 8755, },
