int32_t weights_hl[30][784] = {
        { -1604, 5258, 12355, 2597, 8305, 3259, 5048, 853, -1415, -1604, -389, 4489, -4034, 6693, -2679, -3530, 6439, 1227, -1079, -6023, -6672, -2671, -3631, -5543, -4149, 2872, -2600, -10730, -5082, 2493, 3137, 6909, -218, -2980, -6321, -6244, 5935, 2971, 2084, 310, -5225, -3828, 4445, 971, -1817, -3634, -3397, 619, 337, -163, -1550, 8090, -2888, 3752, 2623, -2124, -3, 4616, 2007, -6759, 874, -5847, 325, -2438, 2300, -1779, -658, 5102, -2201, 4906, -1522, 683, -591, -1344, 361, -5253, -2241, -6849, -2401, 6036, -3393, 1764, 6064, 2853, -1926, 4815, 4589, -3318, 1038, -142, 219, -2336, 810, 436, 515, -4696, -1913, 3567, 1908, -2102, 826, 8846, 472, -558, -7133, -2003, 1467, 3397, -5650, -5374, 5874, 4900, -3092, 1878, -293, 7019, 135, 7471, 9277, 1754, -5378, 3189, -3180, -4937, -1056, 2027, -8408, 634, 6954, 2643, -1555, -3889, -3815, 2757, -4037, -342, -5249, 3618, -339, 4839, 3689, 4382, 7262, 3133, 1659, 7051, -2301, 2046, -7862, -1829, 8156, 2961, 4226, 6969, 8693, 846, -870, 888, 1624, 4132, -532, 3397, 6237, 7760, -2574, 1894, 542, 353, 4491, -2340, -1571, 566, -3491, -1098, 4899, 169, -1623, 2198, -8698, -992, 2642, 2161, -1353, -560, 1582, -2175, -606, 2637, -3047, -1478, -3619, -1234, -5159, 6760, 4301, -4510, 245, 16, 6674, 9254, 1175, 1418, -5213, 616, -1543, 1398, -5426, -2602, 37, 690, 6247, 4583, 4028, -1207, 3138, 3824, -1677, 9085, 583, 189, -3524, 277, 554, 2416, 3712, 3850, -1598, 1580, 2369, -578, 4989, -1697, 2584, -5188, 1359, 1309, 9964, 3212, 4678, -712, 1152, -3324, -10956, 3237, 316, -4689, 9437, 3655, 3680, 3669, 4506, 4314, 204, -993, -1485, 408, -5596, -7161, -1471, -2899, -610, 1769, -3035, 7346, 5451, 4379, 4313, 2104, -2110, -1016, 2560, 1857, -6845, 4835, -4326, -4725, 4517, 2815, -2377, 1887, 638, 122, 6238, 7710, -3191, 4400, 460, -4726, -3908, -3715, 5668, 16287, 10989, 7054, -1575, -5735, -2836, -2393, 4087, -5038, 3188, 410, -1079, -6907, -6710, -1424, 106, 4640, 1835, -4494, -405, -2206, -1525, -3629, 3583, 2736, 1513, 3096, 4020, 1436, -6053, -5866, -13969, 3519, 321, 9614, 3491, 15352, 7972, 213, 992, -6394, 132, 2404, -7053, 2824, 2315, -161, -1008, -1821, -555, 449, 7579, -570, 2032, 6255, 4126, 5811, 2769, -1943, -1794, 9525, -4371, 989, -2487, 3897, 2054, 6097, 6379, -1295, -1858, -6860, -1323, -2584, 2126, -5284, 0, 4823, -3430, -3242, 1773, -4954, 2628, 1153, 2047, 2955, -6939, 8871, -1248, -4771, 1202, -2396, 845, 2896, 892, 3625, 2844, 2017, 4272, -6617, -6176, -2840, -2454, 1538, -56, 2437, 2482, 1979, -5338, -5132, 2020, 2468, 4610, 5770, 28, -1508, -439, 294, -1788, 5481, 3465, 6841, 2921, -661, -1340, -699, 4060, -2550, 3872, 3384, -1577, 768, -1358, 2816, -1917, 5091, -8454, -2734, 4556, 7226, -7844, 3779, -1640, 2245, -4614, 4170, 699, -823, 9319, 2970, -4244, 204, -277, 2619, 3718, -2342, -3439, 1051, -5322, 71, -4579, 2347, 622, -2561, -5997, -3657, -1137, 2087, -2819, -4849, -3429, -1038, -1435, 5546, 11, 1256, 123, 4696, 8118, -7018, 55, 3656, 1466, 1066, 1351, -1793, -3941, 1380, 1692, -8260, -1164, 180, 90, 7702, -920, 5965, 2117, 131, -6889, 1644, -1180, -3198, -2773, -3654, -3391, 544, 4147, -1332, 193, -546, 1342, 3250, -3667, -2358, -1568, 7471, 541, 300, 5908, 1116, -893, -1530, -2283, -2286, 4731, -911, 372, 8547, 4687, -7133, -4245, -5368, 6009, 4595, 6236, 5202, 3061, 4385, -6071, -3679, -224, -3285, -6943, 4411, 1419, -1403, 3698, 7404, -1553, 3235, -2364, 1122, 1877, -3248, -7132, -5138, 8115, -3084, 2567, -2771, -4396, -656, -4475, 6954, -1534, 2737, 1537, -3659, 3198, -5604, -1703, 6261, -1179, -5470, 442, 4774, 4809, -98, 3383, -7289, -2742, 1480, 1103, -38, -181, -4983, -2142, 3409, 642, 2699, 2061, 5324, 5805, -1029, -1707, -2637, -2141, 425, 220, -3271, -1633, -3973, 1668, -3190, -336, 1943, 1339, -3556, 279, -1357, -220, -5948, 1243, 7276, -652, 5250, 3003, 6827, 2256, -631, -571, 6542, -763, 1450, 4542, 5714, 3758, 368, -3300, -3720, 3275, -5047, 395, 3160, 592, -3294, -2245, 2383, 5280, -7305, -454, 6202, 7056, -1046, 849, -271, 968, -5026, -4309, 3214, 2532, 2993, 4723, 4753, -410, -2093, -5953, -5084, -300, -1997, -1009, -246, 1186, 1175, 708, -3953, 9373, -845, 1802, 5515, 3153, -9374, 3932, 6184, -1829, -6116, -2587, 376, 1364, 1590, -1207, 4277, -1363, 1137, -2619, -175, 5523, -763, 2339, 4760, 3348, -6234, 8761, 2920, -4519, -3447, 1210, -603, -4345, -4495, 5109, -4595, 2463, -142, 5755, -2682, 2305, 1175, -1613, -4602, -5, -2291, -3440, -2861, -480, -8878, 1624, 2744, -5063, -490, 2269, -5235, -3456, 6645, 160, 2905, -1820, 4022, 1918, -4206, 614, -464, -2775, 2380, -968, 7944, -2464, 7348, 2600, 4660, -1794, -1156, 8322, -2488, 921, 1775, -293, -1065, 909, -213, -5802, -7161, -2701, 2439, -4030, 1421, 420, -7957, -2710, 2011, 971, 2985, -4516, -2659, 4338, 1805, 4394, 1817, -536, 2627, -3615, -1158, -2177, 3495, -2803, -8059, -226, -2527, -1105, -949, 681, -3204, -2123, -5798, 2218, -4540, 3979, -4804, 570, -5363, -635, 2267, -4078, 1467, },
        { 1748, 2337, -1936, 474, -789, -1300, -4128, 4120, -2241, 1410, -1755, 1207, 2511, 2496, 6321, -6850, -2160, -9068, -7513, 1170, 565, 3966, -1085, 7911, -5179, 5960, -234, -4592, -1145, -616, -1583, 3196, -7537, -1526, -3692, -1938, 2899, -4326, -1097, 959, 1415, -973, 357, 5407, -1515, 2273, 2201, -534, -7004, -2374, 3100, 114, 5432, 8014, 6047, -505, -6456, 4624, -5884, 3056, 5144, 2109, 9146, -1518, -2282, 2784, 3210, 4917, -2477, 1161, 5001, 4386, 9242, -423, 2473, -4294, -164, 6097, -6692, -2769, 731, 271, -2323, 4037, -2203, 3859, -3255, -4915, 2025, -8165, -4583, -2737, 6280, 2065, -3920, 1961, -1829, 616, 1609, -5959, 234, -5217, 1175, 6454, 3889, 10428, 1495, 5754, 2025, -4903, -739, -9235, 4315, -6848, -2380, -2650, -1720, -2639, -1465, 456, 513, -8582, -4384, -5136, 3560, -257, -6745, 5204, -5853, 4587, -3106, 8058, 1552, -10708, 602, 6748, 2813, -206, 2970, 2135, 1732, -3251, -2269, -4511, -8841, 3574, -3834, -76, -7113, -6241, 1085, -5479, -3359, 6064, 3094, 6645, 3709, 7356, 3051, -4479, -860, -1864, -6761, -7447, 3653, -6297, 5827, 5119, 1024, -1567, -2035, -11605, 3664, -1486, 1125, -119, -1451, -10028, -5987, -14375, -1721, -2407, 3094, 14033, 109, -4058, 714, -7542, -11159, -11225, -777, 3084, 1830, -2547, -7572, 953, -7855, -1248, 1794, -6244, 274, 410, 517, -1538, -1243, 1257, -7144, -14065, -1497, 3599, -905, 1284, -4138, 2281, -1603, -10578, -6846, -9249, -856, 2181, 4185, -5750, 3437, 2884, 3041, -1966, -999, 4696, -6426, 61, -400, 706, -4177, -1774, -3028, -8893, 3953, 3711, 9749, 12018, -1004, -4132, -839, -16261, -3386, -4160, 97, -6073, 1225, -1042, -2360, -4994, -1510, 4571, 7370, -1070, -2612, -4683, -3643, 1454, -160, -4003, -10180, -12071, -4454, 1576, 8607, 2293, -3059, -4844, -6723, -5832, -3274, 1471, -5881, 1952, -2812, 1948, -5813, -4426, -1733, 99, 3479, -1934, -759, 8921, -361, 579, 3554, 626, -2097, -7461, 6392, 1685, 10070, 5399, 1112, -152, -7260, 907, -3034, 2680, 5474, 3097, 4817, -7528, -3479, -1019, -6603, 3886, 2309, -290, 1067, -4816, -1076, 5987, 2515, 1377, -4154, 565, -6263, -3656, 3617, -3797, -1648, -1669, -10641, 4549, -503, 5888, 765, 6374, -3175, 2031, 4194, 1883, 4680, -973, 8109, -7269, -6373, -1954, 1666, 6564, 5617, 2363, 6078, -728, 367, 1842, -5850, 1374, -4191, -7279, -7483, -7636, -1112, 1112, 3847, 2110, 4793, -879, 3890, -1572, -740, -10737, -1435, -3229, 1400, -179, 3850, 5354, 606, -2332, 2437, -1605, -3148, -4113, -9258, 4558, -5398, -1590, -6065, -6158, -11114, -1413, 9399, 4224, -4611, 5541, -6255, 551, -2598, -671, 10350, -5918, -7522, 6233, 8200, 10895, 1577, -578, -3658, -1063, -248, -7812, -2709, -3740, 6041, 1345, 989, -2226, -2372, 5764, 4616, 15629, 11037, -5727, 1541, -3284, -7651, -2305, -2927, 5331, -3074, -2417, 4872, 5076, 2690, 4245, -3427, -734, -135, -3896, -2885, -2290, 1921, 4268, -2874, -9054, -2968, 5750, 11011, 6148, 1839, -3908, -3224, 2617, -4332, 1689, -3284, 3622, 1408, 2188, 4168, 2140, 2425, 550, 2568, 4894, -2712, -2845, -3907, -2527, -1519, -11287, -12600, -7318, 3543, -1726, 6805, 788, -1070, 2223, 819, -1579, -2956, -7798, -1577, -1462, -168, 751, 6607, 8134, 5557, -5392, 139, 3892, -1942, 6681, 4816, -2749, 6316, -10574, 4246, -1100, 5755, -2836, 1564, 8156, -8852, -2981, -2176, -1422, 53, 4052, 4608, -1003, -1903, -6938, -2516, -2544, -4859, 1351, -1647, -5476, -5587, 7382, 4522, 4752, -407, -2531, -4426, 2679, -5536, 1008, 1590, 1902, -1967, -4242, -4753, 3197, 2390, -24, -3723, -2285, -857, -1118, 2368, 2961, -3435, -774, -3871, 1417, 5286, 4806, 6341, 7513, 4474, 1415, 250, -2157, 1182, -1258, 922, 1264, -889, 149, 4218, 6809, 5621, 1407, -6986, -6860, -1709, -5140, -5232, -8836, -3834, -5305, -7515, 7354, 3227, -4213, 723, -2759, -260, 3657, 4655, -2511, -2571, 4078, 2086, -3212, 4823, -3210, -2064, -546, 3579, -4324, -5023, 3571, -6586, 7593, -784, -674, 2565, -4336, 5026, -629, 12334, 2613, 4458, 2411, 6477, -1377, -925, 3131, 2080, 132, 7816, -7548, 2943, 5800, -5359, -1374, 2015, -7235, 3066, -2465, -1216, -1281, 3453, 803, 557, -824, 694, -6274, -2373, 2931, -4696, -3686, 1704, 4160, -61, 3617, 2421, 175, 2064, -6116, 343, 1033, 4121, -2923, 1621, -181, 5737, -2987, -2078, -3070, 3241, 1461, -3336, 990, -4039, -917, 3856, -7692, -551, 942, -81, 1794, -1317, -4435, 848, 2995, 943, 1933, 1463, 14068, 493, -116, 5312, 4827, -6511, 660, -581, -2417, -3476, 2363, -751, 132, -930, -1674, 2563, -1066, -4331, -7484, -1010, 7324, 3441, 9543, -3611, -5028, 1576, -3106, -5950, -3573, 2070, -3760, -812, 3596, 8340, 2613, 4917, -3644, -7181, 5427, 2397, -189, -5716, -8653, -6728, -79, -1414, -497, -8308, -5330, 3840, -1524, 7054, -3278, -1489, 1924, 2526, 3597, -603, 3865, -2523, -4367, -6174, 2141, 4379, 1903, -1048, 7840, -4212, -734, 2936, 2262, -5277, -6576, 532, 4597, -4147, 230, -253, -666, -541, 182, 6531, 280, -7563, -6058, -9759, -2800, 462, 4489, -614, 2844, -2544, 1806, 3395, -1746, 4443, -1963, 5457, 5649, 4857, -4882, -3039, 5299, 6455, -2274, -435, 1660, -594, 4307, -655, -336, -5405, -116, -3211, 1835, },
        { -5571, 1528, 1066, 4767, -6580, 137, 2848, -3418, 8265, -3754, -1405, -2852, -636, 3029, -1495, 4229, -1117, 1405, -8894, 1795, 2269, 7333, 773, -3078, 527, -2120, -2133, 3122, 581, -311, -4423, 412, -1006, 685, -1787, -2403, 2203, 9329, -3371, 1368, -1573, 1433, 1442, 722, 3637, 6744, 858, -4446, -493, -2862, 845, 2342, -1041, 2492, -3538, -6212, -3110, -2320, -778, 5840, 4426, 29, 3217, -4794, 1611, 2193, 3228, 3854, -2777, 1073, 7818, 5511, -4837, -1124, -1469, 7347, 3080, 9, -6087, -3571, 3699, 4803, 828, -72, 2983, 186, -1866, -5958, 2096, -2800, -156, -2606, 618, -201, -2597, 7747, -1899, 621, 4357, 2179, 1881, -3162, 3998, -2903, 542, -2150, 8175, -233, 1543, 1609, -2967, -4661, 703, 1313, 1486, -3417, -1131, -2909, -2539, -821, 2920, -1709, -166, -4865, 195, -2208, 3017, -5814, -2289, -5026, -7490, -6734, 9132, -3638, 6341, 6323, 3048, -4216, -2644, -949, -6193, -1509, -1056, -4004, -7777, -12612, -2894, -7367, -760, -1667, 1479, -394, 234, -557, 8228, 646, -318, -307, -1391, 2379, -1023, 1555, -4032, -7392, 1628, -7664, -2034, -2033, -1036, 159, 14117, -1417, -5635, -5210, -13157, -621, -231, -6103, -295, -6675, 3652, 5964, -3283, -1143, -4940, -650, -2607, 1418, 871, 3359, -3034, 5193, -6296, 1046, -388, 4653, 335, 3657, 2529, -5336, -6911, -8390, -1731, 1757, 2579, -250, -116, -972, -2674, -7262, 5227, -2478, -2155, -3491, -4166, 1627, -1642, -8193, 6925, 3202, 1515, 6056, 2877, -1381, -3088, 2646, -4449, -4221, 372, 3065, -6253, 2587, -4954, 2226, -270, -3231, -1616, -6722, -6068, -3335, 3153, -1328, -2317, 3253, 357, 2332, -727, 6062, -2853, 1572, -111, 681, -5557, -3690, -935, -750, 3182, -3511, -680, 4499, -2396, 3616, 3944, 8416, 9094, -3181, -617, -10666, 2200, 5244, 5217, 997, 4556, 4370, -2110, 3876, 4138, -3898, -4983, -7508, -4370, -3196, -4531, 522, 2896, -8626, -4013, 6623, 933, 4200, 6055, 3254, 1344, -209, 4478, -6618, -6718, 1731, 14335, 5092, -861, 1665, -1123, 5045, 212, -8301, 9105, -1433, -4281, 7763, 3938, -3116, 1641, 11565, 1858, 3004, 4519, 288, 4234, 2533, -1989, -5014, -2278, -3952, -6131, -6914, -7931, 3170, -5299, 7837, 10121, 4614, 2781, -2378, 331, 3269, -1484, -2892, -1129, 2120, 6517, 4914, 3754, 4448, 12163, 1355, -3261, -1714, 1140, 3579, -4715, -8815, -5837, -7015, -5315, 4383, 5016, 10253, -1036, 1635, 2816, 794, -1786, -571, -3045, -9451, 4677, -565, 14247, 2183, -4031, 688, -775, 4247, -7791, 1440, 1721, 2013, -6997, -3614, -2031, -3954, -7239, -5495, -658, -4913, 13686, 5774, -3155, 1379, 1932, -3820, -5188, -225, 3393, 5730, -3387, 5743, 6824, 6513, 8384, -4101, 2300, 1735, 1867, -1858, 1298, -7257, -163, -5819, -8018, 7185, 4652, -6771, 3699, -5547, 4573, 5566, 6564, 85, -2875, 3053, -135, 1176, -5977, 6169, 999, 5628, 9569, 37, 3418, -8213, 325, -2178, -3759, -9597, 240, -6205, -1867, -9441, -170, -5218, -5836, -5915, -218, -1047, 660, 10, -1421, 447, -6036, -1459, -6320, 1167, 7330, 7911, 9793, 13786, 8910, 982, -8261, -2547, -4493, 2668, -2123, -830, -8063, -1477, 3432, -5607, -12143, 209, 3351, -5651, 199, 489, -1260, -1732, -3829, -8917, -4403, 2516, -3793, 10352, 6014, 15121, 22387, 21804, 17588, 13817, 1976, -1278, 529, 6434, -4838, 1096, -5018, 259, 4764, 8988, 496, -4551, 2190, -1560, -9634, 248, 3718, -7945, -8727, 3106, 455, 5055, 3536, 14737, 22381, 19693, 22769, 10148, 10052, 3861, -552, -3221, 2949, -1681, 2581, -5205, -2155, 3731, 4870, 2986, -972, -5141, -1390, -3657, -1098, 318, -6827, -16329, 2712, 4088, -6735, 3728, -5581, 5815, 1970, 13943, 3181, 769, 1035, 6501, -3674, -3095, 1230, -5346, -2312, 5854, -434, 363, -3439, -1642, -12699, -4623, -373, -5691, -1459, -3477, -6550, 1305, -599, -10840, -2854, -1891, 4065, -1673, 4313, 60, -2992, -1220, -4849, 2988, 5795, 2256, 1729, 2403, 4025, 1149, 2192, -2908, -3366, -7588, -5274, 7291, -8775, 1395, -677, 2531, 1331, 5091, -2327, 2432, -3242, 881, 2741, 809, 2220, -625, -1069, -4152, -720, 4606, -147, -7664, 6464, -2851, -3037, 1335, -2036, -3232, 3172, 89, -2955, -2348, -389, 1710, -1578, -5866, 2090, 1798, 3959, 5074, 5916, -1101, -3089, 2909, 789, 3640, -5302, 6631, 8368, 729, 1422, 4229, -1522, -822, 3235, -6, -3979, -3709, -11224, -3109, -4241, 1567, 705, -2835, -6054, 1623, 6462, 3013, -4017, 3263, 1349, 2762, -2553, -13, 9117, 1383, 3394, 4731, 4932, -713, -2720, -604, -1040, -41, 2597, -437, -5043, -8640, -6651, -8549, -7908, -3076, -3179, -356, 333, 784, -2070, 2645, -3897, 4655, 1634, 2426, 879, -2729, 1330, -1518, -680, -1269, -2736, 2448, 1438, -8932, -2223, -2150, 3337, 4839, -3967, -2313, -6752, -5969, -8906, -6430, -7603, -3990, -3835, 1089, 5562, 1458, -4805, -2859, -4171, 9023, 7654, -3750, -183, -2156, -4773, 896, -9341, 1876, 2346, -1458, 848, -3510, -2175, -1347, 1259, -964, -178, 52, 2383, -4683, -5901, -6691, 3472, 49, -4453, -3726, 2476, 6750, -2433, 3959, 5548, 2680, 3833, -865, 3230, -5146, 3291, -4045, -1971, 3295, -3102, 878, 5540, -4707, -3889, -941, 1761, 1776, 1048, 1180, 2066, -4358, -2045, 2216, -312, 1238, -3683, 5491, 3088, 2284, -6371, -1167, },
        { -5030, -13475, -6143, -2311, 750, 2261, 2743, -23, -2669, -69, -725, 5031, 732, 8038, -12117, 1915, 2939, 161, 1501, -832, -8090, 5140, 2435, -2192, -1634, -2005, -6366, 5822, -6021, -1911, -9315, 5220, -8086, -6674, -3201, 5759, -1280, -2008, 2734, -6538, 4212, -3266, -76, 596, -3961, 4422, 1009, 5199, 3264, -1159, 3891, 384, -8879, 7996, -2100, 1175, 2826, -5717, 2776, 3602, 1906, -5157, 49, -1482, 311, -1524, -2575, -5820, -6958, -5857, -4223, -7508, -10080, -3007, -3506, 1964, -1469, -1350, 4566, -1507, 3154, 1884, 4350, -3516, 3108, 4899, -1533, -690, -1342, -2635, -567, -4511, -7906, -3013, -6115, -1330, -5333, -7776, -6343, -197, -2769, 2392, -1925, -1002, -6345, 4336, 5710, -1406, -1232, -5550, -1810, -7315, -2147, -7269, -4209, 2361, 1556, 5859, -208, -3812, 3816, -1880, 2820, -2663, 3960, -4609, 1900, -4410, -10813, -9040, 515, 6036, -244, 2446, -225, 742, 1961, 97, -595, -6138, 2782, -1055, 1103, -6856, 1191, -497, -1850, 4873, 9030, 7931, 12612, 4340, 1509, -4510, -479, -8167, -15519, -10269, 5040, 1309, 1236, 1042, -831, 7428, -139, 4532, -3811, 9546, -1621, 694, -4310, 4118, 9593, 1213, -835, -794, 1556, 689, -295, -1761, 1042, -1939, -157, -6086, -22811, -11964, -6581, 2468, 2937, -328, 2546, 5307, 5152, -357, -85, 9598, -1026, 1531, 3230, 666, 2159, 4990, 2242, 5548, -4790, 2385, -2416, 3268, -4806, 3087, 2815, -13216, -20071, -11197, 3397, 178, -4567, -2336, 5334, 6046, -3778, 10734, -1273, -6004, -4247, -301, 5293, 1922, 1194, -5697, -5810, 5505, 1331, -1783, 5049, 7886, 9875, 4540, -5671, -12835, -20569, -650, 1525, -1883, 6714, -2723, 664, 183, 4916, -5351, -490, 5123, -1625, -1142, 1578, 1277, 1875, 9949, 1684, -4375, -1496, 612, -3688, 1304, -751, 8002, -1461, -22146, -14334, 7356, 7233, 5018, 2358, 1454, 316, 1661, -11095, 6157, -5681, -808, -1500, 607, 1417, 9229, 4545, 2442, -8078, 2240, -5853, -101, -2585, 4455, 13387, 8336, -6257, -17791, -2371, 4335, 587, 1772, 3458, 554, 3837, -9745, -311, -562, -550, -433, 932, -6058, -2237, 5230, 190, 152, -3079, -3407, -1513, 1901, 7984, 5532, 13573, 8459, -15129, -6908, 956, 2250, 1319, 5069, -5425, 12474, 838, -702, -6158, 10335, 1654, 843, -1077, 11, 4854, -6237, 173, 1624, -5650, 423, 8003, -3608, 1215, 9677, 20983, -3295, -16084, -3572, 960, 1387, 6892, -864, 3146, 273, 1879, -5402, -2784, 2791, -478, -1315, 4137, -11986, 4036, 4909, -5812, 1478, 4095, 2468, 4092, 9501, 1685, 2649, 4084, -14286, -5613, -5235, 2106, 6227, 6883, -2817, 4345, 1740, -1280, -1817, -7378, -975, -3589, -3561, 1917, -1548, 604, 4486, 3339, 7079, 2326, -6124, 1379, 5791, -1935, 4572, -9492, -4059, -11606, -5, -406, 10, 38, 5594, 2698, -327, 2097, -43, 2901, -7350, -3505, -980, 3870, -1133, 2306, -358, 9693, 52, 2154, 1465, 2527, 2367, 1432, -8007, -586, -8190, -2648, 1094, 87, 4300, -532, -993, 1134, 5798, -463, -8613, -7025, -3238, 3948, 2534, -1682, -9459, -1234, 7964, -5160, -5944, -1892, 8310, -612, 1494, 1318, -11468, -6271, -958, 2615, 1241, -6615, 5140, 3776, -2657, 1344, -457, -3457, 912, -8143, -6113, -2919, 3679, -1420, -643, 7689, -3597, 3911, 319, 652, 3481, -1598, 4813, -6682, -1183, -5241, -5983, 12907, 1776, -6165, 672, 10225, 3146, 2578, 1607, 280, 6952, -1595, -2682, 5700, -5814, -5647, 3178, -1029, 330, 2379, -2944, 7331, -4282, 4353, -3254, -17017, -7425, -156, 1701, -410, 736, 7228, 5037, 1547, 180, 1023, 3565, -3294, -3344, -209, 2494, -4644, -5254, 2784, 702, -4311, -883, 1662, 926, 3684, -3429, -4683, -8127, -8243, 3611, -1801, 737, 3253, -3265, -7280, -3742, 206, 811, 1445, -9362, -950, 4095, -8859, -5214, -3071, -354, -4581, -820, 1949, -1168, -3520, 1072, -456, -11644, -4013, -7072, -1065, -7940, 1087, -4756, 5193, 3638, -6490, -6417, -1717, 842, -6683, -275, -3269, 4473, 61, -2089, -643, -978, 4270, -7326, 383, -1638, 3363, -1247, -6400, -10045, -2560, -5582, 3174, -2898, 887, -542, -5686, -1810, 2580, -5234, 872, -4989, -1003, -137, 3519, -3892, -28, -4770, 66, -2557, -3917, 1028, -5858, 58, -4316, -4721, -258, -2046, -77, 3033, -2252, -155, -5962, 372, -1587, 3249, 3677, -2920, -799, 5322, -3792, 4497, -862, -2770, -3247, 1891, -168, -125, 2931, -4796, -5516, -1226, 6102, -2352, -2697, 1409, -199, 2209, -1339, -2790, -3108, -3534, -1128, -3600, -2304, -1878, -1750, 3361, -4463, -2936, 2703, 1421, -5372, -6530, -1946, -778, 12460, 10841, -8712, 1161, -5162, -3273, -353, -3380, 1777, -10535, 3571, 2886, -6027, 4009, -5776, -2703, 223, -8742, -2723, -1168, -4631, -2975, -6674, -2720, 177, -3029, -4555, 4527, 3385, 3183, 2859, -7795, 2122, 1395, 106, -7807, 427, -5297, -1654, -1749, 4910, -1716, 1771, 3867, 2434, 5790, 1348, -3115, 748, -3392, 1041, 5960, 2459, -2693, -3488, -3420, -1303, -6179, 8603, -1203, 1213, -10793, -128, -7156, -3158, 56, -8889, -1262, -5301, -3344, -5114, 359, -1106, -5949, -5994, -3647, -720, -1101, 4, 1893, -3160, 313, -1084, -11547, -2703, -3557, -3862, 2890, 476, -3267, 2040, -4008, -13264, 608, 2667, -943, 5775, -519, 6017, -5166, 9280, 3736, -4227, 3217, -1753, -6132, -791, 5783, -1333, -5633, -6910, 933, },
        { -1747, 1680, -3769, -6964, -1460, -848, -299, 2528, 872, 195, -1385, 963, -4487, 4601, -1247, 1306, 2565, 3504, 3638, -2050, 108, -4537, -3862, 2244, -2431, -6035, -6807, -4243, -5456, 1949, 196, -3758, -402, 1796, -2952, -3777, -5581, 6343, 812, 3599, -5839, 4971, 2513, -2278, -877, 2820, -4194, 191, 1982, 3272, -3402, -167, -845, -6285, 3271, -1831, -2310, -1040, -646, -1884, -235, 4050, 5317, -4878, 1911, 606, 4066, 1605, -2331, -6248, -7252, -2125, -8176, -7710, -2341, -913, -2947, 421, 904, 4020, 5468, 1031, -4378, 3803, 37, 1916, -1014, -392, -1764, -8205, -4954, -117, -10021, -1622, 2967, -4801, -9282, -3590, -3387, -2347, -2401, -992, 3097, 8677, 369, 3723, -1312, 2902, -267, -6902, -3749, 3377, 4729, 9749, 2196, -921, 4201, -7440, 273, -1009, -3676, -8365, -8763, -9543, -11517, -6266, -5260, -3039, -3579, -593, -3273, 1969, 4228, 5604, 9488, -37, 5068, -4183, 1949, -1447, -5484, 1765, 5366, -1276, -1565, 1523, -419, -3214, 835, -4435, -580, -7839, -5996, -2143, -2017, -8132, -4290, 3636, 3237, 7203, 9252, 5298, 6560, 5574, -5780, 3993, -3502, -1581, -1795, 2884, 3568, 1984, 2793, 585, 979, 1948, 960, -4221, -5600, -5173, -4640, -9808, -2242, -6424, -8822, -4281, -5070, -7892, -2849, -3428, 6663, -308, 2081, 5288, 4691, -2083, -127, -1878, -4821, 613, -3917, 1243, -358, 1519, -4203, -6991, -7031, -8015, -15463, -9853, -9039, -6771, -11394, -8477, -5535, -3281, -12375, -5964, 1421, 982, -1125, 137, 442, -1233, -3424, -512, -5281, 5633, -560, 1370, 1513, 3813, -4128, 1134, -4227, -16682, -12151, -11228, -8801, -6869, -9349, -8363, -9826, -15678, -2796, -8387, -2422, -2949, -33, 7009, -8621, 1183, 495, 5878, -2689, -907, -537, 2607, -4887, 4126, 4520, -2348, -2018, -5690, -4885, -17239, -20320, -12243, -9186, -7398, -8058, -2750, 16, -5279, -3886, -1198, -5750, -897, -1584, -3660, -1349, -5486, 3370, 2767, 7186, 7442, 3081, 3194, -725, 968, 6154, 2637, 2053, -1700, -5981, -6685, -7368, -1183, -4540, -4260, -2188, 3574, -3045, -2563, 3306, 5647, -905, 4216, 1712, 6402, -2410, -2042, 101, 170, 4467, 5169, 4985, 16845, 11261, 12911, 7493, 2255, 7429, 2602, 3738, -4760, 6528, -3538, -3943, -2242, -7669, -3606, -659, -4180, 569, 234, -3621, -6493, 2750, 3503, -1682, 5994, -925, -989, 1804, 6409, 1709, 19698, 9868, 2352, -5701, 3451, -3828, 130, -3263, -8239, -3584, 827, 1280, 3661, -4437, -1277, -3505, 2906, -2823, -955, 3958, -6286, -7836, 8027, 1734, 951, -4066, 4409, 4755, 6089, 11623, -4032, -3440, 5548, 1674, 377, -1654, 3133, -5600, 2824, 1195, 1541, 10172, -3433, -2425, -3180, 5066, -805, 1798, -1868, -3072, 5074, 6147, 6948, 5205, 14314, 59, 6220, 10248, -3261, -1968, -3734, 3318, 8690, 5543, -771, 2307, 5202, 5564, -1544, 2317, -1218, -4233, 8001, 671, 1467, -1733, -11872, -5343, 828, 1253, 7235, 4418, 3077, 2290, 1324, 11917, -5538, 5370, 35, -3068, -2444, -33, 522, 1244, 1351, 10018, 2774, 414, 4523, 1766, 1648, 4016, 8759, 4767, -44, 701, 3061, -8591, -2059, -2153, 1885, -669, 5216, 1710, 4177, -2582, 9825, 908, 4797, -850, 8913, 7879, -2176, 3874, 6607, 6987, 800, -829, -4721, -409, 3579, 2654, -2907, -5858, -2782, -3530, 2137, 6004, -2987, 1505, 544, 2133, 9538, -2441, 5646, 634, 580, -650, 2956, 2258, 4730, -360, 6031, -4359, 1721, 3117, 1084, -3702, 1517, 1446, 3649, -8090, -1007, -828, 10944, 7471, 4215, -527, -2439, 10674, 7819, -1049, -675, 3508, 5993, 4458, 7573, 5477, 544, -6188, 10539, -5272, -6851, -6283, 6256, 8694, -1345, 345, -4785, 2810, -4731, -1052, -13191, -2997, -6647, -2467, 4666, -1237, 933, -265, 3899, -2852, 500, 3695, -428, -8115, -5817, -9098, -13717, 8332, -6608, -892, -2158, 5202, -6708, 5311, -1205, 743, 2870, -8442, -10203, -6530, 7276, -3170, 112, 4823, -2730, -1332, 1944, 534, 1494, -371, -4297, -97, 999, -3970, -7934, -3493, -407, 381, 1563, -2663, 6528, 1453, -6107, -4285, -10229, -9360, -9134, 618, -477, -489, 5515, 3211, 3592, 5503, 4119, 6507, 8184, -38, -1245, -6807, 5462, -1201, 2489, -2360, -7541, 6321, -7246, -1526, -226, 6767, 3083, -4852, -2148, -5456, -5456, 1195, -2453, 370, 2648, 2052, 7438, 959, 5127, -1240, 1603, 3915, 2927, 1521, 6022, -3078, -3014, -3220, -1949, -3421, -8115, -4658, -3460, -495, -253, -4805, 8110, -2775, -4056, 1501, -4254, -116, -1867, -5194, 2323, 2018, -546, 1699, 1195, -3672, 1450, 2064, -5155, -7088, -1736, -7262, 2479, 7227, -384, -790, -11504, -1127, -543, 5216, 2033, -4295, 3709, -3090, -1459, -2996, 1517, -3371, -6963, -6126, -4387, 4516, -3002, 1550, -5811, -4032, -4433, -1736, 1322, -5997, -1821, 3620, -8416, 2030, -3487, 3798, -1501, -10320, 1142, -5260, 2585, -8279, -6448, -4146, -3817, -10425, -7109, -10580, -128, -8902, -3370, -1768, -6606, -6005, -7674, -292, 3422, -3247, -2434, 222, 654, -1520, 1645, 1329, -3806, 864, -2387, 6764, -5489, -8688, -4521, -6845, -1794, -6868, -7654, -9803, -9189, -4465, -1826, -3287, -4992, -9239, 4526, -515, -2897, -842, 276, -2404, -56, 6613, 509, -12327, 3587, -3541, 3198, -1219, 2395, -7804, 2776, -8062, 1019, 2179, -566, -8330, 598, 1308, -681, -1650, -668, 3844, -7600, 581, 1102, 8626, -3390, -1870, 8981, },
        { -3504, 4899, 2765, -2390, -4885, -2821, -2424, -1134, 1091, -3770, 4081, 3724, -231, -6812, -3110, -4909, -2436, -5277, 3685, -1279, -4927, 4846, -3567, 1502, -3241, 3132, -4036, -4748, 806, -4642, -1148, 2187, 3889, -1240, -2227, -6047, -893, 2913, 1991, -1516, 1246, -895, -6825, -6411, -5022, 651, 4521, 1076, -7350, 2958, -4004, 5021, -899, 1130, -1087, 1592, 3411, 3940, -1342, 1094, 2182, 6910, -2957, -5165, 1822, 3091, -1599, 7553, -3994, -8074, 632, -6735, 1369, -3170, 2385, -3634, -5355, -2219, 3981, -4159, 606, 2513, 5265, -2302, 1921, -4726, 2273, -8025, 2088, 4230, 1744, -4225, -3520, -5493, 1945, 8668, 12577, 4786, 13511, 3186, 4187, 5767, -2869, -2734, -74, 3296, -3525, -12579, -8436, 2745, 5263, 6647, -5103, 646, -2606, -38, 7826, 5297, 1298, 10110, 7898, 7317, 4657, 4826, 4570, 6029, 2493, 2287, -3039, 3966, 4522, 3672, 4352, 3528, -9654, -5857, 1521, 1347, -757, 3383, 7434, 1720, -3860, 4363, 8893, 5080, -1416, 412, 3548, 1975, 11104, 45, 7654, 1934, 1016, 3360, 5699, 2507, -985, -757, -1019, -6448, -781, -7642, 1333, 5692, -2555, -2047, 10629, -1801, 1566, 5911, 1041, 6120, 7712, 2778, 480, 3505, 6920, 3067, -2837, 7273, 193, 1547, 5974, -2689, 3866, -5980, -3873, 558, -1583, -16022, 1143, -5831, -5307, -5555, 10215, 1517, -2448, 2284, 6055, 6085, 4122, -3618, -988, 2948, -3357, 1788, 7301, 3864, 3603, 1603, -2513, 319, -5990, -339, 4559, -829, 556, -2398, -5410, -5194, -5619, 3124, -1762, 6289, 6577, 3415, 5966, -2575, 2666, 7706, -148, -4594, 9559, 3940, 7216, 3063, 4282, 11339, 3347, -959, 4992, 970, -631, -1739, 7338, -8414, -3398, -2781, 2377, 2570, -3005, -5013, 4574, 129, 4309, 5121, -782, 2917, 6901, 8959, -931, -7875, -10550, -21007, 574, 5489, -102, 3943, 2211, 1257, 4351, 3089, 630, -6290, -5462, -3684, 6192, 4023, 302, -10572, -4868, -5410, -2850, -733, -9790, -7542, -12107, -9145, -24593, -34857, -24658, -15382, -16118, -4539, 5158, 5389, 4866, -3546, 2930, 571, 366, 1578, -7623, 4390, -856, -3817, 5119, -1993, 2710, 6483, -9414, -5314, -15202, -13417, -32318, -36985, -33199, -388, 973, -2675, 3089, 1543, -4447, 5537, -229, -1929, 2142, 7359, -7255, -4314, -7205, 4082, 5651, -5397, -3651, -2643, 1091, -3845, -8527, -14161, -25113, -26608, -29667, -7451, -2513, 3094, -429, -1086, -725, -6203, 1966, -1561, 2626, -1993, 1736, -9498, -1249, -6022, -1645, -11254, -2195, 1554, 5308, -1338, 2065, -4979, -7880, -18472, -16380, -15237, -1402, -2286, 4469, -2129, -810, 1566, -19, -4508, 11, -2205, 5076, -6807, -3579, -2563, -7606, 4403, -1999, 3964, -2854, 6243, 3619, -5126, -109, -5547, -1246, -3755, -5477, 6126, 9060, 2052, 1468, -1224, 1597, -2526, 3544, -5932, -388, 4640, 752, 8385, 554, -406, -6721, 4241, 235, -2591, 6474, -603, 4953, 4341, -4982, 8887, 8770, -590, 6647, 195, 1771, 2438, -4813, 3501, 1616, -356, -6832, 3773, 4006, -1539, -6110, -3897, 5543, 1291, -1585, -140, 8862, 4681, 3009, 3712, -2199, 68, -1461, 5183, 3913, 2242, 1940, -4976, -7730, -3402, -4451, -743, 3898, 1757, 3093, -5307, 1, 4896, 4263, 450, -1723, 8318, 3135, 3211, -218, 4003, -1180, 1192, -3514, -210, -1112, 3959, 1630, -7041, 783, 3232, -409, -4743, -12416, -2227, -8542, -328, -215, 1428, 2772, 714, 468, 5377, -5552, 784, -1122, 2066, 4508, 8875, 425, -4519, 6458, -5962, 5918, 3090, 675, 3506, 7421, 1786, -1339, 3873, -2105, 801, -3139, -2896, -90, 355, 2556, 1837, -1898, -279, 3175, 5084, 4473, 1569, 2569, -1800, 738, -502, 6496, 6422, -1243, 5762, 7343, 2685, -1906, -2706, 608, -2487, -3063, -3376, 925, 2586, -7435, 5754, 2755, 6745, 5187, 2996, 3123, 5815, 7047, 4127, 3890, 4980, 1291, 5312, -6640, 4512, -3681, 2459, 2241, -4119, 2387, -3947, 835, 182, 5343, 1479, -1300, -2434, -1534, 3526, 462, 995, 6203, 4735, 3202, 6137, -5676, -3641, -7858, -286, -2086, 604, -3799, 4887, 2725, 1615, 7916, 5431, 1492, -6653, 142, -1592, 328, -4219, 1853, 1235, -5779, -7698, -5459, -2994, -84, 5967, -68, -2218, 1678, 2293, 692, 832, 552, 310, -5752, 1762, 7050, 11287, 9982, 6895, 985, 5701, 1046, -4449, -692, -767, -4402, -4839, 1071, 1055, -3150, 388, -5331, 6149, 1775, -859, -156, 5295, -1885, 5110, 11745, -2734, -1328, -882, 5743, 2605, -2410, 6848, 890, 1363, -328, -6162, -1177, 1532, -1217, -1359, -2451, -1797, -6114, -2084, -646, -1525, 2186, -4035, -5005, -761, 5552, 1727, 6742, 2126, 3034, 4594, -4560, 3916, -1, 970, 5098, 6258, -3255, -577, 5548, -2643, 1220, -1744, 3260, 2313, -2138, 4954, -5604, -5206, -6866, -2955, -4717, 68, 4641, -3372, -661, 3416, 8629, -4585, -4911, -632, 968, 3416, 855, 4898, 10369, 6020, 6069, 5919, 2456, 2866, 4237, 967, 1922, -2119, -6089, 618, -3713, 1761, -4613, -1150, -7024, -1618, -962, -2573, -1528, 6901, -5327, -944, -3373, -1847, -7726, 1458, 445, 489, -1812, 149, -5488, -2742, 8935, -794, -3497, -4108, 4655, 6565, -8914, -1454, 5205, 733, 8245, 1651, -1690, 661, 3114, -3472, 2148, 3246, 733, 658, 2882, -3431, -368, -868, -98, -137, 8441, 4894, -2378, 6999, -2028, -5263, -3085, 3457, -2135, 2733, 2333, -6532, -2172, 2843, 1608, -1266, },
        { 2259, 1554, 104, 403, 2853, -4646, 844, -7270, -799, -1807, 3509, -3597, -5515, 152, -2724, -6483, -5289, 2563, 2511, 5514, 4464, 2106, 1204, -1597, 8514, -7582, 1564, 6794, 979, -2280, -965, 5753, 3842, -618, -5931, 929, -943, 1124, 1543, 7956, -5844, -4019, -2072, -2804, -11734, 13979, -4022, 6540, 387, 1539, 7796, 6874, 6708, 2665, 3543, 1742, 824, 1248, 5980, -2836, -2480, 8129, 3040, 2694, 2598, -1391, 2089, 1767, 334, -3058, -3723, 3960, -2929, 4084, 1633, -1338, 2248, 3680, 1321, 356, 1148, -6834, 2552, -5959, 613, 1521, -2691, 10219, -1454, 3538, -3961, 24, -6289, 870, -11041, -4780, -2513, -5496, -2976, -1426, 750, 4150, -5984, 3762, 1822, 1027, -4386, -2669, 3495, -6629, -1275, 2437, 442, 5619, 1293, 3395, 382, -5270, -4685, 2193, -6330, -3341, 8589, -989, 78, 3490, -4252, 2658, 6734, 6380, 5656, -1813, 2699, -4405, -5596, -5095, -2855, -7401, -5386, -298, -593, -2714, 7453, -6247, 1156, 436, 644, 2421, -50, 573, 3069, -3966, 3355, 3918, -5289, 5141, 5577, 1124, 2047, 4169, -306, -1135, -6347, -3742, -302, -4580, -7265, 4615, 2685, 3630, 197, 3004, 8602, -3792, -1231, -7248, -987, -3440, -2561, 2164, -1842, -82, 1937, 3121, 1157, 5703, 8260, -2866, 4117, 4850, 632, -2997, -6914, -7745, -5514, -8254, -5288, 1116, 7669, -77, -9261, 4019, -5735, -4550, -9176, -3741, -3607, -3637, -4994, 3066, -71, -1073, 4397, 4189, 2608, 9825, -337, 2066, 31, -1899, -4113, -3714, -3319, 3859, 3526, -3946, 3164, 1660, 3807, 1690, 1211, -6434, -2926, -8217, -1765, -5, -2500, -2682, 2424, -1992, 9536, 9237, 10902, -340, 1456, 353, -2988, 2177, -10574, -3809, 2555, -1966, 4571, 1416, -6724, 2094, -7206, -3965, -1671, 349, 93, -4337, 4056, -7334, -3202, -5809, -2828, -1031, 16091, 10344, 4316, 2715, 2800, 6396, -1990, -971, -2544, -4218, -34, -5146, -4745, 259, -630, 1524, -5193, 617, -5398, -2716, -4021, -6873, -6206, -1096, -346, -380, -8163, 3763, 8881, 3451, 6132, 2896, 3880, -2288, 5685, -6086, -6535, -1305, -3228, 7573, -5204, -5054, 1113, 200, 4863, 4179, -4094, 104, -1768, -3843, 1071, 3832, -8066, 3128, -266, 556, -7034, 3255, -1497, 7809, 3203, -550, -966, 6191, -1960, -9364, -2962, 1589, -3357, -6048, -1435, 11, -10743, -888, 2023, 4636, -1475, 5264, 2266, -2775, 5595, -8689, -3794, -13677, -1701, -7069, -1170, 2147, -535, -1768, 5704, 1406, 2239, -4341, 4244, 1231, 22, -1843, -2760, 4680, -6926, 8255, -7960, 7246, 5827, -4950, 4842, -1264, -805, -6182, -6716, -8833, -3803, 3938, -3903, -5932, -1544, 5205, 5004, -1688, 5553, -1917, -1859, -297, 1246, -2487, -686, 4730, 2744, 5189, 7506, 1527, 4585, 3890, -1435, -5815, 2004, -2184, -12457, -13716, -12740, -5066, -5381, -4577, 2374, 1312, 1851, 2826, 6622, -3628, -4662, 2246, 4471, 696, -2780, 1192, 7923, 15298, 3616, 12036, 9138, -1400, 9105, 3715, -5176, -15598, -10208, -6120, -7034, -3090, -3260, -3750, -1786, -6858, -2330, 1819, -4874, -3237, 4488, 7151, 495, 2313, -677, -3366, -7934, 8236, -1614, 1059, 698, 4860, -2013, -2801, -1323, -18004, -7714, -15391, -11654, 3135, -7914, 355, 3506, -6282, 5816, 2382, 2270, 7946, 7131, -2945, 3033, -1798, 1994, 3039, -5253, -3862, 3117, 2365, 3427, 377, 5776, 2424, -7764, -5113, -11351, -3808, 381, 6191, -3091, 331, 6030, -5509, 9748, -2325, -4281, -2935, 6901, 1018, -6389, -2516, -3849, -2776, 8060, 4426, 975, 2035, 10077, 2606, 6874, 10163, -5155, -9006, -6154, -2491, 185, -88, -287, -1414, -2822, -273, -4398, 776, 752, 1622, 596, 5126, -2416, -3531, 2507, -4439, -4084, 3915, -3010, -6302, 7088, -9531, 6197, 5872, 1465, -10619, -14248, -6817, -681, 4022, 1362, -2573, -4216, 474, 64, 4674, -5833, -1777, -1791, 1581, 1436, 1383, -4066, 2455, -4706, 713, 3843, 80, 3482, 4912, 6977, 7006, -69, 7126, 4421, -5257, -9939, -5723, -3915, -367, -1904, 135, -2355, -1666, 2661, -2419, 6112, -2742, -1719, -558, -4438, -3083, 670, 770, 1753, 627, -5812, -2190, 5050, 2773, 3910, -5191, 2545, 2368, -3856, -9794, -3676, -9828, -5585, -1048, -3095, -4968, 5527, 1302, 171, -741, 2200, 1198, 2813, 262, -2444, -2312, -3535, -687, 10261, 1831, -4020, 4671, 1361, 2116, -742, 7971, -6253, 1978, -5363, 711, -2014, 33, -2216, 1902, -2770, -5893, -5982, -46, -4191, 2525, 3360, 6952, -1438, 4478, 4722, -524, 2418, 5244, 3382, 13874, -363, -7876, 1660, -2754, -3220, 569, -157, -13040, -3428, -3595, 416, 4923, -6930, 5851, 1039, -1127, 3266, 7126, 299, 3314, -3326, 3236, 2746, -4016, -5775, 2121, -4067, -7306, 2277, 9299, 4554, 281, -3273, -4051, -6073, -5583, -6848, 752, 2681, 4359, 2829, 3429, 5708, -2705, 1928, -1855, -6562, 4186, 3637, -1217, 1775, -8564, -131, -5889, -5113, -1955, -394, -4770, 453, -4280, 4464, -4825, -324, 1519, -6027, 5920, 1217, 4935, 958, -6046, -629, -1993, 1603, -6442, 2654, 1474, -6706, -2646, 878, 1610, 2753, -2381, 2261, -499, -6947, 1685, -3780, -3609, -5488, 1168, -4864, -1161, 1586, -2027, -512, 4267, -6863, 6125, 3824, -3254, 3734, -695, 3956, 7312, -194, -4451, -1301, -5457, 2417, -2418, 2373, 1805, 594, -2975, 1752, -1314, -1309, 2570, -2562, 11502, -1073, -3427, 5680, -3730, 480, 7080, 5828, -3048, },
        { 5860, 2322, -1091, -3231, -1720, 5347, -707, 701, -794, -1561, 511, -2822, 2914, -1635, 6701, 1814, -530, 4544, -3415, 5120, -1630, -884, -364, 7174, 3820, -4036, 11176, 6244, 2590, -4658, 593, -3880, 2279, 5087, 5085, -3963, -243, 313, -1186, 2766, -5821, 1523, 2929, -866, -1441, 3107, 6794, 1674, 114, 303, -1473, 1618, 729, 3483, 2953, -1888, -3492, 652, 824, -1518, 3096, -4025, 4666, 1431, 4591, 5771, -3234, 5591, 5933, 5249, -3486, 1950, -4148, 2611, 3237, 4071, 5161, 1762, -3783, 4305, -6385, 7542, 3365, 6173, 7195, 6768, 2144, 31, 2499, 4407, 6539, 1884, 557, -3781, -32, 9227, -4428, -5125, 3465, 9236, 5984, 6977, 4077, 6256, 3186, 6241, 6412, -1944, -2648, -2113, -1542, 857, 3865, 8072, 4188, 544, 9697, -763, 2127, -4967, -5077, -6401, 6336, -1478, -3786, -4456, 3903, 434, 6903, 6875, 3762, -4357, 4212, 1927, -2729, 2033, -261, 4255, -8837, 4564, -2841, 2187, -2952, -1030, 7447, 3562, -5227, 3515, -4188, -7079, -2164, -5820, -1909, -720, -6856, -689, -612, -2853, -4773, -6248, -1297, -10330, -6470, 2407, 736, -5594, -5384, 1816, -12214, 12604, 320, 2550, -1471, -3839, 616, -4094, -8897, -4874, -2171, -4256, 2716, 86, 1022, 1507, -693, 1653, -7726, -10028, -7648, -2522, -8731, -3479, -1896, 831, 4878, 74, 4424, -4457, -224, 3669, -4363, -355, -5560, 4058, -6535, 6175, 695, -6620, 4069, -2283, 1521, 1427, 4492, -66, -15125, -11686, -4182, 2986, -5657, -5346, 1629, 2112, -7252, -500, 2050, -3553, -1526, -1887, 252, 530, 26, -4211, 1312, -3797, -5156, 2261, -3825, 626, 4834, -1295, -46, -7374, -1752, -6376, -7420, -1626, -10494, 843, -4089, -3821, -4194, -3606, -194, 997, 3774, 3108, 6544, 2859, -2355, -6179, 5395, -968, -4294, 646, 4362, -4144, 2822, -3538, -3669, -5158, -12338, -6104, -1396, 3388, -3252, -8992, -5393, -6298, 1282, -3076, 4440, -3751, -3483, 5856, 3206, -5850, -9356, -1689, 2555, 1546, -2481, -162, 1768, 3237, 47, -2559, -7081, -2635, -4179, 6610, -6012, -7347, -2261, -54, -2769, 4511, 162, 410, 3621, -1087, 828, 7240, 3632, -3037, 721, -768, 2707, 1512, -1891, -5792, -1477, 755, 748, -5086, 2364, 3889, -7872, 1243, 6852, 1983, 2825, -1598, 3461, -4491, -7427, -3849, 2377, 7582, -1117, 4251, 3604, 1776, 4355, 4416, 3568, -55, -717, 4020, -1852, 208, -2356, 982, 742, -27, 2388, 3092, 10259, 1704, 3928, 1269, -5261, -6627, -4164, -271, 1588, -2664, 2660, 3216, 474, 6218, 10442, 2304, 10444, 4726, 4811, -5748, 1465, -1029, -162, 4042, 3734, 4738, 3106, -2594, -6616, 7104, 4527, 21, -11384, -5522, -5012, -1009, 510, 9975, 7744, -2850, 3875, 2016, 4212, 5550, 2886, -4454, 166, -5463, -1481, 6675, 567, -166, -2057, 195, 3827, 1326, 6759, -3030, 8561, 3849, -658, -978, 3284, -1511, -7197, -201, 8896, -2171, 994, -2776, 10045, 473, 969, -1971, 7014, 3587, -5095, -14403, -7583, -70, 1060, 2876, -386, 4110, 438, 1618, 8283, -4987, -2110, -8087, -2768, -7367, -4002, -1303, -3410, -6613, 1489, 506, -1715, -177, 2227, -3539, 4857, -451, -110, -531, 9933, -344, -738, 1553, -201, -3798, -3876, 666, 6387, -5471, -7581, 3536, 1068, 5715, -3022, 5068, -1534, -2920, -2452, -2976, 645, 2019, 2619, 2648, -1531, 2292, -4093, 715, 3727, 634, 1649, 3087, 2395, -1583, -6331, 3131, -4217, -2565, -9863, -1839, 1435, 5548, -1814, 2660, 6345, -816, 2559, -12322, -374, -888, -5483, 3846, -2306, -4490, -5753, -1279, 3854, 7921, 2124, 3593, 5883, 3660, -1435, -1766, -1854, -3356, -8078, -1660, 420, 631, -3508, -1405, -4828, 2400, 1370, -4438, -2713, -5759, -5312, -967, -3821, -1621, -3290, 5652, 7080, -475, 799, -1958, -7922, 785, -1928, -7307, -3304, -3547, 2705, -2708, -3089, 5969, 2385, 4071, -1535, -1743, -1398, -2416, 1224, -128, -10647, -4196, -15043, -6579, -2277, 3749, 8420, 6042, -5548, 4489, 839, 9891, 1778, -527, -8370, 3820, 1601, -1218, 1268, 774, -334, -4373, -9535, -6471, -2847, -7092, -7999, -9531, -11143, -5631, -12737, -2686, 5537, 3783, 2152, 7707, 2931, 366, 1628, -1909, -4785, -9788, -1149, -1717, -2443, -2432, -1598, -12, -2702, 6480, 3817, -4445, 4830, -4575, -2594, -2154, -8210, -4726, -1438, -2667, 1460, -64, 180, -295, -2503, -256, -1224, -7536, -1205, -7212, -1082, -419, 3260, 2825, -943, -5463, 3141, 5749, 1051, 743, -1763, 8364, -7237, -9558, -5814, -7802, -5058, 876, 1098, 307, -4668, -517, -3251, 607, -9764, 6541, -6464, -5747, -5522, -4072, 5198, 1625, 176, 911, -4004, 901, 3758, -5186, 594, -3097, 7325, -2052, -10846, -4327, 4556, 15467, -2720, 6145, -7264, 6154, 4055, -1488, 4342, 5723, 1907, 4896, 5818, -10024, 3797, -199, -449, 4094, -8764, 4333, -11732, 2803, 3971, -6661, -2232, -484, 1415, 1051, 9269, 244, 4832, 5751, 4244, 390, 5106, 4422, -5419, 3427, 6620, 555, -4140, 2750, -201, -7659, -2371, 246, 3033, 1256, -6425, -265, -2610, 2159, 1112, 365, -973, -791, -2207, 1625, -221, -5681, 10793, 5966, 1107, 5689, 851, -4097, 3134, 975, -1473, -6211, 8016, 4126, 3204, -605, 9172, 2498, -701, 1300, 500, 4467, -3593, -9376, -6122, -659, 3296, 4117, -4505, 1380, 1687, 2412, 2489, -2256, 378, -5243, 2050, -7021, 7974, 6799, 1283, 8378, 1717, -4407, },
        { 3014, 834, 3195, -2026, -4063, -6956, 3690, -4782, 3921, 299, 2133, 3898, 4731, -4249, 2183, 4550, 9354, -247, -2304, 592, 2182, -2353, 1932, 2642, -5375, 914, 4689, -485, 4347, 9412, 372, -1488, 5041, 309, 8233, 1834, -6831, 4272, -1550, 9851, -1366, 3519, 356, -9789, 4544, -3043, 3305, -1270, 1072, 3631, -12138, -3769, 2010, 3784, -2472, 4204, -1987, 2916, -361, -1627, 2695, -4156, -1754, -1683, -4516, -3974, -63, -436, -1309, -5559, -1692, -2188, 6416, 517, -1757, -2121, -3355, -2595, -124, 4000, 5586, 2057, -1605, -3273, -449, 396, -2436, 256, 5660, 1212, 568, -1855, -37, -1973, 1355, 5000, -8572, -798, 7659, 3909, 2212, -5904, 4158, -3091, -3710, -8445, -7559, -2590, -4297, -4455, -9056, -4451, 4734, -8360, -5172, 667, 7943, -3080, -8806, 1957, -3723, -6770, -2365, 794, -670, 3468, 28, 4010, 1169, -3893, -5033, -687, -4231, 3438, -1025, 1279, -6311, -1459, 3129, -310, -6434, -3876, -1450, 108, 2093, 1996, -5630, 1697, 430, -2212, 1221, 1751, -8183, 5268, 2473, 2209, 1702, -498, -6337, -3822, -1019, -4453, -4071, -5366, 1263, -7147, 75, -3913, -2195, -3215, -1979, 2165, -2554, 2385, 1607, -2686, -11105, -3489, -5023, 3628, 1678, -2564, -4721, 4653, -1645, -6366, -1875, 3290, -4635, -3734, -671, 3543, -13423, -627, -3510, -7162, -305, 5063, -5158, -8319, -5713, -4133, 5177, -828, -3662, -3789, -6287, 409, 907, -4390, -2388, 3942, 2956, -5255, 1516, -6040, 2800, 0, -1389, 14, -12692, -7907, -3335, 3703, -1016, -802, -4231, 4569, -2310, -919, 195, -2236, 5298, 1560, 282, 4319, 2694, 765, 4555, 5825, 4613, 4178, -5342, -7391, -3639, 7373, 1300, 1720, -4516, -6338, 4544, 2601, -727, 3743, 3791, 1710, 6685, -1462, 1147, -959, -3318, 5922, 7793, -4729, -1509, 2391, -1870, -5968, 2255, -371, -9572, 4729, 147, 5342, -4200, 3185, -8084, -9182, -3894, -423, 1088, 2472, 2428, 4491, -1258, 3272, 9603, 2946, 1355, -2183, -6240, -2281, -385, 3849, -3459, -331, -1852, -3795, -4925, 4332, 6973, 2823, 2230, 1099, -5272, -21297, -10984, 4432, 170, 2012, 3437, 2222, 7041, -449, -3209, -1970, -6980, -4779, 2384, -5733, -8444, -3575, -11943, -8808, -8901, -616, 3571, 13625, 10407, 9215, 12616, 13784, 66, -10960, -2948, 6079, -2279, -329, -3300, -1425, 646, 4557, -4268, 3432, 2931, 3572, -3466, -8882, 6079, -5116, -16572, -12354, 1897, 8677, 13024, 3064, 9170, 7132, 9412, 13506, 18081, 5134, 3657, -791, -810, -4159, 3292, -1694, -3246, -1571, -1312, 21, -1523, -3811, 1816, 1244, -8682, -13462, -5301, -6904, -5133, 6976, -6359, 2129, -816, 1619, 9522, 11784, 12706, 8058, 2221, -2231, 8976, 3054, 3524, 1632, 3673, -7769, -2356, -92, -1240, -4595, 304, 5163, -4078, -5648, -4183, -4695, 8142, 6909, 5799, 5433, 4955, 6550, 8027, 3583, 8427, 7182, -2860, -7018, -4942, 2424, -4701, -4244, 3163, -664, 5679, 5299, -1522, -5112, -2209, -1308, 200, -2044, -1887, 3636, -5507, 8124, 2284, 4225, 1951, 5846, 3270, 5498, 4032, -1087, 16605, -3410, -2239, -3942, -3442, 1082, -330, 3721, 5896, 5806, 5010, 8378, 7550, 3722, -7532, 1903, 1079, 1742, 7269, 4297, 655, 4262, 1699, 2889, -1363, -2510, -4802, -7015, -10, -993, 10273, -6369, -7256, -4345, -2557, 8941, -1548, -2005, -1553, 9263, 10496, -4514, -675, 6024, 8674, 1725, 7153, 957, -332, -3953, 5959, -5437, 10996, 6196, -5448, 2200, -1473, -5080, 11556, 2350, -2349, -7372, 2020, 320, 464, 5180, 3740, 4332, 5931, -3384, -4927, 657, 5533, 2740, -1025, -611, 2221, 2147, -4879, 4398, -1825, -467, -2063, 2469, -888, -548, -1303, -2505, -398, -5770, -4957, 2144, 7459, -2704, 2921, 3244, -5421, 4515, 1135, 2350, -4072, 496, -6624, -5011, -1564, -7445, 2913, -1723, -14948, -3389, 3387, 3839, 156, -1642, -399, 619, -1965, -644, 982, 1856, 919, 1840, -265, 2137, -1300, 1087, 4834, 5390, 894, 2845, 1238, -5020, 85, -6747, -8930, -4011, 1029, -3610, -3131, 337, 1339, -3041, -1878, 2733, -5421, -2821, -344, -2115, -4899, -2785, -3080, 3662, -3958, -4056, 6921, -1746, 5145, -2081, 834, 273, 3134, 6924, 603, -1555, 2724, -3493, 6548, 2979, -8882, -1368, -57, -6101, 2714, -1629, -2020, 1203, 4504, 7236, 1799, 322, -1836, -3585, -125, 7047, 7992, -2815, -5124, -1143, -7875, -9590, -3609, 1174, -4957, 4999, 2241, 3788, 2850, 815, 5566, 3913, 4190, 3035, 378, -3602, 2402, -2449, 4366, 3512, -808, -1860, -1556, 6033, 425, 688, -3526, 3391, 1481, 521, 1697, -4835, -4276, 2875, -5524, 4574, -5929, -1974, 6650, 3171, 2032, -7890, 2899, -7205, 652, 7169, 2111, -383, 3082, -5775, -643, 85, 961, 3326, 3099, -3309, -5831, 3058, -335, -739, -6403, -7735, 3382, 3503, -4626, -2778, 1610, 3399, 6212, 3080, 6114, -6429, -195, -2016, -5245, -5123, -9633, -4631, -1437, -3805, 2114, -8843, 964, 4588, 2203, 4558, 2846, 3164, -5339, -6079, -4204, -514, 67, 1651, -1790, 3414, -4716, 8150, -2077, -4776, 1903, -4584, 2415, -213, -440, 2200, -4680, 2470, 3834, -5658, 4441, -5237, -501, -2569, -1093, 2056, 6487, 1311, -1587, 2862, -1181, -1403, 1454, -2241, 4246, 1579, -2644, 445, 4979, -2677, -3194, -1572, 2075, 1975, 3146, 4844, 545, 6104, 6250, 517, 3028, -7247, -1324, 4848, 1539, 2491, 977, -644, 2558, -2045, },
        { -538, -2598, 3303, 3113, -1195, 827, -936, -1690, -1986, 3557, -3714, -38, 3358, 1199, 3019, -2467, -2229, 35, -6108, 864, 9633, 525, -1590, -1735, -928, -1687, -5624, 5022, -3923, 2160, 2548, -750, 8021, 252, -3302, -1891, 3797, -4311, -920, -793, -9807, -3288, -630, 390, -63, -3457, -7037, -6901, 1700, 1270, -5703, 3468, 1545, -425, -2782, -6563, 4652, 567, -791, 1662, 3778, 1118, 2664, 3436, 56, -4807, -8147, 1378, -690, 495, -14070, 1660, -7084, -2834, -2435, -6787, -3582, -4990, 771, -1275, 2276, -2415, -5499, -4112, -194, 5660, 5865, -758, -1726, 3793, -158, -5011, -5488, -3394, -12667, -5278, -5566, -7607, -9847, -2158, -13497, -11436, 212, -667, -2963, -2446, -2682, -4854, 501, 489, 4676, 753, 2506, -4518, 1605, 3649, 3934, 1265, -4882, -8632, -3685, -5700, -7808, -4785, -5956, 1447, -7000, -2782, 1855, 2688, 662, 452, -1453, -1544, 2389, 909, -2456, -5823, -5424, -2464, -1982, -3469, 2160, 233, 920, 2337, -3581, 1887, 1045, 427, -10550, -4528, 417, 3703, -1134, -5983, -3872, -7194, 1166, -4626, 1692, 584, 1032, -6308, 18, -2479, 7041, -1756, 230, 387, -1415, 276, -4868, -8464, 3085, -3673, -6638, -1148, 1754, -646, 2003, 1558, -2688, 4414, -1518, -2124, 2870, 563, -8307, -1568, -509, 2720, 2565, 4910, 429, 2730, -3026, 1201, 1260, -2248, 971, -11482, -2632, -4490, -1603, 466, 4115, 509, -234, -2807, 2111, -2490, 872, 647, 5636, 4136, 6114, 5320, 8084, 9311, 5108, 6817, 2053, -7525, 1820, -6657, 7939, -8661, 1296, 3790, 2115, -2818, -1228, 1534, -3303, -1243, 5295, 4899, 1274, 1954, 2156, 4741, 7670, -1762, 947, -2401, -3359, 1431, 833, -1460, -3328, 371, 3054, -2889, 653, 1329, 6670, 6856, -2838, -4288, 243, 1763, -2529, -5115, -2715, -2933, -6791, 4230, 1595, 7583, 1027, -1910, 9211, 5060, 2634, -5583, 5246, -5738, -3083, 2354, 1330, -759, -4355, 1333, 8992, 725, 2954, -2873, -3392, 2232, 4436, 546, 60, -939, -3833, 7746, 1443, -1337, 10359, 9461, 4062, 3481, 5516, -336, 4398, -3069, -109, -991, -5420, -2426, -593, -3802, 6233, 2175, 2512, 11690, 10534, 3414, -890, 9183, 7933, 3787, 2094, 4361, 3871, -3664, 224, -1046, 714, -4182, 1606, 2324, -756, -8530, -5427, -2043, -5878, 1228, -1852, 116, 7898, 5295, 7792, 10857, 2794, 10281, 4005, -4355, -400, -765, 3606, -1452, 2899, 7062, 401, -508, -6722, 797, 557, -11263, 4733, -7958, -1794, 2727, 8247, -3419, 3556, 4100, 6812, 11365, 627, 11084, 8060, 4263, -1422, -893, -710, -3490, 3999, -1071, 3506, 2246, 4134, -216, -2780, -614, 3704, -6248, -9291, -1651, 2295, -545, 1908, 4761, -3056, -1748, 7412, -1330, 4290, 490, 1047, -2457, 4768, -7253, 2646, 3427, 5008, 1742, -1571, 2744, 2606, 1913, -3222, 1033, -3937, 1297, -5094, -5065, 3566, 1939, 2067, -4042, -1115, 3215, 1021, -1259, -3477, -4363, 1008, -2909, 2655, 1975, 184, 5994, -2606, -1185, 3501, 5752, -4672, 1438, 652, -2232, 2889, -1768, -4271, -7094, -4323, -2721, -8826, -1939, -3862, -6112, 8780, -7643, 870, -7187, 1776, 4172, 3195, 6300, 1164, 8293, 4622, 476, 4370, 2302, -1397, -3013, -4750, -2945, -4470, -16654, -6522, -9470, -3003, -2154, -1082, 1037, -5979, 1030, -5864, -3302, -4053, 427, 8728, -47, 1730, -1325, 5037, 11261, 9716, 4622, 3967, 379, -4746, -6130, 187, -1474, -5041, -12941, -8160, -9265, 2832, -2841, 1946, -636, 2715, -371, -9780, -3079, -4309, -8219, 2031, 1605, -201, 4533, -1209, -1669, 2193, -5604, -6469, 3140, -3849, -2509, -1442, 3827, -3723, -12773, -6443, -5397, -271, -4958, 5501, -4197, 185, 2939, -6935, -6134, -10785, -9163, -16540, -11733, -9692, -9566, -8672, -1873, -1234, -5031, -4294, 2842, -4466, 1776, 290, -7046, -1469, -5348, -7686, 993, -8417, -6193, -624, -6351, 1256, -3035, -6086, -11287, -7517, -6475, 143, -8554, -11932, -6273, -13876, 505, -2964, 771, -4736, -2776, -5000, -6041, -3546, -1671, -6260, -6522, -10879, -1123, -5515, 3007, -1227, 2983, 533, -8927, -1598, -6361, 589, -3811, -1466, -8512, -7460, -4972, -77, -7636, 89, -4424, -5546, -4729, -7928, -4210, -1214, 3755, -2211, -4380, 5985, -631, 1746, -5695, 2028, -2563, -693, -2506, -4453, 19, -6914, -2820, 4408, -998, -1228, -4727, -3703, -230, -7086, -953, 4339, 5715, 185, -356, -7204, -2442, 1822, -8453, -8563, 1587, 2124, 7296, -3094, -4663, -7017, -2131, -7931, 1445, 1993, 3741, -875, 1097, -1126, 4152, 2177, 2584, -326, 2260, -1605, 9013, -6168, -2768, -5763, -5148, -1100, 7089, -6452, 1983, -2249, 1038, 6683, 604, -2662, -2874, -9348, 9993, -1581, 6531, 7881, 9937, -1629, -2552, -1446, -7519, -20, 933, -574, -813, -9503, 616, -2968, 3481, 443, -3395, -1468, -9196, 929, 1925, -897, -469, 2911, -5035, -63, -806, 8306, -3416, -1357, 10878, 3415, 6690, -2100, 1124, 1171, -1858, 1016, 855, 5070, 2243, 543, -814, 3724, 6479, 2268, -1407, -6669, -80, -5363, 783, -6042, -2184, -7295, -6035, -41, -1627, -7203, 6293, -4242, -1414, -5051, 3388, -4158, 813, -3306, 3876, -2047, -5293, 468, 463, -3464, -1758, -537, 1204, -1386, 938, -6911, -8440, -2606, -1158, -4726, -3617, 1268, 4506, -3041, -1152, -2332, 3275, -3884, 198, 4516, -2330, 773, -7442, 544, 969, -1913, 5282, -2065, 4176, -700, -874, 1131, 4677, },
        { -6903, 3934, 1193, 252, 1158, -6778, 4175, 1007, 4705, -4387, -478, 2533, 1825, -531, 6013, 2224, -4741, 1900, -3880, 1277, 1840, 4310, -5332, 6709, 4792, 3082, -459, 8523, -850, 3091, -364, 2770, 6029, -5973, 456, 2562, 4654, 2098, 3430, 1528, -312, -5753, -5198, -3700, -1201, -890, -1484, 4852, 8334, -1534, -5352, 200, 6064, -1063, -2327, 4382, 2943, 5829, 846, -5267, 125, -222, -5461, 2926, -5553, 4441, 96, 604, -7651, -785, -7443, -964, -432, -1484, -1746, -3552, -3157, -3558, -1635, -3389, -1401, 2250, 540, 3812, -6233, -1065, 6221, 396, -5025, -51, 7201, -4501, -3401, -2413, -806, 1102, 6240, 450, 501, 3763, -401, 6077, 2967, 425, -4869, -4423, 8214, -2357, -2333, 7801, -2049, 8200, -1809, 2676, 5987, 1508, -4070, -2738, -955, 586, -788, -677, 3366, -882, 1821, 4252, 1230, 1507, 3958, 508, 3701, -563, 1366, -872, 1915, 219, 5517, 7181, 391, 2584, -4678, -3639, 2562, 3648, -4000, 2790, 1412, 3850, 6538, -3707, 5224, 4294, 5861, 8212, 5438, 1863, -1051, 11518, 4369, 2458, 4958, -5538, -6173, 2764, -3284, 1127, -12584, 377, -4024, 217, -1685, 5324, -2391, -2293, 5522, 11388, -8932, -671, -9053, -4913, 3462, 182, 6030, 6348, 7520, 7376, -6565, 4839, -124, -18, 1108, 3933, 5047, 5975, -3971, -3589, 2527, -5858, -498, -6290, -3537, -3010, -5543, -5455, -4877, -1398, -7065, -8435, -9409, 3728, -3923, 6609, -1042, -2915, 504, -2369, -2754, -5379, 247, 5069, 5083, 10812, -5338, -2046, 7305, 569, 4025, -803, -965, -5256, 1341, -351, -10088, 8596, 2383, 1266, 3176, 2033, -6902, -2610, -1256, -2334, -2786, 2588, -5465, 5514, -249, 872, 2701, 3182, 5447, -2158, 3945, -13756, 4921, -11425, -2121, -2244, -7024, 2152, 7564, 1386, 2096, -6723, 1622, -10287, -546, 527, -7924, 1819, -6164, 1297, 8461, -584, 525, 4039, 5138, 101, -8210, 231, 3452, 1369, 1566, -1321, -173, -6603, 718, 2032, -5247, 4022, -1663, 1892, 2563, -12074, -13683, -3635, -1409, -1226, -218, -747, 1294, 4288, -3271, 10845, 10346, -894, 9708, -2020, -2825, 3911, 8330, -6265, -866, -2955, -434, 519, 11365, 3102, -4720, -1915, -971, -3391, -7138, -2677, -748, -2501, -4707, 6504, -3560, -8734, -1396, 4152, -4739, 5776, 2590, 4489, -901, 4437, -960, 4176, -9335, 468, 2964, -2036, 3698, 3742, 6353, -1794, 11004, 2971, 39, 473, -2374, 6594, 1090, 6878, 8754, 5557, -1786, -154, 6098, 2702, -2061, -45, -6962, -6377, -1406, 471, -5899, -310, -2419, 4689, 1601, 8944, 2681, 2937, -411, 1565, -1278, 1214, 8031, 2505, -283, -4014, -8521, 1512, 1297, -8259, -2709, 1157, 1076, -8318, 637, 1936, -1688, -1307, -3584, 5119, 1686, 7078, 346, 2755, -4565, 5150, 7698, 8600, 5586, 8872, 4153, 2375, -3580, 1611, 1817, -3538, -7332, -3691, 1438, -6019, 5038, 4906, 1119, -2393, 3264, -2987, 1515, -1726, 1498, 3741, 7782, 2950, -2705, 6471, 1064, 4280, 1382, 1217, 5774, 1780, -2007, -12405, -6606, -3154, -2184, -7545, -3378, -5452, -3097, 2313, -2508, -866, 546, 4313, -6789, -542, -3635, 1943, -3248, 4788, 4294, 2396, 5678, 3161, 480, 7782, 1801, 4393, -2391, -9724, -2148, -9154, -6586, -4965, -1425, -3437, 1195, 1030, 391, -6075, -1357, -4733, 7347, -18, -2492, -463, 6235, 649, 723, 6033, 3875, 4412, -711, -2436, 3898, -3040, 3215, -6526, -6512, -2851, -4500, -4587, -3593, -6383, -465, 5852, -2078, 2225, 4730, -2881, 4903, -53, 2824, 2735, 9190, 836, -1139, -2134, -7739, -4515, -4299, -5171, -869, -2427, 1030, -472, 2101, -1801, 836, -548, 5044, -4493, 2361, 2849, 2781, 4280, -2093, -9244, 740, 1545, -4993, 2448, -3989, -7588, -3251, -11599, -6931, -10587, -10516, -4927, 1613, -3763, 3516, 2532, 800, 2265, 3781, 6955, -947, 1647, 1447, 6569, 3122, -1288, -2256, -2747, -1755, 3358, 10793, -107, -3976, -4514, -5938, -2887, -5216, -9463, -4059, -1928, -5607, 137, -533, -1073, 3300, 159, 61, 3253, 397, 6456, 1609, 5069, 585, -4563, -892, 998, 6167, 5631, -459, 676, -1167, 369, -3796, -4121, -5698, 6622, -1710, -7731, -6767, -4640, -1463, 5284, 2092, 1238, 6984, 2657, 6867, -4822, 3619, 1060, 2619, -2125, 2233, 6571, -6197, -4160, -1454, 643, -934, -8997, -1533, 2754, 6741, 3455, 1393, -5749, 1852, 359, -2890, -4286, 11198, -926, -167, 7253, -3445, 1572, -1783, -6161, -1787, 5089, -1952, 5339, -1210, -827, -7279, -12007, 1514, 1373, -2858, -1711, -3054, -565, 4463, 5220, 8291, 2081, 7268, 3600, 13906, 4742, 5880, -2814, 4205, 844, -1121, 7898, 1331, -665, 6543, -6340, -1535, -11503, -389, 6927, 1616, -18, 6238, 1161, 2725, 2722, 865, 1867, -2352, 945, -219, 11266, 7461, 9074, 5558, 1735, -2106, 2870, 2306, 5852, 4853, 8823, 548, -1413, -4083, -3148, 3354, -2291, 8137, 3985, 5568, 143, -1867, 4637, -1500, 2489, -7003, -125, 2775, -3958, 3318, 4734, 2671, 8824, -5466, 1420, -967, 74, 4143, 1916, -4915, 2995, -4715, 5911, 5375, 1523, -1884, -1073, 1576, -1868, -1144, -8845, 7704, -2814, 730, -2377, -938, 4646, 6787, 1116, -4245, 4103, -4522, -4152, -4206, 84, -4730, -962, 66, 7892, 1913, -1267, 312, 1161, 3278, -3528, -3698, 5179, 279, 3139, -2766, 9849, -1875, -795, 1804, 2192, -1414, -3449, -3609, -7979, -3629, -895, 2370, 840, },
        { 6688, -3705, 7568, 3646, -4250, -3861, 550, 3652, -4438, -8066, -2416, -6198, -5550, 2379, 156, 0, -5883, 3710, -5678, 5566, 6190, -3456, 2576, 234, 6663, 2491, -3418, -1667, -3432, -3107, -4993, -4097, -7258, -379, -3967, -662, 1804, -4553, 1114, 2955, 1996, 582, -3320, 5840, -3120, 1206, 10786, -2066, 2671, 1380, 2221, 3610, -6596, -4496, -6784, -5621, -28, 9187, 4680, 4188, 2453, -1566, 3649, 3707, 2360, -2139, -3278, 2139, -666, 274, 818, 10520, -6267, 2022, 6776, -2706, 123, 1476, 969, -894, -575, -924, -6136, 2362, 1047, 1472, -1812, -11056, 3872, 3331, -2356, 822, -1518, 5573, -473, 5119, 3589, 9588, 12449, -4291, 9474, 3269, 4328, 3749, 3085, -17, 7984, 1819, -4102, -636, -831, -8642, -123, -2109, -3308, 3979, -5441, -1390, 1767, -2277, 4281, 1889, -549, 7037, -3494, 5708, 8429, 2995, 13034, 3528, 4134, 6479, 3322, 8703, -2473, -2857, -3985, -4220, 2499, -4203, 2248, 1001, -4325, -6007, -978, 4801, 353, 7811, -2024, 11601, 3950, 6795, 5663, -661, -4130, -3760, 2579, -1531, -519, 1663, -79, 4240, 3097, 3777, -6308, 5191, 12815, -2426, -2814, -637, -2565, -5428, -2482, -3636, 3565, 2715, -4075, 2101, 1646, 1058, -9967, -1976, -1573, 1555, -429, 4, -3849, -1229, -1469, -4260, -6392, -3517, 706, -8682, -4824, 1192, -2142, -2184, 5188, 6086, 2839, -5359, 3862, -2516, -5360, -9270, -11658, -2218, -3715, -11149, 2828, -2372, -1987, -2009, -5179, -4733, -5368, 3717, -7397, -1565, 453, 5769, -3135, 1630, -4296, 6699, -115, 1328, -1113, 4985, 3876, 4356, 1937, -4519, 1451, -992, 7322, -4003, -4793, -7633, -6041, -3802, -1692, -7906, -2587, -5055, -4741, -828, -3053, 7053, -3689, 3825, 3317, 79, -776, -346, -3098, -2616, 6073, 10496, 10426, 3941, 2707, -727, 554, -1131, 3475, -1691, -6819, 644, -7457, -4222, -10029, 2944, 1418, -5982, 1684, -6755, -8030, 2403, 3622, -121, -808, -25, 5231, 5008, -525, 10839, 3969, -3191, -5744, 1052, -7312, -3027, -2995, -5983, -9348, -4218, -4263, 2212, -576, -3153, 1240, -3782, -1510, -765, -2080, 999, -6367, -668, 2412, 3082, 3912, 3271, 5627, -5061, 240, 2616, -2219, -4033, -3554, -1200, 5848, -6280, -4158, 1160, -10231, 1988, 1203, -6048, -3486, 906, 2971, 2892, -1528, 8650, 3415, -3722, 2597, -966, 6035, -6262, -5638, -1741, -1990, -186, -2168, -9071, -5835, -3399, 3876, -539, 188, 1973, -527, -7828, -8396, 4239, -225, 2027, 4746, 1503, -48, -5296, -8356, 1116, -3080, 960, 1353, -10298, -7582, -4768, -3509, -4344, -11591, -2678, -3015, 318, 4242, 2174, 1302, -6232, -1749, 5741, 1504, -4232, -6718, -2087, 4858, 821, 304, 7802, 1719, -1720, 6736, 2811, -3459, -10478, -12548, -14178, -12657, -9956, -6440, 3396, -10340, 3095, 12099, 3421, 2766, -1359, -4047, 135, -4055, 796, 7394, 10023, 1450, 4429, -7082, -3356, -10285, 646, 6544, -4352, 137, -4651, -2305, -2721, -9948, -2470, 1150, 3550, -4146, 7653, 10848, -1296, -3574, -3037, 9391, -2908, -2431, 1806, 4058, -5218, 1005, 8534, 544, 6220, -865, -8012, -5397, -1445, -6307, 3291, 1858, -2292, 943, -4029, 2497, 1780, -5081, 6397, 11194, 5614, 39, -7006, -8689, 4125, -135, -888, -6487, -7090, -1775, 4776, 1059, -2874, -3136, -6198, -893, 2108, 4844, -1362, 5411, 2087, -260, 7277, -536, -436, 7425, 3129, 2950, -283, 3403, -1687, -5912, -69, -706, 3472, 4854, 2193, -4710, 401, -627, 4479, 1843, -3247, 5935, 747, 2052, 4581, -606, -221, -3312, -2724, 1033, 1682, 2673, 5331, 3825, -3332, 4911, 8815, 5927, 5074, 2234, 8685, -392, 2318, 10854, 11607, -2852, 4769, 5003, -4780, -1967, 1967, 614, 1917, 9948, 2262, -5934, 9746, 7521, 1747, -1152, -5756, 179, 2148, -7318, 8414, 2800, 3141, 4482, -7331, 10449, 2366, -757, -2823, -4914, 3469, 6682, -782, -3611, 3741, -662, 2706, 5737, 13234, 14549, 12214, 6940, 7628, 4790, 7276, -1304, 4135, -46, -288, 725, 5003, 3986, -1271, 4852, -765, 5936, -1262, 10498, -586, -8496, -775, -6241, -76, 5780, -3457, 8260, 3779, 3614, 7085, 2297, 8584, 7928, 8774, 9108, 4047, 5894, 4741, 65, 5717, 3882, -8921, 1475, 4328, -5250, -4291, -2925, 4689, -1703, 1191, -855, -5938, 5276, 5463, 1695, 2810, 2904, 2547, 2669, -3011, 1833, -5582, 5652, 5454, 3834, 3687, 1299, -2903, -4941, -1317, -1400, -18, -2856, -4590, 4870, -2567, 1071, 3089, 3771, 4697, -4296, 3234, -10453, 3470, -3392, 383, -6555, -1544, 5450, 641, -1032, 864, 4928, 780, -2405, 5957, 2562, -2111, -1244, 4163, -2623, 7490, -1688, 4208, -2766, 7641, -672, 4046, -2868, -575, 2123, -6595, -4737, -2320, 2493, 3430, 7413, -1895, 6460, -1978, -2151, -3572, -5064, 1, -4841, -1883, 2710, 943, 2729, -2442, -5284, 244, -2807, -417, -5946, -5769, 6796, 1206, 609, -4819, -5460, 2657, 4680, 3816, 810, -1866, 1735, 1969, 5657, -516, 428, 840, 2476, -2029, -4316, 916, -1176, 8557, -5982, 1276, -980, -5635, 2507, -2492, 2220, 2514, 295, -5222, -4524, 1174, -6612, -2595, -470, 714, 5415, -2375, 6154, -5447, 3069, -1609, -14309, 3747, 6002, 1061, 3803, -816, 1273, 404, -1712, -2426, -495, -3177, -1858, 6070, -950, -5310, -7419, -1892, -1111, 2969, -1670, -3509, 4124, 2575, -2249, -3951, 3804, 4586, 3353, -5176, 563, 1993, -10609, -356, 1600, -1968, },
        { -1333, -1448, 416, 3445, 1566, -1758, -142, 408, -2661, -3848, -9249, -6082, 8142, 1515, 534, -3492, -4780, 299, -3758, 6329, -446, 10834, -5897, -472, -264, 3861, 4905, 4386, 3733, -9026, 3633, 5327, -1283, -2626, 2242, 442, -4651, -4259, -5798, -3516, -1215, -79, 1036, -2739, 1499, 2744, -2492, -2488, -2201, -2679, 4759, -717, -3652, -5256, 1268, 5100, -671, 1654, -5622, -3072, 316, 1655, -3062, 877, -3705, -10179, -3249, -1457, 803, 4035, 2555, -6709, 6040, 2145, 1815, -1315, -1648, -1333, -3859, -4091, 6574, -1967, -5, 2284, 8789, 3013, -3106, 3118, -198, -8219, 3809, 8408, -2734, -1491, -213, -1023, -5773, 1582, -2981, 3839, -109, -2265, 7942, 2205, -461, 6182, 962, -912, -3296, 786, -1838, 4724, 1465, 716, -2583, 5331, 2898, -6392, -10456, -4413, -1494, 1524, -5085, -2610, 4175, 2112, 453, 2964, -6917, 2696, 1361, 1456, 6624, 1682, -535, -6890, -1156, 2182, -4583, 5792, -1600, -7263, -198, 5409, -7738, -1436, -481, -5909, -3062, 1966, -3377, -5308, -3873, -298, -1384, 5882, -1280, 463, -2083, -1807, -396, -1700, -5615, 935, 4623, 5116, -6279, -7172, 2798, -1957, 2854, -6284, 2890, -2835, 6212, -1329, 8089, -628, 226, 1218, -6670, 7402, -7924, -2550, 1092, -1798, 6096, -2985, -591, -4930, -10337, -6062, 3475, -885, -10030, 3653, -7375, -2662, 2293, 1120, -1564, 419, -3257, -377, -1553, 2393, 2646, -5441, 4294, 5863, 2737, -2332, 11695, -196, -698, 7893, -81, 6137, -4418, 7214, 9335, -595, -236, -4042, 922, 4391, 1373, 463, -1063, 10397, -3993, 2802, 4195, 338, 2388, 4185, 3355, 4423, 5966, -2687, 438, -2125, 6925, 2241, 1840, -3864, 1431, 7123, 3066, 2512, 3314, -291, 2849, 6363, -59, -4933, 7001, -6004, 2805, -15, -615, 7392, 4013, -4783, -35, 1616, -2754, -1792, 4584, 3100, 2594, -3993, -859, 2243, 6107, -2139, -2077, 1393, 5056, -148, -278, 8765, 574, -2072, -6456, -1702, -3341, -3481, 258, 1200, 4313, -2054, 3199, 4402, -1988, 3646, 4653, 1267, 401, -2228, 4251, 2720, 4078, 6867, -3770, -3229, -978, 1115, 332, -4564, 5666, -3782, 7396, 3781, 207, -1621, 3007, 2907, -3731, -2978, 2743, 3319, -2889, 3277, 2128, 1717, 4501, 2182, -1852, -140, 5009, 6007, -2600, 3551, -4095, 3884, 5944, 4612, -3605, 5676, 2221, -4190, 4857, -5684, 2141, 5311, -240, -1620, 1202, 1377, 663, 1160, -120, -4357, 801, 1892, -1501, 5190, -6415, -78, 857, 4840, 2135, 7451, 8310, -550, -5362, -1440, 3385, 3489, -1305, 6132, 811, 787, -4206, 1033, 6267, 5495, 4967, 3138, 2421, -4345, -4243, 2166, 926, -1471, 1889, 7413, -3048, 4489, 1677, 3016, -3342, 496, -338, 4847, 2176, 7064, 191, -1836, 2605, 4742, 3456, 6330, -2950, 5289, -1033, 5377, -3054, -676, 377, -440, -2675, 4361, 4306, 877, 86, -1123, 6495, -4502, 2734, -3276, -10449, -2289, 4991, -3846, -9383, 55, -7845, 1678, -4398, -2908, -3295, 4303, 6831, 541, 6927, 3162, 7740, -2825, 4466, -4772, -2202, 2334, 4721, -2493, -6900, 2740, 9757, -3921, 5982, -3428, 9059, -8948, -3158, -4359, 725, 3654, 633, -97, 4439, 4585, 3532, -699, -2102, 5266, -2504, 2293, -2106, 3687, 4796, -1639, -3064, 3924, 634, -5256, 3383, -1743, 8908, -7778, -3480, -941, 240, 3581, 7886, -1208, -1551, -134, 789, -355, 7170, 9749, 1174, 1958, 2838, 137, -639, 3390, 2028, 10253, -558, 3785, -371, 386, -6444, -5661, -3696, 6183, -1587, -4349, 1900, 2459, 117, -4669, -1404, 3927, -3304, 5274, 2647, -1109, -4800, 113, 1512, -6356, -8760, 1729, 1873, 568, -2084, -5300, 748, -1796, -6844, 1154, -336, -6114, -37, -2639, 568, -3616, 1861, 2533, 454, 1633, -3570, 9013, -276, -3588, -3979, -7455, 739, 1346, 1840, -288, -2524, 98, 6869, -3735, 1630, -1162, -741, 5753, -1292, 318, 3211, 766, 2619, -1550, -39, 2448, -1311, 3352, 8048, 6362, 9252, -208, -984, 2722, 6258, 4876, 1831, 2557, -2393, -5014, 1299, 847, -2394, 384, 2860, 439, 388, -7605, 6645, -4653, -3939, -46, 6399, 8652, -3131, 1268, 383, 252, -2204, 4925, -2122, 741, -7049, -6504, -6815, 1380, 2889, 694, -583, 6641, 7954, 679, -9318, -2079, 370, -3897, -3069, 5865, 5153, 2894, 2860, -5984, -2846, -3731, 2357, 4812, 2203, 5149, -3303, 2292, -4284, 1048, -2552, 4618, -5764, 3093, -2899, 4771, -427, -7927, -8039, 1242, 2275, 4190, -2970, 2128, -2485, -1518, -3934, -627, 2758, -1005, 2182, 4002, 5251, 5142, 3605, 3268, -2947, 8912, -3655, 1156, 1821, -269, -7232, -2834, -5746, 1043, 2022, 1333, -4535, -1109, -490, -4585, 245, -3770, -1841, 7406, -8839, 1904, 1535, 3682, -2525, -1627, -2179, -4430, 2587, -4470, -3780, 2339, -849, -5294, 7950, -708, -3100, -6025, 12867, 6525, 660, -2774, 5685, -1386, 3021, -3833, 4188, 2959, 3957, 1597, 3538, 149, 8792, -3683, 1050, 2209, 5478, -7607, 1166, 9763, 3303, -2705, 3883, 2612, 2035, -3952, 1244, -5484, 7897, -1304, 1237, -3689, 2981, -302, -1783, -1535, -2275, 8371, 2864, 2613, -289, 2953, -11831, -4372, -1568, 1036, -285, -3633, -3684, 1633, -336, -2265, -3191, -9087, -3994, 7782, 745, -2829, 4333, -1261, 5393, -2879, 4113, 116, 5095, 3721, -4019, -2238, -1711, 3580, 3294, 4207, -3546, 1405, -4734, 7269, -1754, -3740, -1484, 7693, 10132, -893, },
        { -4849, -2322, 6247, 3895, -1846, -1782, -3976, 4128, -492, 6513, -2968, 1152, 1588, -9518, -5159, -1149, -149, 1951, 3936, -4379, 3787, 322, -2216, 2944, 334, -3798, -4497, 5081, -1436, 856, -1544, -1204, -5847, 5249, -2541, 817, 5872, 332, 2932, 313, -4002, 961, -651, 1799, -980, -5987, 371, -3586, -3332, -8950, 6737, 6927, -4614, 725, 637, 367, -762, 1991, 4496, -612, 6186, 7363, -2107, -3408, -5226, -4810, -5089, -6011, 4319, 7226, -2050, 3433, -2547, -1113, -7221, 3929, -291, -1041, 9776, 1464, -10342, 480, 4037, -2049, 5493, -4031, 1387, -707, 1378, 4564, 10688, -3031, -30, -3193, 1303, 56, -2806, -5261, 979, 11349, -1987, 4837, -9153, -3961, 148, -1347, -11083, -8793, 4026, 5440, -27, -4149, 1913, -623, -4812, 3007, 4887, 1848, -4993, -69, -1421, -1351, -7278, -1801, 3852, -2279, 1438, 2383, -3201, -7117, -1690, -209, -5077, 9847, -1694, 819, -3365, 772, -7698, 4900, -3022, -8015, -444, -279, -3609, -2619, -1320, 301, 1626, 3447, -7243, -7500, -3315, -12656, -14744, -11068, -11135, -5066, -6739, 2138, -2642, -3387, -8021, 3110, -4139, -1616, -448, 2467, -8599, -49, 8333, -2627, 4134, -6556, -3128, -3873, -4062, 4459, -2110, 3075, -8792, -456, 1140, 5569, -4959, 6765, 6674, -3852, -6996, 1382, -2222, -11157, 1291, 485, -1754, 4832, 2036, 1251, 2717, -655, 1198, -3506, -627, 6303, -1774, -3283, -2689, 959, 3691, 9345, 11156, 5352, 5394, 2086, 1434, 2340, 1261, 5591, -3950, -11431, -2134, -6433, 443, -5257, -2576, 876, 9526, 1114, 1693, 1537, 35, 4524, 4287, 5786, -1467, 3856, 1130, 3399, 1944, 7467, 6543, 1415, 383, 20, 961, -6845, 34, -3560, 3850, -8458, -2937, -6652, 161, -1196, 4037, 810, -6429, 1507, -1419, 3242, -3510, 1503, 1437, 8433, 3603, 1827, 8324, 2329, -2190, -220, 3212, 3627, 705, 1304, 2927, -8681, -3734, -125, 928, -1044, 111, -1358, -680, 1562, 5392, -5592, 4100, -3508, -444, -2752, -2614, 551, 2597, 9077, 7868, 4956, 3621, -6038, 3468, 2406, 2670, 5810, 3232, -2545, -1975, -8902, 4702, -5496, -7263, 480, 6763, -4984, 2678, -357, 1336, 4224, 2512, 453, -521, 7564, 349, 4076, -196, 10361, 1716, 10978, 4578, -7156, 12248, 294, 3112, -5964, -6560, 1777, -2041, 4545, -7350, 3029, -4646, -3664, 6097, 5199, -3992, 3850, 134, 2145, -3192, -4406, -13299, -8585, -3610, 5404, 2446, 9738, 8697, -1365, 3775, 3226, -473, -1662, 1728, 8347, 5680, -2642, 2679, -10172, 665, 1533, 557, -5735, 2570, -4114, -4198, -3173, -2090, -2262, -11415, 1126, 205, -1444, 699, 5111, 6359, -1720, -5218, -4, -1222, 138, -3542, -2557, -4077, -1911, 2146, -1346, 863, 3990, 1468, -2083, 2485, -3327, -5617, 1249, -7605, -5489, 665, -3271, 2597, -3250, 4027, -4874, 8396, 3361, 3015, -861, 85, -858, -7532, 636, -1685, 4789, 3330, 2979, 271, 506, 3723, 2086, 2929, -780, 2883, -10734, -2687, 1494, -1051, -8001, 1749, 6060, 765, 3137, 8772, 5658, 1497, 2362, -902, -6772, 1402, 2294, 4626, 2629, -7285, -7509, 619, 491, -158, -2161, -9005, -4334, -1878, -364, 86, 477, -3351, -5022, -2832, -7011, 2770, 4004, -1637, -2351, -2611, -1213, -5807, 7135, -5218, -791, 37, 2367, -726, -11147, -27, -1582, 1406, -2994, -1387, 2307, -4912, -3458, -1437, -1323, 2577, 6232, -8591, 4189, -112, 6192, -654, 1455, 4432, -3258, -1141, -4218, 477, -1338, -8119, -4538, -2907, 836, 5433, -3295, -635, -7297, -5987, -1563, 4340, -261, 526, 137, -1035, -3612, -188, -4334, -2349, 4579, -6679, -2486, -7088, -5694, -2704, -5579, -1088, -1021, 2231, -4489, 4806, 600, 4097, -37, 3618, -1128, -10605, 3862, -4056, -5826, -130, 712, 1281, 482, -2360, 624, -6329, 1647, 1418, 1473, -1906, -8701, -2243, -5107, -3965, -1735, -4332, 1016, 7014, 460, 3372, 2949, 8471, -6491, -11206, -8706, -7674, -5457, -5534, -1553, -3964, 5500, -323, -1722, -7438, -5198, -9892, -1166, -6824, -5251, -369, -8631, 110, 6662, 605, -3071, -1918, 3056, 1029, -570, 3455, 3225, -2127, -3240, -6095, -9088, -11870, -4309, -3314, -5545, -3128, -8796, -5013, 246, -8362, -7496, 282, 363, 2354, -95, -10367, 71, 164, -6833, -1251, -1316, 1512, 4048, 999, -6114, -5391, 11178, -2713, -1411, -4720, -5530, -969, -4325, -2629, -67, -5743, -6064, -9486, -11876, -6581, 2450, -2838, 3954, 1022, 5309, 5471, -8210, -1426, -3105, 1029, 4325, -2795, -6373, -2344, 526, 2524, -10907, -3868, -5886, -7116, -4178, -5848, -3858, -2101, -1152, -2793, -8220, 203, -4069, -647, 4329, -1002, 3513, 2352, -1284, -5580, 3953, -4302, -278, 1508, 4231, 3382, 3174, 9605, -3726, -7704, -7148, -8867, -3398, -286, 2753, -1434, -1261, 126, -1518, -6861, 6716, 3925, 4780, 1417, -4424, 5804, 2695, -4073, -1724, -3122, 1313, 3239, -87, -662, -1136, 7604, 932, 2142, 2292, 6137, -3680, -4919, -2804, 1003, 4328, 7886, 100, 731, 12529, -632, 9005, 11414, -1240, 3093, 2510, 248, 664, 6158, -1626, 4389, -2505, 7473, 4500, 5892, 3887, 5505, 2746, -1692, 3123, 3205, -2533, 5096, 6073, -4700, 1014, 2470, 4607, 1328, -2082, -1460, 1444, -2910, -699, 3962, -107, 396, -1538, -2508, 1852, 2011, -4944, -1786, -2648, -1642, -1927, 1414, 3293, -3621, -3058, 4022, -1130, 3117, 7297, -2446, 867, -3051, 4700, 5085, -1071, 1270, 1922, },
        { 1669, -2340, -3017, 1278, -3079, 7170, 10695, 3043, -1113, 167, -5980, -3134, -5659, -11431, -2619, -2098, 2119, -2741, -3675, -1655, -70, -2468, 2583, 2069, 1943, 2370, 2569, -2371, -4766, 6689, 11232, -5507, 5648, 3032, 5875, 2798, 3240, -5765, 3424, -2134, -7314, 8244, 1385, 9090, -2957, 3972, -1829, 2036, 3078, 5087, 1521, 432, -440, -4073, 224, 3137, -5675, 1447, 779, 6097, -4196, 2671, 4907, -1522, 11560, -298, -4350, -4624, 572, 2236, -2002, 623, -3404, 1459, 6111, -1623, 8007, -4671, 2965, -2170, -3961, 7680, 5080, -3068, 244, -3140, 3771, -935, 5191, 1197, -5171, 4021, -1008, 5650, 2436, -3885, 891, 5056, -5762, 8318, -72, 3259, 1761, -1789, -5345, -5800, 2202, -1934, 1154, 11542, -2059, -5758, 2451, 7238, 710, -1837, 7766, -2623, 302, 3054, 2409, 4152, -3772, -972, -4586, 302, -185, -3671, -2915, -94, -870, -1940, -1560, -1210, -4527, -11520, 589, 5616, -3791, 5928, 5475, -7849, 2135, 1387, -6851, 3721, 1770, -4426, 5323, -4452, -4713, -3164, -2452, 319, -5416, -8526, 610, -7578, 710, -5112, 1161, -2575, -2067, 420, 181, -4157, 3469, 1441, 4330, -5531, -7613, -4347, -5391, -4893, 5359, -4891, -2240, -806, -4176, -6220, -1305, -4165, -4828, -1872, 1937, -5140, -5884, -3183, 1645, 2440, -4880, -8005, -3478, -654, -1176, -4375, -2465, -1465, -1458, 9161, 2691, -859, -2140, 4207, 2696, -1439, -216, 1315, -6071, 1814, -8244, -12411, -16350, -15795, -9564, -4744, -9081, -6957, -823, 5847, -3879, 1321, -990, 7810, 583, 6953, 4590, 1055, 10044, 2858, 312, -3088, 4212, 4606, -5182, 936, 2838, -2148, -9186, -3438, -14206, 701, -1305, -5397, 1020, -4060, -6247, -4458, 5566, -2672, 974, -1016, -1102, 3665, 2241, 5541, 5891, -1524, -1257, 2130, 3214, -1351, -2564, -3187, -420, 1434, 4192, 6905, -328, 1270, 3990, -10280, 787, -4441, -518, 1977, -773, 378, 8290, 5309, -2456, -2348, 2131, 5178, 729, 3134, 257, 2202, -3167, 1594, -609, -738, 6145, 5366, 11663, 1945, 8705, 363, 3621, -7960, 10855, -194, -1440, 8147, -3708, 2926, 7824, 804, 249, -2448, -7698, 4537, 5720, 4496, -3272, 4819, 4855, 5881, 5948, 6829, 12405, 10265, 10469, 11648, 10978, 1428, 3326, 7713, -4381, 7804, 1534, 931, 5358, -213, 2364, -863, -2439, -1218, 7939, 871, -6591, 4414, 2492, -4637, 2960, 3097, -3796, -3689, -308, 3071, 6577, 308, -7474, -382, 2948, -1157, 3052, -5446, -2414, -6635, -1869, 3899, 5143, -3260, 2180, 2345, -3553, -1609, 6274, -583, 6725, 3290, 2291, -8368, -1271, 4548, 2018, -2355, -5005, -3188, -677, -7496, -3933, -882, 178, -1971, -10, 6221, 3985, 2111, -2909, 1137, 1778, 4718, 661, -10, -3398, -7253, 1044, -9914, -718, 3230, -1536, 1050, 2692, 1963, -7665, -3601, -4927, 1293, -4386, -2876, -6813, 3303, 5765, 3995, 9724, 1076, 3624, -3054, -1385, 2971, -2481, -1096, -749, 1405, 5675, -6660, -679, 5818, 3750, -1725, 4797, -3952, -1911, 1201, -206, -1089, -2, -4397, 2327, 1174, 8510, -1871, 4351, 3900, -2878, -672, 4045, 3149, -6530, -1610, 3052, 1170, -652, -3232, -7049, -1988, 556, 1910, 3101, -11978, -221, -2283, -5723, -3647, -1990, -1032, 2237, 4117, -2444, 16, 2418, -3711, 4923, -1449, 4963, 5105, 2336, 761, 5230, -1992, 6352, 4325, 6037, -2984, -2356, 1558, -822, 1054, -3392, -718, -5743, -6468, 4274, 3034, -308, -4068, 7482, -1990, -3172, 692, 8356, -4749, -3286, 7565, 1766, -4081, -8509, 1035, 1091, -2639, 1777, 6434, 4855, 1453, -5478, -1169, -786, 207, 744, 7237, 4897, 2260, 906, 320, 933, 5225, 6751, 5248, -2633, 3877, 68, 592, -49, -2798, 616, 633, -4245, 1922, -1483, -1213, 4471, -697, 3569, -3875, -4383, 1485, 5171, 1855, 2340, 3103, -1015, -3366, 8785, -1613, 8816, 2540, 3922, -2167, -1997, 748, 3928, -402, -5476, -5815, -2818, -2671, -5431, -3303, -10796, -7104, -1442, -523, -7598, -7954, -5772, -1271, -2965, -4321, -4219, -1325, 3198, -2073, 7003, 1588, -4171, -657, 1145, -3937, -11198, 1820, -2295, -1142, -5824, 736, -2218, -6194, -3452, -734, 732, -3887, 1063, -3635, -8983, 561, -3914, -3131, 172, 238, -3947, 215, -2314, -3976, 1495, 930, 2278, 942, -3879, -862, 7611, -6951, 5998, -4975, 202, 6092, -4900, -3099, 3640, 2532, 75, -5918, -846, -4044, 1245, -7166, -5627, -4963, 2008, -6967, -5922, -4177, -1631, -5571, -2379, 3375, 4128, 3936, 5791, 1385, -6298, -4258, 3409, 2534, -3006, -5613, -47, 3819, -13, 7860, -1141, -4338, 1571, -6600, 50, -3204, -583, -584, -2549, -2300, -5224, 8784, 2649, 3730, -1533, 2114, -1103, 52, 4737, 5932, 1221, -5534, 341, -1598, -706, 1730, 341, 1629, -5879, 1696, -2310, 447, -9888, -10498, -228, -10611, -905, -2829, -4202, 1501, -8799, -5718, -5872, -8609, -6615, 1383, 3909, -7131, -5358, -3773, 2626, -1739, 1960, 1187, 457, 1614, -377, 7420, -947, -689, -356, -892, -2833, -2334, 2976, -1831, 4879, 5181, -3837, -2558, 185, -2536, 278, 5287, -499, 4834, 459, -2804, -1603, 2516, 3816, -8325, 5266, 1511, -3562, 3847, 6102, -580, -952, 7113, -4460, -914, -1628, 3183, -4960, 5610, -2489, -2862, 3558, 2172, -8724, 7787, -1234, -4097, -7459, 2395, -7690, 1607, -2524, -1771, 2030, 6082, -6034, 5556, 1177, 394, -6252, -3691, 8470, -3829, -5300, -186, 999, -2669, },
        { 2542, -779, 1548, 2857, -5424, 3503, 1157, -4465, -6464, -606, 6500, -2419, -778, -647, 4795, 1464, -2720, -447, 2573, -2665, -906, -4934, -4156, -3153, 11894, -1419, 3986, 2370, 2451, 4952, -7417, -1644, -4074, -7711, -2534, -6336, 5156, 3703, 3298, 4332, 1688, 1977, -570, 498, 8652, -1606, -1545, -1412, 727, -5089, -1112, -14496, -5455, -1746, 288, -2777, 5975, -4123, -1810, -5179, 2004, 9473, 754, -5362, 6095, 6012, -6889, 1604, -4417, 7224, 424, -3558, -4291, 5550, 1088, -293, 7200, -2371, 1695, -8802, -2511, -3780, 3510, 196, 1429, -6859, -4049, -1958, -1667, -421, 5133, -4650, -9144, -688, 860, 2471, -1433, -823, -2311, 1514, 9848, 4903, 7641, 2945, 4670, 8295, 3673, 1768, 11451, 8555, -6275, -3345, 2243, 290, -233, 2992, -6452, -762, 4725, 586, 1268, -6466, 3250, 3000, 3570, 3831, -647, -10135, -2490, -205, 6880, 9670, -1287, 2841, -6878, 7080, 149, 688, -8482, 2496, 8127, 3730, -4574, 4013, -2115, 2849, 253, 219, -1540, 2829, -1751, -284, 2838, -2615, -7196, 2873, -190, 7002, -4279, 2676, 1179, -5711, 5955, -5629, 5761, 4698, -1602, -60, -1238, -1288, -2466, 1985, 2241, -405, -4649, -8490, -9252, -1080, 136, 630, 767, 7011, -6137, 1861, -3826, 2, 2322, -367, -97, 4561, 3292, -2079, 7431, -1714, 6610, 565, 5400, -364, 1751, -787, -2628, -1502, -7813, 989, -6396, 253, -4849, 5592, -3045, 1775, -1094, 6847, -1321, -1520, 1560, -3601, 768, -2290, -6042, -234, 6211, -855, -5137, 2109, 872, 2029, -440, 6849, 1056, -6103, 4740, -2771, -7716, 5202, -6740, -6017, -3495, -73, -6552, -6071, 2208, 618, -6474, -1130, -3132, -1173, -486, -1712, 4376, 1896, -676, -1707, -1492, -697, -1098, -1358, 2326, -6924, 1957, 2817, 2039, -9204, -1488, -6348, -3523, 6053, -879, -6708, -8895, -7673, -6029, 460, -930, 4219, -7227, 4876, 7520, 3929, -7455, 1119, 3016, -1658, -4320, -6439, 2349, -7506, 830, 5144, -1283, -4061, -1218, 3338, 5988, 5741, 2602, -12918, -4665, -2811, -3081, 3213, 3126, 2609, 920, 4470, 1841, 351, 2565, 5276, 2407, 7350, 334, 6032, -262, -4460, -4404, -5487, -6863, -6878, 689, 1362, 9478, 9575, 7527, -8238, -1152, 1811, 2453, -3101, 5788, 1439, 7837, -187, -2181, -1916, 86, 2229, -10204, 369, 258, -2916, 6030, -820, 12099, 6375, -1263, 6236, 19023, 26698, 11717, 17668, 11572, 2470, 3149, 3644, -920, -1780, 3000, 3528, 13182, 14019, -857, 6227, -2123, -3098, -3416, 2229, 4063, -6193, 4208, 3446, 3988, 7655, 13873, 11746, 14997, 12143, 848, 5165, 5714, 6804, -818, -3449, 4759, 192, -319, -774, 1659, 7960, -9543, 331, -3868, 6062, 2946, -871, -312, 5677, 7120, 6022, 11621, 18278, 21387, 20682, 18797, 194, 4980, 11947, 2740, 2638, 8139, 1439, -3588, -4023, -23, 470, -2092, -7896, -4902, -6115, -8703, 1393, 1246, -9021, -1794, 253, 5433, 6357, 9845, 17824, 16266, 12284, 2645, 2115, 3419, 224, 3880, 379, -4437, -3236, 1003, 2643, -4644, 2012, 6675, 109, 2338, -5908, 1205, -620, -3521, 842, 170, 4135, 2416, 13251, 9016, 18605, 12959, -3124, -8974, -2720, 4876, -8866, 4230, -1669, -2054, -5361, 7788, 2575, 6217, 4926, -394, -5010, -6886, -2318, 9463, 1293, 3699, 1332, -4780, 1512, 2996, 2685, 10659, 8321, -1970, -12247, -7111, -6536, -1207, -5631, 3727, -1922, 1536, 7657, -1256, 1045, 337, 384, 5370, -1601, -13926, -4513, -4124, 733, 3216, -6263, -372, 7070, 3081, -5538, 16378, 875, -2881, 4781, -3982, 605, -9678, -3284, -1431, -2432, 3686, 4326, 8553, 4432, 3325, 1813, 6918, -5633, -3590, -7222, 4507, -4082, -948, -2492, 2634, 12879, 1686, 8758, -2924, 565, -743, -4672, -7343, -3216, -8863, -4940, 1779, 2171, 2285, 3640, 2572, 2346, 405, -3612, 132, -1315, 2321, -1000, -1986, -5701, 4361, -2721, 1193, 3129, -7812, -1200, 987, -422, -2563, -6787, -4624, -2300, -6844, -9843, 4306, 7315, 1547, -374, 3012, 5942, 5225, -1207, -2854, -6212, -7707, 4637, -1327, 5720, -3946, -2534, 2563, -1033, 702, -268, -840, 11216, -3580, 2231, -4835, -2298, -5568, 539, -1046, -155, 1079, 2998, -5525, -7818, 6081, 2834, 519, 3609, -746, -1014, -3185, -2131, -966, 5994, -7836, -1006, 2096, -2254, -11020, -2229, -2060, -2758, -3166, 7261, 2554, 1123, -7160, 640, 7053, -2354, 1811, -1424, -4107, -1306, -8271, 2413, -8784, 370, -2447, -578, -2601, -4450, -2457, 7659, -4201, -3421, -1748, 5146, 6591, -3446, 3002, -2229, -741, 6100, 3822, 103, 3198, 3421, 3076, -850, 2905, -1670, -9614, -1493, -8549, 1660, -2657, 5395, -2546, 5123, 1971, 4283, 4614, 2107, -1030, 2659, 5567, 3871, 7815, -1037, 2936, 2420, 8195, -2028, -786, 5475, 2701, 2558, 2006, -2110, 4660, 136, -1309, -4682, 2898, 2926, -3681, -471, 5921, -1170, -336, -776, -2448, 2893, -3983, 1863, 3301, -1131, -5586, 3855, 700, -8781, 4873, -2580, 5814, 4234, 1500, -5125, -3336, -44, 2499, 4251, -6371, -4158, -2060, -4397, -39, -2511, 4352, 4294, 1620, -3197, -3712, -2333, 911, -2946, -7662, -847, -3073, -2446, -3057, -10215, -2859, -1518, 5061, 1715, -417, -1051, 1689, -3491, -2982, -5848, -6336, 3634, -341, 4646, 7442, 2113, -6176, -3070, 1505, -3246, -2024, -2860, -5665, -2326, -3466, 2920, 2577, -6128, -1792, -1007, -1656, -2953, -4657, 2226, 274, -5097, -1629, -7257, },
        { 7141, 7145, 1547, 762, 8202, -2628, -8728, -1874, 1877, -1782, 1815, -2089, -4936, -974, -7955, 5740, -2632, -4695, -3425, -2863, -3525, 3561, 1238, -5872, -1205, 176, -5940, -3630, -5683, -7859, 650, -4178, -2039, -7252, 7585, 31, 2420, -1725, -882, -2204, 85, 534, -730, -378, -2707, -6294, -3009, -762, 1970, -6603, -1992, -1777, 10243, -7253, -227, 2119, 10625, -290, -233, -2334, 2869, 2049, 4430, -3951, 3425, -5464, 4801, -2908, 3463, 1815, 297, -2157, 2854, 2308, 461, 3619, -3877, -3706, -3334, 7544, -9983, -4872, -1541, -3828, -6093, 866, 1033, -2841, 109, 4219, -6497, 1500, -7620, -2248, 2618, -7503, 2536, -1729, -6161, -8442, -3216, -4612, 7932, -341, -4202, -2104, 6953, -6797, 3656, 2662, -3283, -3524, -2140, -1863, -1601, 4652, 634, -300, 375, -2826, 1953, 1363, 1581, -676, -6970, -152, -1598, 540, 2423, 614, -6431, -268, -3494, -2789, -649, -3436, -1382, 2550, -2543, -854, 2004, 134, 4533, -4118, -2235, -6647, 2072, -4451, -3350, -4222, -2251, -1455, 906, 1067, -4864, -6562, 3038, 114, -3412, -1294, 1778, -2199, -973, 12, -1758, -7022, 5855, 396, 5378, 1002, -8332, -9781, 1511, -2425, -8469, -4623, 121, -3890, -425, -1904, -1499, 3193, -1263, 5288, -938, -5229, 6625, -3385, 6058, -7576, 2594, -720, 6222, -4020, 5730, -2534, 2689, 1493, 2781, 962, 3227, -1361, -2339, 7431, 3452, 2917, -144, -3615, -1592, -704, 1522, 420, 522, 365, -6269, -4284, 3760, 2799, 2451, 2930, -2287, -7470, -620, 1298, -1729, -8399, 4458, -3544, 1221, 3479, 3216, -2316, -4889, -6312, 440, -828, -10578, -927, -684, 4010, 2729, 2118, 3057, 966, -1064, 1731, -350, 742, -630, -459, -213, 3919, 1822, 563, -980, 2839, 10705, -844, -4124, -3221, 578, -717, -2082, -1095, 710, -1236, -4649, 1228, 4842, 6702, 1834, 3387, 180, 3711, 3120, -707, -171, 367, 4468, -1952, 4833, 1855, 12170, -898, -1193, 875, -3525, -1245, -3575, 2829, -1101, 4083, -7369, -4125, -862, 933, -2500, 3642, 5389, 6116, 1075, -84, 5446, 5029, 3500, 9653, -3466, -3606, -6473, -5418, -1232, 1212, -584, -1530, 800, 2298, 550, -457, -4889, -7462, -3061, 1294, 771, -5134, -940, 2862, 1166, 6271, 1391, 6921, 2179, 3939, 13329, 5089, -3918, -9636, 276, -13121, 5667, 596, 1361, 4901, -6298, -3257, -2341, -4066, -41, 2177, -603, -8433, -7203, -10311, -5360, -1142, -3876, -4535, 4186, 4406, 1241, -3248, -5932, -5292, -1823, -4421, 2430, -14888, 196, 3316, -1002, -3714, -8058, 6795, 9528, 2860, 679, -1223, 4039, -4235, -2096, -6579, -11365, -9010, -8384, -885, -3098, 1248, -2353, 3007, -10630, 1079, 5541, 5249, 13533, 3113, 2145, 3080, -440, 2061, 1780, -521, -6904, -1013, -2931, 5515, 257, 4559, 3961, 4478, -3959, -242, -1361, -9809, -3499, -2540, -3118, 2396, 1132, -836, 2643, 5899, 6571, -5473, 2224, -5561, 3990, -13848, -2321, 1186, -2163, 7167, -844, 5770, -2395, 2709, -5867, -4403, -1170, -2774, -6342, -4347, -6697, -2365, -6477, -997, -527, -4006, -1276, -3344, 7170, 811, 3895, 307, 2089, 7422, -2390, -2546, -111, 10438, 1899, 3094, 5197, 5099, 5888, 2996, -1061, 816, -2821, -6290, -6247, -4955, -3302, 1331, 1059, -6938, 781, -1490, 897, -11049, 791, -12899, -5958, -513, 2651, -3445, -988, 537, -3603, 11066, 2719, 6147, 944, -2579, 2885, -11996, -2157, -4639, -4459, -838, -475, 2514, 327, -2826, -2736, -5504, -7218, -2954, -2689, 1591, -3434, 4403, 7903, 1445, -3899, -3987, 9333, -1574, 4097, 9166, -1171, -3204, -4173, -731, 2891, -1541, -347, -4146, -2704, -6277, 1188, -1087, -1826, 4084, 3340, -2324, 1727, -1875, -4771, 3670, -4390, -6740, -4868, -6597, -11441, -3829, -893, -7367, 1977, -1819, 5655, -159, 3922, 233, -4001, -6034, 5233, -7567, 1146, -1619, -5511, 2167, 919, 1952, 3553, -239, -9233, -6493, -3792, -1145, -2151, -6986, -6372, -4998, -3707, 313, -5856, 664, 4529, -2760, 5234, -2164, -3224, 2121, -2422, -3475, -2552, -3754, -4653, -8108, -241, -128, -3566, 4390, -1180, -8101, -1187, 1484, -3838, 341, 2962, -783, -6542, 5128, -1541, -1744, 6297, -5093, 7263, 2084, 5211, -3875, -394, 3527, -105, -4136, -3458, -392, -4156, -6648, -2081, 712, 6088, -5462, 1595, 2711, 3275, 4738, -1795, 3476, 1241, -651, 2170, 3415, -5429, 2157, 2433, -3270, 193, -1784, -3874, -563, -1360, 141, 5638, 3764, 6782, -2852, 8788, 7968, 4057, 3199, -890, -3781, -6949, 1229, 1015, 2463, 1757, -4871, -951, 101, -786, -557, -4162, 5712, 3611, -106, -7036, 1965, -8272, -3993, -5205, 6582, -261, 1445, 2836, -6034, -3742, -2600, -3439, 3537, 4936, -4047, -3292, -465, -1154, 3209, 1390, 1274, 4565, -841, 2007, 3873, 7969, -62, 84, 1063, -3166, 4323, -5910, 2263, -6126, 3197, -4894, -6443, -1719, 390, 1434, -5975, -5371, 20, -5563, 1260, 2289, -834, 401, 3459, -1930, 5572, 3249, 46, 771, -1703, 1239, -1674, 963, 1181, -5694, 3892, -3301, 4343, -876, 7462, -5079, 55, 1939, -21, 2380, -4685, -3735, 862, 549, -2117, -2045, 3546, 12340, -2396, -2062, 5475, -1367, -5679, 4122, -15418, 860, 764, -2135, 1577, 3363, -2676, 76, -2045, 3754, 6213, -1330, -36, -5678, -3918, -290, 5794, -105, 1557, -2645, 2838, -2887, 1124, -3904, 2722, 3455, 166, -1860, -1365, 2230, 2359, 3918, -1719, },
        { -8593, 3686, 1311, -6310, -4552, 2697, -4494, 361, 260, -1074, 6650, -2313, -1410, -2351, -956, 8827, -1650, -6346, -477, -4710, -3065, -3228, 6943, 1379, 492, -509, 1114, -428, -3520, 2827, -3169, -1129, -6336, 4086, -1413, 1269, -764, -5377, -877, -3592, 6347, -7543, 5925, 5607, -6600, 1532, -4280, -161, 387, -732, 1674, 12201, -223, -3195, 1098, -2929, -630, -234, 32, -273, -6335, -5469, -1557, -8146, -1940, -3312, -469, -4312, -4318, -272, -4183, -3581, 2048, -2496, 2929, 1336, 5214, -4115, -3672, -7123, 4628, -723, 2576, -4516, -48, 2145, -106, -278, -1344, -428, 681, 1761, 2094, -10520, -852, 3607, -4466, 5487, 3869, 5434, 208, -4681, -1794, 1390, 5549, -2505, 259, -486, -5583, 3428, 1334, -2281, -1355, 2766, 4924, 6051, 561, 2558, 3546, -1882, -7243, -852, 5804, 5719, 5751, 2611, 3320, 7659, 244, -4659, 393, -3803, -721, 2571, 3185, 5494, 5061, 4967, 6267, 1370, 840, -3899, -4078, 2030, 7197, 2127, 2600, 5842, -2037, 2135, 4994, 727, -980, 2776, -768, -1925, 6342, -2031, 834, -2974, 2604, 5339, -2068, 6485, 5285, -1777, 263, -1116, -3681, 3588, 3791, -523, 7559, -1318, -531, 964, 6177, 4919, 2987, 6393, -3936, 2135, 4467, 32, -643, 6529, 4601, 4720, 2959, -101, -6117, 2939, 6407, 11450, 2924, 2138, -1334, 4317, 517, 5139, -476, 1419, 963, 2082, -2835, 2717, 2552, 1343, 5741, 4625, -1236, -1796, 7014, -1285, 205, -2937, 8176, 2917, 884, -2511, 14492, 7098, -5740, 3369, 3321, -786, -3929, -1607, 3147, -2054, -7052, 302, 2705, 1142, -538, 1088, 2821, 3736, 1094, 2517, 9398, 2675, 7011, 390, 359, -148, -5330, 774, 10860, 3493, -995, 4027, -6234, 4531, 4045, 4763, -3121, -1505, 1985, 1818, -2571, -4670, -1096, 261, 2678, 4111, 10595, 1772, 5097, 987, -3891, 5291, -3159, -2494, 2567, 1648, 4319, -20, -1188, -2183, 1519, 3899, 1830, 583, 3670, 8123, -1706, -4328, -215, -11538, -508, -1394, -683, -3647, -353, -3132, -4111, 1085, -8057, -495, 2125, -1206, 5767, -14631, 722, 5228, 9438, 4889, 3046, 2305, 3680, 8700, 1041, -4572, 7389, -4773, -1536, -5461, -1100, 1927, -696, 625, -15160, -6183, -3230, -4735, 131, -2201, -6955, 144, -5118, -4785, 711, -8637, 6409, 903, 3426, 6191, -1009, -254, -3691, -5864, -8277, -3435, 583, 699, 7320, -4209, 819, -7498, -4591, -10678, -7828, 2317, 518, -4870, 483, -2943, -5478, -4577, -3418, 2270, 3763, -1524, -2318, -5977, 2163, -1962, 304, -2034, 1141, 2123, 1645, 4305, -1436, -5150, -1252, -7985, 4320, -9322, -6860, -5964, -603, -189, -8008, -4999, -4994, -2998, -12258, 1336, -6751, 5814, -1614, 4788, -4715, 3145, 6134, -5084, 714, 1315, 88, -6161, 570, -6191, -5965, -4218, -8185, 890, -10427, -3662, -7988, 5100, 1329, 5474, 5234, -3716, -2100, -2688, -981, -6243, 1460, 7868, 2438, 1089, -2980, 8648, -128, 5361, 3770, -6154, -3140, -119, -7539, -4626, -5498, -11840, -7883, -11104, 4488, 2294, 6604, -3065, 5323, -1585, 3401, 4003, -944, -10381, 2793, 993, 3470, 6787, -2504, 8160, -310, -8030, -16570, -5895, 6840, -1111, -1212, -963, -8683, -10788, -7026, -2359, -360, -3056, 7774, 7707, -7809, -3016, 2638, 104, -8506, 2899, -3643, -1706, -2760, 1033, -1632, 1946, -7683, -10783, -10829, -15342, -11813, -12543, -7503, -13462, -14766, -12877, -1836, 3173, 9376, 2634, 6139, 3698, 7741, 288, 1008, 7738, -2557, 5782, 4100, 11147, 6022, -4256, 6874, 6351, 3622, -11702, -16800, -13024, -13618, -18667, -16679, -10341, -16525, -2997, 2435, 9213, 3516, 7917, -48, 4104, -2590, -3282, -8438, 2032, 961, -2579, 1018, 4650, 792, 5077, 7297, 3329, -449, -3353, -7832, -9556, -6642, -9110, -5840, -3911, 3697, 6005, 7703, 2786, 3812, 720, 5302, 7917, -10192, 3292, -1546, -2844, 9378, -1305, -1218, -5540, -1833, 1060, 9734, 4456, -370, 823, -654, 631, 2941, 4037, -316, 9177, 5496, 6398, 2568, 1327, 3005, -4658, 395, -1065, 7587, 6921, 879, 1253, -2713, -3196, 10505, 430, -1586, 8096, 3064, 1546, -5526, 7753, 1957, 225, 1065, 7845, 6377, 6190, 11387, 10783, 2136, 2248, 4610, 1852, 2306, 7446, 3175, 2247, -2503, -1244, -336, 1989, -1958, 2914, -295, 1578, 3577, 5882, -1684, 2906, 1221, 6299, 5863, 11001, 1671, 7105, 3986, 1521, 5181, 4066, 675, 3958, 4394, -5547, 8347, 4331, 1932, 10866, 1825, 2149, -1470, -2262, 2614, -222, 6947, 1109, 5198, 7969, 3726, 3836, 10694, 2059, 3384, -1904, 6636, 811, -1916, 1938, 2392, -44, -6027, 2245, 5187, -546, 7726, 2901, 1754, -9617, -216, -1123, 2098, -653, 6243, 3727, 1782, 7641, 11778, 11550, 6389, -93, 9416, 13692, 7492, 4818, 4740, 2645, 1691, -5038, -1904, 563, 6263, -1832, 4861, 1711, -1702, 9488, 6536, -9699, -76, 3049, 3044, -3327, -1361, 1495, 5451, 3595, 4874, 5267, 6221, 3938, 2252, -3361, 229, 5930, 60, 341, 5984, 7585, 3371, 4030, -85, -4135, -720, 2663, -4063, -867, -9, -6150, 6540, -9664, 3179, 8938, 2916, 4609, 7224, 2762, 2183, 3878, -5439, 7523, 6483, -673, 202, -3855, -7318, 4827, 2376, 3077, -3604, 2023, -2811, 3045, -1350, -6056, -2105, 1399, 4759, 3090, -269, -3735, -6348, -3923, 3654, -813, -1773, 2877, 1872, -1011, -116, 4886, 128, 1241, -6635, 5195, 2536, 8047, -1348, -6887, -1853, -3909, },
        { -3576, 40, -5623, 5260, -4203, -152, -763, 1082, 8814, 370, 6449, 1665, 417, 4339, -1749, -4011, 6669, 370, -7496, -4576, 3001, 842, 1480, -3078, 4981, -3551, -2750, 1622, -5462, 2624, 1730, 9560, 2638, -3442, -3425, 5379, -942, -4877, -2061, -5715, 3977, 632, 5475, 5432, 464, -1908, -2188, -3342, 526, -6585, -2040, 121, 5046, -3480, -5772, -6603, -3328, -300, -1227, 1524, 4802, -4297, 201, -47, 981, -3182, -1867, -431, -176, 10209, 11476, 4738, 2206, 300, 136, -1878, -3668, 1282, -2272, 2050, -4074, 1065, 2060, -3139, -3112, 5948, 3391, 3524, -2896, 3135, 1844, -7199, -1082, -10564, -5095, -4506, 5191, 9246, 7709, 2410, -3115, 1196, -1848, 3260, 577, 2830, -4515, 1307, -3717, -3638, 5191, -6386, -4291, 297, -68, -3060, 939, -6483, 257, -4206, 2593, -2921, 48, 4864, 3328, 1886, 4611, -1164, 662, -4015, 3939, 4415, -1154, -1037, 6003, 5712, 4258, -310, -9024, -7461, -5271, -6168, 2858, 5781, -7668, -818, -1813, -2507, -10217, 735, 3853, 4760, 6174, 9632, 1645, 5223, -1044, 98, -142, -5629, -5228, -2755, -5391, -7422, 5084, 2975, 1509, -1359, -1174, -11594, -1034, -2293, -3999, -1526, -768, -1857, -9548, -2538, -1238, 9498, 11161, 517, 3354, -77, -1363, 967, -11769, 177, -3329, -6871, 2515, -1417, -2394, 2508, -887, 157, -2198, 3814, -5362, 5258, -1701, 1497, 3456, -2531, -7604, 1324, 1329, 5151, 1972, 1887, 580, -13, -7921, -7256, -886, -2679, -613, -4590, 1024, 1590, 3601, -5429, 371, 4905, 654, 1473, 593, -3383, 1565, -866, 206, -2540, -2633, -1365, 1257, 7136, 12758, 2389, -1796, 2555, -4891, -11889, -4971, -59, 1970, -6297, -9820, -2332, 527, -614, -8986, -6699, 4167, -2793, 2780, 1219, 43, -9013, -7316, 509, 2144, 3732, 8256, 13178, 3191, -6648, -8725, -3238, -2258, -765, 2622, -9379, 6229, -1998, 3205, -2676, 40, -5856, 882, 3327, 5818, 10390, -5279, -3826, 3266, -1277, 2693, 5446, 544, 231, 1209, 2850, -3712, -9224, 159, 2976, -1, -85, -3067, -5048, 268, -919, 545, -3564, -510, 3399, -2039, 7588, 4714, 3925, -5874, 9512, 1380, 872, 113, 2298, 14347, 10629, 180, -2440, 603, -3391, -2249, -123, -1892, 1071, 6232, -2851, 5071, 2484, 2729, -1806, 2881, -2919, 1208, 5491, -4281, -1049, 1981, -4340, 3844, -1790, 8675, 376, -1908, 6644, -4921, 2457, -6500, 2303, -3876, -1306, 2565, -3074, 1804, 274, 2443, 8972, -3829, -4500, 6111, -3494, -8104, -3660, -7194, -1078, 2772, -2066, 1277, 10135, 3353, 4586, 7507, 1218, 4048, -2168, -2323, -1111, -287, -2948, -3523, -8685, 4015, 230, 4941, 3969, 6697, 5821, 5019, 1741, -3703, -2211, 5923, 2869, 1465, 4716, 6305, 8015, 2573, 2406, 5428, 5038, -1531, -7584, -3213, 901, 1594, -4361, -313, -3176, 5493, -3090, -6889, 2870, -1671, -879, -5033, -850, 497, 1653, -1422, -1484, -9327, -4964, 9108, -4611, 2900, 852, 2872, -5462, 571, -2917, -8369, 2897, -3158, -2127, -2421, -2105, 2295, 4734, 2289, 577, -3320, 893, 2663, -3172, -3508, -5464, 4281, 6420, 1155, 246, 3000, 6043, 2786, -3201, 1995, -2080, -4847, -2385, -8257, -9585, -2101, -4211, -8501, -3922, -79, 1478, -937, 4941, 4639, -3908, 276, 1149, -5715, -2665, 565, 108, 1195, 2675, 905, 5571, 3525, 629, 4938, 3054, -612, 1388, -1372, 2932, 11, -2879, -9322, -720, -2108, -5605, -4571, -7831, -6479, 5826, 5190, 3665, -5223, -4238, 98, -2415, -5108, -1842, -1710, -6195, -3338, 3048, 2236, -3906, 7166, -1530, -7932, -6309, -6231, 4175, -3860, -1413, 3310, -116, 2534, -537, -3647, -5354, 7531, 640, -3140, -1170, 3005, 181, 7745, -1675, 189, -419, -1547, -452, -576, 1937, -2476, 3796, -2607, -5088, -7463, -9725, 7246, -3926, 3523, -2851, -747, -684, -2541, -11204, 4394, -748, -3736, -2851, 158, 4897, 8296, 7873, 4832, 10, 2151, -4181, -2962, -2366, 2994, -2586, -1484, -10507, 1286, 1863, 6651, 10077, -1046, 4165, 122, -3525, -1140, -1397, 3094, -3690, 1885, -7198, 5352, 1432, -7870, -8631, -60, 5098, -756, -4357, -4068, -6630, 3718, -11866, 756, -4808, -2305, 4724, 3571, 1666, 938, -3559, 3692, 3590, 5859, -1592, -362, 6489, 4076, -2173, -3434, -891, -7458, 2312, -1477, 3079, 3256, -10933, -5263, -7472, -99, -6515, -1459, -818, 3614, 1655, 6485, 2779, -5025, 7576, 3990, -4658, 284, 6527, 413, -7686, -1754, 3638, -319, 1502, -2013, 130, -6036, -3448, -35, 4847, -1462, -4175, -10688, -5040, -2579, 1765, -3753, 347, 8792, 2464, 2332, 3357, 3207, -3994, -3018, 6046, -8146, 3371, 2555, -4259, -3249, 561, -3028, -419, 1618, -5993, 2652, 2400, -9382, 668, 1326, -6718, -1864, -1304, -666, 4072, 2928, 6453, -343, 4048, 6270, 43, 2176, 3205, -1774, -3605, 522, -391, 2423, -4051, 367, 7475, 633, 2420, -4861, 2772, 541, -1583, -921, 779, 3681, -5254, -10784, 1837, -1414, 1505, 6539, 5128, 2548, 1810, -1831, 2268, 1953, 1602, -1258, 5509, -2947, 5308, 1287, 365, -2076, -837, -2162, -1414, -2317, -1834, -4105, 1816, 1553, 1498, 2874, -1900, -855, 8156, 5290, 2832, 4049, 5484, 1917, 6054, 582, 2502, -747, -1110, -6890, -10609, 137, 733, -5589, -304, -525, -3253, -1125, 5453, 6530, 1987, 7103, 1679, -1483, -3666, 2148, -3548, 4200, 6536, 422, -4337, 5338, -3000, 519, 2081, -4568, -1730, },
        { 1811, 1361, 2264, 404, -944, 869, -5053, 3095, 569, 6044, -172, 132, 218, -924, 3448, 1559, -5020, 660, 2853, -5866, 2996, 4385, -1728, 767, -1084, 1245, -3046, -760, 3953, -4841, 349, -6013, 1009, -4785, 3194, -3391, -1136, 7132, -5242, -288, -1748, -163, -5605, -3390, 1139, -2010, 4248, -2813, 300, 1608, 2193, -2253, -275, 2228, -5585, 500, -1450, 6747, -1154, -2869, -499, 1661, -3167, 2031, 8423, -7480, 6727, 4660, 3125, -241, -1047, 917, 3094, 4392, -7188, 4157, -3087, 1193, -4221, -1952, 2571, -2649, -1460, 7531, 7730, -409, -884, -512, -3208, 1033, 917, -1381, 4538, -5452, 6348, -2195, -5382, -4011, 2155, 3219, -6778, 772, -4956, 3713, -871, 2506, -842, 6190, 1928, -308, 2866, 9222, -1577, 4625, 3773, -4020, 2920, 2868, 648, 3768, -4649, 5662, 5099, -364, 7215, 928, -4139, -1252, 3156, 2598, 5227, 7109, -2860, 3032, -1882, 4792, 2798, -879, -7604, -551, 4023, -1914, -2785, 226, -3106, 2522, -4254, -2578, 6277, 1775, 6626, 5389, -4309, 7451, -2753, -72, 4725, 1206, 2431, 3980, 3613, -1526, -1322, -2224, -4325, 1932, 377, 3566, 5479, 1072, -399, 6735, -4652, -781, -3274, 3671, -2470, -9698, 6258, 2567, -2446, -3651, -42, 1105, -2007, -2251, -3137, 648, 3800, -1682, 824, -1486, 9006, 3876, -666, 2059, 1724, -5534, -4064, -3535, -4390, 4267, 2204, -7943, 2242, 1938, 1367, 5465, 1756, 4503, -13681, 5274, 3299, 2607, -316, 3248, -4346, 8353, 2061, -1231, 4293, 6402, -4853, -433, -6650, 1428, 5050, -8815, 7227, -326, -6766, 6693, 175, -4330, 5505, -4615, 642, -7236, 11227, -2919, -11, -322, -1021, -2836, -3297, 5011, -687, -4082, 51, -8295, -3948, -4754, 1773, -994, 1245, 312, -4551, 1284, 2805, -444, 3692, -2197, 4219, 3772, -4311, 1314, -6611, 3296, -2076, -925, -1083, -2691, -1909, -6715, -2741, -285, -5958, -5665, 3649, 323, -1240, -1051, -2325, 3708, 1217, -812, 4817, 2938, 1552, 7591, 7576, 4409, -1328, -5067, -5298, 3779, 90, -2005, 5365, 532, -4519, -875, 1446, -6201, -7382, -7140, -954, 3501, 3599, -5487, -9265, 3643, -6123, -730, 1112, -881, 4697, 4701, 173, -23, 1990, 1504, -4413, -5071, 3226, 3317, -3005, 3319, -2608, -2421, -9716, -7117, -3179, -13, -3828, -1677, 6377, 3401, 6358, 5072, 6419, 2924, -3322, -3109, 8322, -770, -1246, 4696, 832, -2927, -4341, 2841, 2099, 4530, -5307, 6666, 3933, 5097, 7087, 13094, 8888, 1660, -4274, 2987, -6048, 6526, 2316, 3972, -3059, -3645, 6096, 2823, 3375, -3878, 694, 4551, -2248, -581, -1171, 1109, 2262, -5115, 8252, 3979, 7047, 10812, 7200, 1626, 437, 8385, 113, 6845, -2161, 1784, -3542, -5161, 925, 7019, 5765, -9866, 1800, -7844, 1370, 1010, 638, 4406, 1396, -2260, 1213, 7320, 4849, 8482, 5855, 4158, 4744, 3089, -1785, 2641, 4040, 4032, 346, 9936, 173, -2348, -12700, -5260, 1336, 1686, 4229, 2032, 7167, 2262, -1065, 8276, 3291, -7906, 2735, 6119, -988, 6362, 15002, 4093, 819, 5496, 3098, 2284, 8241, 1939, 4023, 4647, -775, -795, 1752, 3801, -980, 4780, 3445, 6492, 5868, 6494, 8871, 716, 2716, 546, -4618, -526, 745, 3127, 1955, 4659, 513, 582, 1879, -1042, 7724, -2057, -5339, -444, 7178, 3831, -7220, -9294, 2957, -956, 5798, -1064, 780, 4091, -570, 1929, 6938, -4241, -5999, -3780, 2819, 7649, 677, 4734, 7526, 8545, -2612, 4071, -3251, 2355, -737, 4309, 2774, -2634, 4800, -3982, -4219, -5841, -2252, -8249, -7445, -3054, -3796, -297, -3308, -1984, -5270, 972, -1024, 10886, 5162, -1563, 4583, 610, 2612, -3576, 1491, 3416, -2710, 3174, 3298, 2018, 999, -1468, 1929, -2058, -6209, -2055, -6734, -8789, -1650, -4623, 1799, -1390, 4948, 4594, 3541, -2937, 8947, 1609, 143, 4795, -2979, 3985, -1106, 3372, 4893, -1842, 3663, -2514, 736, -1033, -6072, -3205, -4971, 623, -5096, -1076, -1143, 1249, 3087, 1370, 1329, 7071, 3494, 4118, -1576, 2473, 3377, 9111, -2010, 135, -4433, -596, 3132, -4668, 8120, -3346, -991, -706, 2415, 1286, -297, -858, -857, -314, -2992, -229, -5307, 6482, 7988, 1903, 958, 7179, 1701, -775, 5070, -7766, 5453, 2782, 7506, 1985, 2990, 1094, -4132, -1984, -4216, -4056, -1130, 1945, -1650, -488, 2718, 2179, -2178, -7171, 3695, 81, 4383, -1689, 4357, 10060, 2000, -2092, 1393, -642, -1739, 2250, -1830, -872, -5555, -3343, -1656, 351, -351, 3913, -323, -2446, 7484, -1822, 5086, -109, 5136, 2604, 7870, 3075, -3199, 10511, 1783, -1227, 3000, -3505, 2286, -821, 4657, -7424, 1840, -344, 950, 4622, 3165, -2217, -2868, 6164, 3101, -1038, 8882, -1401, 8759, 5212, 1821, 2129, 2687, 851, 335, 6805, 590, 3825, 5979, 4084, 5022, -2585, -6226, 6540, -3379, -7247, 5207, -5301, -966, -3922, -3173, 3290, 5134, -6089, 2684, -4073, -1460, 7515, -1702, 427, -1404, 4954, 6923, 4094, 4057, 32, -3819, 2258, 2875, 636, -5309, -3796, -59, 5847, -5839, 951, -3324, 3982, 1592, -863, 431, 6086, 177, -396, 1009, -3518, -326, -4579, -199, 6653, -1341, -3933, 6753, 3458, -2003, 2162, 3565, -4656, 4777, 400, -1162, 6801, 2278, -4172, -6130, -4120, 659, 8276, 2939, -3461, -1859, 7237, 2090, -1815, 529, 1988, 526, -4800, -1979, -4884, -5224, 4310, 6778, 2770, 834, -1549, -2829, -9568, 1771, -1224, },
