double **weights[2] = {
(double*[30])    {
(double[784])        { 0.6538238462404098, -0.13093453730983173, -0.003101316993904033, 0.07052107783965123, -0.35349205883620755, -0.946834388730242, 1.3074729410534671, -0.9961554447853047, 0.47201431023611085, -0.13136813573954875, -0.1548630683088615, -1.2421913416984693, -0.5128526476618852, 0.22711930887038348, -0.6383733448225296, 0.9251917332596044, -0.16057984165952693, -0.5114078621644507, -0.4019654031375704, 0.7426219093147756, -0.40078457714941634, -1.6383972273049312, -1.7865557547881243, -0.33107570746534637, 0.15085494340993172, 0.9402652219275124, -1.983235243079132, 1.2545217900863086, -0.18098794010259595, 1.173112017975301, 1.7857189842730716, -0.45624607283619256, 0.2716613065143541, -1.2081493755958086, 1.8818906387471372, -0.05294835058873408, -0.3599058828836867, -0.9530295329560484, -0.72112830584062, -1.4314706019773162, -0.55141412130303, -0.4989517902002006, 0.006953210928909443, 0.6159117785820806, -0.22666252601942008, 0.6848343518359506, -2.7522636352363445, 0.8366989668084942, 0.6566653568807357, 0.914479270714176, 0.6525593331249828, 0.004670200053757552, 0.29937765311272124, -0.2973577121398594, -0.8082170807989284, 1.5367235891935227, 1.8574248805820512, -1.130222155568014, -0.8223523212764559, -0.12231261904114335, 1.0252459739316278, 0.014936858621346994, -1.0987117541353555, 1.0540131551686396, 0.9988315698269775, -1.4290044384593341, -0.5837212705949262, -1.031417733997884, 0.38078994514040054, -0.9345103319313535, 0.3089905683528073, 0.08948059320712672, -0.934845648109023, -0.6550005881175303, -0.39923068043250365, -1.308263896090132, 1.3079684051515201, 0.03868906251636935, 0.2627366435366565, 1.2346984490119437, 0.18641357937548195, -2.0828977820407863, 1.653961032849449, 1.513327661228122, 1.7141264979423845, 0.03132947444590766, 1.1359743786639942, 0.6548432732248568, -0.5334107322622191, 1.6329524128193262, -0.16671959068146286, -1.9337309118206603, 0.08983183121648458, 0.34684858642624683, 0.610879521674873, 0.8347185459504207, -0.9337515313994076, 2.8089400872459827, 1.2477117647382507, -0.4709762987025318, 0.43512630923863405, 1.3153389730035612, 0.15897766834159285, 0.13631472268016726, -0.8944258969172701, 0.2496708771197569, -1.6158143056001046, -1.1125107953968218, -0.020132943983305934, -0.5319790925952608, 0.6757884558946977, -0.13368451894922417, -0.15192860463957011, 0.3573826669523212, 0.11289856428336842, 0.6520671176234828, -1.436589140750399, 1.7232664405484763, -0.5147173765188221, -0.9823915078904689, -0.27622961555602865, -0.2311140073492417, 0.23274881494670935, -0.767760046080438, -2.0652255063611706, 0.9303028371055734, 1.0398134955908478, -0.21391868853309748, 2.020599899941895, 1.4074466201104205, 1.576465649913566, 1.1540015001106756, -1.247876991748965, -0.35109973675372946, 0.2165579759153881, -0.6653190934601932, -2.1344926967506543, 0.5932929144031217, -0.7004787408122863, 2.0395188257504593, -0.20689716477112846, -0.574595824747127, 0.02146010369374736, -1.6254934946449033, 0.00469560553983724, 0.953127230070191, 1.410132478846328, 2.684266490474595, -0.8391523216867268, 0.11805763614613145, -0.11037620336498456, -1.9588298330879461, 1.8611220950673482, -1.6916067779430857, -3.1339762205446804, -1.3083781944819985, 2.3354320388039826, -0.8005964315355661, 1.2951974335621688, 0.4181441049704977, 1.5627835974948128, 2.254123210371857, 1.359876559628835, 0.3384909604359781, -1.3174667833162206, 0.7971919923100157, -0.10664518332486088, 0.6293046032263172, 0.5394227703607025, -0.7440134756005389, 0.8696597018623823, 0.3431924579802807, 1.072245082678159, -1.6909384053833532, 0.7275937015529437, -0.49477412035399887, 0.04108001217308796, 0.06348990668101628, -1.1903748599418107, -1.4017499526830413, -1.051557682701929, -2.293812916951767, -1.294160513461561, -3.4357483140789316, -1.8486456339856279, 0.2679212559817818, -0.13936297026123276, -0.21905756972527854, 0.3898966556136238, -0.5309367728132552, 0.6254636365284602, 1.504782191720536, -0.13397289766241702, -0.2174857390405615, 1.7599176814883941, -1.0668115299988339, -1.4253254680102978, 0.8854149573434691, 0.9306153060591719, -0.8540584479415699, 0.09510910513238768, 0.534840730671919, -1.9607067416585993, -1.4677371965262884, -0.12109816903370924, -1.6807867807917078, -0.7734738027112811, -0.9487402708541819, -2.424688453435568, -0.3079029122439109, -3.7896729792796586, -2.1104822076606236, -1.167437830135049, 0.823724983141405, 0.05670543977583982, -0.6431311527837872, -0.8750102792686388, -2.267844725976, -0.9344239663880399, -1.089764039548878, -1.9643633247500356, 1.430559434553914, 0.5944427748800901, -1.258507985249318, 0.4324291949891514, 0.027139274898609417, -1.5730125748920658, -0.6346603444631721, 0.7401362619897016, -1.119617434090266, -1.0644280311792573, -0.706757670013956, -1.5848803270889806, -0.2622924630022984, -0.975502887907441, -1.008004337166771, -0.1382668186334422, -1.5113799767036713, -3.5079370216271193, -1.3248867046308104, -0.398363268105236, -0.35781628087608097, -0.5264936240379464, -1.1671320467212778, -1.257325480951278, 0.6465549032950956, -0.8446829512628522, 0.7712859670725487, 1.3963731485510789, 0.980897721503071, -0.763416677696515, 0.6769429746960386, -1.8795637157852454, -0.05490599328402629, -0.26715386112027967, -1.5807410768916361, -0.6203820652411101, -1.1204536325076415, -1.5473988934578888, -0.4417004314319274, -0.411047726920296, -1.347550170660068, -1.4560291199648003, -1.3601667623106384, 0.1272743883606019, -1.0694392960748254, -2.9759424836696264, -1.6786941180064794, 1.44223585823038, -0.4634467758096385, 0.7068004392427611, -0.7287255565486652, -0.3757883978295831, -0.5729149932321618, -0.9936494753551224, -2.356862765831749, -0.04538539177595238, -0.38227337352547236, -2.549687924649037, 0.45250213600045947, 0.9870247786194843, -1.4754679018684977, 0.06277576335912281, -0.279919200349305, -0.42808994090329955, -0.6687220605530098, 0.0025994509859418712, -0.4842138663079737, 0.31059081087424756, -0.7514717067442388, -0.9963824556204384, -0.3424181543193597, -2.5291678457634776, -1.6472632724419936, -2.4058173275656376, -1.7624352602454987, 0.3181149207845471, -0.08719954715832401, -0.10933994161457686, 0.19201524273941353, -1.7579908799127337, -0.30692882573567853, 0.7630995366040431, -1.6100321169023235, -1.97304803619372, -0.9286539770643164, -1.7969341406134378, -0.4519071324097798, 0.3572381907378085, -1.1218532594771964, -0.9484685256650413, -0.764250134335594, 0.5788068107610093, -2.040773630226528, -0.1523426165707685, -1.929198573406757, -0.6950055056433212, 0.3652873113779751, -1.8252321068621786, -2.45244371942053, -3.6739623543911706, -1.8464144791477906, -1.8648068496418824, -2.4200322921114914, 1.4323815781194773, -0.21385864212504088, -2.4148720090331084, -0.6495311281714279, -2.0829528742536785, 0.48259177264307895, -0.3208608611080587, -1.6868829906882927, -0.3504088286500833, 0.0884891230602618, -0.49294433500046775, 0.6786311144455714, 0.206077544904876, 0.2649100125838135, -0.6627137159322347, -2.165146614105796, -1.4677892976803175, -0.44003708203468717, -1.4591451860469002, -2.236536507485955, 0.2540092982967938, -0.05871217807505024, -0.751994726155885, 1.0924405026598765, 1.425271371076392, -0.37115890431612997, 1.039107769607981, -1.7337110599420287, 1.2603019262375745, -0.7085963326857444, -1.5077442309066467, -0.6063263999481552, -1.1723013741146595, 0.8813827476368117, -0.9089968168551208, -0.17521360127364863, -1.537730113785588, -1.8033689844395824, 0.96709564835303, -0.5890269985265948, -1.5935067431507184, 1.6810402091601986, -0.8743301772227537, -2.509098247872673, -2.030040962909649, 0.7251804191270159, 1.1818104719271099, 1.5333900984942965, -0.22496122778041963, 0.6701845985010625, 1.8705056897840286, 3.5776122164159387, 2.887274375928455, -2.1492926527927128, -1.0857202955676906, -0.5860932977299044, 1.8629999551275118, 1.0054182046722333, 0.17146339152521867, -0.6073780152574726, -0.41944330920269596, 1.5352738625679956, 0.7155914190910277, 0.24158272624446508, 1.4169599205506558, -0.10390350555406806, 0.14412316366091718, 2.4767380852646523, 1.3082219433362345, 0.43599416908728117, -1.540139849585082, -0.4960919858742308, 1.7167544586878318, 0.8963912110167457, 0.1312783130185528, 2.655690475875237, 2.1548764887747245, 2.7193618710994945, 1.7147222179971124, 4.330359433407844, 1.3304243683045036, -0.07733034105916158, 0.9621877939144895, -1.8576616336793779, 0.5936811776828481, 0.7497196724281958, -0.7613659475401249, -0.43242693639267354, -0.232346609117593, -0.49605766646863964, 1.0749213654368601, 2.2899772425993734, 1.6682837732325217, 1.5619091857315668, -1.4955282723102699, 2.293306865661929, 1.0731705308858335, 0.1579076664199007, 1.5087872124994675, 1.117395271902006, 0.7368490295838276, 0.010715093357560122, 0.5826932982848932, 2.8810040690867194, 0.26873605532711015, 1.3892100272813206, 1.338281067522688, 1.3008055979389606, 1.2896476494637787, 1.2540417772755477, 0.961817980988511, -1.8651390525185652, -0.6228677625197383, -0.029966493782387117, -0.1108049233549573, 0.07547554713645495, 0.3896805585523888, 0.3002690516806609, -0.9323739426108197, -0.32354693125123446, 1.6519099839721765, 0.700001151663078, 0.7262121100211354, 0.5753489534807228, 1.5300839236841224, 0.6990874001753588, 1.6842638618985815, 1.6047459989956399, -1.0951242474322045, 2.135919809230961, 1.569891309901128, 0.8749306639653249, 1.3132866277187167, 0.003919938134538272, 1.5749481883865137, 1.2907744283232563, -0.02290147770479251, 1.746675143593749, 1.2017285760097118, 2.129917582996316, -0.2739194432572397, 0.11913135707877677, 0.8489409938962107, 1.5441093056790014, 0.21404251867250476, 2.03938930847169, 0.8055940441589458, 1.331760637844533, 1.272912751769837, -0.6180710129044767, 0.018572901714643285, -1.405246813228423, 0.29245685284417794, -0.7821680945586185, -1.2278234763804883, -0.2766226502202866, -0.06035560382982307, 0.015464504680288158, 1.0832157596426195, 0.3143696303862454, 1.3460256808887157, 1.5476118557465746, 1.448317493885417, 2.938881535825079, -0.9952715982102965, -0.9233377007439266, 1.3683004327639166, 1.4402618594250263, 0.7696147617221326, 0.6758287190021552, 0.04038694450096175, 0.465693518631067, 0.9498972838690819, 0.5668642874987996, 0.1085464576801856, 0.855386189079382, 2.187478472882077, 0.7683395632736276, 0.5886460147427407, 0.5864987557490466, 0.16624989850275027, 0.8073113155765892, -0.39527908062559836, 0.2370336881916899, -0.0366446782922602, 0.42659893171995933, -0.0963504172144729, 1.527103297148477, 1.7366641188348577, 0.46370547880059504, 2.2456113809513343, -1.3349150899724724, 1.2150764622786576, -1.1494194920598073, 0.8027223621404775, 0.8598598828751378, 1.0583200072229189, 1.463940816061508, 0.5784633164077103, 0.7193534279206812, 0.367144407288698, -0.7954203814976232, 0.352268989756839, -0.8363824458929051, 1.627684355825312, -2.0474628125436265, 0.6733928484667459, 0.5795403774031275, 0.049966950672548555, 0.2628702204990156, -0.09539676128367394, 1.9749719716436491, 1.1349185095750383, 1.88088569901327, 2.339878834983917, 0.20899259436058973, 0.7419573107060654, -0.1327077841304611, 2.4707760493118385, 2.0524053933745248, 0.15970601598107237, 2.945869036712245, 0.5233311978316822, 1.7112994240307537, 1.7764100295292193, -1.5177174162257672, 0.9633749761044307, -0.8534011635308313, 0.21878134218213807, -0.14088653303284365, -0.2251522654691447, -0.0865143495437038, -0.8062462435452928, 1.0955940248431746, -1.0682094949767875, 1.2191895508196295, 1.584669200858714, 0.35584613670219034, -0.39731859190777064, -0.39897240455531485, 1.3236612557734482, 0.7700756973404149, 2.1534313230381246, -0.07607766502340202, 1.0497047637365864, 1.4481490792051837, 0.8287524659067146, 1.0056326070847692, 1.8464671740916958, 1.127528056740724, -0.01659044292104348, -0.05580618773272705, -0.681472901142486, 0.5197498252214675, 1.1211308393007493, -1.1001992080424707, -1.212427970905471, -0.2222699813210375, -0.6328684057146119, -1.4592725021612036, -1.8511660231629803, 0.27124499549887116, -1.8535157674429674, -0.1878607117702714, 0.38080457774183335, 0.2880514009348676, 0.4124134599668514, 0.5274592440531997, -0.841297821805005, 0.1692005963450264, 0.31631987724635324, 0.7015579531187187, -2.373318212394396, 0.2295953502713679, 0.1374247843226246, 1.351684449428399, 0.2257285944109653, -0.3780938795119236, -2.17664760075475, -0.6083027905707574, -1.5443175133532185, -0.09906075113442066, 0.37923675207694596, -0.2472357468310773, 0.2840127998727817, 0.09954357264012642, -0.5500546719680299, -1.3675643160966726, 0.8813106600913607, 1.2817486072596016, -0.1520033611194184, -0.933175082014436, 0.057069974166662346, 1.41385141997917, 0.5888216593453734, -0.43194689678208037, 0.27999155673895615, -0.5779602499626117, -1.973665644001191, -0.020510820320967953, 0.15031575141680148, -0.5011387380746117, -1.8677781283540844, -1.433907467643048, -0.6770061081672174, 0.7792988209034989, -0.6260237351617479, -0.7384516110721315, -0.32778797288064626, -0.4572964793401915, -0.36911286876810945, -0.4345886790148951, 0.2674182475797178, 0.5793013725872512, -0.5856443592605286, -0.03802307549415264, -0.8080511271804197, 0.5773904763174522, 1.71480163968844, -0.09421268109363025, -0.32414819575561304, -0.18138902321259576, -0.020883780249929203, -1.076533872146862, -1.4969474820879995, 0.5175444076144676, -0.9195296389242373, -1.4308662342323446, -1.8713476026349463, -1.5058413189748079, -2.231556917239294, -1.7615353358499743, 0.7508096754592486, -1.2690723037015916, 1.9904396842086123, -0.982220414380083, -0.49377127357616274, -0.8020189491104579, -0.42141005001810083, -0.4732737083087364, 0.16392329152690205, -1.9897036625602829, -0.06264136886215618, -0.8767498408548487, 0.5396700310561218, 0.8606692054838464, 1.6508257657675551, -0.0005290765540701994, 0.29629467897264217, 1.5691644263599012, -0.8130547708383196, -1.1547592821160595, 1.0349629382484629, -0.780716287298676, -1.8679496959538018, 1.8223458267902446, -0.8197773115734983, -0.7693072420575183, -1.5083462121029574, -3.2239583714900526, -2.5341570923288246, -1.1583225387558787, -2.8857926958745557, -1.3323722362779844, -1.0327077259771484, -0.6450046980837059, -0.17945250136216354, -0.717743117221943, 0.8596303905408912, 0.5101497941107266, 0.1686887869296108, 0.0702023662915217, -0.6205845818579447, 0.5308964246276444, -0.16743784668649284, -0.609886680396637, -1.41408642639537, 1.2280595771329086, 1.259982681393105, -1.7771014023459692, -0.7478175736861712, -1.24893915465185, -0.5880247289308876, -2.9162240702268782, -1.8813224403140987, -0.7058800849965987, -0.6651744017215118, -0.7020020078164804, -0.3755474776207996, -0.5006327074131927, -1.8375856557875274, 0.32203456719370593, 0.5204004335304109, -0.010371660933083417, -1.6544720645054511, -1.1252709499917342, 0.19136631153830566, 0.007778300902071598, -0.40048805173937246, 2.790795183525295, -0.2902127221469201, 0.4908617019268317, -0.9233298474493026, 0.12817673942430807, -1.3283898854752982, 1.2833627626885566, 0.13461338358214234, -1.1923960182967988, 0.18025740832925574, -1.783336449241256, 0.3527241304925627, -0.5220148619500732, -0.3790416481996496, -0.4874125970953839, -1.325529196570621, 0.11559607247540361, -2.225471668315296, 0.08212898861834654, 0.041618214608818295, -0.8656857021442238, -1.0409570070843992, -0.33200076108436555, 0.10990546586649581, -1.417779194526883, 1.0622390408028632, -1.3484749138029737, 2.15688907164088, -0.5828836619537896, 1.5596661665052003, -0.28466630009877664, -2.0735405606068937, -0.6840625877322359, 0.42383312137538315, -0.08846984488767679, 0.7419400621143174, -0.16211713703282798, -0.1993050173954047, -0.35875747934842367, -0.4844987176185716, 0.6676964837346929, -1.733289193615475, -1.0405307443195784, 0.21075009186930654, -0.8452983390477533, -2.2012478340423565, -0.2303007661553426, 2.194257830465384, 0.12561442500065909, 1.200548046693123, -0.38752881257713245, -0.34650267443344923, 0.4597905808273253, 1.8299764964171714, 1.2655705509030653, 0.7543066948605244, 1.3759646125308216, 0.5825167380239048, 1.444013998563708, 1.9266725058939083, -0.4796152665284856, },
(double[784])        { 1.5605032340787663, -0.9879180360180478, -0.4260334274332314, -2.1103862595407983, -0.4562768431584156, 1.7418696207020137, 0.04208984323370375, 0.08663381754234865, -0.7200437654197996, 0.5908618476795736, -1.1739921053828, -1.096508661491952, 0.7141845150369451, 1.1938766270327255, 1.2793015881671226, -0.018671672521598064, 0.10124490727993782, 2.4393267228238726, -1.5606905876700905, -0.18409131538718712, 0.3916969856010054, 0.3787583891676434, -0.9423917289231982, -2.2149060946617998, 0.23222282218010654, -1.381618585192233, 1.3371151535101309, 1.6388868084005987, -0.2530697254839421, -1.0651463550036617, 1.0366961044394851, -1.5189886793361442, -0.3556678312160159, 0.6566714848144602, 0.6289085582714539, 0.12641468377457604, -2.0731913747843946, 0.37355291477439534, -0.1929558924260878, -0.6513952272287876, -0.38796349690352616, -0.2866560256978699, 0.26382494865508244, -0.4110452860491626, -0.2111073657453559, -0.22617192715032194, -0.11194742582371635, -0.6031974125592763, 1.551934579567045, 0.733416734092, -0.8810796813377907, 1.5963311587955813, 0.6712654682996881, -0.16816548109215573, -0.8161435738003188, -0.012572907685769786, 0.15878500440215496, -0.016063619202810464, -0.20356492985696292, 1.4616122515535188, -1.435523979762681, 1.1738637992782468, 0.30400908095205315, 1.6586573608915793, 2.108743352138123, -0.7267933684699709, 0.7267112614257969, 0.27228102896326006, 0.1527011989198093, 2.7698434849064855, -0.18987569039245522, -0.7863298643235894, 0.5179461548800758, 0.8262353585045215, 0.5699382509839406, 0.7295563969444824, 1.1348789828350074, -0.7972094103790429, 0.7596503904675432, 0.14572129355209212, 2.116878949048217, 0.1311121842475915, 1.0417112948208231, -1.3820121820601088, 0.6296500935728089, 0.5880255715939335, -0.4468005161025183, -0.8737378447153271, 0.14490783810771068, 1.6460859588399384, 1.000590013663007, 1.4094730910968858, 1.2300847519852676, 0.2888193967063579, 1.7352363784644709, 0.7735836247409869, 0.8595789864653969, 2.9595394332626315, 1.0008569474127367, -0.6871157097308082, 1.6347295941812603, -1.9097310769490468, -0.7829096525731312, -0.0444786448441987, -0.3705283843529303, 0.7944598037770998, -0.5881564044523562, -1.222925419668512, -0.0999858289538453, -1.2139695976354974, -0.2778702959385349, 1.0131516065443151, 1.8507826082485668, -0.06862623215898377, 1.8328968674375417, -0.013846413361766133, -0.008745929481441567, 0.70700880275511, -0.6020155168272537, 3.3966430859259935, 2.466376592390996, 2.331809942089323, 1.8460822684241465, 0.5158289993117355, 0.628978837094753, 1.9920249529757896, 2.5581019054538263, -0.7028585724818175, -0.3285703718687588, 0.561124434842664, -0.3195648784978791, 1.167924047342514, 1.1408451213946351, 1.272072634991895, 0.24570813520121582, -0.30289303149698615, -0.38935994277864666, -0.046464596074112574, -0.6188738010890912, -0.0876708037043112, -0.8301300446272766, -0.5987943314535282, -0.8082805601795431, -1.6062771521846284, 0.4055828779573001, -1.1423869957497685, -1.9035567362701236, 0.7448995068019919, 0.5048708471661482, 1.2365784001582054, 1.0009963724952755, 1.898322700337782, -1.4794817944153287, -0.4800991155714423, 0.5617428445544962, 0.3239996046074561, 1.0713527341739557, 0.8611403077038312, 1.142709041402696, 0.9203591026693878, 1.8663551588696548, -0.8528361073840353, -0.28529423535574044, -0.33609331234623424, -0.5710430456083608, 1.400883839518844, -0.788259340025177, 0.3706523737410685, 0.3414774211107356, -0.9720912341402864, -0.4475616295360102, -0.030313537328948793, -0.6133465778299103, 0.6667044380271919, 0.2970370667068913, 1.5741895156261105, -1.131177650340589, 0.16051941268131095, 0.0017921806256594776, 0.7823968622366229, -0.687576356348739, -0.6533467718487359, -0.06028804361749394, -2.272196238750784, -0.20130335454505546, -1.2731619627736481, -1.1819186179387782, 1.8518674946029186, 1.3483975773316652, 0.06511319156294695, 0.03853611572843447, -1.8221712364087985, -0.9640337278752342, -1.0674380291934698, 0.8780055352513826, -0.028478302049757407, 1.0573885951475077, 1.4824347036878311, -0.006600817750594769, -0.09646321197680642, 1.2887120306842017, 1.8800290443426049, -0.8924894709896587, 0.0163374601518304, 0.5507735514659592, -1.8963388783032218, -2.0837043272926348, 0.20776987985827225, -0.05850505759501013, -0.9462418393993892, -0.808782481932564, -1.377665227678218, -1.3015618191889078, -2.0845740637850563, -3.4866061806518207, -0.12469820762270012, -2.801732335704878, -1.1233609076861422, 0.249476496337811, -0.5277113598079595, 0.06214363689202173, -0.5917227549232343, 1.5892807713187964, -0.20522989962699675, -0.42066620838850216, 0.3655082867339871, 0.27704004143908956, 0.06716153709431515, 0.8648754661607165, -0.449756639228273, -0.4548747942491868, -1.4811008835866866, -0.6040956476661351, -0.09408022976771235, 1.0144144668414072, -0.6414929666461944, -0.829026885180558, -0.47989008708630665, -1.485915256230448, -1.1840786405392383, -2.633149769636261, -0.1505476393871457, -1.9711512128304205, -2.5985464101402327, -0.5704214347937199, -0.7225308422268457, -0.5266718256840223, -1.9099503677676386, 0.5946873713686499, -1.6240707673072408, 1.223021569500135, 1.2380371487002266, 0.45530532784080335, -0.42222901849850386, -1.252079102658355, -0.749986302688998, -0.6512332578314711, -0.6075500835992917, -0.9904189114287618, -0.6996890240998477, 0.2795545298232129, -2.287392377707161, -1.6945599238644917, -0.8311922021584925, -1.3063782473568917, -0.8108375319334804, -1.6466571145877762, -1.813157800501803, -0.23984938129758376, -0.9762671179847062, -1.0648006700741377, -2.039508263779774, 0.18838913890176356, -0.7308484443990603, -1.242585104109531, -1.0128338384431195, -0.608519090689219, -0.44745685294449433, 1.0897142503449508, 0.6499313771335231, -0.31838152765081335, -2.111802756620162, 1.19864906307719, 0.8835881527947727, -0.3621007911085469, -1.2169250680884272, 0.4929059353564599, -2.3089616358703506, -2.1974393876327474, -0.6002850490297392, -2.2527139096916486, -1.8066948543847823, -0.6548925527937747, -1.4103890476446603, 1.0883354212036351, -1.5961513555110982, -1.3372109753967907, 0.46392727593304983, -1.5385844459677303, -1.5947353188614242, -0.7898603646138098, -0.7448628851489594, 0.4678138999770705, -0.19639945518345397, -0.9069849115177143, 1.1881507225181724, -1.2223230869547546, 0.6132327487587911, 1.0680177275357963, 0.6024651194460807, 0.09240905133141965, 0.27150920822723307, -1.5649766163835646, -0.08322036950608402, -2.1438731609740955, -3.334432809865097, -1.8779404414703162, -2.1648350783116195, -1.7064062181579567, -1.2666752170036049, 1.4572613169539215, 2.6991399865371166, -0.03320676743585412, 0.18945263862342565, -1.2359055370743726, -0.3674304353583658, -1.7826218596485286, -1.687569714914868, -0.3973599036547003, -1.3396851860520484, -0.280792649309142, -1.0443883059124128, 0.7127281450763525, 1.4794663970907806, -1.5835647452387862, -1.0132652319743216, 0.03640235584300539, -0.3205968287904257, 0.7391661621318548, -1.2751417149075295, 1.7447603766790245, -0.9946444326104852, -2.9057668929067737, 1.0623742020295053, -1.3058548003320143, -0.42663267110838654, -1.7527541995272002, -1.648018002078422, -0.384043518539182, -1.0175633647829494, 2.000491884366866, 1.1027485733625606, 0.059332612637357264, -0.7734954031949531, -0.13302349360880728, -1.754152195113106, -0.666561876269012, 0.8126317428363672, -0.7276260797612818, 0.5720557546666807, 1.5314224528180875, -0.25787240054443095, -0.3282475544093587, 1.0415446399193968, -1.0815079303210855, 1.1909105517381076, 0.5339314621629687, -0.7275512875599046, 0.015501556058598471, 0.20814743384750845, 0.3346878463044962, -1.8420792967541435, -0.8095294353066012, -0.4969242976132211, -0.5194984021731205, -0.15333582561862344, -0.4025129090815827, 1.7306665468739588, 0.9688351518633869, 1.4788528699793801, -0.18100334004424812, 0.8318881632261211, -0.6534411956043126, -0.3049187321817058, 0.35594281701334224, 0.018854582007276417, -0.01751199861520401, 1.5045826956958264, 0.033082940980877655, 0.1706014164007377, -0.3564759278330827, -0.14718082049372602, 1.1124412306656801, 0.9406021314160384, -0.1909443668685666, -1.1073724927024826, -1.1400178775742098, -1.864008552988705, -0.9717644118140564, -0.8127868145137436, -0.4552048172626242, 1.116886548727299, -0.5218746977358074, 0.19900144755004964, 0.6316355065221165, 0.2018643372400131, 1.1051963383419796, 0.33540668328796996, 0.7379648599474039, -1.6864803011040213, -0.891619127178397, 1.2009435559467718, 0.5306279625093286, 1.1513627680322684, -0.9592947768704722, 0.753234263594946, 0.8905163664390807, 1.113708606985336, 0.5244874858296092, 1.0931519257199793, -1.4270506353003563, -0.045062531054972405, -1.1472410493663932, 1.1619427102865898, -0.08475166207380387, -1.5727904883487072, 0.08690897416558561, 0.9838986253974933, -0.3329487832161502, -1.7926847408217534, -0.9432673731414608, -0.031240438409585444, 0.49206868667730125, 1.151277680735156, 1.4786254698173005, 1.094279290676589, -0.49070893064082355, -0.5693966300495473, 0.3046916390723027, 0.7524761102605994, 0.015025867602920998, 0.12727063521132095, 0.5639323137540719, -0.9910398631303591, 0.6301507299977411, 1.338991534936732, 0.19519123823644433, -0.6222010452072732, -1.841887694498737, -0.40623137986434443, -1.2136938014849799, 0.6020758445543617, -0.018941253989303068, 1.1292467236899322, 2.0978144942309687, -1.1459591406073406, -2.3759116614311546, -0.11475067322910039, -1.7082895885957228, -2.261485515423804, -2.391387183204245, 1.0851077529569442, 2.80593308635707, 0.2610824242329131, 0.4822301555564357, -0.6925744409866645, 1.5290352328365533, -0.060871518625490346, 0.5145154747535203, 1.0079625394846903, -0.11950699165518361, 0.40214845324106685, 0.5777608845224258, -0.6003254961131935, -0.5441498373825839, -1.3447355528918796, -0.06795063055096832, -0.04304167040635439, 0.5424145996007889, 1.2830201155832797, 2.3763755837122185, 0.3424613951279904, 1.1657699600156148, 0.6679734530276492, 1.5736086245221506, 1.4817876119059896, -0.43248638948921675, -0.2332606956377226, 0.14708935087571268, -0.20768777086283757, -0.9071762930869467, 1.6512034806011695, 0.23151044668082393, 1.2913972779204834, -0.4290133794651122, 0.6703110043203638, 1.442457102820857, 1.2948240370376651, 0.9622933366841978, 0.11064495200515917, 0.29442119528636645, 0.8464425526931836, -1.9762480852854254, -0.6989327048757188, -1.257964002988207, 0.8295200954137987, 0.4734096373515052, -0.27626430486414677, 0.18423402067447245, 0.942970354489368, 1.028871568369299, -0.6768597370535925, -0.6304401451558922, 1.1586497479207405, 0.03650461107058731, 1.9762264586458909, 0.759862538186117, 0.049895113425111874, 2.0554572357721046, 0.074228236312896, 1.6247556519858277, -0.002342027851936855, 2.404961686964355, 1.4307090370644877, -0.86183171713003, -2.801769933473472, -0.07823204057480608, 2.3935139769030744, -0.002443774991297083, -0.5963005692866173, -1.5727686949131006, -1.225517651521063, 0.7744672855439353, 1.966348858037615, 0.6860346214074573, 0.8688525926882557, -0.5853399346657132, -0.22584626400700192, -1.0877162811718895, 0.23030877337607564, 2.1163814010543485, 2.419533794110256, 0.19585599923725705, 1.4772720952508567, 3.862160099333584, 2.1031095149273527, -1.3423897242799492, -0.9129019513317363, -0.06811455406648592, 3.128853187162164, -0.39833070040438656, 0.29109173368683977, 2.0794421253192716, -0.7453153183070516, -1.2217802953532497, 0.4879263088903927, 1.0172848141594832, -2.4403066009350898, 0.7812117622190367, -1.2464444156855075, 2.03600549068567, -0.8316452331458732, -1.4545347564320494, -0.9697861781456544, -0.5700533112790248, -0.00864114287416871, -0.28797927516148425, 1.082226079095448, 0.7987720444365438, 1.3922648266260504, 1.928435770628593, 2.0974028894240924, 2.332920788428477, 0.6975641656310095, 0.6429629992041279, 0.23718421655767524, 1.2077334846929892, 0.964568651902025, 2.5411938405785794, 2.375223087843232, 1.2459371846670928, 0.9698612976924118, 2.9155127315883194, 1.2442187260964404, -0.7691193102070185, -1.387215867994979, -0.10259157166436832, 0.2691208004952218, -0.12531905337029475, 0.49718407401534664, -1.4514738856852778, -0.4784978471336238, 1.291591339652949, -0.3684139861031749, -0.7131638739112456, 3.3102679693754298, 1.9949273725750223, 0.6371764577512679, 3.486980792889428, -0.11538696412061555, -0.4059480171716777, 0.8145607124748039, 0.9345010872495474, 0.9803854740939882, -0.182291541068603, 0.7216481013234762, -0.15510665822947592, 1.3403446137070263, -1.2377379352511448, 0.13901529373627422, -0.2856788526469824, -0.0725628337160053, -0.24057882852119192, -0.14835244387090793, 0.052204954625777365, 0.4181278258561871, -0.7628420788393219, -0.9160240685969342, -0.3295822202020092, -1.1413764255127485, 0.6999292561539334, 1.5581091666215714, -0.6514252936398206, -0.19816702471405476, 0.17013388207515429, -0.8548314236736252, 1.425847861215843, -1.203084393162943, -0.16250278359628303, 0.25349178837598635, 1.635264391065886, 1.3825894918320325, 0.20545936833880515, 1.4661169794957545, -1.1270515026844643, 1.4378572355798844, 0.9421792947483347, 0.042724554945824306, 1.1350869648390072, -0.06530378168852652, 0.5928664204356667, 0.3824277721375858, -0.29225553162478257, 0.21732228208880644, -1.2245385213252964, -0.40267559221516636, -1.2860062329246016, 1.8447244383232273, -0.7311628229258081, 0.8997934408242139, 0.5698998179167405, 0.365793798650127, -2.4254986516479757, -0.996739693637662, -0.3549430448678421, -1.8023677502899746, -0.06359883322299177, -0.9932040302350642, -0.9104536689195871, -0.6276886420074036, 0.08372771010505992, -1.8566802773772655, 1.105396960273678, -2.504771258727085, 0.3825522244174668, 0.43440023080315093, 0.06302610898461718, -1.3635792748326134, 0.28359929332311445, -0.6075481056687265, 0.330676633535657, 1.0702390189682844, 0.6863986421584811, 0.4338815765141158, -2.8014410369629426, 0.9416449506269405, -1.1298537771343375, -1.308650248912657, -0.14791370302116402, -1.019879923439939, -1.9324138523282075, 0.9012938291241208, -1.4460981403014797, -0.3985565621603798, -1.0648910737732613, -1.2900823207711345, -3.2424674497387507, -0.4565754184949649, -0.5031062739783503, -0.12964275753863164, -1.7294438479415664, -1.9498475641929989, 1.1945655021709791, -0.24975549252414517, 0.68397995466586, -0.9361516799411603, -0.9419505008669322, 1.391493046425671, 0.5040511396685037, 0.9950846452264335, 0.7718468219506304, 0.2532478421484491, 0.3320632736649165, -0.21128243563137955, 0.05870401455992869, 0.2970853189197821, -1.2700103744891804, -0.22491395897410887, -0.48510419750005324, 0.14743174944957496, -2.1607990921658473, -1.5760659215643045, -0.596357705524494, 0.3321225062342937, -0.7704361217311493, -2.080183431960228, -1.2927330894895162, -1.3089320740893142, -1.8979889880191283, 0.329404892216019, 0.06269929270404184, 0.45609711881985554, -0.05054289355581708, 1.5278630168947727, -1.226877442167691, 0.8786019325738474, -0.40028759069015146, -0.38142486159065786, -0.698266409989309, -0.035165409417935715, 0.9118543674997224, 0.9923939215209518, -0.016327998312438516, -0.40159925990154727, -0.9911347340706571, 0.015400770142396021, 0.6266610304115023, 0.015269450030471253, -0.5875110691888664, -1.5074118987337182, -1.2523116405592158, -2.0747019459817153, 1.3942201680490731, -0.7984307283996074, -1.524228993584227, -0.18330723265621096, 1.5322033236060355, -1.1967776816303108, 1.2546428194980859, -1.0279960458604798, 0.5275901399141819, 0.15977177329814043, -0.6545175492915632, 0.20796203794156715, 0.7010847049902235, -0.783398440291563, 0.8311100960901078, 0.6237147358944286, -1.0794252651156937, 1.11718421090267, -1.0314770981542507, 2.0812883103896205, -0.7504062607224752, 0.17129532571724032, -0.919898893293596, 0.037035500475388033, 0.017602286961512236, 0.28929065001744125, 1.2480388973260534, -0.694074287365777, 1.8456957664664275, -0.35306197888774576, 0.9119458995774243, 0.7145924180413298, 1.1652354939535168, 0.8019599999454287, -1.8081495973896298, 0.2870492691043191, -0.6511948171338054, -0.006995003541397915, -0.6044159379565424, -0.34467172677921615, -0.667942798429241, -1.6120186927644031, },
(double[784])        { -0.9318212493518968, 0.6125919556110446, -0.9235175897650978, -0.45725756801778844, -0.35424311003431547, 0.7312198959544476, -0.8776977169999912, -0.13748676407275273, 0.336592873363353, -0.3133496577477981, -1.062661540118879, 1.3519134767671066, -0.6154500245217884, -1.6778279718473212, 1.7529376214720593, 2.6347563237586047, -1.0945569173846963, -0.03041054463536651, -1.5350988808051247, -0.4328901497949086, 0.30705683995398864, 2.223348571815469, -0.6988183918317549, -0.8696767971663548, 0.9030837984119412, 0.7076470069985946, -1.1565583302437, -1.1974837514453658, 1.3495429484801384, -0.2638814459092735, -2.065459362902781, 1.3824191407769082, -0.13505315381374544, -0.07409706631848116, -1.2467481982809168, -2.1431537026149665, -0.3936948062605625, -0.11501897801366423, -0.45701794246793875, 0.2296189057932864, -0.16784440096596384, 1.1110039435624657, 0.017404972859543996, 0.4848830118936879, -0.6167257873394824, -0.6944321433817807, -1.227004540620019, -1.5240425831260214, -1.3656586005673772, -0.9612854329770422, -1.4238680114651028, -0.3616218449197174, 0.08408779176447999, -0.6546780876521306, -0.5585065276847763, -0.328481109142488, -0.09137993734782264, -0.4793704717745161, 0.30428745731671714, 1.1468284563902709, -1.7207717567504535, -0.4527423410868026, 2.270110077287524, -1.0897713746261934, 0.5455511717862991, -0.21582439927101396, -0.49114465088512677, -0.2288860684620277, -0.9435742851633335, -0.4652766868428392, -0.4730636358569108, -0.8396452727226513, -0.724299911180031, -0.36435579077215197, -1.1984705758764513, -0.9876579785070944, 0.24657024804162916, -1.205308441424642, -0.011546145286278444, 0.13693627067281938, 2.1909550387986263, -0.29129777443293803, 0.3231809089722128, -0.025259599364925757, 1.1295189769759206, -1.4420452343950971, -0.6318052886362856, -0.46921389356870635, -1.5213269727758039, 2.320123562218669, -0.30332615698947984, -2.168684905234427, -0.6493035273804268, 1.4914332632269194, 0.00875003157038772, -1.090762626105469, -1.414477375969995, -1.6425625076484702, -2.5880763928716317, -2.159574401531956, -0.558762273307092, 0.9332576747377443, 0.8953144475663667, 1.3277067400534193, 2.0276395362173063, 0.782358530073629, -0.7233348821147527, -0.9094548563944657, -1.2316146078480967, -1.126650707890212, -0.3472192443157684, -0.42420616006182316, 0.7034152462318755, 1.8739392240461623, -1.0470172894339758, 0.027991865095669796, -1.4087514224396862, -0.6533882912473762, -1.3216936176275822, -0.628623745940336, 1.7294712396735812, 1.3179099772636222, -2.17199588102259, 0.10102225134157893, -0.8588863345498413, -0.39301253561045657, -1.6506049255594386, -2.5279995845048138, -1.439146270264072, -1.048818034256145, -0.1545547767875133, 0.8988993713877763, 0.4502778335946971, 2.1206751444467615, -1.0015631777784855, -0.537240755234582, 0.07734401422914167, -0.08823053502348964, 0.9923122422923727, 0.6697640404378761, 0.11199491067076434, -0.7861772483241551, 0.3233141561669025, 2.080227805430488, -0.18456214905007032, 0.8187622339010205, -0.24276726249838532, -1.3001516811550102, -0.3196716547434047, 0.3295419257388456, 2.184763610895551, 0.3513958745226295, 0.5143418634316735, -0.6732761467080836, -0.4943804762340256, 1.6438817841840452, -0.316224900149793, -3.3873408473982636, -0.01745477192451166, 0.4196486446126585, 0.15487979417060083, -0.10374785261898327, -0.13453561756015173, -0.8751302326182754, 0.07475551828708721, 0.6226192888361526, -0.12034670434195566, -0.5735862464775837, -0.5420913802979098, 0.978064035096381, -1.114336788071294, -0.8848524328473362, -1.2068460978704563, -1.061519463714443, 1.2067740025987188, 0.09013521979708028, -2.679139052332856, 1.3479340815044538, -1.93458143786783, -0.10261731560826777, -1.943733715815971, 0.07358592296507134, -1.3699082083292795, -1.9298834138941383, -4.129558578038893, -2.7084516778378465, -1.1109403860307534, 0.48250901165331156, 1.1509881434082485, -0.22955117316782955, 0.4339761313097766, 2.140004257714334, 0.7353213511590326, 0.5191102152518137, 0.9248317934466135, 0.43513575088243023, -0.8484781752637213, 1.2702351923777342, -0.5378372533906116, 0.4542890673322924, 0.6584138778374442, 2.868385715991337, 0.35598689743065576, -1.1012200163859005, 1.4031553078787642, 0.13713134197382562, -1.1084169986856698, -0.3355886182997197, -1.3454257305688107, 0.6201655621883035, -1.1284686261011938, -1.1166693617144163, -4.532526557327956, -3.112537400509922, -0.22938026683153678, 0.5750704570749012, -0.2891378267508768, -0.6697417429034116, 0.27938367240045775, 0.21885703750135777, -0.008798414198615075, 0.6407229745843543, -0.019280623670976688, 0.5624699132136695, 1.0745620665524538, 0.31858162798966344, 1.2746903097381086, -0.3787898952182009, 0.8557883232936033, -1.4559324562815716, -0.9217602770717772, -0.4540377476877676, -0.19422195271332907, -0.41847262785084294, -0.28168588613891843, -1.424579039808449, 1.2303429612317351, -0.6504339895238203, -2.103971416729697, -2.1275160591796465, -5.560219893304403, -0.16155005274990492, 0.37920136609983435, 0.1675810823583208, -0.4830716264748804, -0.39624398700851754, 0.6990086102781261, -1.0104288390908254, -0.2111662431585193, -0.5524681578093359, 1.4717872926744782, -1.2661838764438553, -0.6361154589855853, 0.4337092942935749, -1.824918219229943, 0.6092198483529422, -0.030701896563830856, -0.7810017608050801, 0.637923781884511, -0.9743729077660669, -2.0304673374122406, 0.4696138041845583, -0.7102297973544296, 0.876806764976297, -0.44488435885144356, 0.1266591798774838, -0.5716509986387308, -3.649629897021408, -3.6745572647273863, 1.8964607281261558, 1.8227931491938554, 1.0845567439337, 0.74960509315074, 1.9344187281011485, -0.0432587016755009, 1.5859801153930597, 0.9699153390563828, 0.5853917390545941, 0.6165344923752686, 0.12718221447943304, -0.6282354247767822, -0.8220815299121667, 1.5987817852226274, 0.3988456668547681, -0.3084675073694546, -0.20549386560252073, -0.71467470613693, -0.9231865910682985, 0.002077994599463591, 0.34992936784684453, -1.8743596819964528, -0.6771418639967578, 0.28422788749614625, -1.232871584925804, -1.1287740787370077, -5.2744394828137695, -1.9807023769228795, 2.7986327129160364, 1.185438907782876, -0.13566624731620414, 0.1655277449091523, 1.9265625838002414, 0.5804076661584429, -1.836490815745052, 0.15734776139165488, 0.3238981180876654, -1.3121343303954496, 0.03615084218750873, 0.48032494636359463, -1.1737686457739442, 0.7258631653256051, 0.7889223172059493, 0.022124029748493666, -0.6783030766213812, -0.7492768377590597, -1.7937636583722667, -0.9169969293705521, -2.3680657668880642, -1.421862328398899, -0.42678124883437585, 0.5423639012268915, -0.8029262146924963, -3.553876352237615, -4.1685791863951165, 0.4100264208229346, 0.233856013252479, 0.8434379927529753, 0.2354878590581539, -0.2897203615322291, 0.15876200193455647, 1.2054129194043433, -0.18229027334876677, -0.13712372811154344, -0.20593762450317118, -0.08460815955306829, -1.3775723915959526, 0.191699374087581, -0.6249387751975383, -0.9507651350083902, -0.32921395549610055, -1.7438973530376847, -0.21904213292499916, -0.8824529375798654, 0.4261506188233109, 0.2831631546083737, 0.8489318449927292, -0.007845688516792263, 1.7310623898363615, 4.283177235028195, 4.703375217895523, -1.549796699895109, -0.8576233131897778, -0.6810453679518388, 0.04180298445130464, 0.7320593020363542, 2.1791045709673154, 0.48533537402466637, -0.12941301680256131, -0.6118762593452116, 0.05306487148480315, -1.1301724099605748, 0.3757108511553336, -1.5578914480490529, 1.322716503412233, -1.166603216140429, 0.34701907725689046, -0.8407612382087681, -0.9843855695496363, 1.485696673058165, 1.0659137318468186, -0.5928929571141657, 0.6411954374415652, 0.5956171917461579, 0.7066665332839352, 2.1481843941855048, 1.5786252339753004, 2.0924494271729412, 1.0534807356158584, -1.7324307937108294, -1.7379313319843999, -1.8626427631137688, 0.2107681025548609, -1.1080330410378287, -1.1876924760883558, 0.6322704666505342, -0.9219171269077978, 0.3379767882860995, -0.656035332662667, -1.4726133661726863, -0.049096952053209894, 1.6267220354688001, -0.8077517473118208, 1.57210466350733, -1.1129495498802515, 0.12534428988472773, -0.5225957227128736, 0.5789623702643046, -0.8649374324016855, -0.7396267953645976, 0.6614993471474677, 0.8056193363259726, 1.3083317075707734, 0.8102436845779997, 0.31507405656033405, 1.3332154158817233, 1.3014771676845152, 0.6637816186090391, -1.1305570008859314, -0.6364080857318176, 1.5432471669975074, 0.9059566058932758, 1.2230763451764122, 0.6153647783570849, -0.3484665972990678, -1.539911014417545, -1.2542872857241414, 0.44579349899668963, 1.6660088625113614, 1.0782193961139686, -0.3492457826400015, -1.4596960380595072, 0.6170839440866669, 1.5435347909660042, 0.05902039468713035, -0.07470961324189952, 1.3170174646168267, 1.937717576802111, -0.1884735166916186, 1.3198103330872473, 1.9549724506049846, 1.834967067551043, -0.3536692014714126, 0.5193509268800094, -0.04175141144646306, -1.764423113548403, 0.4173760459315263, 0.5661232068930353, 0.21519390828211124, -0.5936815393123603, 0.6436660139353664, -0.9185586987361544, -0.6017861223752937, -1.2345812963649827, -0.4708754746007722, -1.6669611608119104, 0.9634450937422651, 0.8346893872814125, 1.3756432570443768, -1.6548285016796485, 0.7922176423095393, 1.0278066516535684, -0.3436162695022906, 1.1140022634306774, -0.6290142306237355, 0.8732614092207487, 1.1210000806571365, 0.6906759044196691, -0.2339778931175633, -1.2364310569509986, -1.108591597654728, 1.9259361140288969, 0.5703933659045599, 0.7115025272556231, 0.5943756803021876, -0.9436211602056916, 2.443896120657975, 0.4671376846916672, 0.21545654219132648, -0.3346297778222977, 0.1870703107739575, -1.405493102061688, -1.6363070115854566, -0.5258080714758085, -0.10915506089672493, -0.4148120356320555, 0.8749772363698809, -0.4539632295893939, -0.0760887183449627, 0.94666580436476, -0.04820969763929398, 1.837062183714163, 1.8244263689412237, 1.744589230373024, -0.607269873131927, 1.0189715393522114, -0.33164745584504207, -0.5459568343522008, 0.6433743517451735, -1.089653964401835, 0.8374189534754215, 0.1893140651988678, 1.3764488455373214, 3.0728528743422547, -0.19440731034819744, 1.4767681336994911, -1.6162301459978767, -0.01653409305257488, 2.2264630341148153, 2.364488631440286, 0.7665500381486413, -0.45108721901898985, 0.3446550893170544, -0.3524535025959769, -2.5943913424926905, 0.2616138233519239, 0.4578197649460184, -0.49283446899854005, 0.23941660493221598, 1.4585279986403603, -0.5219210948304274, -0.2663248344276553, 0.8630592906913943, 0.9580368768877398, 0.012454367127082146, -1.5758486064053763, 1.8158129565278835, 1.3082757112422387, -0.08666241077165057, 0.40658158750829076, -0.22950043542041207, 0.2830381579919158, 0.40833480984059833, 1.0700780200700055, -0.2997212234691424, 0.2382905381235822, 0.8019808940125038, -1.8154653422962224, 0.36199951434660754, 2.0900768394200844, 2.733235822791801, -1.8004013249389628, -0.2722064563065708, -1.1668272101630621, -1.2434780700607913, 0.43796798414578486, -0.1930558923262257, 1.1650692560363067, -1.1518496179723872, 1.3140000846640425, 1.076691838618351, -0.6709853063628366, 0.25140132254568076, -0.5801379480535831, -1.793744846267748, -2.286813656543938, -0.5537109332069041, 0.2772775842327202, -0.45001939498501103, -0.210206936866329, -0.3811287737866792, 0.5634800744061799, 1.1728885437688634, -1.1959652581730262, -0.40738438467085025, -2.042129781450201, -1.2641188691603764, 0.15827770753580658, -0.41564613633079983, 2.3950645569376383, 1.2319373786583747, -0.506943658361186, 1.1647087017249098, 0.6510248315708087, -0.10669786562204685, -1.0949788189357017, -0.10210682750146981, -2.406776651911924, -0.1610976709413379, -0.7309791741872756, -1.0563370737515405, -1.6665644107961572, -0.51884961374101, -1.088489504018042, -1.3349924334420806, -0.8774495100246467, -0.7793562011431663, 0.2430201639802878, -0.6334659751242258, 0.7717541405144285, -0.18105698519756214, 0.8639400766608002, 1.0129391695142584, 1.0542131784538986, -0.21260883689008309, 0.4637725976042188, 0.40647396902455, -0.5596902266493963, -0.056661496774430206, 1.2685099153006898, 1.2064751165633276, -0.6085391644381829, 0.44447578054428005, -0.4443048440899875, 0.07037189146567921, -0.9749365383163765, 1.0136125485514758, -0.5293729730217044, -0.984318656253103, -0.5363521379560626, -0.40571676070742896, -0.25632100931597146, -0.07438893626376569, 0.44961878080557677, -1.853399007640021, -0.9235138216837794, -2.918926794361708, -0.5132362947027493, 0.31856149994373756, -0.9782158573414583, -0.36861894034954895, -0.7346094021277495, 0.9600180178401383, 0.20772696039129873, -0.48829124453017514, 1.528324571463678, 0.49742712471792855, 0.5353777361376764, -0.3670519947430815, 0.21015691392624256, 0.6677118526953609, -1.0263253117284068, 0.8395889223881323, -1.9422665503472492, -0.022525011913445563, -2.6044029502485344, 0.8125930308489276, 0.6929010172908935, 0.8840073631705395, 0.598534452859262, -0.44628992885841295, -2.069875222101876, -1.1218853692589492, 0.6272366147354036, -2.017463009247984, -1.1323720367369898, 0.8344712388229734, 0.8236661894656012, -0.9063656528974101, -0.045828575004689044, -0.9247900137583637, -0.12406770851348478, -0.4072974354246577, 0.3820618779438387, -0.8263052345175403, -0.13519531181337205, 0.08941074306377514, 0.061344921814198025, 0.7360715976049715, 0.3070532002542991, 1.048856413196599, -0.16180618898444368, -0.6109754838163006, 0.08957557088862327, 1.4082341598935524, -1.0343511007472468, 0.7961143617294479, -2.1106206212104133, -2.38252853451397, 0.5345401405873217, -0.7747387557954116, -0.133559206376771, -2.119169290333706, 0.5137333523456841, 0.11805384779101083, -0.10908346897610054, 0.19429157758902363, 1.124756744014975, -0.19916960126357816, 0.7431551232956546, -0.41029630088761676, -2.4587444876008413, 1.0351600719707053, 0.547749540187378, 0.16574184183922896, 1.9655107688660254, 0.20338304349270178, 0.642766739747589, -1.0910980159212056, 0.345409412643174, 0.9503859372658638, -1.5999682221220801, -0.7463954963680499, 0.7294796472015798, -0.7004614646787098, 1.4486657410306987, -0.7459375339459654, 1.0927868644396284, -0.30422722400126173, -0.05003801172850286, -0.6261293150689374, -0.6694188959204882, 0.10770734785431908, -2.3008959515730547, -1.210452051922026, 0.07194977162670267, 0.6758858114761918, 0.35877343595960187, 1.08828586296701, -0.48762724442307, -1.1282883274027633, -0.3952188928479353, -0.9207037123309428, -0.3894928598825888, -0.9164758172664804, -1.5429187515077927, -0.681684004948998, -0.9223678910251533, -0.13114026621788044, -1.224689719447034, -0.790984047962142, -1.7779214439055497, -0.063194142225343, -1.1087352560695973, 1.1355524010935976, -0.8533586379286267, -0.03467374377185932, 0.10786993043042117, -0.8088775898054189, -0.14077082243143446, -2.367959366872332, -2.3331490603294216, 0.9270892567913495, 0.1330299856407191, -0.8369759375659227, 0.5302167184089356, -0.18846412280419217, 1.2956635518818975, 0.5286322385791735, -0.07597902744525163, 0.628512623800751, -0.3619948039043732, -0.38646888496738835, 0.3070893568334228, -0.018089170294667258, -1.795805169760381, -1.6567956400803396, -0.376989492612926, -2.1168511897661793, -0.29059988393432945, -2.1957895157234097, -0.1822355956092729, -2.048212287355185, -2.5429588868636563, -0.8445320194468207, -0.886933039204867, 2.0917890614305166, -1.8428693269620537, 1.2483741394188557, -0.4400251247985877, -0.7783090063577959, 2.362738118817199, -0.16335280761319287, -0.01625624105305096, 0.06696165830732842, -2.496182539721343, 0.8600685082551872, 0.08530613402101807, -1.9050792341250093, -1.1623636558293475, -0.6829020311365182, -0.682620430029441, -0.41619734220882854, -1.2420058274159895, -0.43745037648918117, 0.6887723300997236, -1.9990892059660097, 1.630864471453659, 1.2917351687921506, -1.3763279429009336, -1.6874576687699032, -1.1155958488353281, -0.908895836996771, -1.7255611071189854, 1.3642548884403343, -0.5935426565921055, 0.7418891127312306, 0.6260060010379459, 0.44902669855608823, -0.8422226234391613, 0.021319791747797575, -2.021142725788743, -0.6315319266177685, -0.13863862753878375, -0.6659335770249953, },
(double[784])        { 0.5737884316663757, 1.6818938528810137, -2.0978483085373867, -1.8853140998819795, 0.17084657590274976, -1.7151617936615267, -0.7581587330695473, 0.3950624742543403, 0.7387660222092166, 0.10772371382049437, -1.5595493515122274, -0.034571675144451953, 0.7866065762904617, -0.4228017950914717, -0.7272577232614826, 1.255326484184899, 1.2000053000280788, 0.44253265235148687, 1.6080469561144184, -0.02646955792278739, -0.9597611333468472, -0.9523065271039137, 1.2184610128939573, -0.6452087477300728, 1.0516747564136033, 0.1458072304497401, -1.0233114217335613, -0.7860710130898615, 0.46241123872059564, 0.26357461363082757, 1.0513887801716681, -2.2599458991743147, 0.3972218029591338, -0.8918653657785344, 3.319428045322228, 0.04125727445391433, -0.792416284422744, -0.8769092280107134, 0.06321563031681354, -0.5636104725242298, 1.0978129649548074, -0.5151551470650193, -0.9774572522666551, 0.3564660339579358, -0.5929847648022133, -0.06967699429174161, 1.931319415062064, -0.7197503480511276, -0.07812787075862423, 0.8126829106693221, 0.6256162766990248, 1.64067797586552, -0.2834922229234132, 0.7602141308488246, 0.4232394061126375, -1.079536498782821, -1.2697354167142452, -0.38514166438564384, 0.6397825049076471, -1.103564328466711, 0.012975048000542033, 1.0690506660576593, -0.7356154477887843, -1.9725922512005212, -0.1255025445997083, -0.12968061830803645, -0.7925764721327945, -0.5062243596229463, -0.6556379795573197, 1.554402229409911, 1.2949813910378376, 0.012746506653919186, 0.26461880840677465, 1.2396803556753548, 0.18378750800947444, -1.0741294692604393, 2.164884973242546, -0.8043658204201428, -1.1961959139509082, -0.5341853750208242, -1.3410276140243647, 2.185236631160979, -2.302362779252921, 1.399725779532947, 1.1190297644000324, 0.8743914769403072, -0.15920091512566406, -1.9459591407362313, 1.3402034501163274, 0.748237249758559, 0.11338500907981315, 0.4651377859104907, -0.11069746048908373, -0.8259533648599138, -1.6154654163219555, -0.592001304444083, 2.805514482617867, 2.3346828529279486, 0.7816047080239916, 0.130990987981681, 1.1750859368297488, -0.343515166103656, 0.037831178088871355, 1.4383374463073022, 0.9431476197598355, -0.5122003924584098, 1.3597000078599326, -1.649082084333463, -0.5575383892507961, -0.8526563535908472, 0.46253960242316694, 1.6740230202192175, -2.786208077226409, 1.0334932688195442, -0.7680880116717497, 0.5319436996448171, -1.4463635128698338, 0.37842747246215563, 1.4559133643362963, 0.9364502251500947, -0.3967725978514956, 0.604668683024775, -0.31212988774817313, 1.415557752198263, 0.9248707948286545, 1.3249559065556915, 0.49432664943350285, 1.1622094534926752, 1.1829038200181214, 0.5723421963378716, 1.1250308973184502, 0.34837673544677167, -0.9661741998169638, 0.035484132358561495, 0.752574400012957, 0.6486953632056383, 0.656841683760823, -2.246090723714682, 0.42486708191690226, -0.5883424405828828, 0.4320607866569334, 0.08213752869932348, 0.14399235942096358, -0.9354377476065281, 1.1895475883723077, 0.768448189082029, 0.16348320455159462, -0.23292838956596568, 0.4453344802790517, 0.5426380663503645, -0.4609447561738539, 1.0654114507609154, 2.261341310334058, 0.5973814012967343, 1.9956138549718814, 0.6572803945528597, -0.39752403853895657, 0.9422437278153517, 0.705721547868636, 0.5262181118291576, -1.41825871891889, 0.3236909049150392, 0.6188961250691059, -1.718264989344941, -1.2097696540387683, 0.784927317567099, 0.6465727588233126, 0.1093302194854055, -0.2701641499385543, 0.3987772384163871, 1.1124335366367166, -0.08569805531191128, 0.5409554477650833, -0.8381586703784879, 1.3799217425376755, 0.3660528097387368, -0.559564094486603, 0.07550077870803605, -0.10452341083001636, 0.9047547212980709, -0.024235635286544512, -1.3864224721438358, 0.75173328543329, 0.20514658488334833, 1.1531527214878403, 0.6115332772573773, 0.3852707253790672, 0.4981291434910411, -1.825290396614553, -0.8197695526097197, 0.18674075792866157, 0.3394534508609369, -0.30250684222472296, -0.48640623881163597, 1.1467600969520828, 0.28710606975187447, 0.3141474636951664, 1.713288591889178, -0.26120379475958444, 1.031376312675298, -1.0234880253845267, 2.6074739495712613, -0.9683670343842634, -0.32715272236070947, -0.281597849119909, 0.3955672066852304, -0.24363952843305328, -0.9118571070768535, 0.6207411155027843, 0.5653510563542192, 0.4980810556966458, 2.1490270216452774, -0.047215834393974594, 0.2439332321655763, 0.3157205497310471, -0.6474001738700501, 1.6553313205526772, 1.2811487251685754, -0.38490183695761515, 0.5035062353406704, 0.6137378233521824, 0.6417105428985665, -0.307793998886103, -0.04221598016719008, -2.048369919312828, -0.3552464640327057, 0.43499871919795907, -2.048797045424328, -0.94627781032196, 1.0793052339163474, 1.5425740904070537, 0.3224772125131741, 0.7261600185286331, 0.37315646550373566, -0.6512018776886925, 0.9012042981358382, 1.4757777011823556, 0.27650879355134256, 2.310736272145406, 0.7201812992626181, -0.16436865454163854, 1.5615442425255026, -1.6501591089699543, -1.0216442908597096, -1.1129774369349523, 0.5323741616071713, 1.2896720825966819, 0.6511314174835541, 2.9343735534758255, -0.16757763704170808, 0.2056008129859256, 0.26022087843962644, 1.4172455959171584, 0.2922431038853147, 0.7687931968090211, 1.1015457163386797, 0.5724327735079163, -2.29657826172531, -0.16503188825154405, -0.9847769216833182, -0.6857670966692129, -0.2869814155828787, 0.42100766240561965, -1.051464200558117, -0.29943938281644367, 0.7333526010494729, 0.592796878019756, 0.6101936980158251, -0.7689354055029015, -1.3608493580877072, -0.06937509775703612, 0.29492900522941784, -0.680535877320141, -0.7276278490312906, -2.2982709740187977, -0.3752848177129166, -0.7042627262289772, 1.0574212642440988, -0.17130981001599976, -1.5305384549345464, -0.8890073056675573, -0.22394261406855778, 1.6408809119190038, -0.8185629039305313, 1.0035553842675533, 0.4513304464528459, 0.6289385755494957, -0.40678098333631496, 0.10702546106553663, -0.5200098424529903, 0.20016482584132297, 0.6530417232609687, 1.4721521531784756, 3.4322656420121374, 1.4179662932099462, 0.8471439171279646, -0.23185521973053644, -0.810760861725772, 0.036040390844006454, -0.5099152967590076, -0.6612048585181703, 0.4724260798681148, 1.5910406835231863, 0.29329866827841805, -0.791952929775747, 0.14381518812355634, 0.1153304199234047, -0.17809397312373393, -0.18174500230647367, 1.8054906540599354, -0.5559930225710199, 0.6280274628881994, 0.001229032085554911, 1.3980061480101, 0.19286193231363047, -0.07989709398127882, 0.5886172991367543, 3.0610670072277006, 1.0323842452005487, 3.1938410389928444, 3.3249798421526364, 0.840524095272516, 0.2887068515847029, -1.0584039785712434, 0.8251237998844114, 1.1461300289386833, -1.5550425796068972, 0.4631839993833708, -0.19776020481521422, 0.43550673383771693, 0.01790803817548627, 0.16492016206571197, 0.4930574296125675, -0.2390861155839648, 1.4533395573463224, -1.1623036604105226, 0.44657534526046655, 1.1416922094681243, 0.08350979936176552, -0.6351430502269447, 0.10973939288498032, 1.9304308674263244, 0.031968878130035405, 1.5498041727010232, 1.7040372384325921, 1.8325290080844925, 2.5896053538727224, 2.7813267336437697, -0.30629462662109863, -1.459729637115811, -0.631774985612935, -1.267982670460488, -0.4137509677094076, 0.12674122601890384, -0.1554118490895708, -1.0808235897595904, 0.39977704943499864, 1.312000611942168, -1.24862207635087, 2.7570238192848504, 0.032004998531927245, -2.5998248598686917, -0.19951353082471784, -0.7800167571833552, 0.9894823154446123, -1.4003574519676825, 0.2964999640470198, -1.76668220258768, 0.16747903812715045, -0.0960736757062911, 1.4354640015122044, 2.1112838981462185, 3.051602960496439, 1.6543538611658033, 1.472911112825066, 0.41754461356978595, -0.6591924202405232, -1.015596615883614, 0.274730716971476, 0.8206228494011623, -0.32616949979348026, 0.3134654203208825, -0.7946024605959792, -0.08816729159329151, -0.17677891078883348, 0.7846123557818699, 1.9215188461221386, 0.33420737892383207, -1.425723762073029, -0.5857623498144688, -2.587139230902542, 0.732378928930551, -1.431530736716423, -2.176891198747518, -0.6245780200407364, 0.16834005711902217, -0.21385425361882293, -0.6287810598100942, -0.26119793475515424, 2.709666810406094, 1.0634169251939336, -0.13188888535251242, 1.938657422699093, -1.1054678973012388, -0.7579634135558342, -0.08079550817167819, -1.0810878071409789, -0.7794094893213412, -1.7183064306687656, -0.6444925585563887, 0.2437561920151567, 0.16112688704275388, 1.5394938481518146, 1.1138735629375491, 1.0945940542775408, 1.9791841238897752, 0.5418497115920138, -0.10488634798542194, 0.10802591570714337, 0.39914711240033585, -1.0057955088067463, -0.8159894220909159, -0.525594616827037, -0.576438751661208, 0.9850717990681731, -1.164798966670386, 0.34501480992376077, -0.42897528605939356, -1.3351881927055156, 0.5509338581775316, -1.621469637944653, 0.04022856884001929, -1.7753314802700932, -1.1870172774869157, -1.2089816793939785, 0.38520595196931817, 0.5824916541958775, -0.21204215545529737, 1.3273622990697875, 1.0934096315253845, 0.7504877007469876, 0.30118129523634224, -0.3670515287112098, -1.775617474344985, -0.004650960629356511, -0.6876958497492748, 0.528533088908312, 0.37020512140177475, 0.007734540598201157, -0.7431098547569904, -0.6232378058210426, 1.108021884678111, 0.7577846804257072, 1.5310339342405868, 1.7388206774963004, 0.7373932336862064, 0.5882759458358058, -0.5626661328836681, -1.0020633540382544, -1.6944817484245285, -1.0297384836815202, -1.6417152958864822, 0.23516479305994298, -0.3540906053612386, -0.8653027190440448, 1.6580746011985863, 1.1203691232409347, -0.17009022850802233, -0.2535539167727254, -0.09277105214974996, -0.20899512450452845, -0.48202034614704786, -1.6574915498330673, -0.40722345300843193, 0.5685358579022047, 0.37366538159294305, 1.2987613744819233, 1.9604469907203772, 0.5551051407347583, 1.2710576706746994, 0.40842973108935404, 0.2035266667963405, 0.822240432457632, 0.5644776790121733, 0.3977690310365419, 1.478209056152136, -0.1977166751513085, -0.26544363271852495, -1.9888665043361686, -0.9290846819310522, -0.003943015913484705, 0.17827703151823168, 2.2971821919852697, -1.0939458629236083, 0.20083078053956915, -1.572467807771662, 1.060026079500251, 1.5644482308880152, -2.0211706406788, -0.28267599507789004, 0.3195635054080331, 2.210177419490885, -1.964749320717495, -0.17953705301362186, -0.861848153561738, -0.9505486330023711, -0.3666783690665619, -0.4150080245285552, 0.967322304433479, -0.26678888257459277, 3.761565467084353, 2.3836675933857188, 0.991821128146315, 0.6649905590240877, 0.4563547991909623, 1.4325982639294281, -1.2084752006042039, -0.5301799339579809, 2.3995121087991533, -0.9600127907401386, -0.48216960966251954, -1.3088096403316567, -0.901179869743738, 0.14701984128734558, -0.734282269586406, -1.3182896054086635, 0.30046140451750714, -1.7503455086379318, 0.09450956075279218, -1.3711086411331908, -0.45413055294533844, -1.17384190372327, 1.4372479145728179, 1.8429920999524685, 1.437506684935424, -1.6066391556972306, 0.2262381234245494, -0.84686107725704, 1.6808245736107643, 1.8428952266344107, 3.380208861232537, 2.590239823286845, 5.423286462714379, 2.5196045710150927, 3.7335053493840027, 0.47938897135058944, 0.16885638400326342, -1.8200951955310083, -0.40720966708479034, -0.48916644495214967, -0.23040722145426043, -0.820581894287705, -0.8763193225937363, -0.5727663051201095, -0.48442984568416364, 0.0899512451193053, 2.129604097579705, 0.41623995079022685, -1.6518717726587153, -0.05574766027114226, 1.5868780095755144, 0.1730932592246523, -0.18977391674478483, 0.01476112043265326, 2.1940283247013097, 0.2737429603627516, 0.9429511703249122, 0.2937364311732477, 2.1268703694240685, 2.1257391776318477, 1.3850969506044772, 2.3532114718715174, 0.9267632387055033, 0.9898738802662638, 1.3043118787612051, 0.4740941839202918, -0.3347755804317851, 0.238353399392553, -0.5909970304510067, -0.38667773099336644, -1.0400097197697211, -0.2210556929202229, 1.9664621739318437, 0.9223129407022413, 0.19318158169169583, -0.1833141932572726, 1.05220781235108, 1.5006704939541482, -1.7173097323008304, -0.02553706155283776, -1.0102516004952053, 1.9055062222602521, -1.2328140104489633, -1.1962515128664621, -0.5667995165555546, -1.4443345575531252, -0.850409839779418, 0.22324207243027297, -1.1732552272929822, 0.1567120950852218, 0.5463703028253445, -0.6904885790216047, -0.13377395458120514, -0.11682154119836309, -0.3827200008235145, -0.07763299887301962, -1.3440913978714903, -1.6257212608515905, -1.2767524158114962, 1.3831583259185662, 1.538504307580301, 0.6094909023663548, -1.5121474814194587, 1.1886584938114622, 0.7349049627723171, 0.7341064182421225, 1.2349671888797242, 0.2116064513179683, -1.005249538986081, 1.0172011005243213, -0.8787558286846063, -1.0591276202362152, -0.40247171455462954, -0.6520961857380528, -1.0756971586014945, -0.08998079703815079, 0.18529953538248614, -1.480252159947075, 1.0636793710721606, -0.9347181839531387, 0.3023113390338482, -0.16165391804284857, -0.07867944406399599, -0.07466580450188187, 1.039657657372218, 0.13474238402931876, 0.6136714565748603, 0.8369492562330565, -0.842595472460038, -0.07489408411000541, -0.24838952935770428, 2.3007077267005704, -0.4179965369158971, -1.1197197838784454, -0.5076956468963828, 1.3126077860028316, -0.6479852568842996, 0.08168400916838961, -1.0769749947675364, -0.5864557033630545, -1.6184017890968627, 0.16020235408401093, -0.40630373461108615, -0.44760269780602624, -0.5007218065911642, 0.6051429108641937, 0.16969438723118424, 0.31995730088457075, -0.7662922414020029, -0.7435430974869109, 0.34079893098602027, -1.5361170310638326, 0.31451914506853235, -0.9093834692252791, -0.48674431607529667, -1.4753288370963527, -1.1579727048766832, -0.02816717800382638, 0.5857946690515766, 1.2756862889992147, 0.6064400815938737, 1.0994897582119523, 1.1983904944812984, 0.3718334942046324, 0.22849581555667106, 0.20291685970938875, -1.2015070094246056, 0.3507479585215294, 0.9105422748195908, -0.8092041214935735, -2.292822387621123, 0.5859520938226225, 0.029645065135687973, -0.490358189268489, -0.3820397939466523, 0.928395032652837, -0.5138879751115385, 0.9998443038316192, 0.21496221701993073, -0.7125654258774563, -0.2338702250785412, 2.6529364662481614, 1.3222779567053793, 3.086906805579308, -0.8644110074977126, 0.7478228059737054, -0.7188357486046967, -1.0699606853646595, 0.8354383178245878, -0.6522792583714841, -0.36035173628215666, 0.9706297484864157, -0.7903940409610821, 0.8348360149671478, -1.3112396466947167, -1.3645389648598079, -0.38714874866332716, 0.8765370246748518, -0.7614499912457875, 0.510611652796275, -2.2511502343706957, 0.6969610715904385, -1.0714147524424535, 0.1292082906580293, -0.12677973582336832, 0.5684675935074411, 0.5495523015859278, 0.1500737110770444, 1.10875538743998, -2.301900439828921, -0.2536323723538445, 0.25102179468419983, 0.36752109423979495, -1.822331195179555, -2.5108441366510084, 1.413585523756887, -1.0322623987086617, -0.013400598010060997, 1.5293316741327554, -1.3983437405889063, -1.794967059296477, 0.40476693913979156, 0.8238297565391274, -1.686730466382995, 0.5650879638844759, -0.1869052919126231, 0.23033266735885966, 0.6703831149055874, 1.0379682024762957, 0.3449813460742466, -1.3793977194941967, 0.5797655376054536, 0.4042859657056398, 1.9683960912707141, -0.6013201462954563, -0.2942604928112768, -1.2403492616872749, 1.042415618218462, -0.8691579826542047, 0.5564252392322605, 0.12470721627750603, -0.6410028699903728, 0.907264008943559, 0.1335421507228569, -0.04730179986331159, -1.2247810707571325, -0.3110052162162614, 0.8843790892274607, -0.07200076275206652, 0.8199418817645436, 0.464095876346921, 0.03815219465709834, 0.4763276637034039, 0.21524112136145448, -1.2563721948292983, 1.4776944561316467, 0.31313697665952794, 0.4952208378557283, -0.5451532909014382, 0.35600035541158676, 0.11287208475470771, -0.7297370588811138, 0.5898563511813012, 0.42182938781302143, 0.2905076195922132, 0.31615745846539073, 2.6001522639661316, -1.2347996749738372, -0.6593966439277357, 0.06007210576100057, -0.053565278166059924, -1.4790050486574764, -0.4895845542824243, 1.9336861822425024, },
(double[784])        { 0.35077164963918656, -0.28838237778539755, 0.17723904642051036, 0.5802135366812561, -0.023872249255755745, -1.673622165275957, -0.725602255906063, 0.246973343057404, 0.6559231963995591, -0.247893240016658, -1.5796421145811976, 0.8535118054087601, -1.1099279115521654, 0.4854262645729328, -1.0118264626377331, 2.1083863343632006, 0.6712612240460035, -0.6278942167779072, 2.3591092983454596, 0.36972658533197555, 0.7052977638086569, 0.848574118290024, 1.4774405107890036, -0.37425340213617087, -0.2253071561584526, -0.19266703606506722, 1.4581125546154978, -1.612884422007641, -0.9564333328331839, 1.612791493850134, 0.13370329950219062, -0.8355237883909095, 0.4838876708305167, -0.08179561147349768, 1.1091351592600724, -0.2863885239142546, 0.0637448251517529, -1.797807479765043, 1.5123323579989036, -1.5676141094801106, 0.3325167290869011, -0.5020450079721815, -0.8630282331409462, 1.3847376079833753, 0.09388719143995868, -0.3854554208858115, 1.127483982416606, 0.4963633907229413, 0.8356819228453447, 0.5530311873712517, 1.454117250485329, -1.179480002803234, -0.17953628344585798, -0.2874757928199775, 0.9677473286873671, -1.3305250979510594, 0.6786444320511691, -1.8193016779456563, 0.39600919172545795, -0.3270620846090318, 2.0469654204184, -0.36471447570771004, 1.1892248637539327, -0.37482901172866206, 1.4068682789470957, -0.8127153304249773, 1.0946567450593039, -0.5114360651479423, 0.14956602123581828, 0.7704690702174579, -1.0815533160198452, 1.8082076430584766, -0.7389976253340911, -0.1779317590577385, 0.04080960083741679, 3.1854840619274305, 1.2926239616735633, -0.10352871597368109, 0.2977348753168619, -1.2174029824247552, 0.4482458452551954, -1.6332509679755804, 0.4445583372720736, 1.2249154239395514, 0.5838106366834762, -0.3364468890629275, -0.3960935778387994, 1.1700129693223567, -0.06044521803238659, 1.4249159991170093, -1.6571180788842883, -1.6566758977650542, -0.7361746366106431, 1.927323313154883, -1.147269779645116, 1.2487147944136883, -1.5845182792638286, -0.6296509233142539, -1.6025014734839949, -0.3349161768406298, -2.3203160619885455, 0.4321387780626568, 0.8893952425341332, -0.16754385890729506, 0.5244130572183715, 0.18455871748248884, 0.8528043333776477, 0.1947881806947032, -0.08857613489120017, -0.0061584556331252755, -0.2680079277246826, 0.5993005563982673, 2.8407721805018875, 0.33939926974982887, 0.6442732253870774, -0.7029174212214551, -0.6628340600330725, -1.3492799966360103, -0.5697009139132376, -0.19118990038744368, 0.210152155244961, -3.50530459847132, -0.330664987465703, -0.8008011448344624, -1.149658650491054, -0.9690931897804423, -2.20316556108147, -0.6414172097675086, -1.2628174591167993, 0.4176829588017034, -0.13990336319479138, 0.9395189647608378, -0.3249630757779868, 0.6796826871593565, 0.967855562274221, 2.822568003468793, 0.47588654504124045, 0.5952186952816793, 0.42398862469123844, -0.21165671586751103, 0.33005010216816333, 0.7125127980337705, -0.1717885589803427, 1.0442119317522218, 0.06577496308071915, -0.9535653155769748, -0.10213818756443162, -1.3969857340049916, -1.2461224216382147, -1.7708245208346054, -1.2690442376465794, 0.8798358941696431, -1.8152560854205995, -1.632520188635071, -0.5640280440644124, -2.181801695784197, 0.533560811497811, -2.166498504315683, 0.03792172233161769, 0.381571199237339, -0.2581139149145759, 0.4130163623261374, 0.7702977994766053, 1.5923869435461186, 0.9758122146812567, -0.07374604200548726, 0.5074993746196547, 0.3000991930347047, 0.4355816416984627, 1.5593770063202494, -0.22928844824260808, 1.1038488954090404, -0.11598310288089882, -2.302978884385859, -1.5395239203041866, -1.0401186207408526, -0.7707722228733971, -1.2308707332239122, -1.7062197146273785, -1.2932918962881246, 0.0850182090882263, -0.11178681068433496, -0.9330293126253674, -0.17277782183755838, -0.9442209001625426, 0.2174005814670826, -0.7771982766156325, 1.0844565320006971, 0.04617396957433665, 0.9602375162715804, 2.363849338530941, 1.4312483658804271, 0.9188217295259513, 0.3600060801382705, -2.6238845643390523, 0.3643672367407299, 1.1349858898996998, 0.2133205081058108, -1.0421911197929308, -1.8552772751887878, -1.1827773925570384, -1.478803238944241, -1.25724400567629, -1.6810628906242273, -0.7647495442340853, 0.00856868425433105, 0.9240037458656067, 0.04839621443442269, -1.2785542438423505, -0.6401024669778627, -0.8902541616013803, 0.8774361190665227, -0.8435078099224641, 0.2749027712442399, -0.3939588700063766, -0.6564495158755205, -1.0658129596693344, -0.5220959441471139, -0.8489674789947648, 3.582520344637127, 1.0909721152095861, -0.243120041105043, 0.30314054855440253, 2.572302133580883, 0.30758923970611407, -0.3588805110077647, 0.05068280514551288, -0.5889262568893731, -3.0366619361839478, -1.0776337940243719, 0.08006372287685545, -0.1479227367792122, 0.1213471862713024, -1.0471812188499787, -0.13693002288742975, -1.132206972238949, -1.9915647080338852, -0.8039873405918667, -1.0304558873603498, -2.126495758488902, 0.6096246391971847, -1.3594024168746408, -1.0744896938848287, -1.6285691654023002, 0.43567642649962335, 0.014767379004488542, -0.20469108157025898, 2.5483687645720394, 3.3917825084990643, 0.18135585368797089, -0.08161794305426552, 0.009243793045391347, 0.32522623844365817, -1.7982281859960767, 0.46871264634352544, -0.45688310429153867, -1.245125528070343, -1.2560210202539206, -1.0642791109101897, -0.9828851761128468, -1.423569036931965, -0.7038575301754417, -1.2186291397849367, 0.6407684895267967, 1.532102548941559, -2.5594225186555475, -3.7647263473006904, -0.9736561076370698, -1.5971494592631408, -0.5494770224299903, -1.1550775589657776, 0.0373324598502137, -2.2295152788110233, -1.0324016824060624, 0.8127265627173303, 1.366923958135512, 1.3141374892455997, 1.323261391617586, 2.006891583986372, 0.8069483395225386, 0.09144447173222214, -1.696686597589268, 0.5452878379110335, -0.46248774848620733, 0.043703594784860154, 0.06088454132093691, 1.0108474169633204, 0.8431694650418031, 0.7933778098954269, 2.3160192662344836, 4.30711261570723, 3.468131657388276, 2.6111029242958095, 0.15765938294501033, -2.2839388544401644, -1.6343497628143338, -1.0605200139204427, -1.9433971563912302, 0.7040074346033185, -1.1263180264173527, -0.7086344807187832, -1.6480893719924752, 0.5996604021754354, 1.817217702201521, 1.0255523515559348, 0.49275651499979506, 0.16469521560606462, -0.18585150604408504, 0.8441555550697543, 1.1062215909937383, 0.6261614442081779, -0.14223907741722885, -0.12727148356140014, 2.3729568599835016, 1.0234316938522354, 3.5631710891521653, 5.526143311585766, 4.264803926966248, 3.4777017490957625, 1.9978858446689627, 2.737946009492701, 2.082427826669945, -0.953565614267225, -1.8334731220502098, 1.1129406147583192, -0.47088299683533086, 0.5678606671051329, -0.816922678507004, 1.2062508133683867, 0.8464228723939029, 0.6676170125761789, 1.2952099590339894, 0.4916433421497834, 0.10559929159572005, 0.2485021297353111, -0.879741229274083, 1.1471301450987401, 0.5599715852947551, 0.8549485860927875, 0.019350062121670102, 2.0144008707685503, 3.5688658100113835, 5.082461736689997, 4.728816164656319, 3.11888215816187, 0.1774703422568343, 0.18924570254238524, 0.5060055889875928, 1.9660487922832866, 2.3694757411333955, 0.9452241908996264, 0.6200147753060895, -0.9010001989239336, -1.1404805848186208, 0.9197932430007394, 0.5524464896990982, -1.1637167228605596, -0.17747295925293574, 0.6488533101983718, 1.8619107966986808, 1.3975049787516325, 1.7011669227564643, 0.6566960597035265, -1.5807573538831574, 1.176003199916739, 2.660692475236561, -1.033749144524118, -0.4822825273084859, 4.061258173804377, 2.6874229115531802, 2.917534347598792, 2.9852418985339164, -0.7176753883854613, 0.3104553112532206, 0.8958125225276056, -0.3208243693392064, 1.243157926830005, 2.09661997842878, -0.7364915453561246, 0.778675768944498, 0.29129161257578584, 1.0187091034173168, 0.012492923517197016, 0.45878495746151293, 0.04360137878724716, -1.2436317383917435, -1.2083507661736512, 2.3805923249541627, -1.8560208934923803, -1.1937174134415809, -1.30411875480791, -0.7905015306408265, -2.3897430592716824, 0.25849512102034233, 2.6567380838173573, -1.9404430645822248, -0.5863271283795989, 2.583639770504581, 0.5174831692346783, 0.2429061536478186, -0.1919392689405469, 1.0457867889496357, 0.7762377754677284, -1.0117427826959025, 0.20998055431788057, 0.7645998338991147, -0.8600858294986018, 0.2701284034054985, -0.054646000657755864, 0.5444526504949332, -0.6053393235507663, -0.64457000300318, -0.38395594177970976, -0.23881299025917385, -1.0256595652824296, 0.5133947649714753, 0.010741238469502385, 1.103691580155293, -0.11069627980444936, -1.0401183961837357, 0.9228917422400971, 0.24136421550715143, 0.2700460037374848, 0.27338724633400535, -0.8329845273868214, -0.43785592718430916, 0.9586349075200882, -1.2621424207799707, 0.31993767516235616, -1.371836802875767, 0.5786024711642654, 1.03529141508077, 0.888823799673593, 0.8917163901856416, 0.8600970685301706, -0.7285398957743844, 0.14752728923255945, 0.28863890556125926, 0.9905496660345575, 0.2109921549556295, 0.5607494373422166, 0.35287383495441266, 1.1292192298173378, -1.8051734854659753, -0.6111310528933961, -2.2870860972655076, -1.117208099507871, 0.47464440330087293, 1.2934519295873028, -1.3390201710442535, -1.1448608570071857, -0.7055172496375973, -2.7112094607412898, -0.27920631880612506, -1.158451061609945, 0.3309578634967577, 0.7770697478943083, 0.44397845831624794, -0.18570751303509575, 1.0006957608134306, 0.6337270799029244, -0.20751376929914264, -0.18775682548153821, -0.1412767172028407, 0.6288687368132561, 0.9471878313032949, -0.26402825166358235, 0.2599453169064542, -1.627392183957391, -0.2235524415540951, -1.1165185883848454, 1.1738007722915882, -1.0431997659150036, -1.5793227165866532, 0.3556237306180378, -0.010286119850896835, 0.6009535888335531, -0.3965978349541178, -0.8261452406537977, 0.9219835595328765, -2.5057866362738865, -0.14605019624909663, -1.3993080557234403, 0.6027922348064233, -1.341680784791584, 0.17253998591121553, 1.4142199346495212, 0.10202405874365453, -0.9182245547577838, 2.1169289416994173, -0.23637751901595258, 0.4282942114960053, -0.5102865118569792, -2.163831878446295, 0.0409445674307153, -0.9887518979381017, -1.0513676203038513, 0.31962485201020063, -1.2168856066451328, -0.740636202546155, 0.22329336818560697, -0.8552062987030877, -2.051857571996271, -1.0387410318499593, 0.6552015821796813, 0.472978825143959, -0.8066046817875605, -1.4143721838799033, -1.4895477643733699, -0.23899320713055933, -0.4610935056723629, -0.30063658967723866, -1.0354828593210497, -0.91413489597607, -0.5490523267449504, 0.8381070603774368, 0.603045128652417, -0.2943150850113205, -0.30132852426685053, -0.5515665459133583, -0.3570937691344763, 1.1311823193738964, -1.1466032326593656, 1.0663785719380157, -0.3902097187778572, -0.973987571932164, -0.19385921473078319, -2.1059128408237933, -2.4818110754931983, 0.6654444047063518, 0.03992018577908873, 0.9463966176160402, 0.3143916946383209, -0.6065935125335592, 0.20330685764535525, -1.1007714319517037, -2.1201455304620263, -0.6154779612389549, -0.7233187505105512, -0.0847477169696283, 0.7621074448195512, -1.0852669777649053, -0.20988932904778207, 1.0164781723765537, 1.6591805203374497, -0.3907781854388801, -0.055177311604443155, -0.3855101916914208, 0.6607109137084359, -1.5908923288574914, -0.021030160923104863, -0.36510661308006054, -0.12097709606462616, -0.5802424488409791, -1.5851920334745593, -0.579128195095991, -1.5808563146224661, 0.7025444051197144, 1.7691523995333456, -0.49186358856195306, -1.1275639896550684, 0.3630083735239393, 0.6342327428157419, -0.5913812389814181, -1.505173548997706, 0.7807377985137863, -0.08565054459464849, 0.042326832691846825, 0.09824448336079994, -1.0474009107305715, 0.8608068715022936, -0.46578023270072927, -0.2878689908079931, 1.3834173167102015, -0.9659966345948384, -0.1338364832952005, 0.08715641294332645, 2.7623067460301503, -1.7664675756344133, 0.2560769130359514, -0.5886682776823158, -0.7193151358263421, -1.1337295926887925, -0.9545248538700978, 0.5066283146228192, -2.157291547671051, 0.4723967026349866, 1.122935296378483, 1.0454014239041813, 0.9484093126621463, 0.7442041437863303, -1.6287497774960846, -1.634619546312189, 0.548826312797484, 0.05969914877272721, -2.4075233649326133, 0.01993224574260831, 0.41923630314694993, -0.7319371032138837, 1.2602824429858295, 0.9811978559580423, -0.13102124713448646, 1.5801398009604042, -0.8555429813378194, 0.10910221761856817, 0.3140227861596174, 0.3228823662871733, 1.4643897601077103, -0.6115958698811887, 0.7162138290822445, -0.3989050202219612, 0.3181555371209539, 1.4982365786329157, -1.2152348091704583, 0.3759505708598714, 0.8017529462494964, -0.23490877570875768, 0.19918733807342232, 0.7744841728229979, -1.4909084290796741, -0.11684602080461753, -0.6802147107807851, -0.3761184605284687, -0.8598272446247714, 0.4756640247700492, 0.9282042475787872, 0.18692307482428694, -0.7414256495544638, 0.6878983067547336, -0.32781736855430854, 1.2236624657024449, -0.30243451375589514, 0.5985533256691297, 1.2088209723736216, 0.47296338571042834, -1.590413110352172, 2.2149125758662396, -0.050455810682656525, -0.09017944847983281, 0.9718986266516393, -1.0710135833177261, -0.7691725439251982, 0.5593295753569784, 0.20803676995322132, 0.40902885787304044, 0.5674740956975117, -0.17179607671315827, 1.6985443947411951, -0.27331791600395094, 0.9655607063317662, -1.5239251636927573, -0.5539808306374152, 1.0760971108270945, -0.03644194733209441, -0.8350394101412938, -1.2718749476942652, 0.380054985693206, 0.5628543871646365, -0.4361823738179355, -0.37428580344005413, 0.29486798322479185, 0.19977844097922914, -0.12928188592807402, -0.12449642865707583, 1.7002777597410041, 0.5593895511905825, 0.7008235876867543, 1.4248903274699884, -0.06571914044368325, -1.0678419978652112, 0.4625702667423388, 2.007443617422795, 1.2631946095693136, -1.4482356238693794, 0.9149156539821183, 0.06087552796606654, -1.3204809206931147, -0.6242937662292664, -0.9811056047551248, -0.24107084846264193, -1.0727305891225138, -0.04459852877278342, -0.6691364574410646, 0.012449795567814986, 1.4060792982929025, -1.0922628818532352, -0.8749276973442082, 0.07467714020027379, 0.33651118122005996, 1.5576281841584823, 0.9871785997100506, 2.653681792515909, 0.5032818256041534, 1.016695532541978, -0.13285844658564008, 0.5568349448457511, 0.6489888984376103, -1.1414734067157457, -0.6811203689926498, 0.39878555887740236, -0.7149833957552731, -0.34296331513577744, 0.03231923844606091, 0.5360404495487193, -1.699560064667029, 1.076354636486306, -0.20534655708200159, -0.4611813402483032, 0.11255212264745108, 0.3214392176815877, -0.9486373465407566, -0.7250945708618134, -0.5218293742604292, 0.8816224738311476, -1.5384283455122, 0.7802119627900845, -1.4942242236908938, -0.6144889328158618, 1.8377731388410639, 1.4447630116673331, 0.38026407039383536, 1.6652787273053251, 0.03693842352280332, -1.1381500168208112, 0.46422035783464316, 0.5699205617029206, -1.6778482893464983, 0.21359363670191894, -0.8498837695998488, -0.25564002485082815, 1.3184431710651972, -0.9066076142200726, -0.2395108253119904, 0.8454833302228386, -1.7327159097615734, 0.8352896643938597, 0.32208192081094444, -0.8106175706616889, -0.21137575182847923, -0.748360607356422, 1.0248953485779506, -0.062366554675986965, -2.6690274939409435, 1.4766080063798819, 0.15516428611929478, -0.17522161453512464, -0.8691392659767733, 0.1458355130013124, -0.9742943383328313, -0.10084118149377529, -0.5723644326950365, -0.6655203634283688, 0.6195742302536389, 0.3178305847603044, -0.4274384611959102, 0.1099153670058189, -0.3926375774976088, 1.0591228473723393, 1.528261143710966, 0.07777794568914762, 0.2622001456537531, 0.8460802615996393, -1.0139635748708162, -0.15431780825308272, -0.6396113071657522, 0.609718171730296, 0.054895972559009486, -0.7732464356723645, 0.1595097305871882, -0.6829195912194455, 0.2060412577949679, 0.07940729194157219, 0.5551533562952353, 0.4477446997183918, 2.554674679787229, -0.3170862008481692, 1.0753259579444632, -0.9064394081195807, 0.4469004998264422, -0.2070844495977375, 0.16657542423550822, 0.9493903743615913, -1.648979508802952, 0.3713988576316265, },
(double[784])        { -1.371379987001948, -0.9235243562429272, -0.4084022316095871, 1.0005246608076626, -0.6610773018972779, 0.19587122257715756, -1.115053239383318, -1.1472682100735954, -0.06881911901232804, 0.41867590355512774, 1.3819730520874804, -1.4954621868846114, -0.7026182256395307, -1.1779479199862515, -1.238397515777962, 1.1534841110953602, -1.45891933535361, -1.3662293352603068, 0.8203843201380653, 0.7070983377503555, -0.24569260798245132, 0.08513424555875233, -0.9250852549252946, 0.7254281094529479, 0.9068541376487903, 0.329625842738311, -0.4766773882049673, -0.7288383400772535, -1.7234123016873562, -1.0814828837186468, 0.5874800980745976, 0.23202393584365585, -0.14388772792851867, -0.1652724373980043, 0.695438203910109, -2.0236108765716447, 1.6248491094529645, -1.3098577562450717, 0.5911306677349072, -0.1554675070076335, 0.7749893280540479, 0.22096468607653624, 0.9985383482124807, 0.0742077001186846, 1.6623033459850434, -0.028611886020116235, -0.8967704799386508, 2.4684538297740843, 0.6624677414162505, 1.9022328807190367, 1.3786129770073263, 0.4319634255290486, -0.48000258104661553, -0.14236912129373291, -0.9553989540008935, -0.598068305436547, -0.9579481228085645, 0.24697877335858465, 0.6707042333407116, -0.38578578027379107, -1.5096042079205019, -0.6089567732409132, -0.9107103892093031, -0.23624513852071577, 0.1203179759907732, -0.33352071148750767, 2.155740332277666, 1.6992757703775152, -0.06496902649021716, -1.860004395894177, 1.3326084105327187, 0.07434422153672882, 1.1343236169639144, -1.5841235730913432, -0.37948080997103645, -1.5720273166138836, 0.9928659510033812, 0.7073322125625214, 1.172562438563798, 0.5671898972575289, -0.7035638696695398, -1.0857557578742962, 0.2331278228708655, 0.13608063779576235, -0.5911179212125479, 1.6225484669798111, 1.0246659867655163, -0.72888252457146, 0.18298328837674413, -0.22001264821264202, 0.34415949404333673, 0.05152857870506835, -1.1504645131906244, 0.5584970025489993, 0.5234933306130258, -0.2999848918425892, 0.7582609612008049, 0.2602384934149157, 0.27812035853557066, -0.5498100798176014, -1.7089473273172135, -3.125188206410268, -1.1504085428565243, 0.6077478164611858, 1.288325958280439, -0.3639225967163311, -0.7443536090697902, -1.4010336936291736, -0.34019599868156547, -1.0363560724907697, 0.695365553034734, -0.49563852144854953, 1.1188133158362068, -0.9261107335899741, -0.046316777665064215, 0.4002664466821787, -0.48010753188268573, -1.6714529524588184, -0.01613238619109405, -0.44388347253467086, -0.3129602378416621, -0.43934797626416866, 0.8935174019438984, -0.05475141332463958, -1.0787046422951592, -1.306864444889825, 2.292853632704898, -0.28164424460936144, 0.04880522853561068, 0.7073689017386403, 1.6228738836957177, -1.2265030993670971, 2.793453657652452, 1.390238511727502, 2.134391165870367, 1.25560718790008, -0.22097307488643553, -1.4414914863307, 1.9859690042444933, -0.2165374446377766, -1.341744101181, 0.6664768538126411, -0.7889807108564265, 0.3646671999419456, -0.8257570375843063, -0.8750735215658021, -2.794544694072488, 0.8467163318544689, -0.27982221729894285, -0.22336667291929435, -1.095036390605255, 1.023746800311466, 0.5305565821345836, -0.12669940588162315, -0.5022925528885587, -1.2795997250218039, -0.3063812241897529, 0.9970592014223019, 0.8748003303103138, 0.15685626272063252, 2.3463803352270656, 1.5340124276008045, 1.4966182911276504, 1.2377509663212491, 0.3752345982648748, 1.3528817534777726, 0.23337611962246194, 1.0753727614740891, -2.928610343358938, 0.04619603485803457, -0.9405129614048072, -1.3434583294325144, -1.2250214655095675, -0.9584026182647268, -0.2103811052622479, 0.17690869217296606, 1.0782364622829754, -0.7341022211348471, -0.22149074750040473, -0.7499106431609958, -0.6883076855079542, 0.2576897749734661, -1.3016779179993532, 0.5852444071397293, -1.3014512091572494, -0.6252450720166628, 0.3454098782703736, 0.6526624972706256, 0.7910237978823701, 0.9551738205592568, 0.9027594692526997, 0.31257177344330406, -1.3906492647367803, 3.2130312614100474, -0.5055796819434397, -0.4045587507713649, 0.6543270445051885, 0.12012368595566356, -1.269808354196939, 0.05528838807643757, -0.39236975214351766, 1.177610814875017, -0.09325176484370012, -1.7792315334056645, 0.35857947618655633, 0.03610502064277182, 1.7877940651932596, -1.331414392102687, -0.922965978937829, -0.2930495135802844, 0.13040620752246945, 0.27850378771413314, 1.13205928345871, 1.2140124543346358, 1.2535993064208368, 1.3256911721637672, 0.2680554307977022, 1.965390700488308, 0.5941696764614919, 0.21704604383633683, 1.168582715245036, 0.42585104867181345, 0.6314090593602703, 2.172416164346768, 0.3052202670222103, -1.5753656912849532, -0.5422567262908675, -0.8433332276853138, -1.4825604748788908, -0.16262615971528946, 0.3321489990590103, 0.46818617498023885, -0.04746473904254655, 1.6669006875061345, -0.5088145214253185, 0.5035420607739335, 0.4719227735272058, 0.011096899180898859, -0.7871262120764864, 0.29572406497383746, 1.7530603671746046, -0.14126492662909412, 0.675917148550709, -0.7504435462552391, 1.0766115300491417, -2.277478130692781, -1.6496184658347834, 0.6852771542034107, -0.01037937635131632, -1.3439537007512812, -1.0230868435565879, 0.6055117438940856, 0.08896055340232807, -0.7855687132810667, 1.3796754461003788, -1.4133669453978381, -0.4963222986519837, 0.44673314285117954, 0.831166639603773, 0.5722736810128719, 1.0177522284736713, 1.2945166822781242, -0.2449545235698989, 0.33845985386688376, -0.8819200505014816, -0.20937988214761477, -0.6555921782206333, -1.8741961314487536, -0.2311662658359306, -0.06430176296366757, -0.6769486416283929, -1.2345119943177103, -2.335577537328168, 0.4167242698173354, -0.3285726131320588, -1.4318542945259205, 0.7087752031210532, 0.14962940748330705, -1.7269521535127874, -0.26030696975068496, -0.6686921940568428, 0.1637998129696136, -2.7326968004707344, -0.022475298898117852, -0.7886070077646029, 0.7718429467406898, -1.3549873598560735, -0.188896348361026, 0.9816915386478936, 0.4808838903039547, -0.24640336443727792, 0.4777567553419816, -0.37697722401444783, -0.6851538850970307, -2.1222170847126063, -2.3392886481584405, -0.8604347119394349, -1.455838281938286, 0.6769092190288569, 0.31938532634205524, 0.7679447632523713, 0.05819976369672222, -0.1287173604344606, 0.34015351757233325, -0.38819295025728906, -0.981532770736861, -0.31800999369467714, -0.0010356113374793022, -1.9915815104819181, 0.3213808497534145, -0.3175036919843845, 0.35392635217806734, -0.6751577331037514, 0.9049837990241916, 1.4616520417249188, 0.8796631383647897, 0.7421886911211177, -0.41014588487262027, 0.3229779185308533, -0.5679083631397682, -1.4563132850058942, -0.21395591513976422, -0.32994525262288404, -1.3025031131241775, 2.0694184968914566, -0.13291985468979348, 0.5376061297622291, -1.7239229246711194, -0.273425436094657, -1.6625401815827152, -0.45917502869116317, -2.966888685778968, -0.8638130295281788, -1.7721086014535958, -1.3622991274400116, -1.140199581735403, -0.6647348071894753, -0.15340970817300656, -0.6227667643092392, 0.6482149725738633, -2.1515442061787464, -0.03816138848157593, 0.5773322109901488, -2.0480130303073474, -0.45391916094372414, -0.6271528089209484, -0.32141269617887513, 0.2603548817048624, -0.5497740859963677, 0.2047284833487608, -0.9399315266154952, -1.1937810063093806, -1.5733323721073897, 0.07841511259658003, -1.69021158689976, 0.08565133767224176, 0.1932398957723036, 1.2040379588855699, -0.6656067594150495, 3.6066118008787083, -0.6411271725535106, 0.3488472643425375, -0.6020064568969318, 0.04067039501369009, 1.2019674914558067, 0.20582474728209477, 0.25041919757762193, -0.9401098564408374, 2.267410199638288, 0.5367192147649891, 0.12343703125405675, 1.0061022037160703, 0.09388044135601185, -0.5345553865500289, -1.2185161800315594, 1.6140624169220155, 0.16937383485663743, -1.8436641622896672, -0.15369639777023605, 0.3561897876548316, -0.3218261846953486, -0.06272261295918648, 0.7120741697262553, -0.2231462512919942, 1.1158803991685593, -0.7986026354861495, 2.575148368567977, 1.6439066096802037, -0.5653702148848638, -1.0604209574118852, 0.16290435251226912, 0.6590176722181313, 0.8588110152006144, 1.1457405538999965, 1.6232903903950369, -2.000521163772495, 0.7569161587783148, 2.000215776017455, -0.24944590566401695, -0.37802456264682943, 0.7502044429653911, -0.2832034366273557, -0.47730575788400614, 1.4153797534102455, -1.0044031071987631, 0.06759593157084362, -2.0565914280264606, -2.132045133151874, -0.8575280563658911, -0.25839434165661335, -0.13919402754244972, 1.1062863877229392, 1.6183103731972532, 0.2003269300269984, 0.896344442184868, 0.9656598334731851, 1.2148423619612512, -0.7497912935912242, 1.0357704005929145, -0.39594847834704466, 2.370111523347365, 0.8731944067418497, -1.177793967602175, 0.5125293238269607, 0.8137240723097213, -0.6667751372455, -0.02807887949037826, -0.19780267867030846, 0.8548639632945005, -1.361634711398526, 0.28810602524525203, -0.9372842565989262, -1.9417174725442716, -0.8220631666227075, -0.6503839397599217, -1.5117921252720246, 0.004547510773147062, 0.7335165840072976, -1.2978045216265126, 0.15863791962614734, 0.6370296250665273, 0.21129893227744798, 0.8584314317769799, -0.6664918343548832, 0.582002473822656, 0.2756494028148468, -0.7739342490935437, -0.9001469220428148, 1.6226554505562745, -0.7048670532264214, -0.4591298167930654, -0.2985637689214129, 0.06683941743687505, 1.759770324033752, 0.5880403219637403, 3.029303805300396, 2.3295777470729018, 1.9259154798570894, -0.09477744982435664, -0.14161640335869047, -0.47970150787761995, -1.279935354051084, -1.181635475131017, -1.5135811675092694, 0.9259408261734708, 0.6647622107404593, 0.2557536036931239, 0.7913877116570948, 1.9498833084735474, -0.6248975759905273, 0.14801891283548288, -0.2870737540832765, 0.3631651857152177, 0.36925529184877603, -0.8053735461945392, 0.8187395964802654, 1.1817334621178446, -0.7006665460678183, 0.6484964844832007, -0.6800101435239512, 0.6478499963751585, 0.5795590078352137, 2.5528374816123907, 3.3296626324683145, 5.061665413098191, 4.889614796184314, 5.347893682364971, 4.74680019624281, 2.696219120684928, 2.514961555233948, 0.5283521796773809, 0.22246206388457232, -0.9563802789002629, 0.42554504451544944, 0.29951385304125233, 0.14064538306596636, 0.46809917537818063, -0.7968337876278377, -0.7037780720529169, 0.4897063405168073, 1.1098092456855824, -0.5234095460165497, -0.5884470644058738, 2.3009162971502786, -0.23024061704720644, 0.4630745314056742, 1.5655492194029488, 0.2091758916430683, -1.087374260796733, 1.4064419106284578, 0.24240909447335593, 0.8071434509993585, 0.06889223974660781, 5.573952509686192, 5.525949288144263, 5.593812474167633, 6.347482040834785, 3.7979346829261726, 1.897490976657958, 0.9945092219252392, 1.498523405920555, 2.8473266289875045, 0.3617806634284829, 0.2504051089698715, 0.3403156034263087, -0.20270088752028242, -1.086990417009406, -0.026214334354655016, -0.764811093599712, 0.8209438154210831, -0.9026360607531757, -0.6999693896662371, -0.16830417708275666, -0.026480032842329134, 0.7270461458506592, -2.3651991132899086, -0.02130906161292228, -0.6497132972432964, -0.18754468679169375, -0.7910125743485342, 0.6618209082958787, 0.48289151273002406, -0.8883318712751627, 0.4836558149931587, 0.31482444166238976, -0.28313288822602983, -0.6016324290301214, 0.4220042092698755, -0.18756926635403642, 0.47931128496325337, -1.168518319601466, 0.04902125304526218, -0.3808306770118671, -1.1145971168143778, -0.09677351209608813, 0.9031044916215956, 0.8496047672083037, -0.9487258609991005, 0.15845955170242446, -1.3636749389566127, -0.5663924127420126, -0.2785731603457276, 0.6833807684471634, -0.9753233280133138, -1.3462681922111537, 0.5438544979209148, -0.4976600557644484, 0.7485310375279393, -1.619498830845446, -0.305761640504715, -1.062858255943939, -0.8315911138938373, -0.6158664877402528, 1.2023427865339893, -0.013772938729335646, 1.4077005055451612, -0.5482917011532517, 1.1440819914403846, 0.43987502524116945, -0.024374014654636112, -0.7656628561964346, 0.8652965663857163, -0.7164175229082299, 0.6306272952832889, -0.25718515972123224, -1.3516811585192101, -0.7103306377968815, -0.7088363975326761, -1.485449629372053, -1.5784906226006896, -0.8150747745712384, 0.12441615639259834, -1.6483767637761404, -0.4980104761170795, 1.4479712286619753, -0.2909468197873822, 0.11354964850098269, -0.054233807674947426, -1.2794123110972764, 1.2055939669047857, 1.045754937627387, 0.22208985578429724, 2.3189735861541676, -0.7827853999313463, 0.03566514008232153, 0.2123482170263738, 1.091115423719788, -0.09217325318454545, 1.9913015145414141, 0.7729480588280769, -0.6372725034081947, 0.2461330177125245, -0.1283955287661672, 0.03537986004020274, -1.645493164583606, 0.4148647863317796, 1.3881732679817977, -0.787769662887431, 0.5935846226742475, 0.19628144547272572, 0.5678904353791139, 1.5608004104574957, -0.12228046924198173, 0.7214582870834565, -1.67628805032178, -1.1185603470868752, -1.606340291622713, 0.2532996524932313, 0.47448629766629635, -1.7693178864350774, 1.1579176029386933, 0.5688100010321865, 0.8397192742951753, -0.4231256485113017, -0.6691195209995926, -0.7871652800267431, -1.1659991290144152, 0.2304934495511473, 0.8816570593169154, 1.0329011703858857, 2.5100409944990134, -1.1949734050315866, 0.23032424112635722, 0.3986385361659816, 0.8902840351529959, 0.09260417107680097, -0.6563407514647456, -0.5938206406587728, 0.8837799011923156, -2.113734726459791, -0.9560711193688487, -1.796176758099601, -1.8747991540552824, -0.7923759305682863, -0.24565892923825874, 1.0218895822625145, 0.38474263658761765, -1.3007378514932229, 2.4662501615712, 0.8414018732838164, 0.1264530453871142, -0.035735155420588395, 0.03504524862664328, -0.44922870702737183, 1.6881186926219047, -0.5296789247545339, 1.2632245864145792, -0.3623539942928375, 0.007449262263172078, -0.2108455235440807, 0.7837250984639628, 1.3368824300704445, -1.1937045516722622, -0.4160349506324109, -1.304406259412298, 0.7421394090229845, -1.6481384083179182, -0.129943698946855, -2.05139163353004, -2.3354232294188852, -0.5977280401699279, 0.16913442800758893, 0.25189594135852705, 0.3975132718801235, -0.0654610121246857, 0.05886465385297245, -0.7331801028006956, 0.37198410418212674, 1.1550469871034514, 0.17970605476686297, -0.6779161021865686, 1.5989977516001588, -0.4745404842725818, -0.23706908270208452, 2.0002730513093208, 0.24863758367202962, 0.6868745599418381, 0.6651353193281739, -1.235493339737811, -0.8987532225079221, -0.11896504618984166, -0.9791474781215049, -0.9419759522866199, 0.7225939541170449, -1.4856278637237965, 0.8757684611505573, -1.022598233846781, 0.8971969235088156, -1.7846446122943027, -0.45026929686832773, -1.9003707961388856, -0.11919707984024497, 0.13043525224404937, 0.286792713506432, -0.3274877708270835, 0.3642634773070344, 0.29977691118980443, 2.9264899057113745, -0.47423919832333716, -0.7804183024596956, -1.9677076361242525, -0.06762241836435925, -1.0615383157073304, -1.649520918812535, 0.7319316966116163, -0.8834835016343477, 0.6646027339649949, 0.29689362412377834, -1.932499657760657, 0.8772798377292667, -0.8361444531441555, 1.6554323936658035, -0.692524167115877, -2.0604735849304077, 0.9474440424377024, 0.0998431042667379, -0.8841905273083455, 0.9182473937783725, 0.3188371521038119, -1.0506351944265688, 1.6181760672090717, 0.7259277927606832, -0.1878573399209382, 0.1447605134400891, 0.378746315880655, -1.4103697775584731, -0.5463490715732778, -0.30250040765837977, 0.6744380234060949, -0.15250640754027492, 0.10277900042572012, 0.980757226327084, 0.5715920810858591, -1.248014552475213, 0.05801656664012184, 0.7368863559795931, -0.9276581842760792, -0.5183383239620726, 0.8732152659595678, -0.5109365321728652, 0.39602309404729297, 0.8845354636602317, 1.8078761731625077, -0.05787514625142578, 0.9821379563522994, 0.1706927884557429, 1.2159192922863205, 0.2023548448002763, -0.14676906409765228, 0.03359562590388219, -3.328034551930787, 1.4274165526006823, -0.3692351346737848, 1.0960501653016348, -1.3565184489099247, -0.6979871756026482, 0.36243323786052634, -2.0596516848452273, 0.02739874396760396, 0.24672248933290658, -0.061549686078743907, 0.9501511151477036, -0.7190197253119401, 0.6432365372374369, },
