double weights_hl[30][784] = {
        { 0.4413801255724431, -1.3899105856159013, -1.3268583172938568, 0.6399841385592363, 0.43466228499854176, 0.2610153771289294, -1.243568422835281, 0.20703508951291016, 0.12470497057061554, -0.5015050126817757, 1.0120911964704493, 3.037986563942568, 2.5401587794328373, -1.6345726745525249, -1.6450259818320978, 0.17979163853661176, 1.1234267434031748, -0.5591853660929768, 0.21375218521059602, -0.08782544585917221, 2.397942006252128, -0.3907124872617936, 0.9617742161710835, 0.14812289915017554, -1.806511014113782, 1.6532381478197575, 1.120931627826211, -0.014806708601441704, 0.30165832457546027, -0.60689081339403, 0.28246986476314717, 1.7775560828393224, 0.8554087956183115, -0.2939543928523361, -0.2562478917411978, 0.1604716699326494, -0.7688749789794725, -0.8070258824403251, -0.756288980433113, -1.4194883201147035, 0.8193826878295097, 0.24614850071078848, -0.560509530837187, 0.016239990615455037, -2.247267362213721, 0.3661924471667886, 0.9981586091581314, 0.0368108641035426, 0.545184052413083, 0.10274475865736164, -1.2901762709146882, 0.2827322125661403, -0.3821436800375448, -0.28929935567985865, 0.8789476299428866, 1.5845144861141505, -0.26339226275733757, -0.843648137595553, -0.365164210276459, -0.8346786640743831, 0.07617893952493474, 2.0660028348616786, 0.2969203043374184, -0.29121133351091955, -1.9590340739487728, -2.410132586437257, 1.6638080226279315, 1.1478638666994287, -0.6067484588209918, 0.26599760356992325, 0.3584891143945757, 0.052137911879022496, -1.4251641679971159, -0.8144447751824624, -0.21196665338472673, 0.3297487996321074, 0.6434695650705973, -0.911233165789109, 0.949721904029825, -0.10210777898094, 1.194139337018976, -0.9541163671821057, -0.08242883477149389, 1.655967854738852, -0.44161704337050484, 0.06866590359237895, 0.4832597124290968, 0.35104743636626, 0.05082153752888824, -0.7498000721330765, 1.1138821072456735, -1.7608969025424581, 0.10088596262210753, 0.8151107156019968, 1.3782695999930106, 1.6988107162741373, -0.13856703835365627, 1.8114173315670308, 0.8895112536136321, -0.8273598690526432, 1.1669342209769036, 2.689513034166834, 1.0045122962797248, -0.29164531765432866, 1.046633798943347, -0.7966920290480516, -0.5538423933110685, 1.2246814078422579, 0.29231981154164416, -0.1430592092990864, -0.42426590464246466, -0.4842124743992681, -0.994185571720362, -0.808585619131987, -0.009514703653278965, 0.5284314825325706, 1.927001872431399, 0.3036628324085865, -0.18225046744808, 1.1780918557681073, 0.6601968539988539, 0.35796794318232356, 1.3425386035866016, 2.261445628620184, 2.174591223199368, 0.6350322385274658, 0.22962927223200516, 0.21734875649657318, -0.4810143389665672, -0.8759323530198881, 0.7170823025968036, 0.31744572673957694, 0.3048606111510954, 1.5558207713631687, 1.8505739271132386, 0.37928157684033853, 1.198276538230255, -0.2546186799668799, 0.4166746751082467, 1.2522805083432635, -1.4752993512308419, -0.6533672498957773, -2.235681130942361, 0.16897824054363927, 0.5063446941487783, 0.488255515661081, -0.1967421603508159, 1.120085195557821, 0.965289195123215, 1.7257752997467615, 2.5620334325809315, 0.5025080223229862, -0.21825211745269651, 1.0623044998114681, 0.13784358144047995, 1.646791665653329, 0.35324006092044125, 0.22849390477896897, 1.3748764060516616, 1.0287310563616179, 0.95752843123133, -1.0762241604157259, 0.8871292613504608, -0.6564077436720375, -1.528672336501681, 0.14416382082665674, 0.01431650078266677, -1.3002808350259512, 1.3716367687749338, 0.09671839909914427, -0.9925667502258664, 1.5830655776105818, 0.9129626417810188, -0.030912979603307387, -1.2590952131408117, 0.6446436993925264, 0.8298427035813823, 1.6931649330474503, -0.5006042391057545, 0.7121623057036593, -0.07119406490945948, 0.7711024924891804, 0.5843680867231936, 1.3326053603175683, 0.9868302529928271, 0.4649687828545354, -0.0890600987210652, -1.3811031342974762, 0.28260032450554895, -2.225859258628273, -0.12735121125475055, -1.361763070353154, -2.159611946833781, 2.638719297043871, 0.5450674055871144, -1.058178220803485, 0.11283812401667896, 0.21940926135114872, 0.057392146645778366, -0.8738884409848621, 1.123435250123839, 0.3887605501995812, -0.43449985997059365, 1.9122044925918527, 2.6132811590167995, -0.5062500558244198, -0.2857931961295996, 0.5092582284771218, 0.357216305002738, 2.1413140166384013, 1.4287586039411355, 0.2755361746364213, 0.018232836125368673, -1.1925929328572753, 1.0284556212526978, -1.7712495460772868, 1.6042089867379004, -1.0342519774326537, 0.010440623360076074, -1.1982826536807112, -2.201746855110137, 0.7374275114621086, 0.9771940017082709, 0.4426019095151142, 1.185313289764264, 0.5855366025440157, -0.21729474594777215, -2.3558285168867705, 0.41936998390991587, -1.423460966195207, 0.22531402321405192, -0.47910185341856093, 0.38264992306680706, 0.7730185752662835, -0.2641160151395782, -2.9350529492405832, -1.0785876783355335, -0.7735059035877712, -1.6653975860134589, -0.7847627475085136, 1.4030076599797012, -0.20424049848172854, 0.27541272786868654, -2.368549217247499, -0.8438863013342146, -0.5250095856501297, -0.5597666090620678, -1.1481512641653246, -2.0676233622681037, -3.6566311795083224, -0.9864102476896084, -0.16619155631339091, 2.038365551110846, -0.47645896596070103, 0.3182573828026416, 0.71847582602872, -0.5420036790907665, 0.7715617315770885, 1.3472051541030194, 1.6912490512500715, -0.6722428834281075, -1.1554109673003217, 1.7626173771480544, 0.06083656781162178, -0.8729632067903852, -0.8580383777878456, 0.5669325124282546, 2.469530191079379, 1.856380640395452, -0.08374951355574835, 0.9263630556705316, -0.3471104729350741, -0.05039394171355608, -0.24966219591951677, 0.20695438573047037, -0.47914434934282335, -0.9520279263775921, -1.4984851986808596, 1.691083779497248, 0.989383339917704, 1.4563795146614507, -1.056859612156329, 1.0745314189150255, 0.19458307864468802, -0.3329300969303207, 1.5548740299295511, 1.4169652922765237, 1.0856036817723087, 0.1730486489793359, 0.8127412596840213, -0.41637856246452987, -1.6708796781750115, -0.20172371015660334, -1.4516895204665976, -1.6458285978853535, 0.7006759040465566, 0.7178850944068826, 2.8156551727823973, 0.02236444928147833, -0.8203352159659315, -1.1261173137997966, -1.8449766470307882, -1.5847963143653885, -0.037404957072946006, -3.251455255055439, -2.8086184435615125, 0.8250505651983299, -0.4305352578344944, 0.23685788595736135, 1.0491216888076518, -0.0057704585791974825, 0.03423405798221264, -1.1816749293869984, -1.010535931555579, 1.8843013780556193, -1.2865704314053654, -0.5412720394912286, -1.3936974834122513, -1.9264324493962173, -1.0121896089035562, -0.9984233007371944, -1.420065556038928, -2.9560511334520325, -0.746232691622362, -0.3747746475213143, 1.8806917680192974, 2.049445094819733, 1.3316297288941148, 0.7887233784940116, -0.9275013102023831, -0.43959983602216685, -0.4326231026363092, -1.0679333171817167, -2.139216783949916, -1.2861241849747609, 1.582208813863987, 0.6862406471646151, -0.953767451653786, 0.7563302027223374, 1.2704415924263275, 1.7245054264751376, 0.27553364549213366, -0.15409452162905382, -0.40777320693778524, -0.7601645691249737, -1.8513159397128565, -1.546829511632661, -1.198681832595411, 0.40509489904458157, -1.3074985257375373, -1.9791870229267106, -1.0566772227078856, -2.081515279770013, 0.5163793864756773, 1.274399226386107, 2.066356091527025, -0.37201128468743283, 0.56049446038555, -0.29411831142818295, -1.37060036655175, -0.4518803313652091, 1.4211634357023333, -0.23656470819465295, -0.38831947359675134, 0.22855884151326275, 0.16538166091205087, -0.877504601814059, 1.223563976814608, -1.5091934981358786, 2.4453821934221662, -0.8928423596430793, 0.5894873879596499, -0.4525615902157543, 1.3748691521619691, -0.12830754671376257, -0.16348936862838417, 0.055911083775452126, 1.0245111785683283, -1.5388432144089108, -1.195605614340974, 0.476872605253597, 0.8129120499089363, 1.0058179712066575, -1.118317938240197, -0.26312381686746755, 1.1142234837491882, 0.1555666234906537, 0.14415388541684243, 0.8898798427083026, -0.8159803156939698, 0.8914519624270865, -0.6785996194727734, 0.8817891177579681, -0.3726071448350324, 1.7747787159636685, -1.1593656293727401, 0.45406391621412684, 0.5470782465408011, 1.4426922927756773, 1.3226523978695315, -1.1321964513018514, 0.415700968524696, -1.8692851901441356, 0.8550305512491454, -0.03612888339470092, -1.5164094734805698, -0.08760766694363734, -0.7695116817348845, -1.0342386869712752, -0.3234883418950894, 0.1979373451593207, 2.031934524290292, 0.30897935915323493, -0.34902824587988923, 0.9451781983861838, 1.808208827033941, 0.04714938537077572, 0.5049497210562723, -0.06693486126787379, 2.2799797280480365, 0.9256360264985499, -0.15493873255185114, 1.3177009926296899, 1.0751734094280625, -0.9575796062800784, 0.840413339280847, 1.9663690052364262, 0.6802652184106767, 1.1484315987407847, 1.1511171521562231, 1.3885987813776495, -0.28738189887583504, -0.4354328195832534, 0.8930866506513531, -2.713790980881079, -0.03234868511510435, 1.4869491617466806, -0.4229453584152118, 1.876792732302805, 1.9037011030890019, 2.6059599004416625, 1.5444225546358556, 2.0920171565583576, 0.8313735757726858, 1.5009299354722658, -0.2674904430546516, 0.8278737779793172, 0.31991477741559515, -0.9172235682750148, -0.2916365075854069, 2.3666998345359547, -1.4065763696177194, 1.0341850151642438, -0.23463208374370384, 1.0537707753713905, 1.8267977090474175, 0.5078368123696525, -0.1540836784469612, 0.7575469038977988, -0.5785920486722201, 0.09723409579147746, 0.5620767944587317, -2.505599980176372, -0.8568392780571177, 0.5545067953002352, 0.797595962348263, 1.6777637745094194, 2.8155164805848347, 1.5566117267082376, 1.7593573828519697, -0.5055215955113166, 0.6016982051494977, 1.7861924283893142, 1.2020423220110925, -0.4850230593557527, -0.10552125732090478, 0.20676504401211732, 1.2348830895468617, -0.4357735517085986, -0.49141706887590886, 1.424319491311725, -1.8689476214318526, -0.6309246488952364, -0.005143747778449447, 2.168302051193533, -0.5120235023942908, -0.558273064846997, 0.9172662813225878, -1.7628427696368614, -0.9430025021923387, -1.9273868431870518, -1.3932122029458305, 2.6497540035992753, 1.1566270251765065, 1.5555471963818603, 1.9318271559992028, 1.8747100575365134, 3.111094063660104, 2.183658936156809, 0.6136954629026642, 0.7739710362715001, 0.47756634710754403, 0.8195551473460185, 1.0548938695975154, 0.3908001004890812, -1.4690537244947106, 1.1734609107169527, 1.833614567312524, 0.5637344173874477, 0.844720564676052, -0.8194452203388035, -0.9132171597262331, -0.2739961271922611, 0.5843813650123968, -1.6052100788797987, 0.388758386653989, -0.03358255210152977, -0.26740422328891567, -0.789969638028427, 0.6042610577486263, 1.0466651981645971, -0.8973148973743357, 0.05066419291917047, 1.2786038067864105, 1.9313282122190853, 2.1692009958306597, 2.4353271075052283, -0.45490240806190035, 1.2381062252435078, -0.3138366197439788, 0.8105613375820659, -0.7763209798543701, -0.4731297672543862, -0.6489239453613169, 1.3426496552530225, 0.5430450643522782, 1.0824023524574928, 0.44508472347160327, 0.8486930868556113, 0.21572942687437208, -0.928616429948597, -0.4238243012865528, -0.22921808076386313, 1.4879694645982686, 1.1610690250196205, -0.6508014776885027, -1.6841107352478768, 1.6239537549648118, -0.1280818552502118, 0.08601198190427056, 0.12235869515971165, 0.1172448920474827, 2.307194429006573, 2.0669374465162744, 1.1241768149023557, -0.31978242355923964, -0.3857259607487202, 0.6954972402541685, 0.8646216953852549, -0.08307948227325829, 0.34739657428075577, 1.3489192943011001, -1.5772915036219803, 0.21861475836672212, 3.006395593832896, 2.800226311383038, 1.2046037153471092, 0.009968534437532504, -1.6299415034334555, 1.0582342716373614, 1.079815569138045, 0.14144832529385817, -0.4849240923599746, -0.8384457624769245, 1.0849169551903082, -0.4696074129785696, 1.079869449501577, -0.7057374200783856, 0.19608276465925545, -2.1302625825794683, 1.498593304302907, 0.7741971558027564, 2.11227287716467, -0.14376573692591776, 1.931854243793962, 0.5823794657435558, -1.1108335231394988, 1.1471564896138593, 0.4327801361353186, 1.2702204443606309, 0.7715895520662285, 1.692586016329938, 1.074774803082233, -0.4145689364968427, 1.7510840739542721, 0.595770556244445, 1.4325153841385556, -1.3657509633571068, 0.2979338356024853, -0.18831950374205148, 0.30754323545809764, -0.5664574631017463, 1.438786304301787, 0.9318543348183991, 0.7946446935766944, 1.2406774148580837, 0.9436298116210782, -1.441127580156298, 1.5534278912635235, 1.8604490390574673, 0.03134299875247419, -0.5918840258334259, 0.23179697481147643, 2.1149748434652915, -0.18145788171879443, -1.2416550186731639, 0.1605051092514561, 2.2008008278242217, -0.6108081773703183, 0.4293641585882005, 0.2749142436932044, 0.4128101785746782, 0.058052589313794214, 0.9197785577339949, 1.2208244359801266, 0.16132297555242245, -0.7882435283842723, 0.09116421954693565, -1.59604224115041, -0.26065887738111765, 0.9946775726163343, 0.6174692335332126, 0.39226008796121353, -0.3164262787704654, 0.3020967505073355, -0.6578262090326951, 2.622300783051199, -0.5653771472436803, 0.5918362214985086, -1.2916265394587034, 1.3301768761626436, -1.43862864980293, 1.7725950405416675, 1.7202759787085713, 1.940281567767776, 0.4306946988969852, 0.9816280135015362, 0.026089242335684548, 0.4201256789850858, 2.7985217270942657, 0.033640543591765534, 0.5435113404674093, 0.21645531152344702, 1.17777340882411, 0.4989890163493252, -0.0864152257887417, -0.8406096285869195, -1.2604592626507414, 0.4477344722231416, 0.16011556263283935, -0.04525798440680731, -0.9135514015716995, 0.1798380658951315, -0.29713297644308745, 2.2124079691947256, 0.14887989695548892, -0.4968518001481404, 1.7956302419933523, -0.769673658341473, 0.3399344152304099, 0.9217105302956181, -0.11305888992604918, 1.5181467227383374, -0.37113023009120705, 0.08221921822582044, -0.19949349044177528, 1.649858943693083, 0.7107899141727735, 0.25772964818521016, 0.9983266136954838, 0.9111094218814784, 0.355578716456002, -1.2467345189023107, -1.6813920172080024, 1.170884279000322, 0.9035396600459619, -0.5213438163972677, -0.22608869746193722, 1.9462234566177705, 2.092312136665577, 1.7770121369819434, -1.0402761179586901, -0.48383053418020466, 1.0100592128789554, 0.5933245866377693, 1.2852028440755332, -0.7444045749337185, -0.25318973576698767, 1.0364173720416878, 0.665442957882165, -0.031439484342039636, -0.42936634114885996, 0.7013782333096897, 0.7637894480388483, -2.053807871761818, 2.3819425396286986, -0.5099433885010494, 0.9803520241932624, 1.4022003457630545, -0.23723250253597053, -0.40001295790381936, -0.8910529811658933, 1.4298846905484937, 1.6301068444946176, 0.13206730488855659, -0.2378755605440851, 1.0893317444675004, 1.031465640177849, -1.8992562344564616, 0.31848937146846973, -0.20664722537413693, 0.07669809526927177, 2.5141671895236746, 2.015302822555552, 0.6244231857498612, -1.3596588013713145, 1.8141999427581745, -0.22511179806643636, 0.4871176264142461, 1.541308130786388, 0.3055943692161382, 0.5163545820171493, 0.5637330914319444, -0.5233747601751, -0.019781637287721216, 1.4945597721745503, 0.061503786217974664, -1.2881782167412532, -1.0739567775448662, 0.07791048623284097, 0.17082498226366488, 0.590948467112494, 0.6811770330207629, -0.42609722917477016, 0.2787616464160326, -1.1822620735380873, 0.5368878733286173, -0.6778604332720212, 0.4126601837525095, 0.36904282605162503, -1.7458700323439094, -3.0378937568439452, -0.16124846384829386, 0.5062091668282915, -0.21333659775058228, 0.7776575368059729, 0.3420253961668043, -1.6361939304221267, -0.9504727242020825, -0.05501048395888998, -0.3150894985852661, -1.3278976159925266, -1.0813872569036616, -0.49942642953440197, -0.6650963553331437, -2.154798107875798, -0.38576925894991243, 0.5268435907878192, 0.5589191843825801, -1.45366354372414, 0.43286657458969924, 0.8392619533810107, -0.4373341020100569, 0.27749448063618865, -1.4008771472347008, -0.17757667221237758, 0.27216221844101235, 1.3469705028697816, 1.86211297873549, 0.3237725372657325, -1.688478358402745, 0.4959043291620699, 1.0820509654949542, -0.7807740872329292, },
        { -0.3649652090222871, 1.512918052650489, -2.656982035863619, -0.3530735612294934, 0.238769233759127, 0.6576333821019333, -1.0328689062883574, 0.24005297792169147, 1.147910920111266, 0.6584635613789146, -0.7079319450012933, 1.1071502762965653, 1.8060244546795639, -0.3899473801000687, 1.567160319353676, 1.930886084395997, 0.1675899127968638, 1.1207967372932484, 0.26098280265329704, -0.6876522596823603, -0.31512829410862747, 0.35628800647984366, 0.31474956515979247, 0.7477859717779728, 0.41668582719793124, 1.6858145606580293, 0.36758421546863246, -1.1711813661944341, 0.3354362621314172, -0.15303347111936708, 1.5097127871968812, 0.056958377489449104, 2.41751789339591, 0.13435306013691234, -0.49877608151795216, 0.45327696801968764, -0.4082718074225305, 0.5909592699297161, -0.9001438879187863, 0.6782969137333761, 0.1800355214509376, -0.3881282386546961, 0.24639256164547146, 0.09577671997140662, 1.4938270073530995, -0.271242777472438, 0.3752614678525371, -1.7860139438827092, 1.811575157235078, 1.269642122901035, 0.4003910174063976, 1.3145162061865887, -1.8622098422771356, -0.042444233062666537, 1.4977661883396443, 0.21126441137826266, -0.2723715535988387, 0.20362575260617294, -1.6037470767422124, 0.41340988592060013, -1.1542385721428603, -0.18112909619493303, 2.6007733016692347, -0.331737310087822, -0.9262714942226156, 0.7585249004591027, 0.14432502615462742, -0.7753520459068608, -0.09959589189720958, -0.2095802401335606, -1.1876297390069144, -1.0139522855480154, -1.3215219431124057, -0.4572497771076759, 0.03170601344739484, -1.6837834656049586, -1.7856205096379318, -0.020081825756407195, 1.0531905940717456, -0.8560500314172425, -0.8348685317164536, 0.1554889351523991, 0.1822343872750564, -1.598052466239944, -1.9000165279344117, -1.1303908913515126, 0.9986542656396544, -1.2009916727153624, 0.6605779562461858, 0.3821665727054273, -0.27849641545210746, -1.4324309291005843, 1.065125484063208, -0.173344211128092, -0.08345356394257773, -0.6786963720259993, 0.6686314072400652, -1.0781468315076792, -0.4155210719807063, -1.5269245096984174, 0.9872196588514895, -1.0753528690669723, -1.9295712685646922, 1.5711649805490069, 0.2421435228547407, 0.24509679442919036, 0.13336746637959884, 0.18055963122374225, -1.5380760546298022, -0.44917215976028585, 1.1781874449821579, -0.4725655726831738, -1.3974273231287047, 1.382181274173764, 0.3015671638681745, 2.72240034342764, 1.3312645563058294, -0.2788727184016005, -1.105865654293071, 0.5695497328802988, 0.48510109591329664, 0.18360613949958726, -2.836259109084844, -0.9769266453642063, -0.6878407405318568, -0.03849008821435025, -1.8290599358783763, -0.02644050537199293, -2.7837135629841963, 0.7866067747960942, -0.6243298242095082, -0.0032103367347013118, 0.8473907715755141, -2.0436194906907805, -0.18789047383056715, -0.04370626613762479, 0.22982242044166007, 0.5378198249009547, -0.4160868509452673, 0.13347738387381575, -0.33352269594003153, 0.6917609910349054, 1.8906446093661056, 1.8961136844190873, -0.36042714125266606, 1.3111149483183495, -0.15558489386715552, 1.136518863398771, 0.20665368771630543, -1.5586361354121183, -1.3866151808069311, 0.34855333639622865, -0.39987336027863024, -0.8285614679711296, -0.4365359383322953, -0.48864682338147936, -0.552877315939765, -0.38995242291114784, -0.34371579261319424, -0.9661794642227779, -0.3421164896207002, -0.959855502629122, -0.20024312032224476, 0.701473815655349, 0.6733352176889653, -0.49489365586751694, 1.4764048987428489, -0.06348778462071519, 0.7731231873798481, -0.022865761845987216, -0.07059066886432729, -1.1827941391944392, 0.18118735900246077, 1.3690388921133676, -0.2777247240552588, -0.24717269379470228, -1.2452810848369726, -0.28688861105561103, -2.602427637068793, -4.3256202846640335, -2.244327943265949, 0.13469162709648794, -0.01387508542426264, -2.7814018714959015, -0.9618726311478653, 1.002743344426207, -0.4387779378503968, -0.05797988682691624, -1.0624256982185256, 0.22720563777224886, 0.907032515914367, 0.2867304701466581, 1.376009029580265, -0.107254568424023, -0.5054901287862162, -0.6775725062464458, 1.6351370861725723, -1.3009388786202523, -0.5511531765708836, -0.2705459451235656, 0.3952810710273912, -0.3600433153909175, 0.03498890591445766, 2.3433080062279568, 0.900459351003115, 0.14763952189704446, -1.813853890325482, -1.5573632852578345, -2.3751362537206475, 0.03680207233062726, -1.7483232352483071, -2.5081711917656837, -2.5034231799514464, -2.39490939760895, -1.7972142170998306, -3.2517378986167262, -2.7856868773243972, 1.6545200174529264, -2.5314112647101124, 1.315297219333077, 2.3475895796640853, 0.5798968097508401, -0.43649453221373036, 0.10814567707172386, -0.37494239767741644, -0.16871121576453527, -1.3830347912255876, -0.32669885992538505, 1.6775059715044958, 1.0442867594621952, 0.3476167225471825, 0.808111458959085, 2.8859225998956974, 0.9407951075548904, -1.822449810481058, -0.4451070905628373, -3.4965148247694193, -1.6712559431610485, -2.2374556325806725, -1.7857828344630842, -1.7777166256760963, -0.10119058874410056, -0.610825687086903, -0.9199653186262264, 1.104462644979692, -0.6576874721563302, -0.09677934972410847, 1.135982038450942, 0.5157128088924313, 0.8173245284806825, 0.2580706156100032, -0.7995371114589948, 0.8549187633001796, 0.8332684992822561, 0.55328559444025, 0.0903105155017935, 1.554750604526106, 0.2685813725097023, -0.6262181435990724, 0.04044840312545084, 0.47272645252461404, 1.4994584597219076, 0.4773437308842513, -0.9466438157876673, -0.9734162941716034, 0.7804679804117787, -1.5501010588516178, -0.7571365632841662, -0.5339575654492102, 0.3967560126236899, 2.2784630672399437, 0.3464463087484842, 2.0497871105326304, 0.37425229437108615, 2.311723688005418, 0.8482444468482084, 1.5391151818742843, 0.6630013409465062, -1.4125948416759264, -0.8122647551266199, -1.4699416737755135, 1.6380158197702797, -0.15268821596730225, 0.6312991660844299, 1.007407696777804, 0.9778316182058124, -1.9701922888005994, -0.9051215844584537, -0.013675360894152336, 2.152862644974309, 0.6049749478929966, 2.1981512147897466, 0.7630636706259423, 0.15717313674744954, -1.6063271135428456, -0.12542382774235109, 0.8932117016462384, 1.0010953487265846, 1.301106523919236, 1.0685255811322147, 0.9419188795216522, 1.288279609980706, 2.4020828956882605, 0.7434463594950012, 2.5875510543083893, 2.0543672782795683, 0.31110988909469633, -0.6333503245965142, 0.2754430877354733, -0.26772551731381805, -0.4932985605275353, -0.24945649420621713, -0.05112517086290571, -0.9913808358496194, -1.7561136421785748, -0.07044117106021877, -0.15333470601880714, 0.47526397970148226, 0.8103015298542382, 1.0614088333096505, 1.7437422139532168, 1.1731589315144564, -0.4503618630971397, 0.61720762863105, -0.026176968712043804, -1.1027642455008593, -1.0056889612063609, -0.6178380375551348, 0.4593807163159849, -1.8119315910081413, -0.22360156963836922, -0.31846335804416215, 1.2862658108806524, 2.4014730939529367, 1.243125494265907, -0.5023560611282087, -0.7149814205270943, -0.6119542048469963, -1.0374796141583256, -0.3705241060906094, -0.7603930829625452, -1.089964135760035, -0.1929984049540155, 0.006546522273307954, 1.3199686032573061, 0.09682351689877189, 2.625047660190357, 1.0833858822117115, 2.417261594012148, 0.8266439409025932, -2.155255720904213, 1.4298084354719476, 1.248451657368998, -2.107057818321872, -1.2736758833604507, 0.059536002191504254, -2.112772574352366, -2.3502916898175945, -2.287775212639302, -1.8351385926483796, 0.11171646974911245, 1.6533171309798482, 2.1397607324875354, 1.8958342393655578, 0.5055054736596868, 0.3467645237206566, -0.7750197712404502, -0.12669847832985215, -0.6954049051585101, 0.565665286014593, 1.7127128263523081, -1.3069016146622434, 1.845175138395603, 0.22177757314575672, 1.208997678687784, 2.5883787916689562, 3.1011699715567227, -3.05690076107975, -3.014291464286209, 0.556125162120195, -0.006766700819967967, 0.2181739961826737, -1.7823016780263454, -2.3362971366332377, -1.8848427798411687, -1.2379064228853165, 1.177765587566269, -1.3676028588527698, -1.5724315085997393, 1.2284177846274282, 0.5023186304441516, 0.323557533234448, 0.9455625603360601, -1.1169204688604553, 1.5048371338775433, -1.9206902999063638, -0.9321000056802812, 1.5201621836224508, 2.396180569054227, 1.0198572051786043, 1.3149607260326994, 2.2377659408906334, 1.8847526259136682, 0.642964169579264, 0.8878799194945363, -1.7697953009490195, -0.9197009105537938, -1.065063956234192, 0.7860227270913003, 1.8981130201272112, 0.6405233586521452, 2.7248354669960864, 1.1587601937878482, -0.12168981632255609, 0.7745206098978017, 1.1978119065340607, 1.1489433006802083, -0.6521452095564535, -0.8840541796546457, 1.090634175977082, -0.09926475927729025, -1.937065193665111, -0.5626137172016243, 1.9811660045070802, 0.008748535208122554, -1.512363983829102, 0.013618630753689822, 0.35694797800947564, 0.8558246669765781, -0.7066585414110483, 0.667961906714045, -0.8413861350582639, -0.7265627395240783, -0.5634025231438012, 0.14346482280604717, 1.145512581447329, 1.0914395993167367, 0.29269889567326485, 0.22730946256797638, 1.852222915659014, 0.6238361526705407, -0.929895959380647, 0.7637399472903705, -1.4430251152669757, -0.8969870089474901, 0.37948068264775664, 0.012170100545248884, -0.7549484310415161, -1.2264475621409456, -0.9766286769957678, 1.4809644432798934, 0.2655830378997181, 1.4495215265601606, -0.4398802589264916, -0.9620999674949582, 1.1337355783069776, 0.15105126084968437, 2.11295894839987, -0.6462633537196557, -1.8072120547095583, 0.8659725968275954, -0.7526104914924289, -0.10124970675353942, 0.45142224055205143, 1.1792428711859706, 0.22682087228472597, 2.2094599617345345, 1.1631261639223573, 1.6305635614096359, 1.8771508671143329, -0.5424595000370765, 1.2835762255901337, -1.0921275529386414, -1.5183606259794182, -0.4855510178626306, -0.3677034367155855, -1.7967041790786915, -0.561075274319669, -0.10254824400813227, -0.38190207267190185, -1.6249938600063287, -0.26092490934526574, 0.7429532378946132, 2.241879981161497, 0.9058786506539611, 1.9550162695757372, 0.9431288353473142, -0.8234559804406598, -2.3957697293423337, 1.7155541905756766, 0.20344600974345664, 1.6737361938507271, -0.05424426055278986, -0.6703125097020723, 1.9495528836440272, -0.15794715007670515, -1.2693920881754592, -1.0013771688283921, -0.4943933171682336, 0.15610692288316655, -1.930943027512614, -0.7113330865554804, 0.8180308157625198, -1.083369253079311, -0.8763202449223925, -0.707761565025407, -1.1398841359033134, -0.41575156307298333, 0.048888235797916575, -0.19568267460791874, 1.56817053958648, 0.9039176801459773, 0.2179055344015558, -0.8795076801295739, -2.11098750683139, -0.5064460584548841, -1.2438545038435862, -0.6069061881066049, -0.5056205513396276, 0.46323778032574614, 0.39020012818210553, 0.6796958285641449, -0.8122488340484294, -0.23534209485989402, -1.150992249303607, -1.373729725127179, -2.524005183946866, -0.8521834035422973, -0.15290754516687602, 1.0674027564256294, 0.7293686830608049, 0.5745593559698713, -0.3452140315699594, 0.06274932049630197, 2.016002602686265, 0.15558885025836847, 1.2387836136587518, -0.0325631280536846, -0.7964602768363338, 0.7477332794552948, -1.6796942872910505, 0.6543087535135661, -0.11395889466941865, -0.4039440923956377, 1.0164548321569673, 0.858253415119143, 0.8312275815176231, 0.8068050678009454, -0.19212657179136697, -1.201919210049023, 0.3158618313898055, -1.4771423898460738, -0.7933915310956231, -2.9978350316838025, -1.4425958459966868, -0.5492657014248935, 1.492437291185432, 0.04535086746814859, 0.9203493803020459, 0.5689055089845717, 0.28610578866678865, -0.7613033217535861, 0.5026103714433625, -0.4759862240641638, -0.6942098859470223, 0.6782740416449277, -2.146968592211002, -1.6073149839763, -0.2637717193429811, -1.1145216290561097, -1.3721584437143968, -0.8580607066527377, -1.1644112112058558, 0.12635318194591796, -0.7761109716943608, -0.9730950572432785, 1.426580848877177, 1.5307245251706942, -1.3064157887702068, 0.13043069499264318, -1.1931333084392408, -0.7979447708138219, -0.2713094762795026, 0.6334748744821435, 0.7055031245910796, -0.5863975337633092, -0.3685371313157715, 0.09708742986180621, -0.006315977302390355, 0.24016683332507965, -0.18138934595025383, 0.12835457922347712, -1.681653636443812, 0.3426692542712044, -2.444249710850992, -0.27518486063595515, -0.2547859909669538, -2.4740132765874523, -1.3948743025934216, -1.5120602309070217, -0.8842406972732071, -1.2570069472106562, -1.1670356112642886, 0.5840005413485085, -0.46645215531071565, -1.246525771803527, 0.15980254110534808, 0.5608798087940969, -1.1394744847751042, -1.6336863917928441, -0.19127423541026167, -1.2899873735105467, 0.9058713623980776, -0.5224786546263279, 0.7640023286642811, -0.6320858655377746, 1.948694578209712, 1.242036394247929, -0.5760665082145783, -0.6891331274377885, 0.182406014931516, 0.21836302387976697, -1.3315024227889418, -0.8515176113863682, -1.871872283814824, 0.09254157804582752, -0.8623655825751052, -0.47673301732983475, -0.38507568956688776, -1.285155779979497, -0.762149930988514, 0.5058102622745672, -0.7410248540055273, 0.12266083029546909, 1.554687133282722, 1.5340517885377951, 0.5921167385661658, -0.24662847196133184, 1.3453219085495243, -0.4995663361292569, -0.11015939152742432, -0.14165325269875342, -3.1190289659535964, -0.9317504594970663, -1.574898335276524, -0.8405045065534791, -0.2016808141915252, -0.5831560448515503, -1.3936271412385852, 0.8925395729505053, -0.5876520757818005, -0.5184637586345331, 0.637756717004124, 0.8573072716878848, 0.3833967938785207, -0.38026383961340465, -0.09646312673781456, -1.3217675677437308, -0.2588465920686898, -0.42415615652325994, 1.3907790551616048, 0.12996175604851387, 0.3964679865047795, -0.16345123189568603, 0.4695263073579105, -0.5685450025870086, 0.5690238445757673, -0.395722257123349, -0.8623830166249579, -0.729941707573783, -0.7174838715289455, -0.6796470192102256, -2.1870214227378084, -1.3469421142146527, 0.7937447048160842, -1.4575039196861828, -1.192992504501368, -1.5001879833985428, 1.7871967815951064, 0.4590810961542011, -1.3850798408356633, 1.7093317272436042, 0.273914741126864, 1.4095120608263672, 0.6259114484781574, 1.637580322477483, 1.4406953541832792, -0.20682164939050102, -0.8845768871568659, -0.5983844832045111, 1.4728345806697465, -2.081546940777307, -1.2314608922076915, -0.8672252048125483, -1.3021992247559409, 0.6640031409443498, -1.2632872328182474, -0.34959125941786695, -1.5889211006982027, -0.23971515408281804, 0.526575851556938, 1.7221775395588432, -0.4956967816182586, 0.5830778656743737, 1.4302132650153851, 0.024709995212286884, -0.4174055071319161, -1.1881492405336975, 0.24273426475227766, -0.5525904053108461, 0.06704725575104295, -2.8277230254789716, 0.06674900713472606, -0.5407526236370176, -1.1736594766905675, -1.0371765874579906, -1.9917172304581507, -1.4240367567313048, -3.3179990379786175, 0.7780900392407208, -1.1936260376201486, 0.004925427514701194, 1.658582461390383, -0.650989483308199, -2.229812195482088, -0.3916217229996893, 1.573090024491369, 0.7132971514894899, 0.9030641133141575, 0.14084957497999187, -0.09783412050711472, 1.3392129822676528, 0.1675010312276581, 0.021747279051842604, -0.5399296830967273, -1.664482256753882, -0.3627078952037545, -1.2343337742403386, -1.5354449899490579, -0.7152608911172594, -2.679867984960042, -0.6175528850961924, -1.9376677450001107, -0.045569532463706805, -1.5677110305094517, -1.8803354479511014, -1.0072637259065667, -3.0753606169448378, -0.22452446401539577, 0.8822447465563696, -0.5684281859575012, 0.10367608199318987, 0.6147152742463242, 1.2099430294726288, -1.265382448936374, -2.1798077291532443, -1.5850779726702289, -2.0363067911420547, 0.12894508841873678, 1.2509960312683386, 0.25902570375927797, -0.388696328521681, -2.208044536610289, -0.914397396266414, -0.5688096816703672, -0.9305662327358063, 1.0117111561360623, 0.1802571989028402, -1.1241945402548565, 0.7877832761507985, -0.5163412782392279, 0.3537436113371286, 0.7605301313173041, -1.6873365040728316, -1.1909818889885617, -0.8008277647613365, -0.8544943417396906, 0.005354608408177672, -0.2425809029178973, -3.0410887430550813, -1.011187144746357, 0.809051538088853, 1.9737743165278159, -0.469588500887925, },
        { -1.5332132477577434, 2.0704703813956096, -1.9235783930906487, -0.42243925968202356, -0.7128824915698786, -0.6769165690534434, 0.35922736116400084, 0.8868884128310686, -0.06621935868974373, 0.6773149829095312, -0.44461465402477407, 1.3304817984552013, 1.1482700048135583, 1.5305965721986068, 0.7002432196978209, 1.4965078504163476, 0.6628179403260794, -1.4251544499383655, 0.7219433892683988, -1.1438962193704592, -0.5326003510242387, 1.0924496490973463, -0.04865300653238724, 0.3004489303827719, 0.2724435650149705, 0.017096706506800657, 0.19671534559987885, 0.27987756120266305, 0.05750649543310495, -0.2928359271905159, -1.0497184675254947, -1.1089127045151417, 0.9059020735738665, -0.5065684341214904, 0.3555790498372081, 0.5338690436496996, -1.5208595348851097, 0.26796210923845304, 1.4339330583991523, 1.1517111472298258, 0.5611349142023669, 1.1761388124798633, -2.6060474770559416, -2.4600540596217715, 1.0041826892034678, 1.3717522205047203, -0.291226796602956, -0.061834684339093754, 0.6424759134086891, 0.12486610423707686, 0.43164940065052315, -0.5969470913689996, 0.461801932099862, 0.7848347242765394, -0.6414528738205629, 1.5106660061847366, -0.08813763782315187, -0.575480304173859, -1.2029595738156087, 0.07553939807524347, 0.3336262593444561, 1.5614506818233782, 0.7417982580279957, -0.061237141277384735, 0.6121032618279076, -1.6817303233342096, -0.13170224000889627, 1.2442010170379336, -0.2923962858194348, 2.0829318063939004, 1.300957229286775, -0.7391344999574543, -0.6435179928835625, 1.0280885671822595, 2.3059690021373616, 1.9293144393766783, 1.4196247514381795, -0.5494166257262328, -1.1980785103881382, 0.1583847196151075, -0.7658621894419867, 0.39546898095927857, -1.018720309974522, -0.3117242519092938, 0.4128259772745604, -0.08296860844398493, 0.7935841283659189, -0.42402469265987935, 0.3711139328197688, -0.4756264598142209, -0.7554280695414142, -1.8476605989730759, 0.620383008113712, -0.39301094760289695, 0.8658680566778113, -0.17284422162376795, 0.28171608821930133, -0.0902034381261545, 0.1431176084528215, -1.3522223461071383, 0.2702611418673307, -1.1154718605269314, 1.1303028384092206, 0.6670208189288886, 0.09464411652205278, 0.4942386400386289, 0.5065559543643042, -0.6637280511081495, 0.5478190422963937, -1.662097811347249, -0.10152650346873389, -0.7795120863976106, -1.9785159474480898, -0.6603912545533293, 0.3186940090671829, -1.8868222902517866, -0.43544565017294856, 0.21517302518034964, -0.013692501079929626, 0.9904206065543509, 1.7240066434318255, -0.01744873982495562, -1.2051075697983262, -1.0576690963471354, -1.4072461287814058, 0.5377675075305355, -0.05016640934941922, -0.7198669272462505, -2.543140752726271, -1.3556580115761747, -0.49708162615694373, -0.3598756913923025, -0.08236074945387357, 0.9204604050998654, -1.5270735112107268, 0.03444652292238546, 2.0009199373945776, -0.4929048839188174, -0.2863021795932048, -0.9865446042248195, 0.23729834475257353, -0.52555187163639, 0.0042281320333502894, 0.3497688633091683, -0.009437468434264436, -0.7919214003257177, -0.8244627302050375, -0.3878176555989565, -0.17045251787691199, 2.2574431136245936, 0.8634562269488147, -1.1178616957029375, 0.499101575186298, -0.2929979081719193, 0.8490755911253827, -0.8162117233473553, 0.46407880953257363, 0.3465362296855987, 1.5078804880809034, -0.04349599894941396, -0.9226191942760842, -1.608200104403721, -0.9431642887925389, -1.935710308778202, -0.6033002442094331, -0.10822347170163218, -0.6202886148105992, -0.4939891830837883, -0.7816248632822945, -1.9763662768317745, 0.979931513630542, 0.4141848512027771, 2.040382787477245, -1.2693439347767002, -0.48443172394585093, -0.00017796740466610608, 0.7948042026916758, 1.2142712851719932, -0.6675702625280335, 0.27552010754392176, 0.09907167273101211, -0.5358990161179886, 1.0161327530616395, -0.8657981711629321, 1.1852884810213726, -1.6719752144328908, -0.6612396093355412, -0.4114447019836012, -1.3628605090668746, -0.22583515903141244, -1.450741918154289, 0.04625929402647457, -2.3459611329781147, 0.002087437571272515, -2.0584977456901643, -1.3320769822997545, 0.7450830233478213, -1.2105641492367507, -0.02571406355408187, -1.0609712995520437, -0.3031164595991716, 0.6899499388481545, 0.6829618031219662, 0.12142468431313265, -2.0231341309937676, -2.228268040685784, -0.7704240575065134, -1.2881278138894743, -1.287649141731498, -0.9112555360771819, -0.6149468942388336, -0.9397781187055659, -2.3047016894600363, -2.606066559052994, -0.3029360711238589, -1.3693435526936355, -2.117744059960443, -2.15240077536776, -1.5092127139866653, -2.7098759630901097, -0.863292922422792, -0.8041587237895669, 0.5094214089548812, -2.2928846791277877, 0.4604154816492968, 0.4193649289755795, 0.25903811896236306, 2.13845726237943, -1.1073425622436368, -2.0379586322057124, -2.0348998751577283, -2.403810885477396, -1.1853820761126388, -0.4829771148232263, -1.4985094197591822, -1.8339040884189037, 0.7407334384067408, -3.1289200957430245, -1.5735617384148652, -1.9552516804231916, -0.6388413163401157, -1.61117313232244, -1.4939131059897361, -2.2849091836516715, -0.6568818974232634, -0.8751528707002609, -0.23619116437258167, 0.6522867500667628, 0.1726204263180521, -0.24118169317507204, -0.6543920178264027, 0.023550681900534016, -1.4551791160785363, 0.6415677977907808, -1.0055972796114534, 0.8618154357241911, -0.8419937116113371, 1.4852783457247436, -0.02817710847488623, 0.0394219158673015, -0.7341324526045031, -1.2888715837372555, 0.05528637946784717, -0.5501997654587187, -1.1123403025919758, 0.33565137354038227, -1.5280693832719416, 0.06557784585489021, -0.7577218761262123, -0.8046734462753636, -0.6235916625708375, -0.54735111663152, -0.11713455530491236, 0.3226481348480786, 1.0122767747642285, 0.6328913187162692, 0.9659992821718127, 0.6288965809325447, 1.7339912219184181, 0.024235243069539083, 0.24398099984891683, 0.5893066336095848, 0.7556639897776674, -0.4248386376019681, -0.5506135211035743, -0.34812581453542163, 0.03484931171408083, -0.19170803856150473, -3.02052359531979, -0.7361598554070532, -2.3336783802742467, 0.5927313247769781, 0.8820910356439953, 1.5327837600565013, 1.9724714181159935, 0.21450676630385743, 1.8402562943629663, 4.1745197527876305, 0.036318339862547414, 2.0919829629215223, 1.4757416885623238, 1.3451906900723838, 1.188595906527476, 1.9907386927909083, -0.023167757212490127, 0.6613314911882521, 0.3580664758049964, -0.20518428040472073, -0.7358433683012208, -0.3360335215235456, -0.9859873256071208, 2.2810164749909534, -0.3292795000857932, 1.9881370758252213, -0.7183233443053312, -0.6331030388244873, 1.8417584991618552, 1.555308691143841, 1.2712151769308357, -0.6264886641236741, 2.339967104909628, 0.49141034563126834, 2.2174181219630134, 3.037326662112399, 0.7450519295676962, 1.4337666658572226, 0.40075840501673476, 1.9414362199179673, 0.7068310625640061, -1.724741869248649, 0.7442564186527879, 0.5567669701704315, 1.3865800170321159, 1.3056008908805505, -0.2198298099503347, -0.37048465893164867, -0.30625818459350257, 1.510870352513965, 1.084003476156011, -0.5520711788696699, -0.10441159082700385, 0.016022534889351975, 0.8695157757920984, 0.5445082930692576, -0.20781452095072236, -0.44200360133093464, 2.143090311870785, -0.6778131020136141, 0.12483391709652926, 2.128748704072812, 1.2153570958696798, -0.3148023574200937, 2.054726268810977, 1.9096064702704212, 1.5115436257939723, 0.5604195774518389, 1.2985519173435633, 0.8547317600375665, -0.6042941764621379, 0.7374829874049855, 0.135210736353884, -1.24831846851206, -1.9899472806902148, 0.3262802599662162, 0.029401188960247987, 0.7619554444968293, 0.1026457047454077, 1.0642094033973928, 1.2849103293873199, -0.7543513973332142, 0.4933101643564656, 0.5618577402680018, -0.9421083549688951, -1.097157952222776, -0.3874186879808662, -1.8522131230291177, -0.8380055158606845, -1.3918101076341454, -0.17580663406678265, -0.10227205793273413, 1.4166998657037435, 0.40125079429346816, 0.3885247725922311, 0.5967139265182518, 0.532465736017002, 1.0797830597509812, 0.9455531245850042, 2.198888877078588, 0.3564151739936094, -0.5878051934370635, -1.0294154690797022, 1.001493642170327, 0.11479297686448943, -1.5072897437513344, 1.3953577488880187, 1.5651115642986253, -1.1813964335977074, -0.3610828758005269, -0.15805812600237112, -1.839047041407554, -0.8287751540031209, -0.8921169508834387, -0.7805314946995973, -2.7277740187197774, 0.46908326997795696, 0.5850169745163719, 0.24592606478191778, -0.5958600466979531, -0.9481703748484925, 0.025967853769035546, 0.11323836559416257, -0.056876097900041264, -0.4989426395604497, 1.2781379160047774, 1.2069718609075206, -0.12544996375377324, 0.37637707982955537, 0.20494912249444106, -0.1435688402068489, 0.911075368564053, 1.956336715482195, -1.1382115900310676, -1.1678116315454736, -0.9218229121945484, 0.4179940875752727, 0.03854209163580102, -0.8334251417953047, -0.701993050557942, -3.144977355919219, -0.20253046014735632, -0.8324573986503161, -0.5288730020374347, -0.2759195912268781, -1.9975911869729808, -0.7487903963630921, -0.03926731004557774, -1.8414403499902228, 0.257074678655011, 0.31817283435531896, -0.20220786167201368, -0.15184574326136138, 0.37172693992283395, 2.033149436599346, -0.7406917519593891, -0.1767035134519766, -1.559204497759573, -1.3825670321350028, 1.2152897619310363, -1.8544961780003968, 1.317841298226993, 1.076041610947664, 0.6811382835559, 2.5679333481093245, -0.708323710363894, -1.0514820382709877, -1.9274437783295064, 0.2661148238028572, -1.2128092969089463, -2.756606522379399, -1.956812196436329, -0.6828655713024504, -2.1613314513358226, 0.9582675247617926, -0.17207540076198813, -1.0398652225495957, 0.2491117806045952, 1.4309735425347925, 0.9959290167361459, 1.3613062282445023, 1.182124476073705, 1.147164956400448, -0.7599121191189915, -0.4183962114611783, -0.9538274504815165, -0.20283321900691847, -0.302226705424091, -0.7169744091649528, -1.3767757448220013, 0.48367639139800306, 0.24995046291691206, 0.6826056420823016, 1.8870861557576692, 0.1251825127719738, 1.2265150170096875, -1.5830875776603055, 0.45888056088392914, 0.6039223958137341, -0.1511470518693073, -1.9080555003920698, -0.11077201508503753, -2.4315073325534056, -0.09987465023516029, -2.3288136696609407, 0.3168716333435976, 0.8872195790606692, -0.6276981747105209, -1.5015343163196868, 0.5345068514894994, 1.4869463396500338, 1.5875837914214472, 0.03288456709485267, -0.756270842425269, 2.5898986127459716, -1.8685225187719363, 0.6263276439238554, -1.0939921800454098, 0.7887219765290814, 1.5708550977425688, -1.015249939158717, -1.2908562437846964, -0.8347524507507964, 0.8937683789056998, 0.21164100654749746, 1.5962610819045138, 0.8338386511718643, 0.12042396803570264, 0.006652895401349724, 1.283568168605921, -0.5914446591048964, -0.528483762913573, -1.649445122916513, 0.09909478082545009, 0.7487867463458819, -1.8104595305157034, -1.4426701022258563, 0.11551390349883287, -2.378435536307586, -2.4105326131615903, 0.7552355779711017, -0.39748071421317493, -1.2018742245441767, 0.4752349457610891, 1.5774231297084158, 0.42701669143252413, -1.38133570627255, -0.5480634240913654, 1.4889914628571008, 1.092612385441092, -0.14300840687093347, 0.14949039420295998, 0.7822906092637076, 1.450543678817471, 2.823792642269565, 3.3015836340511786, 0.9979988751819313, -0.00715972698963429, -0.5924325818440435, 0.7893497424199575, -0.026574979544728563, 0.6250742192105656, -0.7250839450708791, 0.6979156950052283, 0.5523142785405539, -0.396523300189885, -2.5898884734510546, 0.8537403432696672, -1.627240341902896, 0.9672935721306887, 0.08758955132268295, -0.6338121088936564, 0.7185649349697107, 0.06881697262801013, 1.941789163094462, 0.6190623458981468, 1.351559879566921, -0.22157140048184154, 1.684490564956668, 0.5640097682316729, 3.7520975820295033, 1.5517242452159357, -0.9070717435622004, 0.9759605151056887, 0.17786734723071942, 0.6094582638848026, 2.6179124511496887, 0.8153916466267684, -0.718601895760762, -0.4195179215714781, -0.021725354533179066, -1.0683860508684784, -0.32252318670874497, -1.534485088408628, -0.7269818157150123, -0.8298245406895824, -0.3455241420024615, 0.8201423081989515, -1.8534832041488019, -0.26258388970755187, 0.5103801211529655, 0.5979307590558364, 0.7674225383773723, 0.8968363849317532, 0.20472086982874918, -1.0056551996859855, 0.32635993804084806, -1.2801376917709488, -0.8987422600535182, 0.015641520856938613, 0.26441275095200056, -0.08692663548604787, -1.2156402284448569, 0.9544626238448244, -0.843041213560796, -0.6116847908954578, 0.6846658988064184, -0.37203062971331713, 2.374725688400236, 0.43256614761689566, -0.918117130946123, -1.961957224585191, -1.734146566054375, -0.47646423061375365, 0.322450840582377, -0.4175468739372296, -0.5083859538174497, 1.7656450703260296, 0.4984232348626329, -2.677604209656259, -2.4075603031045243, 0.966866472748256, 0.8939879613257781, -0.38140968429309935, -0.4002924137201056, -1.441065103225513, 0.4843716461145907, -1.3056455140672503, 0.8562942397448373, -1.2790395354823092, -0.08969759952353205, -0.6279013692890045, 1.0257477107870419, -0.6177654680391161, -0.33180680041604027, -1.0278618699810094, 0.3609545543958471, -1.361244906186724, -0.11110843511171523, -0.38026044373599033, -0.16181543603136866, -0.7729831668268421, -0.20737248960022878, -0.6458998570429405, -1.004910094391443, -0.11095589605814869, 1.2818858696514341, -0.19302859350252782, 1.1855891962750675, -1.6943900462494381, 0.24151605241323973, -1.7560526830140415, -1.1459462125990243, -0.10993989536917301, -1.0344207715795948, -1.1624814312648555, -1.9427998367369042, -1.6637250855752166, -2.6409686412338647, -1.3828583172065219, -0.41547402024208885, -0.36443739827027466, -1.85967019264328, 1.152446637049702, -2.155271695896326, -1.8181200085871296, -1.2839281214188112, 1.0182362106298695, -0.9937950242861295, 1.017317966487551, -0.928813856398241, 1.3021152732461476, -1.0188644986839535, 2.3255633031496528, -0.35855535781915104, -1.0877011887832693, 0.6196487867978405, -0.008833622810344213, -0.14902368662672988, 0.006738452243488951, 0.07947833739217001, -0.8282807476952104, 0.9398074305055772, -0.9916965970290313, -3.3355049896761684, -1.046040773103363, -1.3375966143598121, -1.209047642069179, -3.1195731562315205, 0.09720943702233274, -0.8788343932774335, -0.7356604595007418, 0.42869658666082067, -1.7016672435098212, 0.2534379413085873, -0.9028863589467435, -0.6392016939553625, 0.15643672675533213, -0.7804559048753245, -2.0128758011018624, -0.10648688835605592, -0.9197290584312952, 0.7381003286159662, -1.2620766546944548, 0.958261239827823, 1.6511723339618878, 0.7888162619952495, -0.30879987353418115, 0.5030296502038244, -0.7905861343307361, -0.6217303208280563, -1.6032617884595035, -0.5300164436610579, -0.17152997294539626, -0.17457903036269296, 0.12522299733036002, 1.3811470370776626, -0.7402427179356533, 2.3549620985524413, -0.16438148900060498, 0.3063466712494106, 0.6218132612225173, -1.069366468288963, 1.648411282952761, -0.8971426073185824, 1.2874833720460301, -1.4096792357589618, 2.3860479821073395, -1.063828864311636, -0.5851007523398692, -0.5481378053062873, -0.19197312715149573, 0.2878720358054611, 0.0729120647048982, 1.0107360961618028, -0.036846747023228404, 0.09560953945528794, 0.4366790803822645, 0.6942089872979135, -1.0525820801821921, -0.02058858514744561, -0.8188095644384914, 0.4302497588739352, -1.302809617324469, -0.8708412035287874, 2.351192286141443, 0.29117001052859853, 0.6851655714583601, 0.36409048660318927, 0.09696494918734089, -2.519894274571017, 1.4432493588774002, -0.38784008816776977, 0.12481021167208921, 0.3729871793131613, -0.324233970736929, 0.5435557680317094, 0.535805998729589, 1.4126407328411223, -2.543786307483305, -0.31480671362501694, -1.0864703451633102, -0.3051591092124339, 0.12538939017559747, 0.20010556448660158, -0.3900780576886761, 1.0342281532858024, -0.4522968044249469, 1.2243295955047355, 0.15023806572395856, 0.554202495288143, -0.028877052051410758, 0.1026165033324067, -0.30281462717676877, -1.321266214954391, 0.24734701180470725, -0.29851394456699865, -2.0324268149988933, -0.4017463382787432, 0.12827577943405982, 1.0277299119757686, 0.016824703233351584, 0.6137791534390249, -1.1737413255050477, 1.152213863437755, 1.0450402639375234, },
        { 0.09331151230172458, -0.10017012799928499, -0.8104767515260253, 0.7632009589760163, -0.12899288009300114, 0.033204001982149935, -1.783132313603016, -0.10645184516736994, -1.9372920774798126, 0.6295106536706897, 1.086464127099388, 0.47086569565873665, -0.5083786796055969, 0.43590831137123887, -0.05125144967062479, -0.22895344807986964, -0.5166772341582333, 0.4163359317949799, 0.3427905056360307, 1.6108087957943582, 1.2890973208840726, 0.3282980727742591, 0.3748698385258723, 0.7822596256420029, 0.15834133024155456, 0.4678651065882007, -0.28505414278928454, -1.5182510231251949, 1.6265984627315315, -1.1332313448392726, -0.41614809704932243, 1.2957938918206235, -2.56029231482241, 0.6133402192248172, 0.4897794232717361, 0.8791506724053576, -1.8834234397771406, 0.3130573979266405, 0.7673309492704455, -0.9584435319416652, -1.5167532416573075, -2.1664150741555543, -0.8760385456874735, -0.8445332300483799, 0.5997332081628829, 0.583501017513428, -0.6789078161158512, -0.9160136026722401, -0.359168069821421, 0.5608646249535674, -0.33304153275524856, -1.9215912131168378, 0.4612356263478849, -1.0503187947912274, -0.6259677871066228, 0.7732574133463949, 0.34014611926117244, 2.198006950106769, 1.8506181172407845, 0.49027722791293066, -0.09899576032875755, 0.47894788494909757, -1.3838044599046533, -1.1277370309953592, -0.37767914214654313, 0.6003893242220172, -1.0052323015819555, -1.3540787114706352, -0.8426913799627692, 1.9404122411760916, -1.4494440109978717, -0.35418242605331085, -0.5318494998799944, -0.03186544925590361, -1.58041809426565, 0.49787224736684904, -0.2647589371746219, -0.9098851135193484, -0.6104988607468641, 1.53346395424175, -0.6509884332557176, 2.558611265959386, 0.21206312009429865, -0.5730526440483575, 0.3827678617579589, 0.538048806154031, -0.6203046538053363, 0.2110389547694439, 0.3753230935061124, -0.7257088754860818, -0.9051227902871782, -0.2836302062172493, 1.0005213384933254, -1.2910799989267978, 0.3146568565113973, -2.247435920229271, -1.7008822933595193, -0.35131337007039803, 0.8139985652485642, -0.6757728937905696, -1.8973846755616393, -0.381423741256391, 2.040011801635352, -1.2759852348862082, -0.0324506708510719, -0.21468334848884255, 0.5846338754050554, 0.7379187580506069, 0.15487258317066438, 0.6431256219735921, -0.5990458735669948, -0.8478658738498797, -0.31336388686289196, 0.4846013947261474, 0.3398076250032737, -0.5439941135454414, 0.27083985945981137, 0.22962959987948697, -0.7021472785554663, -2.08943885426526, -0.15712204455101428, -1.158960115531198, -2.2982359022643712, 0.6845275802118093, -2.528112442848566, -0.9213758664709838, -1.8354589245958788, -0.29405791286704164, 0.8133549181991646, -0.8090239505602356, -0.07525495626589047, -0.8821193620592835, 1.0346799347443052, 0.20102548480961785, 1.957802544658654, 0.5710314703752564, -0.9133479272728352, 0.9554408197204507, 0.5045667520255367, 0.5071314433239456, -0.49927873548571655, -0.22508087411045127, 0.5024219014064749, 1.058578101644881, 0.2963893567966229, 0.1963695873549071, -1.562671664193789, -0.5835109653318235, -1.340242417378055, 0.75210910731115, 1.9188836846473167, 0.8674604180598933, 1.0281611722395352, 0.03180883063946157, 0.4923922770727719, -1.0359793604911018, 1.5578813443151085, -0.08731591339714602, 1.2346147315004485, -0.010796917183406776, -0.6856582593589075, -0.5084968766258656, 0.07675292480454611, 3.146210672528455, 1.6209789904850935, -0.01850266142872091, 0.11074329403436697, -0.9074530070040605, 0.8773739890300548, -0.13234527770615534, -0.5183036624307108, -1.8385991317389858, 0.24696469469673327, 0.7672046136571031, -1.1050522565643404, 2.1091044540644543, 0.9664099645532971, -1.0524960145384417, 1.2443958110752458, -0.3230457300426255, 0.30521677937344865, -1.5221260899011249, -0.6761610026752811, -1.0946438966007852, -0.5185158917750259, -1.5920972077514453, -1.1180429399244016, -0.6779226762157196, 0.83623800745961, -0.06626162585412468, 0.03669324365973035, 2.614522123702151, 0.9576179761732574, 0.5901762356089083, 0.9017421413672241, 1.6885153442689436, -0.05638438530781307, 1.550907915764562, 0.7578770558991463, -0.5517284113215808, 0.8058865290189291, -0.09300576501056065, 0.3212366388565708, 0.1428696106154987, -0.22520421488562933, 1.2376997597908004, 0.8636109052620837, -0.8706109741628887, -0.3252329780623545, 0.31477255793185377, 0.48558296276306434, -1.04838263180821, 0.2636082559275579, 0.5877961287468294, -0.6708400327571049, -1.8593157150824868, -0.13098965708815288, 0.14941266935043693, 1.5636100535158788, 1.6968907381342533, 0.9889756482560218, 2.677710970344678, 3.6829149076718455, -0.07750382094228456, 1.100006594205429, -0.11175449361614315, 1.0646708619935006, 1.236046502562533, 1.175109508413827, 0.7564024272509768, 0.27755234224902087, 1.9621398906948977, 0.1283360307099632, 1.3967071948627756, 0.9796634063486404, -1.1665565512166909, -0.6176104919949608, 0.6785162826587244, -0.22230326573703077, -1.0485246463623403, -0.7526960199631512, -0.2146493103317997, -0.08987180413415054, -0.507897479348301, -0.7263310605129812, 0.9291212650491001, -0.8102799426159025, -0.4285381328577825, 0.7514457069106761, 0.9830755180211481, -0.1392843244579365, 0.621475011308361, -0.9253328328483897, -1.3433734358382865, 1.3873220352556535, -0.685391146429371, 0.4816517028329643, -0.45304505174152854, 0.3073066519963032, 0.3840229327794136, 0.5779797062148265, 1.10328383981352, 0.4538348179915377, 1.297869032901861, 0.6315362140717841, 0.2504053835662251, 0.6101659408436232, -0.9774167410987914, -0.5692175194215118, -0.8114796537794914, 0.5335623570592415, 0.8469852365295256, 0.015166864730931626, 1.8589684846912031, 1.1039985749697896, 1.8389555831466502, 1.5853328415269876, -0.27426667804348503, -0.04770175027027753, -1.457078843338634, 0.8972009164708289, 0.5607067700241009, -1.1521036522966555, 0.007648038563935945, 0.20475037786539552, 1.4026023582502076, 2.494508725614345, 0.7846387303441965, 0.8649779509547876, 1.5138977674105147, 1.3544824852607436, -0.09007086219371341, 0.7041192519451329, 1.4241515934728184, 1.170680773764947, 0.6489065470966789, -1.0322851599678156, 1.1296584086373245, -0.481622518227283, 0.22518688609641657, 0.45908135150524515, 0.25511568682913666, -0.7221805585060098, 0.2815017999936276, 0.3078156453703718, 0.9444452567456361, 1.1510460613167508, -0.9948632567043385, -0.8765512740910709, -0.891704985048127, -0.9075297619848347, 1.4593751719928962, 2.30318089185578, -0.1498304142899523, 1.087969576577914, -0.015877284687365344, -1.6530691429854703, 2.099396473651219, 0.16468721666415811, 2.642506755809818, 2.5231730437178217, 1.6200944182391834, 0.3578666407132833, 0.4698149829046074, 0.13521683264069143, 2.2753662223526185, -2.063228559410355, 1.004636429456147, -0.4561887920518549, -1.6586896556342259, 0.8006019639101687, -1.9637569088733942, -0.8336455264005881, -0.6690836344462917, -0.9528621708088333, -0.3411646213644919, 0.949982944005869, 1.1927900929944837, 0.013001523280527482, 0.09309220594836637, -0.4913318074118542, -0.5682099931848623, 0.7052104023522265, 1.0544727481386633, 0.994154500170081, 0.7789818611060786, -0.8122328083457112, -0.9140643108351938, -0.5729231498679791, -1.0168891148608632, -0.65807569904115, -0.1695275496563618, -0.04100116536476497, 0.30001446206720184, 0.562202622820185, -0.49316646574490225, -0.8487807986508042, 0.4627279320557609, -2.001007633819153, -3.0323056606608056, -0.2050391914263882, 0.6546582137274902, -0.6279553421144436, 0.6362154632706148, -0.5623521614914909, 1.7072391061868093, 0.305690399277018, -1.4823723212610382, 0.7245506442325401, -0.43792103821212613, -0.7610931669911284, -0.28817198989053006, -1.6031489883021668, 0.5966993481236463, -0.8287393872566217, -1.245626192935767, -3.2709403393953087, -2.2525919625293964, -1.7615024817538216, -1.774550056741888, -1.0833389591683666, 0.9437458584148061, -1.7546824734087922, -0.8168452143437376, -0.16723927078395248, -0.7046741250896075, 0.7151840533547569, -0.19594609162727583, -0.34372104945327153, 0.7539292756845167, -1.1814559856520521, -0.4267683331439277, -1.0429791853003205, 0.2752758157435997, -1.3392048171981528, 0.458823105640977, 0.8966815115709491, -0.8894483948961254, -2.2590260070937003, -2.680506847714672, -1.2008279809782103, -1.0509643772489878, -2.207547838901172, -1.3374779766335831, -0.9021727948033829, -0.5495033319819451, 1.3831670690153548, -1.8532761315805106, 0.29711568033309704, 0.9433646812986576, 1.2415413925177414, -1.9993928380373827, 0.2101919863445398, 0.425402980714752, -0.6756085353615973, -1.2207637507752098, 1.6685246932500333, 0.8932998900563798, 1.4472720072004825, -1.1757587782875079, 1.1100177185780338, 1.157774991550205, 0.7728828420037119, -0.7362577713919318, -0.6126963823943198, -1.5023537121184696, -2.966227719822859, -3.5984973647510627, -3.308569286236356, -2.3599875868361115, -4.501169214063594, -1.4838266249545544, -1.2223115353958642, 0.2447237615864258, -2.0135680845567725, -0.7139176051826714, -1.0444172658148307, 0.16999647911100227, -0.2536190286605719, -0.3450125228762469, 1.4428834328311173, -2.6989234699042295, -0.1348684558791057, 0.20733113227341113, 0.518202838091112, 2.838253600372075, 1.890205068701674, 0.3487182343915344, 0.6797833109055237, -1.5531457123892063, 0.22924362986046157, 0.764583710934204, -2.2910530154691315, -3.1132609647358658, -1.9300264497194828, -1.142176805092803, -1.4670111341705037, -0.9470715057143023, -0.6357375723700056, -1.1050164345234295, -0.33941749608014116, 0.7719659209247896, -1.243149707704215, -1.737282815957208, -0.5042714582302008, -1.1869161499088536, 0.3842449473556077, 0.504465836635655, -0.8461320725034459, 1.2028278653479743, -1.1174446424679698, 0.5953951961631675, 0.09615670050750189, 0.10638291915890553, 1.098593483746136, -0.7836823750904498, -0.924205310700544, -0.6183485102461833, 0.050719045866739906, -0.6360684900477622, -1.4771232026602619, -1.5959978765924596, -1.5304534716162763, -0.7447107451740358, 0.09431932956206883, 0.32263159741297043, -0.07867346694844336, 1.4969946320582923, 0.8957265616694035, -0.2354118060458744, -0.01760816286893029, 0.8211996629466783, 0.5694952004952815, 1.5401039580082299, 0.046880485129883, 0.6678182360148017, -1.5136992012505488, 1.3917617505155853, -1.5296108026269875, -0.15876161943795034, 1.0812119652488206, -0.17138318131566538, -0.11012528242481355, 0.8521887108448742, -1.6210810012731038, -1.149933130734053, 1.5830329796493638, -0.025754157361882045, -0.9182729247588651, -1.3366008539533458, 0.5930108925394388, -0.0024140194689624946, -1.5060977565148101, 0.4252324425277014, -0.610470800003128, 0.39811242346664594, 1.032254176564374, 0.36377550382483487, 1.9212173470705691, 0.21427402614052096, -0.6595918215207346, -0.1935386776101412, -0.725399056238137, -2.058331169036922, -0.21282769873474436, -2.273302755869111, -0.13727051138051433, 0.7612452351619512, 0.9521119775010134, 0.3884183051877331, 0.5774128685961567, -2.2152008386475126, -0.5261726109382964, -0.30714182072231067, 0.3023885148872665, 0.59231670079976, 0.3599083340775268, 0.3215806919261385, -1.02262518723545, 0.8708989854687184, 0.7713967736472976, 1.6409241818317013, 1.033778472002862, -0.559176360469747, 0.015001578126501389, 0.32459319743986004, 1.2143209280747684, 3.866471991419306, -1.4974862408524567, 0.7701947582920893, -0.44537579673562705, -0.044314734216803583, 0.6077081550186278, -0.4934443114139742, -1.020047269609954e-05, -0.2102681386119348, 1.015834669415842, 1.5583713434818212, 0.5421669392595855, 0.4670419315523734, 1.1730073779095975, 2.063411087348066, 0.6731203027677949, -0.2763798977007335, 1.530651739166761, 0.2425681678546099, 0.4764925118119725, 0.6216508282019327, 2.929255328711986, -0.5745063520197161, 1.2756414755513004, 1.0787355399066405, -0.09237474640430912, 0.8255145791054082, -0.6870110485738936, -0.35137932437433606, -0.6790873385990837, -0.33204372116923175, -0.8510089200197827, 0.1993404469447871, -1.9258517836707618, -0.3196757759293264, -0.023665453632111796, 0.8515057275441574, -0.18159367372837526, 0.4891790293543714, -1.9163769329921965, -0.5090529924133113, 0.5899458009081784, -0.1237965547304618, -0.9066002518219858, 0.7056922098896088, 0.6722273893089838, -0.0433509335676653, 0.86946069594288, -0.4314505514839138, 0.16249420160208541, 1.9722803444246342, -0.5615670516740463, 0.6789325858471126, 0.19763424029964125, -1.463985282284787, -0.10238372051862342, 0.6227472168050564, -0.08048781952580028, 0.6492973755278317, -0.9289373522094184, -0.41740916007894513, 0.5051191483936032, -0.5433005175195426, 0.0715842016379027, 0.8518719705809729, 0.11945190529720201, -2.071026336060259, -0.29502896445948945, -0.20792665295699334, -0.8465237923066988, -1.0521395793513653, 0.7355418390553303, -0.7061278291626967, 0.2860855726515293, -1.6036895054416764, -0.5397490879350598, -1.4097616974432714, -0.7602296440275651, 0.8149437920103388, -1.6100694992169053, -0.18375684558270117, 0.5178573124656816, 0.17479859927248687, 0.49605613859847186, -0.029409004313640245, -0.3422598982549571, 0.2638490388195303, 0.7734447099570202, 0.7472634916636439, -0.07425656026736635, -0.066054714621627, -0.7937855719229547, 0.9716393909368215, 1.3447599260338743, 0.09530533061755984, -1.7525482036013078, 1.8272882952636982, -0.876341321888413, 0.37539819775915173, 0.28020032966038294, 0.22366127327255966, -0.14856820728537068, -0.29843938343312854, 0.7082055291357137, -1.1752413803209991, 0.8504073342894244, 1.616925910061346, 1.0681355988363082, 0.6680105198320969, 0.40831129368933794, -0.0046370444050846775, 0.5449981901925276, -1.018267173283083, -1.8075404560233037, -1.8322272592701647, 0.6425274810345567, 0.45009272673922357, 0.6607420265680827, -0.40966530022180003, -1.8782151920368113, -0.9311561352442669, 1.5481244701046397, 0.7305451706891893, -0.5810428643310761, -1.6384729696777185, 0.20075402067683404, -1.1651325803206911, -0.03110733169552786, -0.9038776613728435, -0.5714399120900749, -0.9476916891222975, 1.9176546870490763, -0.21913342304085534, -0.7327455380953886, 1.3082450065738578, -0.3069615747176838, 0.9180036949949216, 0.9417146317686751, 0.37842947296652063, -0.20613819840942854, -1.021886060283923, -0.15334571888224507, -0.8923984931116354, -0.843755751898201, 0.7102417003218707, -0.6153166624112512, -0.43586683021681455, -0.7575670501031208, 1.331880718095462, 1.495204179987883, -0.9314509828576608, -0.23503375343602073, -1.0229339725714868, 0.3409137352865847, 1.2416195746803695, -0.07748935327479398, -0.18540236162369217, -0.28624970510318365, 1.6896087652392844, 0.15371081120601837, -1.6145807810465804, -0.7276734110247692, 0.15462205657378267, 1.1671094096550239, 0.6356954490212885, 0.9407451519219316, -0.7875386527497855, 0.4773870097695882, 1.6106064787689465, 0.6441360692024333, 1.1435232152088923, -0.10968890899217797, -2.1268945667749324, 0.5593957720711127, 0.6765508689111074, 1.4562451631918576, -0.7211469258005386, 0.08848753643404389, 0.898268915158748, 1.0480068660418238, 0.21364372970097883, 0.26637337104263425, 0.6233980394353832, -1.307505324956196, 1.1296089404553074, 0.9851087452329871, -1.4684785184171416, 0.17800553502276054, 0.3489466359587227, -0.5657635575364172, -0.014599282859614366, -1.376123734792456, 0.16026274706544955, 0.22034935773051376, 1.0569294378254408, -0.2777589915445416, 1.2222217343773245, 0.6265924608622775, -0.5020257712044018, -1.783204394020072, 1.251645537948767, 0.6939357322771861, 0.47580706405753187, 1.7727882339607188, -0.6244485031828904, -0.978167213319373, -0.8701876444810286, -0.8688945861906018, -0.6368130970304718, -0.32401949594674523, 0.7298277230393329, -0.8416394257974263, 0.21274190098936177, -0.6305643213809036, -0.1974467526447717, -1.504685681823886, 1.3505417875111807, -1.1496106278287146, -0.1358907908010393, 0.9223522116074493, -0.13502284896319022, -0.8820188729761123, 0.19142762432766927, 0.4251364110266572, -0.8353794564082612, -0.3611544143893039, -0.10211049612344, 0.987807623756229, 1.2268934029601022, -0.6406850246964576, -0.8943542179173488, -0.2607816175961947, 0.09039358222279568, -0.9581203629045184, 0.15742952883805025, -2.206719858396814, 0.7591850478001481, },
        { -0.9629316784327888, -0.07832069770668763, 0.25169775515763176, 0.9484675532645661, -1.0812293625902258, -0.5139180782935535, -1.5726949776880421, 0.5373240623820124, -0.6713352149791617, -1.0009439312527544, 1.4070338646992258, 2.055492626140599, 1.0525583015378257, -0.7204309987817359, -0.3261898692410774, -0.23896338620958973, -1.4972698067013261, -0.21725457846363144, -0.04121906667171056, -0.7996686391918543, -0.3663807000741951, -0.08709575153807436, -0.45523375404481253, 0.9447434190939316, 0.007169481649853061, -1.3033075576133692, -0.2192609422170623, 1.276145648925346, -0.6460531918200948, 0.6322886986600913, 0.9768329972239441, 0.5447876453851256, -0.2724054692550195, 0.3265976870690088, -0.19326714026634087, 0.30263307815394397, -0.10322731919003544, 0.9009069696453198, 1.3386822775218374, -0.16863260395584137, -0.08030845464989292, -0.2521359466294832, 2.3040326582666673, -0.2902481357505345, -0.19129548321656178, 0.14941026214482053, 1.4083544450529593, -0.9764735185709057, -1.0550765918441023, 0.4703451032857488, -0.6312758496395199, 2.3158090304402883, 1.199270475618962, -0.873388351992506, 0.08276485411463817, -1.3952206669281675, -0.04399826053390664, 0.6086871264497367, 0.17980444912891996, -0.7992545610961048, 0.37834067985303654, 0.6131871330885721, -1.5147058258847956, -0.10753660470353565, -0.22130454689374737, -0.553860891502468, 0.1755588162879046, 1.4856490341166708, 0.7423848286523371, -0.9204517670456244, -1.0330949065180586, -0.6592990624573435, -1.6186096623920596, 0.60896020051688, 1.087887512859166, -0.29375574604012555, -1.6726985568830461, 1.4233163507094053, -0.01754112421464634, 0.1997986468023667, 0.5604100313886422, -0.49672042638574543, -1.42159345048572, 0.2365504196316946, 1.3188852890454668, 0.30632472716926235, -1.5793585725590136, -0.21098281240277733, 0.6762840568793791, 1.6198157766338737, -1.6002471360920159, -0.7926881427631097, -1.8393207171669905, -0.9257274921400733, 1.0167753184700867, 0.684557187100808, 0.1104035615023961, -0.19656888192917313, -0.39928083183436264, -0.5651904075358233, -1.4785898026019095, -0.9901894183592853, 2.0817598449154824, -0.14308488061114108, -0.13963943045795488, 0.2385794082244793, 0.10289052011285062, 1.0638266517275512, 0.33516756342301374, -0.8553103230330079, -0.05762379853847388, -0.1095660136469033, -0.8974010902035984, 0.7393002980329536, -0.5330155312556542, -0.12882466369847384, -0.09985550374552868, 0.2837475163451394, -0.36734812157022634, -1.5569099738577836, 1.969334286639558, 0.7327641173518155, 0.03755850962003932, -1.1592890773150977, 0.8801029372014187, 0.3522275934472475, -0.705684120648624, -2.0455227602391544, -1.15158265285081, -2.4681844895331473, -0.9630692194887356, -0.9102035274816513, 0.1931791420006805, 2.153934730924695, -1.5547261662498946, 0.4360113574331629, 1.4556159269645927, -0.41395832622968265, 0.9970852221647477, -0.9703964398934822, -1.3213384576727754, -0.8978287164788125, 0.9006855144641106, 1.152593643397342, 0.9697752740505854, 1.791909572437447, 1.0229262119946056, -0.019871028653634826, -0.23213144949229708, 1.7890632908560355, -0.09117675006230941, 0.9110478786556016, -1.0765640376048733, 0.13891964473501026, -1.1222220001844516, -0.8313701419622042, -1.0825015731558834, -2.0086655288797255, -2.254030060024384, -1.4275065975666115, -0.6323685903667826, -1.0973623156682457, 0.20865607984300175, 0.1019262501545418, 0.0802317670243472, -1.0298147255308214, -0.8896931037711915, 0.019313374246172306, -0.6512637871482386, 0.12459275690499508, -1.5250278426277104, -1.3392468442051078, 1.199246778347368, -0.49213836156583096, 0.5024223580807482, 0.9749359205048415, -0.027297001723688916, -0.8661136553996964, 0.610091653078669, 0.016487692748828657, 0.09867211879243419, -0.5110283231704913, -0.26560274117681365, 0.0012559905918594371, -0.998960192148111, -1.8896317434149958, -2.251264527007115, -2.375655599464219, -1.6591211052740988, -0.6345808936309313, -0.6558835938623611, 0.43625596059425903, -0.2857679624225045, 0.2184464681563245, -0.1668737085801784, 0.6610866826063856, 0.36812637734182874, 0.4540312705644741, 0.24528111677785802, -0.3738152336610976, 0.1637715017343364, -0.1033583207983829, 0.2220691644497816, -0.4409815833553936, -1.29629933663188, 0.5882045843374636, -2.684718508651343, 0.4421694318167947, -1.240261882395808, 0.6619549342772826, -0.5087850137197808, -0.4839231453126505, -0.5707054354558644, -1.8935112096997662, -2.8076159768392106, -3.3467888610763064, -2.12665975761279, 0.26353369559625633, -0.32917798928543, -0.45871120486658545, -0.12096483469695749, 0.14367648469566469, -0.13560370881559072, 0.5408872108928376, -0.1334806973637749, -0.007080001378865987, 0.11070839530983066, -1.3387549525593656, -0.2475683614957916, 1.504539472669916, 2.2194762192039184, -0.10506841248710473, -0.06453475179422485, 0.7078198281008296, 1.0652489551991877, -0.040428980205514144, 0.7890985703633047, 2.461623310876871, 0.9617599896340635, 0.5232011299159726, -0.7473752815629413, -1.1432355539914962, -0.9963567276765407, -0.8541458672713096, 0.672440150726166, -0.5743754378069054, -1.3242949213110018, -0.6993457716191444, 0.9647516076895502, 0.6457843237148275, -2.234547127894933, 0.6075178973992504, -0.06569904623952849, -0.8392575708868089, 0.08050935301230046, 1.1592662037542942, 1.8420625839891123, 0.5825715203820994, 0.41926703171119906, -1.2902852029141325, -0.17995331671072015, -0.43998455012692006, 0.46009220205193185, 1.797412000889018, 1.9837140048013377, 2.45616200509596, 2.336951007646997, -0.18816320406954196, -1.1902884575045112, 0.2599526482366517, -1.6828686799766641, -1.9558272779805734, -0.8513293593743047, -2.580543731617744, 1.3134856408450162, -0.9050717252737674, 0.330682981908373, -2.093807052955407, 1.616633947729826, 0.3883414919024792, 0.26492793885170046, -1.1002101864608183, 0.5168288890301941, 0.811173567640755, -1.3174720040825274, -0.8471172265535177, -0.20004053733351596, -1.0187446184358542, 1.7639131408078987, -0.42910505211673083, -1.0488198462009173, -0.05894965350954833, -0.9362137323558838, 2.1772515365265424, 0.6262721307139996, -0.0776061799138563, -0.7429964235231103, 0.5854461522744744, 0.09432663212658136, -1.2051924217585677, -0.3884617668059501, -0.08505403079074314, -0.7924108281379273, 0.5315784718101165, -0.8873712283722471, -0.3312419528290559, -1.8119995769258024, 0.3505154872664168, -0.6877137359751437, -0.02618491903943615, -0.8524094264282229, -0.8402148817413798, 1.1122894811623216, 0.8408660292131603, 2.4249020091584956, -2.292070350473815, -0.7561774973818295, 1.255304978346351, 0.33859374712501644, 0.5050976921651165, 1.9811083232798845, -0.143628210093743, 2.2073517139761236, -0.17653410996311594, -0.7519094857142551, -0.10005767357711508, 0.01793673829937127, -1.5536084310937808, 0.09334433373671422, -0.453500130516793, -1.8764643240204675, -0.2531348611598502, -0.4041424471801135, -0.7483357143300857, -0.2685295133499746, -0.7833948429401072, 0.9750749586634605, -1.4149583589185737, 0.8935770587031763, 0.550000441798203, 1.6296184141382302, 0.8959138889111872, -0.793621388554553, -0.1109847667443423, -1.7497113824974226, 0.074934140183717, -0.5221277820454242, -1.1751016797661502, -0.11790347722668001, 1.3911416397641203, 2.5492850398827285, -0.297800123803314, 0.10810228666067564, 0.6895275839923772, -0.47042598857739354, 0.7061530671018875, 0.35853705103064937, -0.6467532254765422, -0.6699078013082206, 2.6484891467590383, -1.8841793620729927, -0.16956712585558936, -0.9541014273612621, 0.7169566623882135, -0.6460179077209601, 1.6553083908559953, -1.0802360106751352, -0.573777032746071, -0.18250024452739205, 1.0268959464236842, 0.7406368644089831, 0.2377567802324169, -0.540809396255778, -0.7973133330162899, -0.8144602431676069, -0.006199218541356603, 0.9714962078186755, 2.2987737616636172, -0.149534183927373, 0.574247140535411, -0.6443529598640813, -1.9413845697372452, -1.0224373142054766, 0.9124280956773658, -0.6306917094257148, -0.43769127627060733, 0.8966291368010583, -0.32621819351702885, 0.5441664299629628, -0.6287348346429207, 0.35506864683177314, 1.2833002065016776, 0.6589224062653203, -1.4023329583552238, 1.3088309825565814, -0.44091978869510223, 1.4169826848320781, 0.45034934822807876, -0.9904309662731562, -0.16211851300225658, -1.5491467722094203, -0.9045936265318564, 0.323032353613599, -1.8193150642242513, 0.799656997176444, 1.1246536163457406, 0.48796260951804044, -1.1478266154276588, 1.180260357615524, -0.35361020391504516, -1.8004672786573566, 1.7583056031681534, -0.6524817960062587, -0.7437870436193132, 1.333892778746075, 1.086195199004888, 0.3452668513701129, 0.6689259709538664, 1.1100348884689535, 0.410696092360029, 1.0214652396660238, -1.031048527412986, -2.982838904273227, -0.692355187920156, -1.3438813523576154, -0.7520427777445019, -1.5606944311613518, -0.2453405100538995, -0.21028532624176224, 2.660825374258687, 0.023157658432430357, -0.7340856926254549, -1.1904074240755054, 0.7470651313886013, -0.16457529793609968, 0.13048993340960435, -1.6264455777210614, 0.23523182358950634, -0.1524774107345183, -0.28962575303846627, 0.7620055519928863, 2.4831588320687388, 1.677501255315601, -1.3591386927577398, -0.5539283777329161, 0.9055080877673343, 0.8967776205105232, -0.9708653869583339, 0.805142489546317, 0.842317836070784, -0.11779226657357637, -0.7298117053091804, 0.26263901272274826, -1.8821777858621491, 0.1441645138296858, 0.44269090962920793, 1.731587233760882, -1.8361606535289159, -0.2441542024226652, -0.21365526796074674, -0.5146499848270217, 0.11714215947491839, 0.7512160110200344, -1.0079076999828136, -0.016432575527962165, -0.5400002449291642, 0.11100642422547095, 2.031178181190134, 1.5665153643412857, -0.0466676458162496, -1.23298874973152, 1.1055651046874433, -0.14336887523981137, 1.8727540582140463, 0.1700156880086813, -1.1232997996040557, 0.0856603114452007, -1.0965262198362036, 0.6113266126783758, 1.2074261618518556, -1.1215625783539518, -1.7597649971481326, 0.6754646364160755, 1.223634531175651, -1.109232666190262, 0.03191074066731689, -0.2569193917686514, 0.3958452840566666, -0.9722751255910721, 0.28331061540428654, -1.430763725655481, -0.6435816282299633, -0.8024125472799895, -0.2101344013988533, -0.16511895435442026, -0.1332098939333657, -0.4352452924928931, 0.8687403095429374, -0.6167045473905169, 0.0841130454786787, -1.5303943068630343, -0.5207378256793216, -0.5196400070377406, -0.4863359803400085, -0.2784729466449527, 2.413065409111137, 0.6581848960133014, -1.2457230832924218, 0.7103912977785319, 0.8270330157145818, -0.8782877993708605, -1.6409529420771785, -0.46222699711213305, -0.7367254243539886, -0.06659097995082673, -1.7669970153682528, -1.537317092872442, -0.010534791485766862, -0.9737353764189359, -1.28191722544422, 0.44025070058552623, 0.46013295080252475, 0.3532972844657063, 0.8581032973353614, 0.8900990675707452, 0.7515711598897945, -0.4050201982456232, -0.1836156023844844, 1.9742189169717848, 0.44364211688421074, 0.06372516843390938, -1.5858124413720787, 3.164518084912261, 0.5075935466813285, 0.10430886164772284, -0.8153059391154902, -0.7492117094942577, -2.016074348554504, -1.1546909382425596, -0.24404840089540014, 0.42846900415875233, -0.7370755370116984, 0.3919385568051903, -1.4261976556236762, -0.4795607917852222, -1.2166592260692428, -0.9002790783208148, -1.147322670068149, -0.36076193919661853, 0.1045591433292692, -0.7681611315878516, -0.25548115246523845, -2.1712786055939577, -0.22901141515240425, -0.045909905308351553, 2.108497286428607, 0.4075518529865757, 0.9506327514903963, -0.6192005715565206, 0.4037515906552926, -0.6671440374814392, -0.140038660441419, 1.1995066468392932, -0.512712390399253, 0.6998070862606676, 0.006954574414809562, 0.3463176351891671, -0.16560022654400275, -1.167283175429936, -0.5640607030403296, -0.27222449402542603, -0.16388509842178178, 0.4393670214064341, 0.7972669386157191, 0.5348642618797814, 1.3675861612734501, -1.370635394196178, 1.2592924221482784, 0.11563233161757848, -0.38961490216751254, -0.5614374699475093, -2.0148058150665427, -0.35235846054695946, -0.17515434282458395, 0.18619856770526144, -0.7497085738079373, -1.6571439211587187, -0.26026897170561497, 0.683042592983476, 0.3710690768344664, 1.4336433009491245, -0.48215495718915835, -0.06973655981897975, 1.3915900629515505, -1.693142806251346, -0.16245999526422555, -0.3668343343805009, -1.0043038478539579, -1.5195343601804887, 0.3409561014868906, -1.408994402438493, -1.0849493113640365, 0.5475984199668478, 0.39627089701177265, 0.47300514890551243, 0.440465667088308, 0.334397484370203, 0.30105322219471037, -0.2717714110746623, -1.0592861934819298, -1.8218692354400072, -0.46480755802320106, 0.45831280950896297, 0.6485109673054188, -0.9246496615647878, 1.5258680057032412, -0.432360626924905, -0.17657812273336213, -1.6284971978264597, 0.7541114711467657, -2.5880574532461513, -1.5700296791536703, -0.9222297664471965, -0.0771370835761056, 0.2113907958496999, 0.41437624704028286, -0.8753631233247264, 0.04207609621506079, 0.13908161108293088, 0.39623174523045224, -1.979225014674529, 0.329029843360226, -2.6438979826444307, 0.7833967848291619, -0.8438297320795625, -1.2858660212615993, -0.7557813028984948, -0.36951049111136136, 0.22145455285551274, -0.34720712577683405, 0.22002405592315927, 0.5243404422178211, -0.5911830295930636, -1.1060282030863942, 0.13830211193193379, -0.8991753946000789, 1.0026806810803413, -0.6053403318515531, -0.7368783480201777, 0.30561952225692834, -0.7866958782520547, 0.46682177742874315, -2.1845944231100267, 1.8350532876004426, 0.44343960223491713, 0.3139577286776785, 0.07252279453872738, -0.8803725516346307, 0.6542503025831482, -0.16901239067069998, -2.1906650220841963, -0.9736623180564656, 1.2051819969470428, -0.15022345207544557, -1.8912680834094489, 0.15935559264766402, -1.5882095262633311, 0.8419119812928325, -1.6162508281234145, 0.8043102630940266, -0.0910674369645844, 1.9612364314932635, 0.8518375900389756, 0.09513778637596303, -1.1718588548793762, -1.0172161998045786, 1.0896000714021432, -0.5988589805209048, -0.6092439407680227, 0.08242622066593754, -1.4858399705554795, 0.9598911129102516, -1.0978628114304902, -1.1269102533277948, -1.4797886578031327, 2.0436684311648294, 0.5456037461295413, 1.0702430157456906, 0.031216754518506876, 0.23786253501782928, -0.3027301357980484, 0.6678374579682749, -2.294785124050535, -0.7431473456702875, 0.7749328324768587, 0.029770868176535535, -0.6346970095219843, -0.11367626304469591, -0.13253664591717979, 0.18695815135657595, -2.280939959418811, -0.7088034565046241, 1.0811774750694643, 2.2275397922473323, -1.9583185144797843, 1.209382515605452, -1.5011175202423093, 1.4424081649412093, -1.9102700907297825, -0.36401513379301165, -1.9448527964473787, -0.519336082031949, -0.48012237240425726, -3.6420626799556968, 0.2362609819032076, -1.329139093294894, -0.8412931204214308, 1.1636008646755895, 1.1234945784483232, 0.45033075776472387, -1.1896841676040268, -0.8164188393867295, 2.2927761127126542, -1.6461411918227988, 1.5082683705659619, 0.17028573680672696, -0.32270380166862034, -0.6816924900696826, 0.3134734691296887, -0.16015039643352097, 0.486301511911327, -0.4656825662995159, -2.100268958890678, 2.050476844144347, 0.27445058190550864, 0.6457241406589703, -0.35673480679225417, 0.043670940593858516, 1.0873660246278871, -0.4864477484343239, -1.2327928335390275, 0.3321503679091892, 0.34995752340664, 0.7663208867166231, -0.7056669276836999, -0.23543498417232012, 0.6289989163981137, -1.319853113447843, 0.8485886811828637, -0.7742944947087298, 0.1857158467560904, -0.7451296015203661, 0.9611669332705508, 0.8369669518719635, 1.6686176159885977, -1.2219130463177723, -1.3504552687350775, -0.7601115804387358, -0.014119576297732734, -0.9003091528807122, -0.381710940980044, -1.9813570532929536, 1.4948902152738373, -0.9329894590626705, -0.4330059832553388, -1.8438909358179647, -1.5768992279181928, -0.29877910925781836, -1.8823530988687136, 1.6759191695840054, -1.0643699875981023, 0.2414999082873251, -1.002322551108389, 1.821505611227399, 0.5480366006078564, 0.3192255652356784, 0.14150352288199503, 0.3846550625304106, -0.4376057858862667, -0.6014385124460929, -0.5838438956855532, -0.3480068436658894, 1.1712261467852751, -1.389724837806673, },
        { -0.5957794847241147, -1.1889822722843115, -0.027251170166974256, -0.10341716096432377, 0.2081043492068938, -0.2625801499567911, 1.7471158939043434, 0.6393839577742925, 0.19519507472354755, 0.6555736723578548, -0.26262845975163285, 1.7150202354239874, 0.3682291263757924, 1.460358028674268, -0.5257337028087655, 0.33856906490824423, -1.0847946043806203, -0.5100869648477431, 0.192405970428344, -1.5627059973703898, -0.5724412303482055, -0.1533787557433435, -0.04450520347239523, -0.8082365188890709, 0.31998810280014295, 1.7203991635483782, 0.1663057669303524, 0.7818178147371158, 0.33280465506894513, 2.6974710886050737, -0.6329708826795942, -1.3912676434915097, 1.1555919187577834, 0.6975782208549447, -0.3205031388599567, 1.321904994745438, -0.5670023127012971, 1.132180838927185, 0.1486574228616354, 1.0928647605404984, -0.6751761003799657, 0.1301716675853536, 0.16740332919719111, 0.09124253772291692, -1.6163772283814908, 0.5275891304090343, 1.4946125077679508, -0.17059753129845204, 0.8869135664422407, -0.7328078734215555, -0.8912579216671924, 0.10647458502111824, 0.06699800761174546, 0.39185358793078734, 1.136804789002676, -0.06888137336199844, 0.9579326399086583, 0.279279071802082, 0.39564147950548506, 0.9383810788424929, -0.627941840757868, -0.2841445108471349, 1.2360254988375887, -0.458112146379473, 0.9094189499883175, -0.7568036016285828, 1.155861008049248, -0.5131026261185232, 0.9167937470192151, -0.07637338139645732, 0.6534745423431685, -0.7488778440601165, 1.296700886537201, 0.3828636624160504, -1.8454571356361762, -2.3850142271841475, -0.3068478436665262, -2.906938508771862, 0.5966906228665674, -0.09225873005486618, 2.464674329301629, 1.065928836143651, -1.0948043493584942, -1.453100010152753, -0.5398769862087531, 0.09723438335142037, 0.31564989567212987, -0.34405792936892965, -0.3597534601385771, 0.11555248352958412, 0.9381511270422133, 0.37164185589285975, -0.5430326015046191, -0.3885469299384322, 0.6758172343653069, 0.9456416729650046, 0.8974716185046233, 0.24453305604780964, -0.3641538395528571, 0.7105384400167258, -1.1190569819021137, -1.5156112267812405, 0.18509457473378085, 0.1532961871707301, -1.9507047775576294, -1.3636381340978225, -0.22054143194860762, -0.7541037626550738, -0.5123227619683095, -1.7799859184119957, -0.562795041965141, -1.8596594298493296, -0.9042325870298726, -0.06097906871505006, -0.09906637035474679, -3.8326850578428036, -0.41319392265961485, 1.101629192523901, -0.2968051312159243, -0.20343600359485503, 0.44929146850666757, 0.052995060109779064, 0.44900129608913897, -1.4064782861041591, 0.18380214784124657, 0.06676735781300842, 0.15303387077425754, 0.5539727867601961, -0.3966386695699938, 0.5241962035162686, -0.866274280785797, -0.4288743196732152, 0.10130305876144852, -2.3237140534826164, -0.3300737598820421, 1.2572933966565312, -0.5036164500113243, 1.0002909101738757, -0.49560171788884555, -0.7368807452560144, 0.5770979372990878, -1.694214450524451, 0.15330669433977795, -0.11873698812967558, 0.5804511587336315, -1.7553278591195036, 0.35921554082283563, 0.7754769120848004, -0.11026435921973045, -0.3184425024021797, 0.5714862306698113, -0.1066653097880603, -0.7774450193146132, 1.1325514052474335, -1.2054643770669178, -0.47243377795417657, -0.9473088628372444, -0.8873155518605512, -0.5341517918966215, -0.9794720608293722, -1.0930177636188385, -0.46568283358912543, -2.27263038229472, -0.09599369034600884, 0.0374118932840769, -0.6696852266043317, 1.577671483851932, 0.020962862761655782, -0.0254623431047176, 1.2607430695627078, -0.3556188954515657, -0.42307971516880793, -1.4195958424748838, -1.541771954454773, 0.6075944858358535, -0.4166280977918131, -1.5359318657566037, -0.09693688500406582, -0.5440370441292997, 0.06910898624316496, -0.18107621186931558, 0.5741560572873995, 0.009315944797810198, -0.27423462768976453, 0.8709146501704234, -0.16339460612501036, -0.8684231029840863, -0.34572450553150863, -0.11475739895243062, -0.3106136297013822, 0.3566896602001419, -0.07761081719604501, -0.058334351322617134, 0.4292675099954804, 0.6384654716515532, 0.6170054055364625, -0.341091522380463, -0.2986787838467718, -1.23266321353956, 0.5593622999701573, -0.32565918772919566, -0.16863209558425105, 0.3843448678868308, 0.9147804293117735, 0.16884899046099774, -0.20161939661187225, -0.3769629408570433, 0.2964571019587805, 0.6004892022156171, 0.6943588118467626, -0.2164586637806553, -0.8949392700385409, -0.5742773531986293, -0.5583862701480845, -0.8105701638622852, -0.2804989201829914, -0.5492379751173436, -0.28957087842712304, -0.7855811544706971, -0.643333600292063, -1.2894803408163493, -0.7818168632192974, 1.0055026484620646, 0.31915388835901864, 0.06619060553084996, 0.3938832490130728, -0.3748747412596687, 1.7845512315668701, -0.7275429350174737, -0.44855544058404145, 0.06230486854740275, -1.4928324244342592, -0.5818242722773768, -0.6569759817305564, 0.4382045906944724, -0.4790886913333461, 0.8138581305237095, -1.09517540978254, 0.17175810071493217, -0.005248421730723409, -0.847531956751842, 1.2678928537032934, 2.20422266358507, 0.9617195247763601, 1.254247450296541, 0.9397044572259267, 1.1522397885445743, 0.8420937516050369, -0.47596576309359606, -0.7596963196079948, 1.7021188762762072, -1.276344317169154, 1.2965607163496187, -0.6935851347053632, -1.8970056836516775, -0.13246618257832762, -1.6666022418238569, 0.6876630351383582, -0.8518893493997735, 0.021627671795706235, 0.47231619949195286, 1.7437910800044552, 1.8752573466931617, 1.4292298756288377, 1.2495430547747872, 1.4151400602378865, 2.996884261466704, 0.08887570665632266, 1.6807857492603107, 0.330608049369224, 0.6759244817628609, 1.5505816422633703, 0.23249585421020164, 0.275446247850866, 0.38589443655517774, -0.1093168519368878, 1.1687687796778057, 0.7381674567495173, 0.13601590051717638, -0.38037428836925674, -0.6581231995511404, -0.9941534108406977, 0.8453385540173194, 1.651424155810833, -0.6214679890546042, 1.513773867854042, -0.1616159518580493, 1.0208441138660704, 0.17424895813823885, 1.2101421070864848, -0.13838791092816433, -1.1559864008784317, 1.0518838152508803, 1.6101295801947237, 2.9902153699498935, 4.191548318335544, 0.5624327959366238, 0.9677751035247535, 0.44189254869043293, 1.2623453086891299, -0.09941080687063178, -0.20221900613149263, -1.5813935385287448, -0.8498012977435816, -0.13648920138892714, -0.15886955084269938, 0.0942437443279101, -0.033632926223493155, -0.5673830000423422, 0.374448579470151, -0.28252998450251565, -1.2403353616597566, 1.4674185844114092, -1.3941619629516255, 1.0799734992759098, -1.4569785036709093, -1.705402844787445, 0.017104211286206525, -2.399061506555145, -0.18872664781602355, -1.5908987828818508, -1.9832325133947846, -0.5783652236488978, -0.41227911452245797, 0.05120333650362822, -1.2431811704468145, -2.541243334223862, -2.590037035810345, -2.7406930288804277, -0.9364783404805845, -2.4439204682682143, -1.1408598722698693, -0.9195620890090974, 0.6327664619616236, -1.149609529231171, 0.4735827313145551, 0.35744628444975646, -0.4843038333284289, 0.921834777681197, 1.3404129131283409, 0.35621455744765945, -2.0119885754522584, -2.8937507825630355, -0.6866718901777545, 0.31861346412660224, -1.03535533345044, -2.819234611225274, -2.811174347395025, -2.2147950383820527, -2.398896110163257, -1.9624306217710095, -2.187682864557301, -2.406598113937973, -1.7781265046644459, 0.04283726738919337, -2.104829172042499, -3.7243358031213027, -0.5563371301330488, -2.617158458820801, -1.8136414716006175, -0.5465774150676673, 0.25972351362540447, 2.155312501114809, -1.4714850585821313, 0.0689257783702156, 0.5809940169213824, -0.5434454532255321, -0.22119199558571517, -1.748375695586995, -1.8605441650643302, -2.1675959301485346, -2.169042689337236, -2.9370237545717544, -2.844942644767351, -0.2695070449023328, -1.8533730187917647, -1.6797243815780145, -0.5826485335903016, 0.6271147176139767, -1.001074333738339, -0.1018537557572901, 0.5222762080175336, -3.424244743785715, -1.8301268638652806, -1.1701560433825429, -2.725971644039275, -0.3852078895629638, -0.7478628661389565, 1.3164402803803616, 1.4132732050993073, 0.51377235690373, 0.09561332063806519, -0.1196471455828585, 0.648801832705603, -0.5215797066303767, 1.9489463475540758, -1.276798909178051, -2.455036693959709, -3.989123798146269, -2.9857101322138107, -1.9096803875203325, -1.4394086713737155, -1.3412822731104714, -1.1884664205912459, -1.1923568192909728, -1.4982512418892877, 0.7450969178676564, -1.0551277642960595, -0.602888283618865, -0.31925992188904084, 0.47014602815016415, -1.3939904376083798, -0.6479837281848926, -0.48964281690692835, -0.1979200991774698, -1.0917467947334099, 1.7730401992102234, -0.009996727389192555, -0.40309918894881214, 0.5471426690624648, 0.8839703285775486, -1.701746060231826, -1.145352998418437, -0.9371627238471065, -0.6205769714321084, -1.0726797915361475, -1.6113516831972863, -3.8577202279368903, -0.0876761813575912, 0.8386806964461031, -0.46267518782221206, -0.3163204537757701, 0.23721823088385635, 1.9172883626774544, -0.5413749764601068, 0.828058577446871, 1.6587244509020298, -0.7734560037102077, -1.3258580193901495, -1.6589228136258882, -2.5993878954139378, 0.6481975148746645, -0.9815461446069108, -1.449198050833738, 0.24760051128311053, -0.2031354169487266, 1.4833352150412933, -0.4544588095212268, -1.167027674691989, 0.3144672385395493, -2.295690982815038, -0.8974939473011109, 0.6254859707736771, -0.4474758183006165, 2.6689563916945884, 1.0996213807777324, 0.7685106962702428, 0.022240754582341486, -0.7044773844134914, 0.38013691970618624, -0.4609776351351291, 1.6427282936552947, -0.43934222440560583, 0.9273076604792008, 0.5592410594734601, 0.0388163275128731, -0.8430804183346056, -1.2712636985953447, -0.1773146556771756, -0.11168826924218464, 0.9315372824555674, -0.9782796505400944, -0.3910173833196821, 0.43414397950380085, 0.2453555582708697, -0.2830335891029515, 0.022166597609705057, -1.2163626274024801, -0.14204009817833166, 0.5133207669829234, -0.11200697452838415, 1.7820909964766092, 0.4988255270181077, 1.2714104299775726, 1.7027739788283645, 0.2763348964534357, 0.2862178934547795, 0.0784193680025663, 0.443994846527561, -0.4062584656433189, 2.510039142891524, -0.33981489275007754, -0.6062912210171809, -1.6659497821168976, -1.2268736871397627, -2.904189104872159, 0.014791811490032144, 0.31745862056087276, 0.06056377209574684, 1.9075785052037775, 1.2200987468266196, -0.19595600792187587, 0.2787008089498016, -0.42859030038724866, 0.3263915581524248, 0.46218310200454005, 1.581533078719528, -1.1203396323739687, -0.3144311088611285, -0.3401448447908101, -0.5596912911920332, 1.192690154237821, 0.9647022223695816, 0.881411671332887, 1.7643288594877364, -0.3295912658419344, 0.8778284949959986, 0.23896230738399746, 1.3343795665934572, 0.22574849510970785, -0.798841848483625, -2.3489468603806496, 0.44843146363560543, -0.9913586700671335, 0.602363037164808, 0.709183580329761, -1.5915555546203148, 1.3403544373407341, 2.3434835865698878, 0.30708782088241565, -0.2662026884859882, -0.9034058944769406, -0.18469089811353448, -1.6852804167106805, -0.07826487091533407, 0.5797231858500356, 0.4623987872905007, -0.30108826203511824, 0.2185604639506901, 0.46361422013580234, 0.330590193565776, -0.6144706282141276, 0.026172231589100484, 2.1402212130677616, 2.1650472873855757, 1.3871038160186642, 1.4425126507357704, -0.6366452486542968, -0.2866785957006564, 1.319205628591219, -0.3213556253434008, 0.3069653723412457, -1.7435498027756415, -0.7396333870753895, 1.8411677096626327, -0.9801725851872459, -0.15615375176410884, 0.9467163102258903, -0.4954742148256568, -0.8793120904930471, 0.4509121370167244, -1.2237892546411433, -1.4977966844266513, 1.0898699398458467, 1.7028502717874991, 2.763471453416077, 0.5433528419835665, -0.7055473600661313, 0.2540301502727856, 2.2677461218637243, 0.3981230816302718, 1.5026437904554153, -0.3561874321322252, 0.01895973261042098, 0.537764024670723, -0.44211548266581147, 0.2636937040319433, -2.1674082644068697, 0.08455834899464239, -0.6910907715497848, 1.0896021088174843, -0.5668927185622893, -1.2584696348361413, 2.117800611307783, 1.7542491652669316, 0.7703661934475315, -1.0400526001954744, -0.09685940382513072, 1.8771558140759474, 2.791512763028514, 0.07263842957114444, -1.3663111451260241, 1.9711084286377147, 0.8862652718191312, 0.7783849834282751, 0.6458443570781114, -0.38177111946283815, 0.9857209382036831, -0.49156339973153595, 0.6731513849461775, 0.6133087356993361, -0.06118367912053448, -1.273561961565717, 1.9399855965312585, -1.1979627202034018, 0.8705884602314831, -0.2919506290970278, -0.6277239269644648, -0.23184713261059972, 0.1122773682688748, 3.347162301614248, 0.788831195632781, 0.7898142681821344, -0.21151680093774444, 0.9174121092874741, 2.2405366379117573, -0.09988596824801595, 0.07602271973959217, 0.9301604801055765, -0.6069161850171795, -0.7543777106363327, 0.6153914340509884, -1.2269099365938965, 1.9685050824102925, 1.305133358604369, 1.290121237239665, -0.12505367679038884, 0.3566174893991988, -1.0957101541374297, -0.5734619061744337, 1.7421521096466386, -0.1898382440023053, -0.7252007778046685, -0.09858584791415662, 1.675852431502646, -0.5234621796262119, 1.4301899773565905, -0.13572750944616999, 1.726358159777003, -0.41533022901770955, -0.8495793879174208, -0.8486099209989338, -0.7727552480527925, 0.07737280856627138, 0.8591905080475604, -1.9570501218688168, 1.0292722291932304, -0.036702545348899836, -0.4476155642150931, 1.2305833843042504, -0.18857875805340168, -1.9788162644036154, -0.20751471588141313, -1.5976419428599435, -0.13438301461041635, -2.098715006016468, -1.5022602617487686, -0.08094730702787624, -0.11024086760659622, -1.309724286618367, 0.7208723991120185, 0.3858239055391833, 0.8325019260262654, 0.5683014871473858, 0.0285266531395153, 1.8402285962660752, 1.6090550225306486, 0.9984731053917063, -0.27537778109268, 0.31406307938401273, 0.3932105245374969, 0.9713795348043855, 1.2062222267548017, -0.3739617494650652, -2.0976790095846005, 0.22631428972800396, 0.2931008235497063, 0.7418161630677399, 0.7980347073518201, -0.5090531198718282, -3.1219008647917392, -1.8289467761549947, -1.2596103212062675, -0.9613117477673251, 0.013471230786581946, -0.022407294773292688, 0.7707775650988616, 0.14726175892392585, -1.9412542611927432, 0.571503442191263, 0.3446620338217407, -0.8972073176194427, -0.7549723768601754, 0.7877609638191918, 0.2766263424648034, -0.3775828014860792, -0.7212580532916825, 0.7436396060469163, 1.0049681188598787, 0.9126811642208326, 1.030641759886613, -0.7583990758441348, -0.14794765867341494, -3.092670471522496, -1.0294196515802494, 1.1532465180255258, -0.5284843435058524, -1.6802550915270278, -1.6908720428301451, -0.923707334833454, -3.0462285509622027, -0.9284920081143581, -1.2170585429744685, -2.9361616722241455, -0.44623745322994507, -0.7151482279539678, -0.8892951507193579, 0.7450581329160646, 1.6898652490412076, -0.7085450574214869, -0.5380281394276092, -1.3462304383557198, -0.00999271478979265, -0.5891866337257042, 1.8808995962279664, 0.2398014757996608, -2.1152773984036894, 0.5859570004052127, 0.9603484923754078, -0.6916820040328755, -0.6152852615607639, -0.11489315926655257, 0.5703904437759597, -0.9167666448502798, -2.6692354064725348, -2.1037918726397207, 0.3151595427229921, -0.21244035068039938, 1.185446097123547, -0.08765461299730078, -1.6803821281157403, -0.24908265866897147, -0.6622020000159216, 1.1886686453506845, 1.0097135236249346, 0.277341344916283, 0.7843533550529888, -0.6132805552418235, -2.36224490919683, -1.3094391615747922, -1.0705831402544739, 0.5172097791296534, -0.005225920186797268, 0.6776329244827803, -1.0409139416991944, 1.0768965435739053, -0.343309331510877, 0.40361279070827655, 1.2449345861141183, 1.450035780192354, -0.10467006403931653, -0.8426090223511393, 0.2190783919422919, -1.1361679853819613, -0.1289198697608424, 0.75706170457142, -1.798336435094534, 0.23633541072947056, 0.4426361109184797, 1.148773405036742, 0.12061235513601633, 1.5089173421872288, 0.1670619053822022, -1.953393466415538, 1.2094671557552927, -1.111280102535326, 0.5735710857685574, -1.046808818766425, 0.28516433261750235, -0.30140799614680197, -0.6322837251485335, -1.0273047428577848, -0.8606927639900407, -0.4923545026168742, },
