double **weights[2] = {
(double*[30])    {
(double[784])        { -0.6424683058612675, 0.9577069369898539, 1.9489039120850944, -1.6280423735533034, -0.261907248641191, -0.8650672538976947, -0.48658253918265054, 0.6994514970086996, -1.2236336862323691, -1.4912930610001964, -0.16517484055172332, 1.307805044411127, 1.828900797762873, -0.6273212782506394, -1.025765517354645, -2.275310412933586, 1.0479900876860329, -0.9492365395374238, -0.6009729223421324, 0.612106923280186, -0.07464706840298026, -0.5857574913106064, -1.4873650586747387, -1.3275040760083117, 0.21235237657601858, -0.6521867680914764, -0.8899071335447916, 1.03660757962651, 0.17151828663842855, -0.9606065446007636, 1.7338668134444761, 0.10105853314852256, -1.1918649495920048, 0.12052938924576957, 1.461372057553226, 1.5480471062616021, -0.41577675170407674, -0.1029799762188368, 0.46741512207081365, 0.2965159720129116, -0.1277306822488305, 0.3834143281676493, -1.1248000424098605, 1.2952420743342734, -0.0321001538581858, -0.43367418173633926, -0.1036165981964558, -0.09872414711130006, -1.4299761275112925, -0.9512068724494926, 0.5707852560601356, 1.407887514565708, -0.9903605977714809, -0.9974905502834328, -0.32509933194729884, -0.34302293565902364, 0.3707032871051235, 0.7731122422723217, 0.5005382204196658, 0.9755343616819003, 2.6807406471571387, -1.7134077129940115, -0.23042717803113744, -0.3690985146734883, 0.09079788372834327, -1.6110273208109724, 1.2654270443514222, -0.06346439430831746, -0.23647145984387666, 1.0053800738693355, 0.5128740967413908, 0.4215738855761943, 0.6979892992942214, -0.157615838447664, 0.7707367593529074, 1.5645026513089784, -0.14650137177102635, 1.137222164948162, -0.19701387191209715, -0.7071823599007129, -0.10616157667094955, 1.311283103519078, 1.7834677388588038, -0.482464761503435, 0.2620045762119043, 0.47336630456013007, -0.46235578496113133, 0.2938879329022223, -0.9614815214637189, 0.13644204297256993, 1.4124811400727042, 0.7081232990459203, 0.3614112899192564, -2.182621220842778, -1.6651000647616734, 1.1405760161121272, 1.1111173429368664, 0.048988016332169815, -0.2849236687860663, -0.3566466529402531, 0.24117492796924342, 1.0208566583811887, 0.17013955764022112, 0.1098160600509063, -0.3788501511448854, 2.1438148425894097, -2.3743862162019194, -1.6281150854985047, 1.9169449075414313, 0.34234905201578963, 0.4324241153761398, 0.4099830771452142, -2.178020283668654, 0.7135559036149759, 1.0869368842756175, -0.4495010313424435, -0.17490757035000032, -2.1411391688295542, 0.7480169368520735, -1.4723937401942342, 0.4929505148657565, -0.06550911960587785, -0.8403448300954918, 0.10061948066954914, 0.5340219201021594, 2.170100790130679, -0.36002604132971994, -0.12484656334851779, -1.3722270023241134, -1.3422061337725548, 0.22284988045127854, -1.1565090012654726, 0.0025479191182781647, 0.357390688734241, 0.3281747125657512, 0.6373712777264615, -0.8600012808716784, 1.8753811878514746, 0.8762514003244987, -0.6111540409836124, -0.1881041874068438, 0.7412154213214898, 0.03431124681231567, 0.011480653718699921, -0.8652364627029338, -0.5738568841904693, 0.5558567786614625, -1.7742481949498812, 0.9317979117310737, 1.0004149702806315, 2.3515135299978276, 1.5165513800774613, -1.652169711640136, 0.7672420698262993, -0.25481732267442014, -0.5536245491545838, -1.5671701109586496, -0.5647282591010518, -0.3309248407215146, -0.254231059055287, 0.17093803512447991, -0.1982741303833428, 0.7329781118243514, 1.6453741036581377, 1.0939793069315535, -0.2779039948443293, -0.4148941063204003, -0.17541357559069348, -0.4857325997851196, 0.5488843599356391, -2.6256229177293475, 2.1759206320803997, 0.3873735155335293, -0.08998876526724207, 0.34498357725727713, 0.06274658022136777, -0.785526793669358, -1.0282459957028445, -0.11308945204914675, 0.14430478929443633, 1.9500796927042636, 2.0317537336286833, -1.2662949451108898, -3.0390905302117948, -0.6514633567346886, -0.8196407092251239, -1.2669231143829705, 1.0012506909601468, -1.0010581366803037, -0.5161768062943822, 0.6673027795867973, 1.9361613566488565, 0.05628151441002391, -1.7038949487590045, -1.50659409282821, 1.4811494869547603, 0.713361158723437, -0.8742799356678193, 1.2832815270416928, 0.8472395637877843, -0.017572001202671033, -0.7061431211349228, 0.25167265144457707, -0.11437337768339238, -1.329810789455094, -0.199466681273201, 1.6249336736115307, 1.0897194124575806, 2.263160537228179, 0.5699323431789691, -0.6860690175831524, -1.4626557220320566, -2.4011025623880435, -0.343317149861236, 0.37819056877474977, -0.31165386840344017, 1.294803880050027, -0.4270568859523049, -0.3108493958951266, 0.9972571629320726, -0.698712263025869, 0.340755084312959, -0.6174537503246156, -0.5625123650382027, -0.18360064546940855, -0.1089408166173215, -1.2774674677456253, 0.5783751133108356, -0.14810068802526977, 0.11415488802775707, 0.3125122634859879, -1.4573797061965612, 0.8567901826676164, 0.764617336522382, 0.5382919184728535, 1.3272053170542306, 1.262811797088707, 1.721048758075629, -0.6247201772458273, -1.071038191009113, -1.3260501204139674, -1.3398642240324057, 0.044178426180558526, -1.671776018648857, 0.5565762275312832, -0.47376580725431827, -0.43419684589777563, 1.142260494117089, 0.9252215691891722, 0.41488659539483574, 0.20687959048435822, -0.5131516739897701, 0.18918874822985857, -0.10051200786371571, 0.5451061820981049, -1.2929169821067379, 0.1705586489301566, 0.5958478304671392, -0.5291646364998818, 0.48794864642882513, 0.7789015521883824, 0.30947646158138997, 0.11491217324158484, 1.7169014383690058, 2.6348734446148234, 0.19571772246659375, -1.289074631787157, -2.082640751347758, -1.20683410468672, -1.8033545530541022, -1.508219980264153, 0.017632739182242972, -0.7408155231325755, -0.8333765053787984, 0.8797275817334712, 0.6944937931960915, 1.1742713165534584, -1.0695789315636832, 0.7880327109094025, 0.11646278508252232, 0.8969994341129339, -1.4737596678148153, 0.3368463345136284, 1.1042219974321836, -0.49656872280784187, -0.8177875649705607, 1.0782097116013356, 0.4541728973457506, 1.093683377521697, -0.5607415052528383, 1.103404136279265, 2.975597183489227, 2.812592736395509, -0.8280193830417938, -1.5619388792299376, -0.9186101021332294, -0.3789552911672673, -1.9961530388201774, -0.4674565292096217, -2.2622492469756756, -0.546945811659973, -0.7245863969545626, 0.794984752343749, -0.08408083180864975, 1.142343423965463, 0.6650168956913387, -0.38777769558574904, 0.7458366270897159, 0.39180329641499184, -0.8545585732241276, -0.1828864181288966, -0.7946802534877768, 0.1675275123662933, 0.5186374811492521, -0.3776800701741311, -1.0718512019258937, -0.8759373125283233, 0.9083947544074842, 0.7818383752763323, 2.5184872580563695, 0.4294124359842434, -3.100846285396906, -3.7776234787249128, -1.6242839169498142, -1.3508931196772282, 0.753511524993285, -0.38637446550213495, 0.5064201087680572, -0.9190377998197422, 0.24789955968686647, 1.774742808986122, -0.4030160967664851, 0.5824670886806288, -0.33706579239592444, 0.13247176265673613, -0.049562154270959245, -1.0916606361212393, 0.6518965669256974, 0.3068373425852708, -0.671374543464182, -0.08214057089962877, -2.7555524975303944, 0.5611956679965973, -0.41032065963023967, 1.9518690322239536, 2.754420904720924, 1.6345577055707157, 2.903842869745642, 1.4798540872180164, -2.264839279660815, -2.4218882482995143, -1.53049165856814, -0.1021557198707522, -0.4630056775029822, -1.1763163015011182, -0.725118710649189, -0.09578847888233287, 0.22813692197873775, 0.6590796351349916, 0.18013817010930014, 0.22085093544676307, -0.29220970152699144, -0.44734574425804396, 0.7243239731246539, 0.0938619571896952, -1.1214607587469123, -0.5505829130108858, -0.07946167151607389, -1.0581770178304197, -0.22958931173954028, 1.446815931970704, 1.9275739113206056, 1.6938061505080257, -0.3863424820884036, 1.3884364626221615, 1.224712366157262, -2.2660578045941357, -2.379341441054549, -1.4459665229345424, -0.35071474146619697, -0.8479921809421362, -0.7485657491489541, 0.3391764424058382, -0.10428004981972815, -2.8585431827077046, -0.8629438913529721, 0.594074731059462, -1.644062384248908, 1.5914072395060428, 0.49910345443106335, -0.36736256396125044, -0.9976367154200176, -1.3694163218672477, -0.5490853573089353, -2.4639048401949357, 0.1152357177675894, 1.4607106663055371, 2.6578634163447115, 2.224504849318783, 1.0641719682694832, 0.35412422538762767, 1.4364152951461764, -0.35762303705404835, -1.544109020588869, -0.44790341996420213, -2.4485160901346346, -2.072298486790515, -0.4490085253636293, -0.2456340600741784, -1.9815884040016107, -1.0006434763587875, -0.5068253492235882, -0.8190264291146347, -0.5518231923597611, -0.8546092467843434, -0.9879308152392323, 1.808288117868806, -1.068459471879217, -1.0934467199166957, 1.6090602942606633, 1.1574981284047394, -0.2529299101827735, 0.2503253208274075, 1.1503025950392964, 0.30988087890096766, 2.243694452473667, -0.31281950511256307, 0.24597368168314845, -0.1919543489707251, -0.4268362765011735, 0.8020865367532656, -0.8342014135698476, 0.9746538543126513, -2.5359397266910864, -1.807607277790171, -0.972185144984273, -2.5874573897460054, -1.2674832148224398, -0.8521949484271852, -0.956825533399168, -1.2122549460089784, -0.15424517092884957, 0.36361764600597224, 0.45919391211297134, 1.320193276236198, 0.23255306327617004, -1.9492967731761286, 0.9857962391197808, 1.5145280842106834, 1.0554578110957704, 1.1764391046948026, -0.9098057855549966, -0.1969489945301864, -0.5894361111581575, -0.5625788114604122, 1.434673711421514, 0.790908256822071, 1.6140784775863868, 0.1313152849008208, 1.022771477374862, -0.9197260872828138, -2.2978473596737294, -0.6964846564330438, -1.6485203289126347, -1.526863611890922, -0.20347582745776474, -1.5223114536226332, -1.0192310774695121, 0.29007345694021347, 0.8686731119469664, 0.5712979765296758, 2.924361294777815, -1.251954238175831, -0.7156085117280054, -0.8633301379027156, -0.6334853227964121, -0.9468430136789822, -1.1773177310867426, -0.883223190853989, -1.9303004856898056, -1.425009807455549, 0.9680013639597635, -0.60021690584301, -0.23269457053226625, 0.2671990552890253, -1.0964506694020628, 0.6224886757545969, -2.664363084402063, 0.7570132231566155, -3.226699479978333, -2.3964312846280627, -0.3844031188842107, -1.5102336154800997, -0.5301497519895082, 0.5318352222125737, 1.4657258746571664, 2.1338971922543806, 1.1437480881739346, 0.7782270556900638, 1.7404034351037225, 1.7291749785880826, -0.5565065654546337, -1.7403966537889215, -1.38809408245599, -0.6441274238102982, -1.970673103804936, 0.07294321909121032, -1.6014591494328752, 1.8548098383638911, -0.755258667514494, -1.1589622982424401, -0.36526141065727985, 1.36856010386501, 0.40626679868296484, 0.04096577765666754, 0.6897255568863249, -0.6292300465091306, -1.904998497076097, -1.4052494128492667, -0.9282686416522169, 0.4808069945048571, -0.07121179337120505, -0.6619362465535465, 1.7290596359244792, 2.5965814713439053, 3.3137709098807, 1.6666683245388452, -0.6182488625703354, 0.44385027729820953, -1.728477252530794, 0.7435316980705781, 1.7361767243212658, 1.3133575546740166, -2.2110861940335695, -0.26385923738851047, -0.6613727979856865, -0.2867178476668879, -0.12934283257546336, -0.4597880283925652, -0.5228168280926109, -0.5803390846926344, 0.2937336974035524, -0.9904462297736372, -1.3071281799160912, -0.7984428934930481, -1.1306864905663048, 0.252667525773573, -0.370817271568399, -2.1083850527242256, 1.414291607946189, -0.4699233808656764, 0.5108951002388635, -0.3722226928678703, -1.6825474492556878, -0.2233409338469135, -1.2238960508938093, -0.8877129719372385, -0.9735343395784184, -1.3921526719274435, -0.010886032299259127, 1.3600460265869014, -0.476713006545549, 1.1449024957035896, 0.4648995635440513, 0.621679584786362, -0.432811945485189, -0.6559901281130678, -0.6837156368927327, 0.6540854317459364, -1.1570228618562532, -0.8839501873747132, 0.3590585932569857, -0.537394154984644, 0.6597708721949368, 3.3560318501867625, 0.07825916841332287, 2.049372652276898, 0.6840765077096557, 0.6134145788047068, -1.0188642832728185, -0.936464315054573, -0.21237645371397776, 0.7987882940043599, 1.4971880955591048, -0.2817137109276722, 0.46318454433174727, 0.14806522664313163, 0.7788942899265614, -0.15130283402768568, 0.43644636390573677, -0.5467303924909693, -0.36803936953288097, -0.201554216236932, -1.3032577563231833, -1.729703918782628, 1.5890199963072729, -1.2572758742585792, -0.5640117203066058, 0.3922280771364753, -0.7131584870177747, 1.501628933383094, 0.7868345168289667, -0.8408742956548508, 0.1633605837178184, -0.2939744539264475, 0.2724408586218741, 1.9378460229562173, -0.2549304964160908, 1.9143961969840892, 0.6550920994109718, 0.09885308948288274, 0.5872260891283242, -0.5740644556850888, -1.0051947780573895, -0.9039468048924185, 1.331360703668628, -1.0553866777191236, -0.3292322663008252, -0.9065931310677134, 1.7474877006460166, -1.1946339872533907, 0.3621023679859178, -1.0630992254160139, -0.3493296300554262, -0.9187156809170065, -1.6644061642813144, -1.9399036421825389, 2.1647609113674715, 0.4990458535569193, 2.082526214375489, 1.3060134762976692, 1.1293934629012323, -0.31444186539120417, 0.897434812502476, 1.0366473485938814, 0.5171964163835332, 0.23334013075915536, -0.8558871451613712, -1.5479203884554928, 0.5241359014981737, 0.39912499167974, -0.4957304983954455, 0.558847649544518, -0.6039829080844811, -0.12644634534344124, 0.15983512184043638, -0.7934185260098161, -0.006220934827009123, 0.33031667898323747, -0.39868214803450125, -0.28116424789165106, -2.1010116857730603, -0.1959156889740513, -0.25664717297209316, 1.1702789714770754, 0.730981041443888, 0.70938448527448, 0.2216518374891738, 1.41146473466221, 0.7371936171475717, -0.5110451698412412, 0.4334940531183913, -1.2516340332372982, -0.40697181217622935, 1.2352550364619452, -0.8433348517652594, -1.1846818565360873, 0.5229260318700784, -1.1891658125246565, -0.16192651012324777, 0.5075483922765135, 1.0017004228640531, -1.274594794873267, 1.1496425035007694, -0.38570781110032953, -0.8471207003182031, -0.7998452190769848, -0.874381930514465, 0.5983527863033109, -0.19215471481289062, -0.3859545919445359, 1.4611856353157269, 0.12445615644836233, 0.7826725261261664, 0.8904326883712134, 0.5838283392545017, 0.8202778208200264, 1.5652593905579382, 1.506832711873985, 0.3409264621610651, 0.6134983628717503, 1.3400707317611946, 0.1897363234323972, 0.9082354779650645, -1.153141755605446, 0.41507848013709875, 0.12424488818738708, -0.9616245730595624, -0.21657579856328668, -0.07053542250546355, -0.3782568687672733, -0.9255255105813536, 0.680317690598129, 0.5453132437235798, 1.4250609591185996, 0.39007564439610964, -0.38781262965422997, 0.4129306902792644, 0.4694156159246276, 0.22667054427251632, 1.0713954156260717, 1.1268665457572868, -0.36949480912051735, 1.5782414550007726, 1.1327426877145075, -0.4080558624500103, 0.9237641205878163, 0.513965003688462, -0.8862580372329582, 0.14493933800965117, -0.1114612943274332, 1.1706629465966745, 0.9101259982696966, -0.06366859947263419, 1.5593975210519229, 1.3679965629967825, -0.4409436865551064, 1.5141836865020224, -0.10018508483870849, -0.8791799615507275, 1.022863765935463, -0.6960278568834425, -2.1330881892154165, 1.5219212408789047, -0.9307066643246458, -0.8357689221200255, -1.27116355286519, -1.9736761708097759, -0.8572111416566588, -3.0122611563612662, -0.0958486759796089, -0.8478529419216753, -0.6670147124202936, 0.6873690311012234, 0.6159875992118925, 1.2587390646596746, 1.1496777182183047, 0.6952413834349115, 0.47114689039230195, 0.140444148617707, -0.6626702661220432, -1.4958957879031618, -1.47748724812505, -0.8962559217499011, 1.1151873626215068, 0.018916129484961696, 0.09030943552906547, -0.5810274743836304, 0.3465665528312213, -0.20753889484123553, 0.8065784293615688, 0.09096460725850455, -0.5988214944312902, 0.3916022148230115, 1.6422518066088796, 0.620993121294194, -2.0892353536505306, 1.709091274003735, -0.877297163165679, -1.123436557703702, 0.8951926610252653, 1.039804215298373, 0.2696314086961171, -0.14265148708684994, 0.21169214736053005, -0.15382408264360628, -0.06889755616559717, 0.6992996829976874, 0.8633563434586862, 0.703828815581354, -1.1936938394612093, -0.33692082679015295, 0.8473491914233052, 1.1642018111389534, },
(double[784])        { -0.15831356088549087, -0.6493952236828451, -0.0646859105791352, -0.7569322232751399, -1.2776633701140305, -1.2539334028039522, 0.48537915365005335, 1.084126922646781, -0.20946277649173747, 0.40947473853367633, -0.37729569504553284, 1.2675865394089598, 0.17009589007549325, 0.9190558389908742, 0.11031366774564169, 0.5909265378160876, -0.5475528156084576, -0.1108996876619613, 0.43059004756936137, 0.4395595343610518, 0.602706861002917, -0.5822132907798759, -0.953501166670383, -1.5993401318089442, 0.03159942179661727, -2.281322840742682, 0.44677528964384694, 0.3319796399974335, 0.08837181846703963, -0.8129431576986699, -0.9297679616121675, -0.16714160869603997, -0.08524881964127655, 0.012268707582447082, 1.5144251664438375, -0.8875092364568122, 1.4500119407490368, -1.8725919991484443, -1.2780169792723783, -0.383060494887987, 0.6567993109065831, 0.6208546881605043, -1.0399892858062811, -0.3544416372403684, -0.009273572873721186, 1.9939045803495885, -0.9920267892176131, 1.644557516914226, 1.951170796790647, -0.763585800045949, -0.3965867485862665, -1.4121287053790241, 0.7076614004718073, -1.3819483842637597, 1.1992768267226692, -0.5155051890169148, -0.12347565788287743, 1.672269106478258, 0.13745452058952543, -0.7173490974053526, -0.42667208523741995, -0.5195234159151069, 0.19734418897659498, 0.1437297486696945, -1.0211694515641392, -0.37655526329676714, 1.286768041976882, -0.551342745535643, 0.9004124857542197, 1.0612823901272157, 0.5637931478814356, 1.0105760151731267, 1.3663497010035621, -2.642923302920234, -0.4654926502491261, -0.23895384735097996, 2.2563885712937806, -0.8587067023128251, -0.09146919585882399, 2.1298869396882285, -1.3420007736716597, 2.4687054513351376, -0.5642773976177211, 0.378044609587095, 0.6460370805439477, 0.07559107104186774, 0.7766358241557278, -0.7070666738487311, -2.107271060289437, 0.4720213704474136, -0.5803015588247201, 0.14912546080621328, -0.13788268565211056, -0.410444725587208, 0.2000707645519364, -0.4164791831938704, -0.6783516284991771, -0.31298579695634365, -0.9340375134600573, -0.7834979906156953, 0.3326892680451798, -2.88726789136965, -1.1368005697779586, 0.22496097468501577, 0.9230229351725677, -0.7816938947409928, -0.9162892978084057, -1.8229588793762739, 0.3486809075554712, 1.4773515054124464, 0.5185399934426275, -0.7552214799498125, -0.9569061358419149, -0.772168867688616, -1.0393861828578337, -0.05705536590833487, 0.2804398320663922, 0.5617404360798057, 1.6908606764114973, 2.209133945105983, 1.0201639950749166, 0.8232218454698986, 0.939385124739676, -0.03390497632119409, 2.009911191897523, -0.6156225418984806, -0.6892337656097466, -1.607958580142513, -1.5047092483155777, -1.7855832153586195, -0.6987757714046572, -1.6571268905294447, -1.6577256316587556, 0.6135178059880886, 0.08537163195050293, -0.9995734637279406, -0.3653685086739278, -0.1941039251811244, 1.530050152063304, 0.09401334262201132, -0.5807335660245853, 2.913565174742488, 0.1620999967164741, 0.162697589434618, -0.6476294880365401, 0.028647177174811786, -0.911093169650401, 1.109693105278325, 0.21401415851770597, -0.8822563498818821, -0.08588296304868252, -0.30515193928110274, -0.9723407228820592, 1.4320436748119536, -0.6979388922752385, -0.47742603337842765, -1.0275011513587156, -0.9801898150406708, -1.4280831124805298, 0.41232206938743415, 0.8930631790806547, -1.8735858694207532, -0.865684322328433, -1.056503538916157, 0.5878447519542985, -1.0874974286581538, -0.39418253150650123, 0.3907132305526007, 1.1912998368879453, 1.1264942023105307, 0.9242948708527553, 0.23913823927661426, -0.01748025215491508, 0.03787772571964795, -1.3669498415008103, -1.1589586933632692, -0.49224668950973516, 0.21531134762654, 2.2339523402130603, 0.04372501289095692, 2.7124698818968946, 2.0436440493995955, 2.8563709247146782, 3.1767338150169064, 1.2008562696361507, 3.1826012764059257, 2.677852025665135, 0.39827962383752114, 1.2308323182179883, -1.5609419574623855, -2.539069657741544, -3.8442787210090112, 0.10986479535101688, 1.650828046491315, -0.5151181821748593, 0.1202119452257537, -1.1682479743231764, -0.511727417542686, 1.020347054750058, 0.5580882851845133, -2.090654978406868, -2.5789298557164426, -0.6766768997830094, -1.4348547176616078, -0.4747761528090628, 0.16477475689680426, 2.445691830584816, 0.9306949574090689, 5.635444086189175, 3.6697379433536947, 3.7986032532086216, 3.57404790366584, 4.443874251538408, 2.595146769145769, 2.0728244439402412, 1.4723577527776992, 2.9566297175350646, 3.358727154601799, 0.14491644442928578, -1.3227531159680408, -2.6333554009623317, -1.787295567256967, 0.31932036579949125, 0.3599650382611143, 1.6691512901003218, -2.7268865961257927, -1.0305593989462647, -0.24170099905916545, -0.16876964691337573, -0.9819778862731047, -0.5066105375643835, 0.504510282739121, -0.20680535193849994, 0.6104895292282978, -0.9905375245113783, 3.8791678081584826, 2.1024989209531917, 1.7466057459141549, 5.49199423285478, 2.0948030688258727, 5.054057816793934, 3.3006000514268625, 2.801957252077413, 1.645503136996212, 1.5191102480920509, 1.9916279640772643, 0.7614892523190087, -0.3478350859678689, -0.4846390223545726, -0.39095519241889143, -1.138933131803828, 0.08527140040726533, -0.14706630467168474, -0.21948162494729712, -0.8762137496991527, -0.009129500920309412, -0.4282019760339386, -0.06613525335193751, 1.8048964230033377, 1.5996129856455952, -1.091957983224695, 0.4881675956573768, 0.30887495766607853, 0.5352368388876597, 0.696716276111463, 3.521471551710796, 4.421889755392835, 4.769990892353713, 1.7406173374862313, 0.9135503944087593, 1.041213805802375, 0.2199210407215443, -0.8538441566442927, 0.9380091128595216, 1.317926019226576, -0.44548491258641426, -0.3095280820710173, -1.5114946033974854, 1.2078003294706001, -1.530290307033761, -1.731275916474147, -0.38331265379151863, -0.09935257898701302, -2.4401903462457675, -0.09910469514065255, 0.6185729095080154, 0.812948861813382, 0.7882563561510201, -0.8056154103946558, -0.6764523926502533, -0.5089220099057891, -1.397751353392924, -2.1645956548586, 1.8940377441347964, 1.9870033897965869, -1.1520738112527078, -0.5703472546202721, -0.7286791765507769, 0.3415006195789069, -1.2675529484635144, -1.0036435019424748, -0.16685223071756677, -1.0252821558105583, 2.499389792295362, 0.8614656674824631, -0.10874766646157773, 1.1401744019055917, 0.19765409631431194, 1.285333959453861, 1.9267308988763816, 0.0720883849977037, -1.37852583655346, -0.535038562251509, -0.003909304233324529, -1.0034466295026205, -0.3245630546855927, 0.11980759799240513, -1.047119470724578, -3.519006250368934, -1.5702873805832942, -2.67384508463314, -0.6203978096175023, -1.3579967763505623, -1.8089278654980783, -0.6907295987734116, -0.6852305627284584, 1.8637585144727766, 0.8818751986343011, 2.552015073732161, 2.0792673753609536, 1.2701440237389978, -2.1807477788867513, 0.40728271023680485, 2.1808511259887973, 0.3520915452571496, -0.5948299023666881, -2.3421856575265627, -0.3560805695533647, 1.5965685392650006, 1.4259229592273177, 1.2511693912243858, -1.013266242858052, 0.445580593211973, -1.224885208553318, -0.026791533633745715, -0.554860484436748, -1.039620330621991, -3.741337079779044, -3.4618610698837857, -1.0634081189448463, 1.5777508788568195, 0.5061388163237339, -1.5877555289825362, 0.15170739793037522, 0.7543653872956018, 2.20407910468794, 0.35749630956012085, 0.2550955927059596, 0.24759500312631574, -0.6333403505308565, -0.7525510576101868, -1.6561180085625948, -0.5442637839441162, -0.8528382909377972, 1.135762188679018, -0.8344307487235534, 1.5349061406329894, -0.6868741924512425, -1.9849401321057576, -2.053205911637046, -1.5910399628315073, 0.46532847163201, -0.15089107997737744, -0.6790800037787293, 0.3246493524202093, -2.4700065820333537, -2.5085240439787344, 1.0113813791134072, 2.64973636970342, 1.9608106224012758, -0.26847906049257075, 0.1314952988194639, -0.6202666440844266, -0.24305890654446252, -0.7076359250103081, -1.4307149118691707, -1.1360822456769772, -2.5675993364065905, 0.027834508248463532, -0.41812310691955035, -0.4026554576403872, -1.9422204914572618, 0.7072216841707732, -1.1899539481685515, -0.9266038453514848, 0.139444099858578, 0.0744373850489545, -1.3938113850755613, -1.0296977398512244, -1.973788670306696, -1.5846894984889608, -1.9490376875179165, -2.1635636602061488, -0.8955491329571578, -3.2747096679146854, -0.41375654310562177, 0.5705074418847048, 0.549348696086443, -0.9610909327899896, -1.4172210327138108, -2.397176549547457, -1.5004378187422325, 0.9501187303114405, -0.7991086798667282, -2.877721228191683, -1.557810950595948, -0.13746370615364142, -0.38658867698047655, -0.8887118249108605, -0.1139860115218179, 1.0868525437953327, -0.46385246841942857, 0.42990289454575314, -1.4164545482497155, -1.2535212790103063, -1.91112300342862, 0.19252915502152754, -0.8557449934786234, -0.5717113972712775, -3.4503512428298864, -0.9817899019037457, -1.0398512406151588, 0.0867756899387577, 0.8390034972554221, -0.6567332469843497, 1.1154401866101409, -0.6716807063810244, -0.12318292418078403, -0.47403637522107867, -0.8418255100766521, -1.1292676977597893, -2.571310277536026, -0.7251631815431486, -1.8360872345923143, -0.9207547448958567, -1.3897285763732656, 0.7597708730418007, -0.1206443999146632, -0.5001057465807387, -1.1995934749112327, -0.5955527627828742, -1.4020534420341217, 1.1840153604978092, -0.014003197171757461, 0.1185036320593911, 0.6332110683515694, -0.09985253258134072, -0.7840582117929509, -0.4328078085067696, 0.37430357767254213, -0.06420562155031356, -0.7468128433460347, -3.5475532993040515, -1.8395895716319812, -1.9693061809811934, -1.2929626033354484, -2.4625923826236633, -0.9112426905976312, -3.8691023493992507, -1.963607944088009, -1.801834421916819, 0.19260657009695267, 1.3459715812902886, -0.8697677157158763, 0.9467091222031997, 0.32781991432755697, 0.030951168349152545, 2.5033058771645815, -0.04296504340963761, 1.2981998359246643, -1.5798225017594154, -1.5974800319353695, -1.4231739777257721, -0.4848216490217376, -0.40653813106595266, 0.30410930655928475, -0.12715372991070265, -2.091396256195461, 0.20554226186133762, -0.1595248803966975, -1.1242729647789722, -1.872762588632166, 1.3096038641396983, -0.9434668037317391, 0.17013482917121803, -0.6451965656285675, -1.3902649232724533, -1.5179966210452265, 0.08894106189361406, -1.3200091426407454, 1.4363652745966993, 1.1997087805673619, -1.5748152936934336, 0.80685469563982, -0.996135527480543, -0.43534300851972146, 0.48216669866032597, -3.2238605447809463, -0.5530128572183113, -1.237463531026647, -0.7781484165977847, -1.7553090071576463, -0.8505019442968834, -0.5570475881690148, 1.2062972523967905, 1.8394887751791567, -1.6389884813491744, 0.6255353193284549, -1.0765130966058103, -0.547420600509015, -1.5692139692712461, -0.22461075932824381, 0.343258801147316, -0.9065122040094061, -0.4110384749477885, 0.6820065495523759, -1.7069779638316092, 0.4248622967556564, 2.556680307223485, 0.7193544593769987, -1.0937727950231375, 1.474593399423577, -2.289799987772609, -0.7197413219206618, 0.089342529737872, 0.6431353536485167, 0.49137672381816055, -0.4211392905917719, -0.8388162658398923, 0.08418372118902755, 1.5757989475746244, -0.20214641034424669, 0.9212859172016674, -2.2015841367860314, -1.1618500625551569, -2.700001261678981, -2.9817101214221045, -1.4248348576258623, -0.585555414206798, 0.3906637119386987, -0.04273629865092569, 0.8677605430973455, 0.9700256314490554, 0.9784054989617619, -0.007588254805653662, -0.8991405339998216, 0.6255371779232396, 0.2932228197663863, -0.7588066617097374, 0.8601184859041122, -1.0374611436128724, 1.8286945759524935, 0.004665927785633622, -0.7748451343509163, -0.8850683602621681, -2.883037514681231, 1.1490570827258098, -0.5245950825886336, -0.5839784566293094, 0.5771701096766659, -2.2257197186927327, -2.3853937631893465, -1.6582210029373727, -0.878264157254703, 1.5385957002341826, -1.0490581691627283, 0.17603428819643008, 0.08254177624855488, 2.0219023236564184, 2.8566691471820214, 0.6569902645333379, 1.454546946515075, 1.9439164986126243, 2.267032694001559, -0.6845326624621693, 0.159758117788026, -1.825986791162016, 0.11882040395955126, 0.3697426630310876, 0.19660010911641287, -0.11906549370639606, 0.12387881725511594, -0.5025402936038526, 0.17279353090005245, 1.7517400169993416, 1.4016037223221134, 0.41357223227504003, -0.7805689561827719, -0.6396709178515112, -3.132910185600155, -1.093421358235615, -2.1462134176539496, -2.5099157136305976, 1.0164945589912264, -0.5521271486546636, -1.0329947170264095, -0.1298637380780739, -0.3978075483827942, 1.550040111219162, 0.2832094271188784, 0.8746880676749753, 0.8068354369051922, 1.6937284997045678, 0.606524464571474, 1.18893392459503, -0.18234750615238432, -0.6314208862686603, 0.4833948105951784, -0.0029600383044839492, -0.025476356083901325, -1.5102226866326822, -0.8712467890902196, 0.9440052091678075, 0.21734389701836862, 1.0705915473724887, 0.9979324255087471, 0.8181135937937849, -0.353231155917441, -1.5712414597496933, -2.0352289312727003, -0.7463123689564616, -1.7056558633915828, -0.01623974452964193, -0.2020535629278923, -1.1051006037768238, -1.0352145191799478, -2.101045661073219, 2.0003549424469598, -0.11066370377424302, 2.8000029480712247, 0.16898005801457316, 2.377885841450989, -0.8961731180569219, 0.26510275848301085, -1.0030805491214274, 1.4879607573012998, 2.487620830766425, -0.5527971785275264, -0.36004181007932723, -1.6825102776880414, -0.27076846765501433, 1.785122153165184, 1.0802036042388248, 0.8028524580037206, -0.6122949021069539, 2.550281167266321, 0.8879714115273533, 1.8901455963952785, -0.9200746293244432, 0.006499066001625818, -1.4171998072957068, -2.9964048464400688, -2.4964739216948653, 0.10032789491588494, -2.737212060414616, 1.1171689731150982, 0.8799828992405433, 1.263519125022398, -0.22163408031488857, -0.08051696064111626, 2.0192754339695544, 0.696289675993442, -1.0164832612066925, -0.6247579587751033, -1.3489149910313574, -1.2015770616269532, 0.5433628455125632, 0.46154017651929286, 0.20516896208454657, -1.2734054595485078, 2.5228799713104704, 2.196652360355151, 2.9607459329452483, 3.8901988111913557, 3.1258094539704664, 2.0906328784023205, 2.0717456107036494, 0.4456447609851707, 0.772820249949122, 1.1076480021692001, 2.569617755406677, -0.32883776184349944, -0.11339061561479306, 3.508292218533612, 0.7811550023476527, 0.3166575936536147, 0.27824061770593767, 0.527316300084725, 1.1336464129416515, -1.0847245811142416, 1.0811679572556538, -0.23668894068404717, 1.157253335316629, -0.7575241355235071, -0.015380392860943599, 0.9515570134619767, -0.170839628605104, 2.7972009835858, 3.2988625919230627, 3.449820473592195, 2.361224110733319, 1.1272311876626016, 2.2510219304349204, 0.6657564789636518, 1.7478770655323508, 1.303736883976984, 1.2566151058339239, 1.1198658316039363, 3.732218495141494, 0.8282234971070891, 1.4584446344935744, 1.608741779405308, 1.2414223927749586, 1.761517181398766, -1.6771177986214754, 2.51818556118483, 0.6857248515276712, 0.24022989386466734, -0.8824171927551674, -0.11764895008428786, -0.259687713111929, -2.257044935495713, 0.11927196460435426, 1.492276859873348, 0.3654310363621328, -0.3446057371552198, 1.8177238828218696, 1.8773896258913134, 3.831392131943216, 1.2278413734039175, 3.8027070902766402, 1.288065877366373, 2.6401490225672797, 2.938990929153096, 2.2453084030522907, 2.76323055721106, 1.0953506398656057, 2.0462938172784115, 1.829836656191095, 2.939518309018878, 2.3218965689923396, 1.5228731504173598, 1.6617972942499903, 1.1641446820837, -0.8257552772931157, -0.7997662669521756, -1.6728949989848834, -1.9392768621556629, -0.7579345520244136, -0.4011762118931223, 0.7576974147203086, 0.10219072078021954, -0.0560724421963843, -2.6470400441397675, 0.8497999138040818, -0.8891363986438939, 1.3289611648391446, 0.3670189414102011, 0.7842716657397296, -2.231036811524048, 1.9889268760028675, 0.34197619963351755, 0.8866884055055454, -0.026346330476921493, 0.10074695281157534, 0.7682520111680454, 0.7152645272582352, -0.903717664066009, 0.5329138522539507, -0.4784352978475616, 0.6339732285148278, 1.555548885478395, -0.918919450916841, 0.16822697771844516, },
(double[784])        { 0.5505608755143385, 1.2928832614154404, 0.44429699304121634, 0.49461283241863974, -0.9251844676570955, 0.9006586130434915, -0.17324901895205183, 1.2090004729471167, 0.09737563059586937, -0.7555779735393517, 0.5596713134066257, -0.048888231966676736, 0.562297111127021, 1.0076731135508643, -0.4780901362395044, -0.6156553818040998, 0.41873902103075206, -0.5729989941235718, -1.2105238039481876, -0.2590231672003168, 0.5248069012990528, 0.5761514460862242, 0.28431838833954526, -0.872134721385826, -1.8445978007698791, 0.18327645468929427, 1.0997775177558593, -0.5447831453060158, 0.8658934206532625, 0.9381607810925144, 0.8759798164332859, -1.7542412541072534, -0.4697894883768812, 1.9293213740819524, -1.0961781367475745, -0.07594852217177057, 1.3648574369735844, 0.505955864379209, -1.1980283708813448, 1.6714389271259185, -0.224290906396606, -0.02737861617433168, -1.6703554426457177, -1.0089424721287854, 0.9901044384075482, 0.6611440693991635, -0.9254892494037218, -0.2733796426203117, -0.18776373594629173, -0.5892949420658912, -0.05671315873830243, -0.11389519304047112, -0.0359241988931988, -0.768809603883765, 0.591143580167172, 0.366480367876404, 1.0148377601613794, -0.4060920985295445, -1.5384042789902976, 0.3579525795507529, 1.0535632112043747, 0.07634290628631847, -0.5267401271807743, -2.194225160410816, 0.22845462423062082, 2.4182505964352776, 0.8661254294251302, 1.9515070414201583, 0.9106673176903868, 0.16085847382746823, 0.41127681609689776, 0.08093882340997645, 1.279166875726801, -0.8466750607366823, -0.5916946941319815, -0.85539174027028, 1.408282827522057, 1.369334525272987, 0.5526611404797769, -0.49670476164819355, -0.622950695897526, -1.2076960002820247, -0.6507653155662788, 0.19135230539387196, -0.8185086022847107, -1.8427764930202217, -0.738994636070143, -0.6251949106154988, 0.3621179329543623, -0.3627909487617079, 0.45256698024352254, 0.4778198895762274, 1.4963392782636982, 0.5520524243488278, 0.09183313449915403, 0.5219151053040088, -0.5172996039482569, 1.7888671649159347, 1.408261767769436, 1.831150012137927, -0.5220985981854759, 0.11762991342758991, -1.0903295995559632, 1.1305929372975059, -1.3538095482263497, -0.6751504631388527, 0.6445834735611996, -1.3621920187781285, 0.9949487877626318, -1.1752769628230926, 1.4613764498029393, -0.0028187486733066733, 0.8740297298020632, 1.2269528849327935, -1.415439451413682, -0.4799438529713401, 0.5888062860342906, -1.8455414850626146, 1.2247251346284453, -0.1412411188941411, -0.868315165633329, 0.018357573587864693, 0.29683395265592455, -1.4203215911889406, -0.25956625855847754, -0.3246888333929177, 1.2551600005658916, -0.6425678670229829, -0.21361123347187447, 1.212174060490524, 1.2610820906005646, 0.7470477835365406, 0.3989801403504306, 0.06739077459028549, -0.712219222064731, -1.2355695633787935, -0.021105976007736962, 0.7337876575159347, -0.28683976817483947, -0.7964707358679249, 3.485153685375407, 1.7664616464789116, -0.8746182073754613, 0.5257074872152387, -0.0018858124567304056, -1.0314783005725112, 0.3940146265409645, -1.6307346487837016, 0.716628079376165, -0.3409294472823672, 0.043305715399127066, 0.6635729913366347, -1.2103134640422737, 0.3137290337168435, 1.0929835350274264, 0.3321524977050856, -0.9013713929494082, 1.210272340191554, 0.15930503903971374, -1.1593930183980232, -0.9761948523590109, 0.7104705953982153, 0.4641359343382182, -2.8025643851698954, -0.9738335151991376, -1.194689627490295, 0.5187219902630227, 1.950101727540048, 0.5479103454177511, 0.01729934805306381, 0.5214255159010368, -0.27489540713559873, -1.505099284432052, -1.1723243190454942, -0.24070648593690633, 2.147416793827669, -0.26895563202665584, -0.09779259746931562, 0.20535396945959483, -0.52412216380096, -0.5126311117079824, -0.8401028009484582, 1.0093102683099762, -0.7241745710815309, 0.9048964100907748, -1.9833431501099361, -0.06778404338938644, -0.8364161769835131, -1.7390386440340222, -0.14430539011014307, -3.4133891649755386, -0.3728431251245585, -1.1827082432023466, -0.13604946620996744, -2.118795982873967, 1.7798640160003696, -0.07734066771959934, -0.10858417572603192, -0.9048995628168023, 0.9054384807342557, 0.9742287221993068, -1.8939471625995918, 0.6892383940340157, 0.012356493905007603, 0.6427930220952365, -0.12547406305008882, 0.027828173918202918, 0.47309132955222677, 1.3673484840971921, -0.28856409884868206, 0.8139358117886581, 0.1563089470145803, 1.2279423476978437, 0.7559011999335538, -1.3771839498085061, 0.32672219114576473, -0.3588319103077928, 1.284250283221656, 0.4338077574816503, -0.5138738241122752, -2.117524491306592, 1.1245511659103866, -0.6254814770018283, 1.1036873630734192, -1.4003382158608824, 0.894165021819799, -1.57768866569722, -3.3574105853916665, -0.28906158809512683, 1.9439688847536083, -1.53143264066382, 0.5323223644175357, -0.8988230480080246, -0.5221880448426771, 0.7991292926898746, 0.1733088766657395, -0.13995675858718018, -1.4206934837718215, 0.17623432496775607, 1.8542761095984224, -0.6407424222728721, -0.1278670058298641, -1.103153977876937, -0.663446289575529, -0.5085233401794325, 0.48220297882359864, 0.21618357349561573, -0.8246199910151721, -2.250011563208084, -2.721350489584443, -0.025602923938236457, 0.3328512038965382, 0.9184812386512206, 0.45022917305849086, -0.7511087808141643, 0.9831997912462228, -1.1724758953826182, -1.0176839161742202, -0.03137385773189383, -0.8939774585496207, -0.15022774038636544, -0.22126633034841448, 0.7300693614034179, -0.14975943961556742, -0.37826265336467757, -0.699937503600546, 1.4410062334801925, 0.817129668385438, -0.956176548797341, 0.12236879423892581, -0.528863477445828, -1.2102459214944359, -1.7818589496727915, 1.1014750041073946, -1.7319194788049368, -0.9240169755399913, -1.4510910226170743, 0.7926514552658528, -0.5788790036780597, -0.2965429883106395, 0.34693641442363965, 1.218154788362308, 0.6581818223984526, -1.5820012354955606, -0.18549582767531456, 0.7912955117771185, -0.005284120375674304, -0.8195058565370362, -0.16008908463963498, 1.0649940119378971, -0.331632578219457, -0.28512619399047917, -0.42188902941934775, -1.9372897469856136, -0.17912586064139854, -0.28593833892406667, -1.2528655058866105, 1.0361312117458652, 0.2587544412054862, -0.5617766987747438, 0.04810194275863266, -1.0597303198017842, -1.5448421697402481, -1.1379259894302804, -0.0659793183837063, -1.0378538240620854, 1.29388065556692, 0.538516615845153, -0.7642664713887067, 0.33920404922608205, -2.6965911311029127, 0.6680472305726779, -0.5957721127112665, 1.4644289017931775, 0.4125244680378954, 1.077142970533604, -0.1664334116977413, 1.5690747354634, -1.758958089027132, -0.1622146897363919, -0.7655364200991057, -3.1478288518276196, -4.146102632983774, 0.019047676427482844, 0.3163964212734895, -2.3211696838938622, -0.6021051403949926, -2.4308685864639097, -0.04873282284737858, -0.5504265200055023, 0.6467935827130803, 0.10867927189301177, 1.0529795099266912, 0.9683606794817881, 0.3562554017235529, -0.6963491840694068, -0.9440453826400936, -0.8193566940133405, 0.08408410760053517, -1.8941499877275023, 1.8143093224935276, -0.5485250763527771, -0.30212266199011106, 0.05529464233375037, -0.1594234989513771, -0.5822962674892163, -1.7369488084772362, -1.9854307576816221, -1.2122708568600224, -1.6178587258505224, -2.752966392449929, -1.1393559708414782, -2.812184580115948, -1.3359996694549747, -0.34256889256345013, -2.381975120022235, 0.04429278431167375, -0.7275967959115508, -0.8843523954676701, 0.4383784145680176, -1.4175457427691034, -0.750284562919285, -0.6727318639810382, 2.5038978187243934, -0.3953264156393414, -0.3230400687385844, -1.0113950640997962, -0.7558081389995498, -1.5900068465598998, -0.40557940255839775, -1.3214402755330783, -2.460354011370771, -4.3653991204573135, -2.030322711024832, -3.6428236398436904, -0.7523607155681148, -0.9162444317672098, -1.8485871488342787, -1.7467623545948119, -1.1651311565260802, -1.2095794169356857, -0.603381093861409, -1.4687415654754095, -0.5372286358315201, -0.9051228785453062, -0.5401795293246727, 1.0281514693283826, 1.6770121683311054, 0.7934699624036781, -2.450269662467641, -1.5235724990974857, -0.2382221329528618, -1.3170117567215054, 1.2627181122748972, -1.291823071600387, -1.823724062588077, -1.1703894765564957, -0.4243086378807655, -0.6675491078749541, 0.16953596432155743, -3.368679926173084, -1.4001971717342414, -1.951783559005311, -0.7276924703893887, 1.9187553333463438, 0.057074783997883356, -1.3772814185169813, -0.5826939442614477, -0.15733461902095602, -0.16811163222487424, 1.409873808800782, 0.32779535628244877, -1.2497441933903295, -0.2891841919145056, 0.8314462542403762, 0.5263706194571877, 1.6500331675783646, 0.7160538035347879, 2.7301003053697652, -0.7987060066553674, 1.3988306480614783, -1.1952740370150121, 0.28571697114041106, 0.3638887143396999, -1.6262844529743012, -0.6161751135503352, -1.8785511286890944, -0.9982887975222066, 1.4430524916998573, -0.007466325190190993, 0.8254248831179591, 1.3953960679924442, -0.7377075115413064, 0.3872434818227751, -0.3873834225837479, 0.0991604009370297, 0.22172466957416018, 0.2171222976302163, -0.2048336533303603, -1.1624730997672712, -1.7877971650824032, -1.3229922803334857, 1.3145045587682171, 0.7254269694269884, 0.4880803822630607, -0.06139835986075872, 0.35389382014763077, -1.5015343908409688, 0.008579153419498784, -0.46747501866985186, 0.311025688568237, 0.5366804998716367, -0.38458405560648196, -1.9401610554754607, -1.8982655812754996, -0.9622602066210284, 0.5924525635211814, 1.4449381733533875, 0.39067539005514734, 2.2372003197727954, -0.9334963816201407, 1.9403559398388854, -0.1645306646771145, 0.06246197862981605, 0.6657071223463201, -3.406280678817533, -0.11641285050377409, -0.9471728412888959, 1.7704827799182574, 0.7748780421949937, 0.5101583477809295, -0.45624869036393256, 1.4908693565170112, 0.4186495608527976, -0.5504846040349326, -1.7961702135079027, -1.7263366772724782, -1.4832343538539083, -1.0557893261411109, -1.5410242524342126, -1.3012259900290388, -1.0821739248679483, -0.6858562837823864, 3.051836287906308, 0.3008434621696212, 1.4609444523242547, 0.9635886788040916, -0.6644066901489524, 1.613242032455895, 1.0100294901889135, 0.2114893493521496, 0.519227700507702, -0.12647648021096242, -1.3937675948175705, 0.542887503684379, -0.09092301516948677, -0.1508512500707248, -1.6028756265787873, 1.699054313596576, 0.03834505505759175, 0.5858417691518678, 1.540165776465865, -0.5543847974042692, -0.1512945462070799, -1.8062248414983368, -0.920614033500571, 0.9803850795797233, -1.0747837178371196, -0.9629355964384052, -0.5146012343787923, 0.023899204002216443, -0.5793327336688711, -0.12748858049510375, 0.9371976696375495, 0.8465238234384953, 1.6693063325259603, 2.4253391962622977, -0.5724997787144748, -0.18578950679967113, -1.586586695781875, -0.03613646539156175, 0.21956126065717915, -0.2576269150048473, 0.145489989549247, 0.15241197609315443, -1.4977636275128723, -1.065472886383174, 0.3552774840307332, 0.46039499795528394, 1.6982805574236899, -1.6769792602806923, -1.1255882383742237, -0.5418950363491508, 0.7326711059194198, 1.795050148370958, -1.1656509317836485, -0.14382227846978332, -0.36899104803104105, -0.8089287784825882, -0.19319426741555895, 0.0761623685810344, 1.9525312231382326, 0.47106417230513076, 0.7465034753258701, 2.8511585174836513, 1.9544465128472592, 0.19419550208699682, -0.19426718327541453, 0.15398093365762486, 0.5778706152655193, -0.48062836406309006, -0.6435855509757159, 1.6972044743219186, 1.3814969875209622, -0.8565153223281752, 0.43502472981740287, -1.1688012139815236, 0.11276581811206524, 0.13036261798505355, 0.43127551558598837, -1.3900379265303775, 1.9508866096471948, 0.795240524239888, 1.9813581595478351, 0.6466173306385995, -0.3083905812270169, -0.7081712370173198, 0.15917113133411262, 0.038972675468516196, -0.17471351376351132, 1.4438235448516386, 1.7465770496519444, 2.2863080039296317, 3.2674155416873334, -0.05051775862066346, -0.0483742072397834, -0.9484191103672326, 0.2359317067959175, -0.34205294152257204, 1.0747726732790552, 0.6153390670238912, -0.33426920476881145, 1.1710639894770891, 1.966647872199973, 2.0085106817517095, -1.0865026207359072, 0.026470899388021264, 0.026402591208406948, -2.194147580060683, -0.7433051562623219, 0.12336464347915196, -0.20942797325816812, 1.7101360117642108, 0.2279880613902688, -1.155907162397903, 0.6911191316623594, -0.07555560622469533, 0.8566136564907638, 1.0157365593832919, 1.1355504750968182, 0.7627006863693438, 0.2686340411184739, 0.2881161743948539, -0.4157826513713061, -0.5536545256263522, 0.8803206135140816, -1.109593100605408, 1.1505535554644477, -0.6104443339701398, 0.06301330503911785, 0.39215860767804495, 0.30255996567821664, 0.8636698151712385, -0.5814150574870517, 0.3036133027755558, 2.1578767362278226, -0.5351824772329102, -0.5564154931892731, 0.11824893162202502, 0.013617296852677973, 0.8249769232376886, 2.2063912144362487, -0.24617406949616058, 0.38870907525039045, -0.9354652272399105, 2.159510669060056, -0.8202192887428446, 1.0479184371430759, 0.3968915490530054, 0.8404894356081103, 1.1344073100964234, -0.6016976170007493, -1.1643418632573723, 0.9324496578800818, -0.6734649815000381, 1.4609927813736303, 2.2406668175321753, 1.6635890866043102, 0.7349136881572004, 0.27942606968681244, 0.46659631587637296, -0.8164850426516406, 2.1220292892108876, -1.1093549033673593, 0.5334297581518553, -0.5473263519541613, -1.0200904975735088, 1.0875600066122946, -1.3166026692014283, -0.25210366803402673, 0.00674601620458843, 0.7513593773215966, -0.1668080027547918, 0.13293251353085192, 1.3799042166006876, -0.3567204409363076, 1.2041942949546875, -0.31780658026248576, -0.23972196460741368, -2.4951780936182293, 0.5397301386582369, -1.156180316311445, 1.6950183686665614, -0.4593891152356556, -0.262378928147847, -1.3685374551612266, 1.255355330615173, -1.2000894970937832, 0.3427568852430842, 0.7474795730039855, -0.0013668178951050287, 0.4404967653456112, -1.0526263105550961, -2.090455226782784, -0.6167810085592028, 0.6877142388480405, 0.6441809956474716, 0.5675442860954577, 0.6646438029100247, -0.09043616092302241, -1.093385533202253, -1.0060407548986514, -0.4720992462454601, 1.0568291964661258, 0.16355946863862847, 1.6820940512821398, 0.5655920602203146, -0.6618630086531136, -0.3519602322664345, -1.8143720304148137, -1.075855151070744, -1.4700248636156215, -0.02006820342857766, -1.7932430569692572, 2.643416830865779, -0.1946951857875373, 1.922315671949604, -0.1882290055367928, 2.6303564134963886, -1.46489532675937, 1.4043780855875427, -1.3082431541713249, 0.44159560030760003, -0.015215803992159044, 0.37017834429030394, -1.178791719223947, -0.5312002161774415, -1.9082572907435011, -0.8572131162759223, 0.8702345947680514, 0.3075537652496691, -1.0296693477419372, -0.40035985492490633, 0.6643693950040158, 0.31768480254289283, 0.4651887970339362, -0.7422359723778769, 1.421850112541095, -0.9320747305743913, -2.05001493970821, -0.884915088993214, 0.7918825201686253, -1.1815513352527565, 0.2731748952806001, 2.925700504309939, -0.688826671798549, 0.6946174452883273, 1.9494381042680866, -0.6936027644981635, -2.5996868874817967, -0.3779895577932518, -1.5188820825833873, 0.32412832026210603, -0.9755228020774811, -0.13742686268112872, 1.942187255604147, -1.5323618181049583, -1.9589270226686173, 0.4395209432364998, 0.42157624507258096, -1.988286317174938, -0.06436367452398412, 0.12373401503580447, -0.6231059782062616, 0.6857441450863615, 0.32407503651354735, -1.3590013232446205, 0.5670366949128433, 0.5812517164388904, 0.3928427506622647, 0.7805127309716331, -0.3673666937354935, -2.2252821248165415, -0.5063073635012619, -0.8564178075292628, 0.9240318550832158, -0.43650911267440384, -1.416988271160676, 1.1368945258864704, -0.06005857433167712, -0.731182724220769, -0.5948634646171268, -0.9068594377607551, -0.6680591761724552, 0.04774970032236491, -0.6257945734926803, -1.0150588300473504, 0.5113384552278204, 0.8613391772985602, 0.8621571029387889, 0.7974037577027874, 0.22279183051467477, 1.0783717418497702, 0.9909172626053586, -1.1916319984492547, -1.0615720233682022, 2.4706774734389927, -0.02666683251952897, -1.0842066646681017, 0.8719625090616376, 2.3476653315810254, -0.3584573933033713, -1.6435266023925468, 0.6893700349452192, },
(double[784])        { -0.27826371636163055, 1.0591465458913265, -0.26100340855986837, -0.6276358924325093, 1.084481671844603, -0.4116926031194297, -0.5501797482948205, 1.7300312089854688, 2.282929303405165, -0.8277313649408954, -0.735579397173588, 0.051990947337572896, -0.8068482669232688, 1.3802855145888937, -0.19779221209685666, 0.6226606673701796, 0.32662337126331703, 1.0517751811176401, -0.551041240219861, 1.2259172515363057, -0.5231223837716019, -1.1454087006450993, 1.4041804252696755, -1.2057698849136465, -0.2237620994419382, -1.0376846649536704, -0.5258174364770065, 1.0291502382107705, -1.4334567331740808, 1.6383314176761836, 1.352166048948566, -1.4282501545252873, 0.44269689130949275, 0.2982145323142097, -0.431814995484389, -0.3982925589433061, 0.7352459412414164, -0.333299455614555, -0.8730140695706606, -0.9446170923652917, 0.8573269881771826, -0.5741002136679271, -0.824233427899531, -0.11172703092941966, -0.7969088026819671, -0.09555947529842332, 0.5342941850020078, -0.5285105203692086, -1.7004409415766613, 0.7758415827797571, 1.8740128759206123, -1.7778981366885847, -0.1893305716056421, 0.8591923018413851, -0.29952833147753544, 0.27721674451589545, -1.645170079518155, -1.1662921550803413, 0.6966124748577244, -0.38538923274262954, 0.46552374272429836, 0.8186744607064403, 1.6230962397358006, 0.7554682503239003, -0.43229120425892376, -1.7276455226235286, 1.7890860407211258, -0.9442084063431744, 1.0622578647575096, 1.3247682144815003, 0.8220647979046932, 1.7565064300314257, 1.377222116559696, -0.41812298689743743, -0.1300975439639475, -0.05794885683121188, -0.673850043051763, 2.237875679349284, -0.7387321047153238, 0.34757010491299006, 0.1467504096239474, -1.222053075904002, 1.539502890889915, -0.4469866634063707, 0.8732241464599089, 1.041679548939582, 2.248304929330315, 0.8167312248287341, -1.1676597804314395, -1.3613770303289972, -0.9779085519387695, -0.1476648481680934, 2.424809762055519, 0.9335119540471066, -2.207234220973763, 0.03642012990948043, -1.7788162951221351, -0.6025241554689456, -1.323310490432763, -0.814844645064859, 1.2316420991878179, 1.2045117862151038, 0.30486478718371984, 0.10587936464877379, -0.11648972116465457, -0.18683077771281292, 0.14641935181271384, -1.5904861538366073, -0.83972964025734, -0.7680948872725771, 0.9808125689290518, 0.48225572710103776, -1.4497919185037125, 0.7213352479391939, 0.36771416695381315, -0.7096167632846997, -0.011744765963282479, 1.0226865194699055, 0.6659395038253858, 0.6685788760027047, 0.39557994463492635, 0.0037133987067525884, -0.683820440984363, -0.27036501878260444, -2.117408788874771, -0.7283536304245626, -0.9163642704649154, -1.9267034565457748, -1.973944211715243, -0.33003255781634244, 0.16125912516785007, 1.8328272885086339, -0.41892202342856394, 2.259485558511885, 1.5167680460015909, 0.14413705022296786, 1.309406747070768, -1.3704980721345135, 0.48186644817553703, 1.0039567296990626, -0.11351643072841758, -0.943437992318151, 2.0682928693709464, -0.8657332652984849, -0.31442113257758664, 0.5604839266123872, -0.7898402621015957, -0.28380849170824834, 0.3946407791439953, -0.4285334666768246, -0.5387619507722695, -1.155412149208433, -1.230909977045732, 0.4737925098445342, 0.5717729195522541, -1.371183184437832, 1.0189206178207848, -0.9655802430766302, 1.598066526201626, 0.5345584262274387, 0.22750263505295454, -1.6648109452721218, -0.6203027362912241, -0.26626371016822165, -0.3046704794331945, 2.23629330721319, -0.2830497733309048, 1.839198459548802, 0.27466718667309964, -0.16337715001415812, -0.2713897657002526, -1.2413217775183025, -0.3531756332508443, 0.7980976910075681, -1.0276625958236325, -0.08420158153698107, 0.7037188242918414, 0.0403884833785643, -1.9567245857984543, 0.8592785046022595, 0.8158105743260302, -1.4094789188395103, -0.4975137454569339, 0.7186056251234557, 0.8952266073334749, 0.49702805475038153, -0.22741852297433257, -0.9331733558948903, 0.8911785248728419, -0.05167889662437282, 0.2500040049825222, 1.1958503925645552, 2.0809357200773055, -0.690062572255214, -0.84559338630755, 1.9446570783483181, 0.3524808848097761, 1.1439742804647577, -0.11649257616335247, 0.45748169682126827, -0.9346833606719742, 0.9928054791230073, -1.3405427545785573, 0.8132624021682024, 0.10590003020972875, 0.5303765050272399, -0.5933496441726603, -0.4351608032993856, -0.013782711040425116, 0.19541280908511327, 0.24791726754379045, -1.2007591904747619, 0.0433793773975449, 0.8753844698940346, -1.2340779987812096, 0.8956219427126699, -1.3459446845937175, -1.8525065060477213, 0.7087591372463689, 0.3403649598693752, -0.021831561008485344, -0.5756886323447853, -0.6835426580006462, 0.19953732694068288, -1.4599417248786617, -0.33016733044714086, -0.3930181262430613, 0.36045421299511354, -0.07817616658786904, -1.6017317563883673, -0.7032389090916026, -0.9878276047876962, -0.7274239719831735, -2.212067594385823, 1.28361712676538, 0.19410115740440567, -0.6033118396391343, -0.010379660155516513, 0.9744875893530498, 0.4356497452859788, 0.12634796064849343, 1.3263054406941, -0.7196967039934621, -1.0684230872332225, -0.583865020825382, -0.6496006010596148, -0.38500290130404013, 0.7913019644040793, -0.5515913331493918, 1.456656806713976, 0.4361348154264244, 0.30280038904756934, -0.009077576276080333, 0.500040843809171, 1.43662722574159, -0.556505793571939, -1.3525218309997518, 0.49799802444009733, 1.9092564743253306, -1.629514191204363, -1.857366971671301, -0.6352792675390373, 1.6493981361827998, 0.3158434650405167, 0.19794411378814294, 0.3954918439720751, 0.41724629519459916, -0.1285787829273999, 0.466715786108411, -1.6518165822305904, -1.6492853447672473, -0.435482240413185, -1.7221186832100353, -1.2998984210392632, -2.251912034982373, -1.1989820708209773, 0.12311935322797819, -0.447262147203038, -0.372524482703895, 0.17115226326291688, 0.2361848482469836, 0.28032153902815554, -0.46015469217144944, 0.0878769229594686, -1.3847367227601373, -0.3233775732693601, -0.9284435752232455, 0.9780894710624773, -0.24211584058275165, 1.2384240281771552, 0.5790771550299874, 0.5348063829811591, 2.2898576832764763, 0.8897713439407422, 0.1210255877280893, -1.5468404637488484, 1.3492374198128598, -0.715065287700749, 0.43962237415941025, -0.06966789959949493, -0.3549804285264373, -1.0374970640033159, -1.0738378300009703, -1.6785399758274357, 0.03565870004321528, -0.8562019400355143, 1.3988290347406422, -0.43887605943506186, -0.16548261874405804, -1.6324054970818602, 0.5932898397431279, -0.5369455439750481, -0.5603179109824747, -1.5810716843630053, -0.9182841921030186, -0.36823585052922236, 0.39905512600857435, -1.0096129959878606, 0.15884720431578833, 1.6350517654252392, 0.42982040798608173, -2.190947668860503, -2.8089319965286736, -0.9537934292419763, -0.191519174292957, 0.6922415479433643, -1.3486897863827225, 0.32026336831726826, -1.4100939699312556, -0.7753139015888497, -0.5901439657245833, -0.24281411738577507, 0.6560525414187474, 0.44577719662843984, 0.0075645258361747075, -1.0249327547592464, -2.3602778451889894, -1.6471814177890196, 0.5236738059192113, -1.567187303519943, 0.7521802332390616, -0.3034792698846057, 0.6275714564361559, -0.3138231387908914, 2.2308972396304307, 0.48731853144505427, 1.0347094981001115, -0.5001960579923639, -0.4021597178881435, -0.997851130537951, -2.518935751763169, -0.6963483060559977, -0.10705845193022265, 1.1445029298494125, 0.03282956047764437, 0.7418976054760921, -0.2081889112721342, -0.22149319373328274, -2.1091273341851333, -1.10146518708074, -2.295308274645896, -0.6796878807604043, -1.5119276349210837, 1.0029984255187818, -0.7274358459705857, 0.5162425319712555, 1.6848513682712807, 0.4035382478831138, -0.5282606321177523, 1.394542139418113, 1.8690037274789284, -0.6162408127346591, 0.09761965247903319, 0.2350408055385483, 2.5587344419750977, 0.7603089995582738, -0.5324133857193918, -0.15083109202179487, 0.28172754602121675, -1.1119900425990827, -0.08841495814089961, 1.6898284751926538, -0.046848408348487906, 0.6970039307884214, 0.9869656072789933, -0.3446069462707264, 0.352484035207293, -0.3351877886089255, -1.8471373007378056, -0.04521922415512485, 0.2942438532615973, 1.0066125592635136, 0.5426812903122965, -0.15496025115731843, 0.4821643781435201, -0.1716367926409817, 1.664905488632925, 0.5649336710217641, 2.2439236450374462, 0.7976003847352249, 0.14106211565305568, 0.7889306459380319, -0.194087270435064, 0.9039966962351721, -0.30495767374156757, -0.3900853598160008, -1.7059362228720796, -0.5554923703755337, 0.913754452837545, -0.18925874161008838, 1.2239284983148122, -0.3856206450325117, 0.8166559148027692, -0.41850528688836874, 1.0660968440146876, -1.535502881976734, -0.6704359475630546, 0.02156407039942431, -0.00028894372729911113, 1.7266291540554526, 0.40951288525410207, -0.4468198965772789, -1.3949320108672936, -1.2296757674466328, 0.5253138881837485, 0.9880174072941255, 0.9969567502109294, 1.0545343613493428, -0.040000629627740356, 1.376713020238693, -0.484431762308768, -0.3626050706413996, -2.08331082170826, -3.3496902835370017, -2.952965602560604, 0.15278491264442542, 1.336561048733733, 2.6008365017756425, -0.2875516550335721, 0.354369104810651, 0.7566861993994841, 0.43322168459287713, -0.8351906213480981, -1.6608649231499053, -0.17138165029331118, -0.22871753216801674, 1.2193822230396487, 1.4645807304871028, 0.6093775104847784, -0.41515726074927745, -0.376846936461743, 1.3195591775248634, 0.5205090157281778, 0.6436452226099432, 0.2971488417953595, 1.7928272057375139, 0.9982424453521077, 1.6540230575785755, -1.146504936660256, 1.7434349225123746, -0.4882354718894173, -2.667028263806864, -2.4855878140371477, 1.8232832440189861, 1.7420150233335023, 2.0400323051435665, 1.7361472988565179, 1.2587434134744, 0.8938440177460315, -0.7122140924970558, -0.4038137121394064, 2.14995895597663, -0.07717005892814335, 0.45932393221342266, 0.5077111554623535, -0.2331439306125106, -1.0435995581509292, 1.224998923587575, 0.09796365499712156, -0.12398069428537625, -1.504280960270137, 0.4184528022316965, 1.7599283602187814, 0.31275822329478303, 0.356565007754992, -0.39769569002103233, 1.055404338999459, 0.4807044447066707, 0.18678547705741863, -2.6194792487719987, 0.03753597195831696, 1.716407078392696, 2.093493234834602, -0.4837131196776866, 2.693905498683096, 0.6041917141400301, 0.5625546002824239, -1.2009347419838186, -0.4590123127610582, -1.429473709449992, -0.13509596475604135, 2.5468790025303916, 0.30449220669425264, -0.7046118480141461, -1.0394605083171837, 0.05457390762563408, 1.4850631941426526, -1.1410332664743796, -1.0715806474873282, 0.14170105160222451, -0.4840231571557716, -1.0626674487059604, -0.4635110714126207, -0.31395401999122585, 0.7627925465549699, 1.4227740857111897, -2.4453306972778144, -1.2538959351174293, 0.5845738806550351, 3.846076578425851, 1.862968884150691, -0.06584535996088484, -0.4242140582141202, 0.8899662275105512, -0.24530892973911672, 0.663813519064065, -0.40240802209283466, 0.49112448848819423, -0.4816425143213775, 0.5513296415728274, 0.9123904078313667, 0.43858287028360393, -1.3108455041609997, 2.574209939107745, 1.4351003048320732, 0.4984562726796404, 0.13046018388505584, 0.4068430953139495, -0.22151431520229264, 0.22264318292522217, -0.48840416791474656, -1.9220495108782099, -0.2809943443018167, -2.166926279376406, -1.3082394549572023, -2.5589121091364455, 0.23868731712494964, 0.2963560500312955, 0.9335708875175901, -0.3686751856516851, -0.2113376914325197, 1.319864692658488, 0.3310930916076244, -0.2239544226972938, -1.3081028961265204, 0.7349108657354524, 0.13532224470012133, -1.0023021683869933, -1.1369808021798116, 0.32396013105376054, 1.0480230694881882, -0.6615988754176108, -0.5255106061690148, -0.427459551248184, -0.13911303339873737, 1.6023692946196675, 1.2963010798112933, -1.2783197992297233, -1.580154777609401, -1.5225196868553905, -0.17801654222745739, -1.6189591949338578, 1.3773075314114618, -0.6616284709915317, -0.6483385314206865, -0.11535641759001959, 0.762013205360447, 0.6867017822429198, 1.1719883211179174, -0.6361843678169619, 0.5264886714951159, -2.3996140068170893, 0.2200359026897635, -0.5778784647438191, -0.9942035500650105, -0.10412744196834477, 0.1685367634770277, 2.02841346107158, -0.25102376444805624, 1.1271335174366852, 0.9577598528474203, 1.168979891448175, 1.1586093837860152, 1.5879816117848653, 0.4662931878179976, 0.1843597788158312, -0.11259140949349551, -0.15585716379558934, -0.37987554811281, 0.6571454416051282, 0.47658567021994175, 0.06770022740152527, -0.99560825167552, 0.6404772315285223, -0.5783259735260329, -0.23835722084653385, -0.34482704814694903, -1.4164674469480203, -1.0642880217905313, -0.1388216112490859, 0.32830001799697883, 0.9208481368603972, 0.5981783143144344, -1.365227766200662, -1.2668016379205924, -0.8109020695397131, -0.6042759606417553, -1.3167544397006832, -0.8780884983394601, -0.5157274199705126, -0.8291888434103059, 0.5279764180849223, 0.9756283492592671, -0.055221355666746824, 0.46786136744099355, -0.8553615264160879, 0.16508441485601552, -0.22037370957817207, 0.06583399776984822, -0.03436107019747091, -1.2673324336964822, -0.07881871383468297, 0.7311025545721429, -1.1760402373385648, -0.2503145257269685, -0.8145800728580896, -0.1480521091943003, -1.7593696221198223, 1.5754874427732675, 1.4742857838125243, 1.050416326766442, -2.6594098031996376, -0.1837653294943957, 0.42649917568029144, 0.11598090414940217, 1.2608132138479728, 0.09204417845995015, 0.3842162391471695, -1.018497318264131, -1.0295049052909298, -2.1361277069419224, -1.175906189796462, -0.5840527625068903, 0.400191976809915, 1.455961618047765, -1.2085278265525876, -0.07734878844847769, -1.012609579982893, -0.4170615680582894, 0.4438981324396207, -3.0328259814555945, 0.8558026211338496, 1.0191380941663906, -0.9918462757900537, -0.609884559201721, 0.46559229065045343, 1.5695473775262792, 1.3300677537007992, 2.576020918313154, 0.09298355029683815, -0.9410401795006246, -0.018151479648773092, -0.41608338696091846, -1.2437663363729317, 1.0011715818848834, -0.6432559016410867, -1.0823202513406576, 0.09570929456832804, -0.1359662324550694, -1.1601156574977172, -0.18407003671776892, -0.4034384230152196, 0.32002719285507525, -1.9902129534483282, -1.072439044708413, -0.44262863369491295, -2.320739866807673, -0.6524398616155593, 0.727690536397694, -1.5389708315319466, 2.2371212379269454, -0.2380304780690317, 0.28747281328932994, 0.061297216372915096, 1.0742775813041041, -0.2546234535134848, -0.007982913042980247, -2.5889720468180157, 0.28997912979518864, -1.2069526619622413, 1.4696799697630811, 0.2802664358309454, 0.15536537635464134, 0.9080906416689403, 1.5447663688506361, 1.0285540500827455, 1.1802199115730112, -0.47374357538742995, 1.003947940241667, -1.482781214129182, -1.0680604916615615, 0.8174187536846047, 1.3576138990089126, 0.8966596792141821, 0.9911935264271187, -0.7738448223088017, 0.5520916021632832, -1.0043154912055352, 0.37774481927797904, 0.42170308271303786, -0.012523416344299888, 1.0951060860211066, 0.43495053521509436, 2.3743747268916926, 0.11986521475733576, 0.8864799002669405, 1.0722952733537257, 0.2664392953528672, -1.9632152521875696, -0.7199560489724127, 0.6961459456531784, -0.2969191817700721, 1.420193759524528, 0.17296910460306245, 0.06471284339563008, 0.44964676035729145, 1.4193045950437821, 0.3181788755405262, 0.7967255624755281, -0.5335506448211952, 0.19446291427711632, 0.16158263753511698, 0.14956926117028624, 2.888918049675388, 0.31425860198233674, -0.8850550410684367, 0.060103663364993475, -0.889292530135903, 1.3295175606962237, 0.37047274686479437, -2.4900229768313697, -0.8519239658968668, 0.04808158085395077, 0.09163226483795796, -2.1616925645435576, -1.3946172766760858, -0.2660796858538427, 0.2972267111668085, -0.3672287051397812, 1.04283227431214, -0.3705357735319636, -0.6779509917359094, 0.3348453835753998, -0.4913611490451705, -0.38406851339310033, -0.11341590857268201, -0.397562928097772, -0.045134605673244094, -1.0734241975600767, -1.8209992057409328, 0.6460031094293978, -0.9603320497986845, -0.4945769576622045, -1.0900802882235352, 0.9664299776007481, -0.8289595611348035, -0.19998242253537113, -0.6785723509223659, 1.375754972574, -0.8235488772478349, 0.13084105363004198, -1.5504384279612609, -0.0945552731818374, 0.4923095493955443, },
(double[784])        { 1.0681381171418767, -0.5637247287117725, 0.6137758729746746, -1.692430595831234, 0.9062030872503375, 0.13361754987788418, 0.8801696668862868, -1.7046973160017167, 0.8874217553523505, -0.6106740315485398, -0.8120881715298297, -0.7510145060265149, 0.2568126470840767, -0.021329607071736558, -0.9123995134826731, -0.8835133240921835, 0.7536512187727712, -0.924180859721641, 0.9565479987977334, -1.8324497434664766, 0.9007551329144853, 0.26891940211717835, -0.01707187277398109, 0.8358816367067051, -0.6750409246458988, 0.6697499138088916, -0.30939144264067153, -0.15455740978879254, 0.47201440421457974, 0.5409845314210859, 0.5454271532322407, 0.48595937950101753, 1.4861402938547708, -0.24038174493641656, 0.23267395011326433, 1.0380948934347793, 0.5248945076566333, 0.4574213934927282, 2.423723602063269, 0.9334930886993293, 0.8489267530249566, -0.406189696405849, -0.6943053697894993, 1.3339823812821943, -0.6038453328974056, -0.4788872103269339, 0.6572239652224037, 0.4557938379851328, 0.28054865174097265, 0.12519860098092467, 0.7882958989336648, -0.8925525248298308, 1.6742209929265703, 0.628147040873984, -1.8543256128125338, 0.756766007630328, 0.6223180660670128, 0.1347023964685055, 0.2604522317411153, -0.70571406115496, -1.1339843964181449, 0.16577444648264006, -0.5388669291325808, -2.1231493997697735, -1.3809159685305061, 0.9499208739407368, -0.5879483270429203, -1.125771640889329, 0.3141237064813811, 1.3281661153858237, 1.9192664209172605, -0.07496208790341281, 0.15130172126345576, 1.647306787148788, -0.09889676014151894, 0.29437877749190866, 0.8493772038678715, 0.8778692456808385, 2.009954538495237, -0.27837012574859477, -0.6932810982069482, 0.6199099918919615, -0.7891777995802914, 0.3209497884966975, 0.3545521809693521, -0.31446989356015626, -0.4047936648864041, -0.7564262051547384, 0.2725886951218898, 1.2320426528978978, 1.0682348773462378, 1.7694238326603973, 0.2860892481291107, -0.33634946395758575, -0.5703698036369739, -0.01348441137674494, 1.3149223976078275, 0.7574000177428823, 1.6763590101268562, 1.1341992264475675, 1.8041673987855915, 0.2096092297992609, 1.187332606014255, -1.5193779806315275, 1.4898329780490671, 0.20066230605089097, 0.33539346981882895, -0.10977791167599657, 1.7260856766140937, 1.7066704189141824, 0.1132621016169946, -0.12413628484474742, 1.5088592067292022, -0.6611388305015476, -0.7922017814319663, 0.5041755424049376, -0.974201376660536, 0.3319996671325321, -1.17056186712693, 0.8647600689714371, 0.9219720493074856, 1.0278028949293618, 1.8007228046996133, 0.15619334707695468, 0.38323427265826754, 1.3427848741143598, 0.2243403782431722, 1.163585626537159, 0.8238645158972804, -1.4986923690137972, 0.6313430716817308, -0.09416588381148841, 0.18660024994240493, 0.5817432468759662, 0.7566340678516682, -0.49740437967188517, 1.2965892792589453, 0.6484939817012054, -1.5789335629202048, -0.23492459180440942, 0.7962085721318553, -1.0013638809183227, -0.4647147203173037, 0.8915317313456752, 0.2552567281965478, -1.8556059399841047, -0.6589815954615897, -1.2655115919490223, 0.17740833727325173, -1.1597494575862075, 0.5187802027598727, -1.4116175458834754, 0.8345041895696722, -0.37799813617221184, -1.1269012664550624, -0.10309926269011989, 0.8961214890850948, -0.1710987211810553, -0.19000587694401427, 0.24228859347894866, -1.6953324697121444, 0.6539911631440927, -2.134733677931325, -0.6050492200676633, -0.5600776725626907, 1.3471690895915687, 0.3409714627259593, 0.7918849095465649, -0.8022504972289036, -0.8715324189733931, 0.1998253616298827, -1.2304221452384412, 0.26123647574322767, 1.815972516924882, 0.5170645163103951, 1.0166865475398945, -1.5759497569507448, -1.0015768633114517, -0.09509683048675865, 0.9145319644900334, -0.2674506537965818, 0.42513226274087634, -0.14879376697494134, 0.6443317873643507, -1.2750987663355609, 1.0784976723507238, 0.3972090232189758, -0.07949572710736609, 0.4638596382143324, -1.4310890434764736, -0.8151023513142723, -0.7903209252137762, -1.6499512675723418, -1.688662098024781, -1.031056845612244, 2.7898602252074696, -1.502826545144251, -0.7039459753938807, -0.0325513012910822, 0.8870358096990655, -1.6555843649582365, 0.9419441458556181, -1.771406764819417, -1.2268525347067987, -1.4049311438065286, -1.8567003614711888, -1.1707975285958754, 0.36953385178926756, 1.1087884731301982, 1.7432094866424306, -0.9013205229531923, -0.3508841880370897, -2.1970715502953686, -0.22969692584040427, 0.6222432213044748, -0.6200565978135386, 0.7989330358517516, 1.486518521754456, 1.2324401630194572, -1.9292560420560536, -2.2721342352147382, -3.0252289748728884, -0.1888752975487188, -0.7993979400414972, -0.59771249007501, -0.3742813264199021, -1.6183989484578736, 1.8452228920397376, -0.01094091880709152, -0.1025508342764029, 1.9626344657619306, 0.004114896159013954, 1.946635117264679, -0.7897003964281674, -0.8765058389934507, -1.863201379352548, 0.9168156811336378, -0.2333851414582954, 0.5324197619814981, 0.5216315138324472, 1.9874143655674064, -1.1410057562307434, -0.9620662011258647, -0.408732582171548, 0.3311348437574772, -0.016714996761294183, -0.19267075974590112, -2.456405380785186, -4.111142775574709, -2.5856849445414003, 0.11781807629979393, 0.47164547853481986, 1.679233773561172, 0.7870436327746237, 0.3008556889868819, 1.7835537225765792, -0.0683407123290843, -0.7565355138001743, -0.6100466896462344, -1.3450062995206742, 1.0770404742374484, -1.6770116544576474, -1.7734525371013705, -0.08625837869270496, 1.6020711905904643, 2.2820067291479496, 2.184853856734935, 0.6465114592717087, 0.9106555814150222, -0.6924166340628753, -0.05944912749786278, -1.4332858600706173, 0.47253177256874734, -0.6275766921904552, -1.4065457454095198, -2.024557794175221, -0.88269435957562, -2.094057977418149, -1.6499681085103985, -1.8466266616360065, -1.8003857294949774, -0.18948342187658207, 1.0879830849251866, -0.1962144120290686, -0.019920161206214145, 0.7497081911324452, -0.6568455558051722, -1.6724973990221412, 0.4291171165158589, -0.7665436870943477, -1.1930747514898736, -2.223540291687302, -1.654361396561941, 1.0029639935632244, 4.146936340506075, 0.4456289427726712, 2.413758142789117, 0.45908053170716, 0.7260827062568702, 0.773643295247976, 0.6357558461616286, 0.22252292803174248, 0.2536987910717014, -1.1626888005143015, -1.8112272488977166, -2.479907788897016, -0.3392847532259797, 0.35477540013915315, 2.33946874895552, -0.29724513167834987, -1.4038108715853903, 0.4808862558084198, -0.43678819276150677, -0.868627805037367, -0.6994977989890382, -0.956844595242801, -0.17703428744982283, -2.14982690138897, -0.8650660379811008, -1.2281371199515898, -2.108817268520587, 0.9116745493248695, 1.330886218662147, 1.967379280869544, -0.6135231128647352, -0.059484846922795896, 1.6610308057590695, -0.28971950780371236, 0.9625575324957824, 1.5388329266639853, -0.7809334841384618, -0.8487294564172149, -0.1695221666628291, -0.08195842284446686, 0.9734114025027527, -0.5290106980280901, 1.1789882899944446, 1.235547651876439, -0.058047660400229205, -0.37352300164740354, -0.5740700577211584, -2.0171497174126007, -0.451886847033276, -1.7348417130828135, -0.9096536056966664, -0.8651757983930743, -0.013948901973263893, -0.9172531352787714, -3.546755010836272, -2.983326305508583, -0.6420678834963612, 1.1496268550069795, 0.4603292798478415, -0.15231011013022303, 0.07344683087644709, -0.25685826834477343, -1.196561037359218, -1.176668400273864, -0.9412920282365672, 2.666816687437568, 1.0904498583567523, 0.43755957112324445, -2.658030905312444, -0.2609284466080801, 0.11547665935159977, -2.1054772220570728, 0.1531640916025272, -0.07327783809145415, 0.013647828932054788, -2.3918221415826886, -0.18451434109165074, 0.234407132621608, -1.6280709456503628, -1.5263937285713864, -0.3178596439488983, -3.5806605597331536, -1.6307004105148768, -1.663607970623519, 0.3092773939439086, 0.7217109193009101, -0.9717542276165664, 1.2562247606466317, 0.2607076528332643, -0.3644642647489306, -1.3273868194039637, -1.9784502762995577, 1.4854164151824067, 2.8150501515130677, 0.8508539937978812, -0.27332757551613046, 0.445981988553191, 0.47737304460589786, 1.9407978662455858, -0.48525677205665185, -0.4560384403533603, 0.9402262662820071, -0.014793954626113144, -1.8737446472143784, 0.014194463756960273, 2.5241844543610825, 0.9494649684987866, 0.8789366224881944, -1.2355160238886511, -0.7657374185047802, -0.6802148841153436, -1.2960794116364729, 0.5937116738573015, -0.517210429574442, 0.29844341403289826, 0.7077987168118602, -1.611167775664792, -0.8027737253093555, 0.6211901384457722, -0.09164362541973987, 0.5018018130520996, -0.03507585426857719, 2.707486837046636, -1.8767735203214935, -0.976972625356977, 0.9178173382976518, -0.23355653930445008, -0.9653621473721012, 0.07927033625224444, 0.5209047338869528, 1.156605190985415, -0.9124186427811206, 0.7249027973582147, 0.6278682585161234, 0.5152208867668475, 0.7775979910193632, 0.9605554953374875, -2.102364612324474, -2.168823609677738, -0.46774287566918443, -2.4052613603852593, 0.178685473100417, 0.7109811643221661, 0.2679095610984396, 0.47644673789139097, 0.14823601259190522, 0.6230431709494539, 2.0249718280711524, 2.7169829552539055, 0.3696728825269858, -0.9251856689423735, -0.6198961354649717, -1.6138231369064644, 1.8117534127287145, -0.1990843620257273, -1.1720481126026105, -2.237877003189156, 0.4849285384967743, 1.3166810307894832, 1.1889494786188946, 1.6974190092858388, -0.8735442748347118, 0.6310727818162997, 2.1210778663548555, 1.797076425539919, 2.7640126257382907, 0.4200823888144619, -0.20242994064207845, 0.11134364961283487, -0.010209574680809552, -0.7338106354364973, 1.5966573436775586, 0.21567706687360158, 1.7410276766292074, 0.3397098163879883, 1.745046136289705, 0.7542991949594242, -0.7267466034388601, 0.7528139454074629, -0.10228236700252213, 0.19630371262035382, -0.884334619328598, -0.4420788299946216, 1.8101114659362645, 0.36396066894044843, 1.691899180040429, 1.4441254182100394, 1.854438182859086, -0.14049216758959215, 1.5273197016138242, 0.5448301883646228, 0.20516549333419273, 1.8662057213631618, 2.0773855943596042, -0.4335906450758352, 0.8316387651104379, 0.9921158804281145, 0.001151756995434219, -0.1733597823939355, 0.7344004274931892, -0.15443290073650986, -0.16410104021166189, -0.1901247932547371, -0.8761583003960449, 1.1701780027941426, 2.0305268520344617, 0.570581483027299, 0.7332215987159123, 0.2777720446483017, -0.36628907101409, 0.9153198884401247, -2.246460121795408, 2.2671781948990013, -0.05151176718666477, -1.3645615224079801, 0.4670357577495643, -0.2532645227828526, -1.2620899405996369, 1.2850611396785063, -0.3225614352245204, 0.8676200581648309, 0.7495939756370844, -0.7589388364019289, -0.11445895655628684, -0.81033949430037, -0.2523867927782837, -0.20910062563767814, -0.0007510798219156088, 0.3870626802148198, 0.6240262883573979, -0.9323592502784706, 0.6727637554177663, -0.05434419557592614, -0.30866291244261373, 0.5065388405578485, -0.22265156876905418, -1.2597891313591825, -0.3573446627000984, -0.4770424363657672, -0.6094020786067067, -1.466788238573328, -0.6483217530963199, -0.33107927898012596, -0.47977604967129234, -0.6542863311878742, 1.7658359770538268, -1.5299452778916531, 0.0496102696901088, 0.45677962366129965, -0.03680150336017781, 0.9439399544565232, -0.1646231611016899, 0.4919443038367652, -0.6570504087011912, -0.8230725420664431, 1.6019141163612105, 0.8479368415016658, 0.7192102771761028, -2.8001269261270045, 1.2375092783963688, -0.6134454415299303, 0.6944866090736421, -0.9335705830291148, 1.279978939842225, -0.5670570513755778, -1.664449386644221, 0.8612100739641823, -0.31054788255897653, -0.029765908232148443, 2.685358409004542, -0.07085630625996575, 1.6214935313916556, -0.18247729510438196, 1.4345211560073503, -1.2836321630333662, -0.5215750408403635, 1.9096699995083557, -1.5974699196395017, -0.13140930678106108, 0.15369791579737965, 0.9236826776204912, -0.5117022253811886, 0.6651264518190858, 0.24237695089428885, 1.4735691726329265, -0.048739986873727256, 1.0927187261390774, -0.8521109907901709, 0.27034734735199617, -0.8347472861771775, -0.511009352760317, 1.0225879033639678, 1.5839521535899, -0.7149600479260971, 0.7923969689607808, -1.7799973673728329, 1.3456784011776466, 0.15062760074369008, 0.5219799737552862, 0.4767914956196882, 0.7151978858064952, -1.0772115270744747, -0.003926332437215743, 0.3439727282576277, 0.50911136661137, -0.572077912826424, 1.7316665960728095, 0.7343380278222708, 1.1163031548808344, 1.2935445065797413, -0.6491833229496256, 0.3402104676565026, 0.09496991790370433, 0.5594337728655262, -0.3499673446068868, -1.8088180389287776, -0.07139056060243928, -1.7969669570678093, -0.9991389730821343, -0.24755303433967302, 0.8697441685268891, 0.22447720711209587, 2.8148792030472127, 0.48768406046920243, -1.8179598774640575, -1.2887546799405822, 0.34367732000831375, 3.3009126982805976, -0.05006106341385518, -0.3428054923003625, 0.013278463973782347, -0.3209060886700954, 0.5207236068335149, -1.2521134790097237, 0.5988500134857574, 0.9666216610506171, -0.4222321885692267, 2.004639658926867, 0.41056485983434193, -1.0895097252855277, -0.5956810578271002, -0.29651378483699176, 0.6193807443979323, -0.12881581587030144, 0.8699357272944748, -0.5086995005565267, 1.0115288567269414, -1.1233631316869823, -0.8092725917549112, 1.1542488817850345, 0.7263174886100742, 1.3899451999766415, 1.4213527238581147, 0.396780156700171, 1.0596861007988985, 0.6737049179534675, 1.397002076799985, 0.502517449458807, 0.7512137551716774, 0.08309096688687706, 1.4425070075600297, 1.1039032467314311, -0.0319108078336194, 0.31544813773973296, 0.037369392299308385, 0.626004731229399, -0.3211876522534259, -1.573057744599828, 1.712999346138287, 0.020338467106839425, 0.7264449447029565, 1.1509973276462393, 0.7777334707351299, 0.12736174196221178, 1.0963133539178997, -0.7975023811893974, 0.5717683154113625, 0.2649739000761156, 0.9400949628457674, 0.05783130447416086, 0.6314291523541041, -0.06539874839057822, -0.19701386071903523, 0.8565159956139667, 0.9809340989800487, 0.5375272408707937, 1.439174556355523, 1.9382505046785181, -0.991780672693719, -0.44315444160319145, 0.479379832900835, -0.9574293867151601, 0.19842598047387863, -1.0076190167073051, 0.217842191954224, 0.6900061228875497, 0.3452653772126004, -1.3870932635355242, -0.6169575900293456, 1.52440807642243, 0.5911409352394035, -0.585356797037991, 0.5062785012714831, 0.8248700930588448, 0.18614351739863647, -0.5168281629481919, -0.8593445570429553, 0.3551459121556568, 1.073206823188662, -1.1929982290161754, -0.5856474629276046, 2.1166056356154037, 2.426881217976013, 1.8492439278093162, 0.15710099205776445, 0.8821563121090354, -0.49093858558891773, 0.10325532982556418, 1.223603871035992, 0.9910438316930216, 0.14596794210374084, -0.4395291171469165, -1.4154091436660279, -0.7621552407264433, 1.0874689104241895, 1.5029600746146683, 0.37579364440350593, -0.23629587394692836, 0.657764666377232, -0.3502579455605612, 0.8519632136342804, -0.21019520207638964, -0.33611439850168023, -1.197933678473094, 0.5747467052633777, 0.8175653157819215, 0.36702709697434666, 2.2595694187408775, -1.016600826755781, -0.6672687451051782, 0.8274068362761485, 1.9048003274206486, 0.4482143162606859, 0.4292665690798018, 2.129039558017615, -0.8130905312345146, 0.2864232529720719, 0.12765849418081385, 0.7210759891340349, -0.32544407384631513, -1.088866621830283, -0.32997177104367836, -1.014355755254685, -3.2598132500744144, -0.7915862125138637, 0.8743307439901009, -0.04951888139274217, 0.24907241144610853, -0.5801383102164038, -0.05597254238801543, 0.6524651839343659, 1.7734773502921815, 0.1762137428020239, 0.5731507523234735, 0.7649879958189882, 0.5163947405437075, 1.4893007649171954, -0.5196431662995727, 1.7344221607639116, 0.41652360330457644, -1.2303049610274581, -0.8129176074237465, 0.8992465390123482, 1.3187080163139526, -0.5350773550008596, -1.2422582981578016, 0.6889158038517857, 0.9718798869384728, 0.8271023558236941, 1.0826146435599227, -0.15359429027406288, -0.6237056234880578, 1.547102226894842, 0.8155343025290333, -0.018252132445743776, 1.5155651770395617, -0.816368406557606, -0.5515566968597742, -0.6463518484786124, 0.19148528574126414, },
(double[784])        { -1.4899428382482227, 1.6586833792495561, -1.7094996331157302, 1.2550132072974525, -0.06798377252600098, 0.4230882915137692, 1.4525413235751332, -0.3973258538675283, 0.38549251880219937, 1.0209150882706959, 0.20243030487907457, 0.6733683371240096, 0.04713496156925292, 1.8747603668787438, 1.0162786402175674, 0.2529249685619315, 1.1992743100632253, 0.7787702995265344, 1.853420846306623, -0.4775506980244814, 1.406226259135747, 0.1957463119469274, -0.04738032073736376, 0.2910097403645099, -0.5133711890953419, -1.055605113261292, 0.04474453693187071, 0.8352637200236854, 1.3157338714045652, 0.22009644854357735, -0.16090633366925122, -1.1719140893414013, 0.5298307556204205, -0.8500748216791807, 0.45985800935952403, 1.8796545728291572, 0.01596349245563838, -1.0286329507903764, -0.10926030071351296, 1.4470345176970472, 1.8684668174735417, -0.6939316988136909, -0.542431802472326, -0.9138921641664702, 0.04102787863914419, -0.801861984845118, 1.3325886458215277, 0.7832449135355445, 0.6486794793850261, -1.3835344849194349, -0.761832657647218, 0.14960648893465747, 1.168386888951191, 0.19260115084589705, -1.3516949762738575, 0.7933622181222881, 1.634410917905041, -1.2716925707109499, 0.07916847040536044, -0.9384977911492934, 0.8270798134059343, -1.343656741506675, -0.23697399398284855, 0.1465213446083174, 0.3935691209548502, 1.4395227184268808, 1.1678777233874305, 1.6799797855839247, 2.0741455718759894, 0.7234468573652467, -0.13330939610974996, 1.0361226019819343, -0.33392891536610797, -0.08935332376930004, 0.31214323121583615, -0.13224805298297856, -0.2634930046864177, 0.12097409421242032, -1.0210691461826045, 1.521168819462511, 0.8849915129811289, 1.0198462082119377, 0.7199757002748323, -0.8621838054928327, -1.146153433777483, -2.3730066167378374, 1.168729404007791, 0.19101895145482378, 0.028210977034715114, 1.4938005509977355, 0.3997198845013152, -0.02008264299661486, 0.28775296162131075, 0.8935690383727014, -0.35596563660296915, -1.4690847530415234, 0.11627325144870627, 0.9594226276080237, 2.3892657856053616, -0.4996766160173546, 0.830790974916402, -0.025864817704817064, 0.6249368965998864, 0.5053127832028317, 1.7041393493556332, 0.7281961648603246, -0.9039623493558726, 1.6488707001121528, -0.15794716654575816, 1.3072161686455661, -1.0825648320234902, 1.3843304956740503, -0.9106143322315491, 1.0752282485762625, -0.5608759502765438, 0.08515709963598246, 0.6515213468105474, -0.7044562065641173, 1.3163457438811277, 0.6451582130545812, -0.4178416868963385, -0.8364772951467633, -0.8037257544611603, 0.7267974342730547, -0.1176775221295682, 0.16057543284787615, 0.06896577406091445, -0.5451671167355946, 0.19735354196563223, 0.5811477451637381, -0.33015809808061636, 0.11758730961575359, -0.2955114333307604, -0.3722812756025651, -0.28789194859490186, 0.30701023142831857, 1.4863643189749909, 1.1502825642060188, -0.03875150191034867, 1.0375010158966553, 1.5321728862372372, -1.0534275846889258, 0.954101496169807, 0.0619783353130765, -0.5946063508782585, -0.7311269355291928, -0.5912070735876823, -1.4853263864567814, -1.07044161512589, 2.04910211350347, 1.3200114267684269, 0.07073510986710901, 1.5631562443412188, -0.23072358560127354, -0.3636124969683193, 0.15437556076943512, 2.67231492354984, 3.0897657190868077, -0.9311017908218368, 2.5255099856073575, 1.6059341476812146, 0.9129726521328251, -0.12410897040956584, 0.6511369886708128, 0.08827420302353024, 0.3847110500611657, 0.7730335677585805, -0.440589696856975, 0.2825798457475792, -0.32873916784587026, 0.4852608073133949, 0.25683726334314105, 1.4194064648444558, 0.009007770141253089, 0.34734972365904915, -0.12544984002590173, 1.6652367761944515, 1.9791511662030419, -1.1613426980130053, 1.1597932564930848, 0.015225927088597411, 1.1509483112472014, -0.8560369144248429, 0.39677519891773555, -0.16881976745972527, 0.5969142808939704, -0.5144060890304667, -0.7681368115296807, -0.806959306881167, -0.9505128871163726, -0.6711646019431153, -0.7428223321565685, 0.6574238362824061, 1.1535170140697555, -1.4950490877640032, 0.22968611601553096, -0.8284675088207435, -1.487220526513219, 1.2102211007433115, 0.6809738759967129, 0.30010243317933477, -0.2891188073123231, 1.0759828996687821, 1.3344026408194418, -0.17244429216231744, -0.5564145286461692, -0.0425893427328493, -0.9871453054526743, -0.8723785767285216, -1.091493680320906, 0.2898839158158474, -1.9464652178652448, -0.8820352315650427, -1.2762890174388999, -0.16260701353259435, -1.819472562819026, -0.3179819501744934, -1.261695898947688, -0.1410811518487569, -2.0609074151170863, -0.44824156899419704, -1.0755611847154003, 0.9146070611286421, 0.6600106644983187, -0.8556916106898504, 0.49323313774998656, 0.13536576662097402, -1.4029279733064435, 2.1140849575919773, -0.9665579567837251, 0.9156588747782551, -1.2172216821648927, -2.027178184149727, -0.7665425620997075, 0.6798292761195003, -1.1300119250151675, -2.231493347470039, -0.753129493093692, -3.2003815630954953, -0.8692712519806074, -1.3165085666644407, -2.983913177792532, -0.9442208604656447, -2.003693287462838, -1.5841755707640597, -2.106451869607971, 0.2659201383909076, -1.327146528872687, -0.19399798012505448, 0.36930287245095506, -1.341818837250939, -2.2675511449527903, 1.7578856566574677, 0.057252741257684536, 1.6748819619043152, -2.0778561630942605, -0.9955353946799438, 0.6571599854413792, -1.4785454090179422, 0.45141005728526323, -1.1477952716905933, -0.9156329842529681, -1.6025577999857494, 0.05353241110728072, -0.3455459624410531, -2.7308132470906674, -0.8263208522863889, -1.305650311563616, 0.12688195923529091, -0.9401848762581365, -2.4831371553270545, -1.3203781584586554, 0.05077064368449806, -0.9224202245166531, -0.834710282645933, -2.8161347038165507, -0.5838399947444302, 0.3951859411673157, -1.0207785507972778, -0.6113240803874421, -0.0936005276818931, 0.34303868627837064, -2.418128244099947, -1.0392709434454304, 0.11723425675620709, 0.5178040013335445, -2.018854897143886, -2.0836058068788996, 0.20504475774053257, -0.9018966567818469, -0.526200682291396, -1.122559352454702, -0.6045164394018407, 0.13137630064745504, -0.9213259050095479, -0.4253356096591848, -1.2033161082298924, -0.9781002773617744, -1.1839171201804, -0.2500163967149375, -1.4139619135630472, -0.26286501389407435, -1.1951844770530262, 2.0304326642266033, 1.0731605994271343, 0.9030150562321614, -1.238731318794738, -0.9455959349348464, 1.2092054541748603, -0.7961407429137831, 0.654192840179405, 0.6730618871705337, -1.3958684991381476, 0.8576465048282358, -1.8840810720600745, -1.772610716527268, -0.7849928586869993, -1.8376336207844002, -0.19136415394568598, -0.41889110210612696, 0.6704385010426958, 1.275147740608511, 1.4975098984129422, -0.5919126155073399, -1.8569363553461469, 0.23633808206583304, -0.8877439736113828, 1.1801362988131168, 0.5714927619311859, 0.7031188420408785, -1.1202067988567803, 1.585746465098149, 0.6956621905897852, -0.7321018100364368, -0.6560687589342178, 0.37223392122320836, -1.1054343926133818, 0.4902055679200393, -0.6550294506183904, 0.08715730497489711, -0.5858270379115249, 0.828468007296491, -0.6306269758250208, -1.5890330480649195, -0.4378099254258677, -2.204834702219507, -1.4872862672598175, 1.6332234530108254, -1.665090074816358, 1.092717025994654, 1.060890107507069, 1.3293668674865708, 0.7091186572174942, -0.10261451501140102, 0.40114154225441884, -0.45768694595420384, 0.3599990416665666, 0.2597514159087529, 0.38953842772772085, 0.798501738359595, 0.16992797884118285, -1.1103124491582361, 0.5259525618304219, 1.2983927782407483, 0.0946320159272664, 0.6018516321405399, 0.6857601498702801, -0.6106876601166644, 0.04331282530838736, -0.26592002244680363, 0.4560535319780344, -0.9403892546097544, -1.2132009527601157, 0.707021454183913, -1.4138822884613256, -0.5363673439568443, -0.6204971089373047, 1.1891672562819642, 4.620065895693082, 0.0680135258877974, -0.3577208058817123, -2.2989973687950385, 1.5954618109653664, 0.15252797394437104, -0.5134101630716928, -0.17783251377426598, -0.5098161094410747, -0.10832639801582676, -0.7486557515485746, -0.42435473555398123, -0.6832832477379013, -1.1613224818328518, -1.468490521989834, 1.5397696609314633, 0.13332842463833386, 1.1240774130836273, 0.3009115495853537, 0.20859294621582464, -0.02677901419314061, 0.03845693308142054, -0.04341336384915205, -0.9204153265871349, -1.90640403889853, 0.6928697313067025, -1.0543782275603966, -0.45130345788340664, 3.613244277666897, 0.39941678757514903, 0.6770404458000803, -1.359208056865954, -0.010402190151223395, -0.6141050991819835, 1.3218513391305737, -0.5967223248378196, -0.8540029289953411, 0.6931124542105164, 1.0497026174215665, -0.2727661220077086, -1.563150961258286, 0.335983103445424, 0.7738181174400801, -0.4500957787894973, 0.20724172700999857, 0.9565529119565424, -0.757772604410102, -1.6677970872085905, 0.874429697620899, -1.862828040087236, -0.5509989946634491, -0.699537315363774, -0.4229529649796806, -0.8585624583017718, -0.13198772114939747, 1.9085276671830966, 1.7525410974365576, 0.7817672399724287, -0.4734315765531148, -0.6959668581743976, 0.2991103000868886, -0.6964715976006557, -1.022742347205245, 1.399792284903769, 0.5676062606038605, -0.4539098597024497, 0.5350552304239643, -0.5995181029592195, 1.0115044784224203, -1.5805049686835537, -1.812629849505589, -0.15386482897809903, -0.6485593558101079, 2.057050349860221, -0.6885539630322319, 0.7753694852589315, -0.39128406973541724, -2.2078979057347183, -1.85644294349485, -0.08961271167506953, -1.8783794470474808, -0.46548099780468916, -0.6139538946366601, 1.365297675595429, 1.2668211415768658, 0.055447249139826585, 1.0737800783870786, -1.0038079013998453, 2.2734767574004837, 1.7325484745701358, 0.766657234371428, -1.6788363224575578, -0.054723579968564875, 0.41346080175440264, -0.405259107061757, 0.6711293782743162, -1.897660319917623, -1.3828787911577045, -0.15546331547510894, -0.3377944246833192, 0.2963357695943083, -0.7515910581450419, -1.3407014548713752, -1.0786515958487999, 0.5025663695121745, -0.96483600871707, -0.26820356810009, 0.029784214360809573, 1.1599212206230654, -0.7541707635625698, 1.1748397050708703, -0.3487827811219868, -0.26515494105821, 0.0034340133252934455, -1.212842512171243, 0.10608115312127936, -0.9173742593273015, -0.3817964974775765, 1.9669121635910005, 1.527789971784341, 1.3199397908818375, 1.717770121557389, -0.24068693075380268, 0.7511052375185143, -1.5414511174334635, 1.1116157593792662, -0.9563949474979846, 0.863748040429531, 0.12463768609868658, 2.638947978318791, -0.20484406919101195, -0.6018920102797167, -1.4778106114616225, -0.9279860845397441, 1.8015950207129487, -0.2805266698073465, 1.3134126000653163, 0.2512893776984381, 0.7416074908107132, 0.4748986526330287, 1.416508886074284, 1.2070978500261946, 0.8500562360721893, 0.09408309948089551, 0.33042136089781066, 1.0275292945158736, -0.8329061794985815, 1.130700103066527, 0.25809392961017824, 1.8824077256823186, 0.5212804641181258, 0.05928155353522825, 0.6674481482653825, 0.6377917995530313, 0.12223431529425502, 0.21010881202838225, 0.35506632531331267, 0.5923976009159354, 2.0722076793092614, -0.03305735005908327, -0.37053220342951565, 0.888901174285176, 1.708642226879916, 1.21380553748887, 0.7821353692174999, 1.7432540827668699, 1.8621422512354382, -0.29842844856503764, 0.11626943031766515, 2.7539823713070555, -0.03951528683480096, 1.5015546014810168, 1.2167623959825458, 0.3386679293544319, 0.11443904795285556, -0.8214382937292005, 0.9469970313266368, 0.02003311132262944, -1.7193132286931305, 1.559032428705554, 0.19341262535277967, 1.544906949940549, 0.2634361856424159, 0.3330206406455666, -1.2002294261888786, 1.0624152172338066, -0.20183402608895543, 0.1719918336234553, 1.8626711834347385, 1.0880211747341222, 2.024020346586224, 1.0559143024040427, 0.14543634336992636, 2.9122988261102907, 1.474015097904028, -0.2012618794251597, -0.80739821910402, 1.3359114300602875, 2.5209101353699728, -0.8366043342180425, 1.7159821582154893, -0.21447234684791447, -0.1293146004519568, 0.9653542060141413, 1.1872366491354154, -0.5757189209568288, -0.556853923820722, -2.1956393887540364, -0.5614679760557796, 1.158487150561641, 1.2249900758108876, -1.5136920374601732, -0.39108691313161026, 0.9993016145362401, 1.1923661481159464, 0.9517800323191085, 1.8246505624156857, 1.1534207691609926, 1.5674321658726593, 1.38588515025578, 0.8434208549227971, 2.1498800080943754, 0.515547072276237, 0.8678417619033287, 0.2544701377997001, 1.130117139270131, -0.18193869078676705, 2.2530062326864866, 1.6028752384960687, -0.07578828786204467, 1.7789455858936511, -1.128599247704305, -0.6672897238477105, -0.18521177930109936, 0.863090063815418, -1.195309842836033, 0.24750794686722097, -0.4513607399956511, 0.7938491592621691, -0.07783387311915253, -0.6716867851668812, -1.679410853939646, 0.1521144133068436, -0.6472470184443861, 0.6321328717667767, 1.015094845071704, 0.7011732722645188, -1.0533224090745181, -0.5038978152985598, -0.7105047776558661, 0.2967262353269075, 0.00818326669427161, -0.5623880872606036, 1.384764650100882, -0.598949021768505, 0.8206133791755431, 0.7454506411136291, 0.45652068001399637, 0.26197580187708974, -1.3256152993136958, 0.34973267759522564, 0.24391650524159986, 0.30265424596919055, -1.1213056722021482, -0.09983240236762986, -0.023752038538499068, 1.1123195787828588, -0.43025981189367213, 1.2616333225571736, -1.7640323271653358, 0.6335006251621211, 1.7274319411516224, -1.2163068185074704, -0.361703884855042, -2.7596052456499676, 0.4450438245245659, -1.3369646809806597, 0.1178294513804426, -1.1397522138574738, -0.5027237584762675, 0.3931121578795391, 0.2727001672920242, -0.23239992834210754, -1.9912446666774413, 1.9632418730198398, 1.3630134047542397, 1.3270957573592357, -0.7073861465473467, -1.0084068405800664, 1.5693207313242774, 0.7643089766905892, 0.43227761714622726, -0.5240982159799422, -0.464360732916413, -0.38752216527493494, 0.14606236504244963, -0.6420474920135287, -0.5359329189883651, 0.2110157723066856, 1.5151337243608731, 0.40020000462024063, 0.4156358081464196, -1.2410976844698511, -0.36684511652478313, -0.8427412171258938, -1.9411184178473233, 0.9277859099339216, -1.0173597402717998, -0.713003721624814, -0.09624956973752403, -0.5718850428631884, -1.0245833531477517, 0.04378336886091444, 0.8907119022208541, -0.8267199631523792, 0.8184600766755912, 0.618454727053319, 0.39260779065133733, -1.9981637433597994, 0.21648251337784433, 0.9258359779545392, 0.17090477497579784, -0.9555954659959657, 0.9803914963173871, 0.8353053681086973, -0.3552722974357323, -0.3483951823250218, 0.393942454848266, -1.6495135800057243, -0.7289380110433589, -0.25370551843498795, -0.1764983252699063, -0.4091115082470356, -0.09689678850948054, -0.36197563098431906, 0.11688409867534454, 0.8905700060322826, -2.9711472964070715, -0.29589467756644094, -1.254264508032314, 0.659105574236018, -0.472652622268734, 1.1833859071554516, 0.3171140989680503, -0.5060429390231139, -0.08399512841167518, -1.7910253894226087, -0.8591991796559709, -0.14577972507251297, 1.844971332936552, 1.9038215409134553, 0.9204259213844169, 0.07042732057725255, -1.7844936695603917, 0.24735257550531528, -0.7793908007658896, 0.6942359594254848, -0.27719817354948784, 0.20113207130818528, -0.6728124587927081, -0.217223131513163, -1.0998374828671746, 0.1266969578208436, 0.8186423927253494, 0.9811129311656509, 0.1471353285682154, 0.5366126943633982, 0.10107072261176217, -0.4592955756479983, -0.02682772100474945, -0.7220600275412296, -0.3692909525016799, 1.1857621082526644, -0.3063654998098178, -0.23897410762661442, -1.1397160357574556, 0.0012258782399304521, 0.45187292725496875, 0.9650541449915055, -0.5950649865193317, 1.0887357243506444, -0.644343641159833, 0.7547336262639953, 3.5602089143021782, 1.218267493346152, -0.11210990623155359, -0.3807248043551684, 0.13915062460323221, -1.3841532045987692, 0.7896809677254906, 0.470140600943611, -0.23501039479583077, -1.3524527508922193, -0.35803904212238397, -0.7862768585020655, 1.3900980727020598, 1.1371547306783243, 0.9077243846536587, -0.9017285141374829, -1.6011179126907702, 0.9825728799735254, 0.1397286891662518, -0.7409131086941808, 0.3349826675818684, 0.021672657344273667, -0.3585211005840142, },
