double **weights[2] = {
    {
        { 0.8263034062424277, -0.8930459860559898, 0.3783427522582748, 0.24982751660941976, 1.1756509649166564, 0.22521207382665384, -0.15670270563362446, -0.09391685744011602, 0.378213787474644, -0.8286144495490941, 0.5101994670888447, 1.0786117671358784, -0.34778035570951754, 0.27486144416006725, -0.5529603270868313, 1.3014411692232153, -1.344521816061142, -0.12140699717394339, 2.4634699854398456, -1.635583905641686, -1.0138716044126035, -0.6595255338318683, 1.794875815819521, 2.431252379421801, 1.2285341120407256, -0.19088084933893887, 0.12299807133944818, 1.2245883787625371, 0.43567733783269486, -0.026286872939566698, 0.49879550499892966, -0.8242017875162435, -0.46662520133733254, 0.9466694261975332, 0.048163287557511376, -0.3141527580965846, -0.16223180920959632, 0.5064003679318809, 0.4360116196658324, -0.46176314111356576, -2.0135150970461075, 0.8853402778811796, -0.7978481164848735, -1.7042390639706468, -0.6478200231591283, 1.2797828597370353, -1.6040452874377245, -1.5752677125654069, 1.5135559293167815, 0.3263504348494044, 0.18555760110401626, 0.33804184215270605, -0.3812944013268944, -0.756231173412552, -0.6810217414415412, -0.9042416258083639, -0.6105239042897035, 0.1391015192736113, 1.1533578286887745, 0.17006954315218642, -0.5302835850289842, 0.5456124995482046, 0.9428881146949313, -0.7269492578572913, 0.6671133726163683, -0.08331767875709152, 0.3544796358351101, -0.003308494197624614, 1.0309744521094368, 0.4770849621868221, 0.4771317798308197, 0.7111669344961595, -0.9431514547337143, -0.8752383940858285, 0.8273630784193027, 0.15016911631083626, -0.33242696123791793, 2.588660380103579, 0.9568490371291523, -0.9179637102719951, 0.9373083044698365, -0.4750201606680987, 1.109656934728998, 1.9986256470793762, 0.44438817556215177, -0.02587348033258049, 0.8540172741953277, -0.969408671776741, 0.13773798052177788, -0.7768677784126835, -0.927941048937922, 0.2707707523185276, -0.1895364248837799, -0.6809152539544925, 0.8102609927676565, 0.05201165334580635, 0.6219931074659888, 0.9858578364394952, -0.2463651070866142, -2.1407537128789698, -0.5410959904872487, -0.15279317479195276, -0.0829916474245481, 1.6653567710955368, -1.5417527324745643, 0.8645968598530347, -0.4370149605366792, -0.5531784093991279, 0.6152460574867539, 0.24686792276063516, -0.1285062668179967, -0.3149441671026249, 0.7076845238152684, 0.33181472488401964, -1.4661078755091514, 0.12974686465479432, -0.66868679862091, 0.3473028873369618, -0.09041238061901154, 0.6320702668075727, 0.884942903035185, 1.4638769586844944, -0.585405411664538, -0.11324393983093103, 0.9499436059174748, 1.2958285978773976, -0.8962043192621801, -0.6797109860087458, -1.9704875933134316, -0.41255373518337146, 0.16276813527151685, -0.557273895209075, 1.1653212097535472, 1.6413115100294515, 1.5272043263360005, 1.602270256165484, -0.3102649193563373, -0.13869975171858406, -0.31496138010395935, -2.15272575753527, 0.31148461601617733, -0.876888636121772, -0.4800843204705263, -0.6677078898889411, 0.16224623739657168, -0.2383927809200872, 1.71674267984713, -0.16100794025535645, 1.681440685847891, -0.3322706450041839, -0.8262491381330493, -0.8066021393019591, -0.8277724034464676, -0.8662203279731179, -0.3641565315928483, 0.2904734876850031, -1.3259112011255074, 0.6642912582937034, -1.539379638508855, -1.5528093763618152, -0.7371686094278962, 1.6740085953376025, -0.3375494025444248, 0.8506499998838325, -1.672751452064271, 1.656070679165072, 0.5705428542907279, -1.6439741867664746, 0.09498288530021302, -2.3526671934797942, -0.08133948984190358, -0.24479367848531017, -0.3967440923845042, -1.5432464232614291, 0.9291796768355748, -0.060214529346943865, -1.346945459153532, 0.2315231679639495, 1.2636897909314815, -0.6771457788601523, 0.3633055739058668, -1.222408980777797, -1.3166134367897953, -0.8679689532596601, -0.3622976707120408, 0.033451844050571077, 0.3071701696078938, 0.004699298099957843, -0.47017753611924, -0.08801699658001191, 0.6465080815906482, -2.053208605716334, -1.9328932703561692, -2.3070064612039984, 1.9295714280733278, -0.4399320326023546, 1.2460716693368974, 0.8920686289974239, 0.47318510906150324, 0.1809512188771896, 1.2901174320477957, 0.3481845690437645, 0.04742132137450769, -0.0738304241783339, 1.9937289516564989, 0.7057820537607704, -0.03301974720309487, 0.6238536497354505, -0.014134183092053759, -0.6641598320845823, -0.19593137112863596, -0.5475679919595874, -0.012742989419308464, 0.9123945154545305, -0.4611632982064935, 0.8569672772361141, 0.9017674633487059, -1.5272023388186036, 0.16755600724298192, -0.7445094433996513, -2.0220497130489927, -1.4890280082445486, -0.5424196959961668, 0.0333470325066048, -0.1233261332773774, -1.1246845565255172, 0.1412858154004035, 2.6941466054268366, -0.17671894367194443, 1.20506752296475, 0.2966186052240976, -0.6449032595694794, 1.141767807693585, -0.17082253986861612, 0.3227749812508629, 1.6035241457746514, -0.8459224460373688, -0.6980717651180215, -1.9049578891397734, -0.9759672320612433, -1.712331262090349, 1.103921653535912, -0.4350319908911943, 0.15314014950680754, -1.174939066236777, -0.18185666743687975, 1.4374717850185215, 1.1705971007264948, -3.23062676058574, -0.96863559625793, -0.4748500747367495, 0.860105383369109, 0.9323229892880214, 1.4118907413110966, 1.629004055609719, 1.7583701648846337, 1.2277411071770306, 0.9401774574785525, 0.5016864268287458, -0.5693243125620369, -1.4335837510800695, 1.283076136238708, -0.44382183494117616, 0.6793299708130867, -0.7894278945350456, 0.15866719462271267, -0.11455161562864004, 1.3838603202552797, -0.8399496125811448, 1.423311656161859, -0.1559972011075723, -0.6872912326570806, -0.08191958936960446, -2.8697517003355535, -1.3962580555608066, -0.8276598033775704, -1.9564892589947946, -1.24710833087421, -0.8158429816473579, -1.1775615671812931, -1.525944467283499, 1.4602477407605499, -0.2120125483675135, 0.7106790202083516, 0.4544901293355458, 1.6833404843063047, 0.6276004350261102, 0.9857098345924271, -0.6704099216823282, 0.5744346642229664, -0.008705624152782993, 1.8369350725023308, -0.5314068584238018, -1.0825434036912354, -1.2931335542646323, -0.14350845970316925, 3.3709947352200675, 0.783767496263603, 0.1963838524631892, 0.6438118800764694, -0.19821048983380335, 0.19145123428357866, 0.1965482937641617, -2.723411665490149, -1.2170792590787527, -3.4726672528293587, -2.665767367917895, 0.5547212396844265, 1.2047870844281314, 0.07896870642689532, -1.3286173375940695, -1.407037475774546, 0.5590531818929301, 0.030892075289314386, 0.5258620445286453, 1.2071153539029171, -0.2310044879687223, -1.4292465404688133, 1.279445799937103, 0.5428562939559206, -1.6579167899336864, -3.7905359435445156, -4.228799567778613, -0.35479023584712166, 0.863411353410027, -0.4622490726000359, 0.9287940218629164, -0.11080532938417342, 1.7491094402973024, -0.525753394747399, 2.428489247706241, -0.02120362436313597, 0.4320109066653549, -0.800007001768826, -0.7293648966199381, -0.041541589718369396, 1.4063701287611279, 0.8776736050960691, 0.5886717806180319, 0.14021479611532642, 1.5231718349200005, 1.1761335104947264, 2.355024572312421, 0.16530368993967148, 1.6087861228684162, 0.3767312853616445, 0.23344090413117438, -1.0780269455576499, 1.9263976236381968, -2.767600161342363, -3.409225334630851, -0.08310401000861428, 1.3065728290302392, 1.1756789175311149, -1.841128301664115, 0.9270413166811877, 1.1000501749364062, 1.1199245348021465, 2.548381753986028, 2.4133705290589864, 0.1745283872081043, 0.2952760005326196, -0.7319900232151605, 0.7618062155737946, -0.12157626717457955, 0.9722044132451031, 0.6586796969673755, -0.29842066378856275, 1.7936454279585312, -0.022060954186783988, 0.7214234281590921, 0.6972851388203468, -0.007378581699521307, -0.5655991406194517, 0.5037560999237827, 0.8431986391838899, -2.030960170494272, -4.153598139155499, -2.357331256142997, -0.9756879935440413, 0.546736388532276, -0.005039003840579584, -0.42706142354651283, 0.9991468103077661, -0.09040281340126623, 2.1683304657520734, 1.7406855379219976, 1.8755619550054987, 1.1848736189341194, 1.4541959980157393, 0.2782228155955587, 0.1577022933485012, 1.7861928053182416, 0.6562070812725339, 0.3663471527442661, 0.5868595197719535, 1.2669660246420331, 1.7006565769632431, 1.2987250201524325, 0.1502207639571902, -0.20782740922523615, 1.2678930475711543, 2.9230021977860514, 0.8711867876666552, -2.178451163105515, -3.1083684093059305, 0.8808434639485987, 0.7643470177645043, 1.52261596709014, 0.5289300040527812, 1.6841261915736123, 2.4735445069046857, 2.2356839511871898, -0.8709886278875789, 3.0468113291630385, 2.3235009140189082, 2.4176345106687775, -0.29766251139964106, -0.6004820618730501, 1.0249858082800392, 0.0006280072604781733, -0.9221537054193404, -0.13695419671008988, -0.6838828629437024, 1.2311238503681983, 0.8441192707937523, 0.5694131403061661, -0.2557503498247486, 0.533820047519706, 0.8067781872033848, -0.4490668457407152, -0.36131267735201406, -4.111042717210653, -1.8986306594509363, -0.7374795341005143, 2.167571674579869, 1.2043836728778552, 1.7931930911923326, 2.099278192920117, 1.9138472598695497, -0.13368897507968855, 1.8328655008341144, 2.0786921485059136, 0.30358895474784875, 2.255034910366128, 0.007232810573430228, -1.2437458935228975, -1.0742108526595011, 0.5445469660296174, 0.511885505932301, -0.02521339103279134, -2.4688754117504934, -0.9497533275642873, 0.15421885334604687, -0.0327645054804622, 3.028214347135958, 1.600992779684848, 0.2619757859000366, 0.4079335834778137, -0.25042731840534843, -3.5655313603791443, 1.6794883822268072, 1.0658885263641655, 1.8577024464160876, 0.6675100710971927, 1.262415352474062, 1.3032928519558542, 0.9094152039096324, 1.3928299325600488, 0.2748544667944523, 0.922438394195505, -0.11362041062668161, -0.9003051702782205, 1.2357133426067015, 0.18122240801437436, -0.04343876039930834, -0.9562745602229297, -0.5440782076960115, 0.2957630360753171, -1.4196831721543706, -1.2294543800109776, -0.4292398283332045, 0.24086938595211038, 1.8328718747073065, 0.26502294051665987, 0.2976197914406746, 1.9105569655232808, -0.4433922912496721, -0.548984966103211, 0.07806939890395458, 1.5143932119788939, 0.7339356378588475, 1.63276539907145, 1.206344578072169, 0.1806718029356308, -0.005832367586121764, 0.5569380176407387, -0.06428058840567939, 1.2206513915358428, -0.5776899955137035, 0.0785510001127645, 3.0522299576341907, 1.4216751751641572, -0.06919502292478093, 0.639349507283447, 0.36055068874753865, 0.13755358806964144, -1.3694468335584766, -1.3708854328596876, -0.6704038187284131, -0.9667967182944618, -0.3915751981345238, -0.4675912161522203, 0.06322717637345285, -0.11917127692699908, -1.370389965776885, 1.1594668336420875, 0.9569367272813226, 1.410581597362293, -0.7275579998900794, 0.652377254601507, 1.3412718722967651, 0.2891523878031282, -0.07259518061019933, 0.5329625969208424, -1.4408020729576199, -0.14027378559105913, -1.6649292871429726, -0.9414101009937099, -0.17239857766027677, 1.2146719272654505, 0.7361281645207941, 1.0373175684591662, -1.9507958258346219, 0.608500710540429, -0.460272617838003, 0.8382540106741574, -1.3794448304463973, -0.5350736290817897, -0.09539464224790695, -0.19383443364667347, -1.2960522277752962, -0.7981648535976963, 0.2759665315619455, 0.252894711951394, 0.39509650674793323, -0.1318475850104173, 0.09524805332144583, 0.03216058292227601, -0.7727092187079491, -1.814353881631701, -0.1453201240142761, 1.4133934365528857, 0.027540887689244422, 0.47502867809846216, -1.6153996770262964, 0.8793917762104517, 0.16911574863931342, 0.7893391094792964, 0.8242595434823343, -0.45851416931021943, 0.5007908312392605, 1.5132094003100143, 0.3422009564006053, 1.0913043275331071, -0.3368473871479372, -1.844523958886697, 0.8572735619444041, 0.18809285125951894, 1.1007507622258441, -0.6581719066681166, 0.7618427978686754, -0.729452990354009, 0.41029438482068, -2.275033558722297, 0.79905367172498, -0.6982995401884953, -0.48584175032323373, -0.9325876066637829, -0.48181116265203827, -0.10464024908577056, -0.3985160548423861, -1.6132255684817853, 0.3642688694122936, -0.9728641440950729, 0.7039927209957552, 1.3944903067197514, 0.1086082095675561, 0.7891642312831464, -0.9828821762549897, -0.7512138873522667, -0.4189479777109573, -0.565043021028924, -1.7434483115163553, -1.6879641042486042, -0.29374394313929897, 0.0141206017984811, 1.204036872747116, 0.9540262976023056, -0.38453265637401757, 0.918086921106112, -1.2826502742935342, -1.8393303262818068, -1.7521147358480864, -0.8692098221896173, -0.7749418602704967, -0.958127888780687, -0.03188358269935635, -1.7674571547787217, -1.309233364176369, 0.3605003393611143, 0.17614194200623867, -0.28317424593514967, 0.13070462830522223, 0.3144715897031735, -1.3832291395305232, -0.12237194031855726, 0.0688638200267086, -0.9438739554920403, -0.33485700019528164, 0.3407747687926508, -1.4785498307351737, -0.3868606375225023, -1.3676535229815614, 0.0022171655804492717, 1.637506934838258, -1.7716829906373408, -1.4237880327286843, 0.5424655327921141, 0.17317704023507716, 0.11409453479181762, -0.8238846562634841, -0.99961467446582, -1.550115851903497, -2.750031960674937, -1.109678520146419, -1.142697558165968, 0.07574410494947603, -0.5256621722709934, 1.4392751008303877, 0.9829212972444141, 2.3355374337406696, -1.9732546114233458, 1.472811990018652, 1.2094872047144225, 0.529963355335553, -0.26323442143522996, -1.2548310171338384, -1.6199444485304655, -0.5470240338167338, -1.5057960945788256, 2.17274484543937, 0.35889697276559196, 1.0166340746799976, -1.6171426065824568, -0.5498469896161311, 0.15917097592536247, 0.8578919339513607, -0.5621528872413308, -1.4776692295349552, -1.6479262436996542, -2.0086882321945843, -1.9482424555497435, -1.9516382685384175, 0.9467328176156051, 0.6136273455172648, -0.3895592592562704, -0.3517098384500591, 0.15718412379758795, -0.5672649924653246, 1.1914240877949984, -0.360335550559378, -1.6439209059708773, 0.6984556367348139, -0.6595585087701464, -0.0443759278719275, 0.5304503650637409, 1.8046250103248593, 0.7204172798191445, -0.7173877828305247, -0.8875392311584833, 0.3770533836966459, 0.2501481679327891, -0.40375136417842106, -0.6181774842807707, -0.8514129769872787, -0.9006258207909034, -2.1130456019613013, -0.7682968709726234, -0.6387663758506684, 0.14023485925530776, -1.2196497512008277, -1.4522644483400333, 0.7618727341082953, -0.9626743675101869, -1.0153767016798234, -0.6030545547479756, 0.6265782749975022, -0.8980961214379626, 0.18127543209314248, 0.5692288108462196, 0.8979411963354778, -0.8900873753054974, -0.8572669126656226, 1.0590858415942108, 0.4843242878842686, 0.3785942747033687, 0.4376036757532092, -1.4022480107058972, 0.35600115656592174, -1.0773244275591458, -0.9337062126507648, 0.61771725012856, 0.08429990336033188, 1.175593547432014, 0.9940739105966112, -0.07852587697229967, 1.159478214944555, -0.7858060516203742, -0.29567296349375727, 0.21087782215597292, -0.0486701436106994, -1.5921393520324694, -1.4840057820520296, -0.09550325818046118, 1.692691078500632, 0.227896400688433, 0.5429599141852679, 1.2240376595493854, -0.1337179992897869, -0.3627513273168139, 0.9722924851742477, 0.7967176659982688, 2.623105895358315, 0.7123774060866341, -0.17225664828925738, 0.06621045253863707, 0.2677605258507713, 0.4993566471726143, -0.012353002954966377, 0.5101002415340766, 0.3757204620197825, -0.38725056387255896, 0.3900254339026004, 0.4155598696739968, 1.4857880381396582, -0.22003952320038977, 1.242169455733413, -0.26815770307999687, -0.6353284106773568, -1.8990937998663728, -0.5299169037419327, -0.5869754985868563, -1.0545130017412758, 0.11329540704289397, -0.6894771471619485, -0.19875040190227358, 0.10722722224392969, 1.1598923070426335, -0.7106867404853254, 0.28843115808156483, 2.0036179952491926, 0.8433427533178879, 2.3082737792863477, -0.0938488999672178, -0.633285383481053, 0.10884630904471758, -0.7883649407695116, 2.4051688034583387, -1.3789565360324987, -0.3694049921051902, -1.6878600707624218, -0.2537021131359179, 0.3577090785830352, -1.2461090475677747, -0.4413767111562146, -0.4205555247692241, 0.933129739653208, 1.1730764634821145, -0.4842517139602033, 1.0437531436453218, -1.2243206404339824, 0.31297854756315696, 0.2531146076196515, },
        { 0.14244678777439687, -0.8593411469083603, -0.23216872508902756, -0.7178874715648321, -1.6862166676091894, -0.7073384032368755, 0.06447826008618306, -0.873695502427856, 0.37207436894780027, -0.8615195224768049, 0.038577693336674476, 0.37905155786849243, 1.5011029232597088, 0.2551223042540811, 0.8947411619982, -1.0658754362860123, 0.11753147463050184, 0.16748676989336303, 0.4955099868264994, -0.11772163997200923, -0.10564624073076029, -0.5319978453976725, 0.3199492592054293, -0.18442484889324823, -0.015427044258154853, 0.32185914896844176, 2.1369644001590298, 0.941425372981796, -0.6803648353745438, -0.4500654889578676, 1.7528915141432178, -0.40529770647154273, -1.0674064199145876, -1.9554268926995904, 0.27011023880170265, -0.5673865956630355, -0.4080667679978846, 2.0404426366492388, -0.39998027128933694, 0.5180988058140197, 0.43434694963625786, 0.3315981968215702, -0.7370482179536969, 0.8433197574286154, 0.4260936481485474, -0.42644944458138123, -0.12354992127608064, -0.6836567334728563, 1.259954530908206, -0.32151864054383034, 1.9040837973015445, 0.47648533984920405, 0.42467734797340795, 0.28187570594556277, 0.3971449211823324, 2.1073360661875515, -1.559870877032118, -1.7755525734016557, 2.5136617263534897, 1.398525370196553, 0.29996506677651896, -1.0448244025113431, 0.3750100258058846, 1.521958424491449, -0.9165201542028378, -0.346484258670492, -1.1523661022183678, 0.023830500288763518, -0.5644286369509679, -0.7454423621619413, 0.3440411682258611, -0.39639862775219015, -1.413597124437565, -0.1603127572041209, 0.1544036992148061, -0.9037464715413072, -0.6199996725967566, 0.07091013755185224, -0.7794854353559245, -1.7405372293444925, 0.9869214365331309, -0.325211289548585, 0.4081453068703042, -1.6230496953204732, 0.08806416383020786, -0.3635213725007564, 0.4592114300549158, -0.07996532316153317, -0.777019958745941, 0.00851100616353673, -1.7337884036195577, -0.8019854838503084, 1.4665801008822053, -0.4020635675327053, -0.4436818634030001, -1.2997096287938625, -0.15501183643842706, -2.9370705079247985, -1.4671436208966733, -1.5328448163729245, -1.239236693625993, -2.5992408533589426, -1.907288442760969, -1.556982791837296, -2.42522240879449, 0.36550339090331857, -0.9176835849914334, -0.5649666659848281, -1.0014729664181834, -1.019139509509914, 1.6249123574495046, -0.3078007956921967, 0.946008689248272, -0.50287253166148, 1.0693500671965577, 0.4274956615218536, 0.5558502933902983, -0.3627386951682396, -0.43307354967329864, -1.6435000119173524, -1.2810361378692987, -2.0656857650555245, -1.4734262364881212, -0.6387567763248554, -2.237217909705426, -3.2220478609723786, -3.298940854811204, -3.2752227671775853, -2.3494530323711875, -2.299583948100465, -1.0012815834868856, -1.0634695776378449, -0.7706653596246855, -0.5265601604507963, -1.9336412513674808, 0.4404911837663554, 0.5780084072322719, 1.7970460596754863, 0.8765912064051861, 2.3931631768575623, 0.3454066016808649, -1.1693996573941314, -1.0248873109021515, 0.19625195473779464, -0.9816025503330542, 0.03179823620783861, -1.5812329960342921, -0.7023907089069809, -1.3898951911630473, 0.35753334568047807, -2.172394068586208, 1.4614571188549788, 0.32342587665358535, -1.6078094415064659, 0.6444753068492606, -0.7012421557932356, -0.5948393139425601, -1.5965233750351098, -1.4031683868426639, -1.2509299615399916, -0.9735437999241366, 0.7803822299579083, -0.6151138158772125, 0.8087166775398054, 2.2140350387713164, 1.7642986414242827, 0.13528748875150975, 1.8129079385930034, -0.38550067978118685, 0.9002555104648248, -0.011248772401423595, 0.18212229666028715, -1.8790191635890139, -0.08265694810454455, -1.8016258494348327, -1.0199810608116386, -1.5021841074621696, -0.6431612243500583, -1.6158827048890496, 0.07525590984986948, 0.1430595808294316, 0.9763256315582135, 0.9081298290503139, -0.47160503948693255, 1.3227136451363481, 0.24103313459723033, 1.1923455007659798, -1.6755793344511494, -0.7132016576982845, -0.9596654197856122, 0.31886622511176554, -1.1283460593517773, -1.362646647273474, -1.0587058083293805, -1.1737398729114767, -0.8195594735206515, 0.16872927598008128, -0.647785129495762, -0.5487450447253218, 1.1093269939355435, -2.2735941424824775, -1.203287871175677, -1.7136325450617105, -2.14519626468724, 0.9441236009152519, -1.4071245143511444, -0.1086567015034366, 0.0710559616594142, 1.6020371762677132, 1.1501427724797442, 0.03476753879394135, -1.1492749353939775, 1.016772560037967, 0.16040927349669887, 1.3434693150684969, -1.2708890827948, -0.5302449747350226, 1.19004994514829, -0.5136984667812388, -0.008175536692547145, 0.5830569442556964, 1.5723989620101286, 0.47978615425423743, -0.8773261511307555, -0.11239176793928517, -0.15096651362183766, 0.2754252777885774, 0.4027161910343928, -0.7218950414221451, -3.5959091323781713, -0.7400100157565511, -0.5665019639574567, -1.2040524078367958, -0.9745799429699574, -1.2703844894869891, -0.6041000591843371, -1.7903607014594278, -1.0618029756331526, 1.6876726500793298, -0.23015435969690592, 0.6193792685566658, -0.5494722733578088, -0.5448758737921039, -1.0560950944420182, 0.18819865794345209, 0.0067598356106342615, -1.8161202229398612, -1.532773118957351, 0.6401914811031112, 0.6223933232020977, 0.3445905763475597, -1.288932423724483, -0.5009986121358857, -1.2982880461840354, -1.566426783978238, 1.1913909108760345, -1.0907311775535553, -1.3751319961326822, -0.84589344161701, -0.8039785773698304, 1.2691337317805909, -1.1648029593389773, -0.742258905326136, 0.442583335634479, -0.5537216842786428, -0.2920956516583056, -0.9765895504053465, -0.12188651259777976, -1.1412886836885046, 0.22654461213701632, 1.6110914970833985, -0.4601614837608614, -0.16909255943052245, -0.7725239559052838, -0.33717794644517257, 0.8215515319354535, 0.19420784366981086, 0.3882339856945703, -0.6724135411237786, 0.13930211884062466, -0.5308789158077086, 0.14872715904075942, -0.14259970391999185, -0.5786497220207507, -2.2209718398787506, -0.025460376764625776, 0.28464849333616693, -0.9767068563424851, -1.337350517482925, 1.3450262641109112, -0.19434633578398441, -0.08769257033732436, 1.6445530364729386, -0.4710512287917031, -0.6708123009708091, 1.2415883130567198, 0.9119619376306358, -0.9852661780508919, 0.12576084318854272, 1.1113956085623222, 1.491199113854997, 0.33825567454197797, 0.8912462588938224, -1.3486988720058262, -1.0644108139265007, -0.0011003733242617387, 1.3918695565514887, -0.4791727959680614, -0.5518687951568749, -0.17286559345246233, 0.18232140313399128, 0.1789224565623544, 1.6121631151428373, -1.068960395122186, 0.6845727413948146, 1.0560596102469093, 1.6598591946655723, 0.623807848039535, 1.2273369226164772, 2.7939749982403477, 2.966997582735201, 1.6774154608401974, -1.2287229499984929, 0.21050962547316732, 1.629436054841961, 0.940544309157246, 2.083655962861914, -0.5165747805294115, 0.6073846759143008, -0.9473400467184877, 0.2521959910987336, 0.04273481707743835, 1.382186261465835, -0.4906132922749706, 1.4423056889249197, 0.9321523228659514, -0.1423793719510867, -1.1239182760939948, -1.0183247478641744, 0.8681691711998957, 1.272614150692875, 0.6446125219568817, 1.7624987603975153, 1.0635246913881566, 1.0949814478326882, 0.8579687009659668, 3.112472591286213, 2.227114872327477, 2.2477805924717567, 0.5221599771686164, -0.5409612097502117, 1.176676841196674, 0.4611228373500879, -0.46301469413136775, 0.010718506496006187, -1.6653677800170676, -0.2541155795507281, -0.3013868991921312, -0.6544307991486306, -1.7749275802121753, -1.8392726458624462, 1.2851752051241145, 0.39527681258023506, -0.7927224370253125, -0.816914391182005, 0.8392368906377407, 1.407127792448585, 1.7627029251515995, 2.1166400916942196, 3.1744182838501747, 3.757665522975316, 3.0966101836037954, 2.7577550959893533, 3.5050459887329133, 2.0890141601908714, 2.6250251548787933, 0.7586953296472416, 1.635316037355789, 0.06077094822858878, 0.9349615516947152, -0.5015162672990523, 0.8672393646851184, -0.18072586789136055, 0.3468307150996647, -0.04347338595624023, 0.05511092974774925, -1.142346042127514, -1.5018377841339816, -2.115189739220715, 2.411858249650966, -2.0022870579511345, -1.88249931609414, -0.8518042959823452, -0.7487446736420136, 0.18020444719413486, -0.692169310029619, 2.3183789747626986, 1.452469955684698, 2.5692558076899257, 4.711816718933667, 2.4729209246525197, 3.06344976843778, 1.0162968782340043, 0.12448589112181602, 1.5026674167378904, -1.3058754521652007, -1.6202419230764544, 0.5646038632848196, 0.3692292510109178, 0.19517806362058598, 1.0766615132451165, -0.462651151662912, 0.9092089500996032, 0.23300884198684318, -1.2351702662915145, 0.10340871790177043, 1.1154493578931681, -1.5036095552850635, 1.6416516975977504, -0.766341770214171, -0.33173645951904907, -1.5860113656732164, -1.6117632048342585, 1.0147375149123112, 2.6872676090259993, 2.101224355122553, 1.7419955021567626, 1.0149511900306036, 1.293850168478434, 0.9029993191834783, -0.3839254264145528, -1.1528708957131708, -0.7122771775722913, -1.42831407768762, -0.12908812483143672, 0.16652377055268927, 1.328928084137563, 2.689018118164204, 0.09105676133689582, 1.1693134714306217, -0.2205168406550407, -1.00908296032858, -2.2192665729141976, -2.4910049703876243, -0.38998583815848636, -0.6243068783591154, 1.6859317252285935, -0.5684868961943843, -0.5286609493347707, 1.4758351958392169, 0.28664285175513704, 1.1017087904233684, 1.9824880958642979, 0.6941572231657871, 0.17285694485611397, 1.4236344218822417, 0.5114135870364582, -0.6149083125682134, -0.240805963121792, 0.7680482380670525, -0.7948773411901622, -1.4132297055086298, 1.065716180320251, -0.5782721113869873, 0.6454725283004302, 0.7188257153432807, 1.5153440195377443, -0.12820499849048464, 0.11035155029718612, 0.586598248505638, -0.24135341935057464, -1.4754943148046171, -0.9025269470323031, 0.4690905919604128, -1.061804779881899, 2.5899446975534013, 0.28894623822195287, -0.5988369003008869, -1.675933337042718, 0.023137808674346946, 0.6697152484450918, 0.6280355216692256, 1.8896969936488288, -0.04121238425278173, -0.7716970026126795, 0.4079586032517558, -0.42917561738416027, -2.364642743205837, -0.7389180532070183, -2.0068152351768673, 0.16685886158886706, 1.8626132430880127, 1.5304062500845734, -0.10303722790819628, 1.5891515261826308, -0.23786599600907318, -1.7033311942473919, -0.14322259898221848, -0.9631392581465325, -3.020971263510248, -1.460178757672423, 0.5973364171527172, 2.1280638040085953, 0.6059090867203987, 0.555881767910087, -1.0361109395173203, 0.9424537514371436, -0.23417880331538582, 1.3401435053107074, 0.04166640213694079, 1.2203013057527845, 0.2708823689793914, 0.7914208589253582, -1.5491098157967218, -1.372824909301523, 0.342092361061829, -1.7615264562944393, -0.2923441989961314, -0.7054804114942357, 1.7901542015765968, -0.11217471040311469, -0.3991926155508629, -1.3434059823199875, 0.32311387811538983, -0.3673472103473784, -0.9215998477237889, -1.2248476732142104, -0.03422710264070462, -3.0602671595663957, -1.4012997806155258, -1.2215133746209774, -1.9521543334898757, 0.6223994377060322, -0.7794557636204222, 1.2544169533664935, -1.4758419308094441, 1.2929523497886588, -0.8281085134252048, -0.17704429357831888, 0.6886556713309537, -1.2262441735354488, -2.0935849269997404, -1.7717554062579821, 0.5680332495325972, -0.636125912787337, -0.3901338986778229, 0.7740873023538812, -0.7919327728384974, -0.27409662610257673, -1.1597314998580792, -1.358360639845172, -0.7494627379099877, -1.229181504755236, 0.007941844671706853, -1.0532375614795306, -3.0430142417539834, -0.4368695616778581, -0.16007348921809794, -1.5418318896354928, 2.3977374319503815, 0.0805223358519836, 0.04894905702848271, -1.9109425669419897, -1.381838393848472, -1.5967748495453646, -3.2736431869548834, -0.44096892659652703, -2.4334522196711257, -1.3283074748647064, -2.4703851127840153, -2.427083003800062, -1.9412381544682427, -3.4476974684055928, -2.0367019609071164, -2.3977141855788706, -1.5386343157744924, -0.02146880705819233, -1.8212664913403969, -2.3946649507416358, -1.309071497472733, -1.246360509209072, -1.6108507897653424, -0.6504445419416753, -2.304688749433034, 0.11571001855858785, 0.18797838072985862, 0.6877191292706933, -1.1104491811138277, 1.7730287630481174, 1.1264483086895543, -0.11674326517694313, -0.7369055081779256, -0.7522487966937762, -2.264607714211589, -2.481576339397151, -2.8594387851360836, -2.74667766671817, -1.6081261818531907, -1.8234916677713287, -3.2248318090096433, -2.036201014494029, -2.6590965645809104, -2.965037737644256, -1.5740026590057712, 0.7672827827123789, -2.0814993680414826, 0.24253628012536585, -1.2345370823772477, -1.101085272425083, -1.2748063577906887, -0.1096030299367085, 1.8372798519243139, 0.5878304147546956, 0.822911012950283, -0.03916841571212019, 0.38249743854384183, 0.16058476712662562, 0.016166645447416243, 0.3187389946361143, -0.40614912228668415, -1.4483602560219233, -1.7596061776817815, -2.1862147680454855, -4.100491164545034, -0.3020403920825135, -1.3234191377915558, -0.2737359604699452, 1.50469342199339, -1.7436306558151475, -0.8598741117935259, -1.4930267590648427, -2.6222036372393807, -1.6962175940491517, -0.20291103686915613, -0.1655929761990651, -0.04753743603943951, -0.21601172412620423, -1.5352296458473562, 0.039080229265098756, 0.1913027423887013, 1.8125652502132905, 0.32559178338140277, 0.529621396155087, 0.49880729082977276, -1.0664758221004327, -1.214588520720137, 1.2763798988502244, -2.293048626839344, -3.3639228873207903, -0.28711068934428885, 0.20138481487013635, -0.300795478647869, 1.0265931686033625, 0.27269118842799706, 0.26437908550822903, -0.8651526648841296, 1.082969530646105, -1.7785075216598552, -0.010593759206189109, -2.0255316285109433, -3.4367883468844274, -0.8496192993378858, -1.4675752003155658, -0.41380958722201305, -1.9228876268870068, 1.1256479010963838, 0.9081163424262506, -0.2625644424450488, -0.2883187570330942, -1.3822463019983846, 0.7161410080695927, -0.7636242570317722, -1.7141040913807872, 0.03390254609943339, -0.28301408685560664, 1.2830338559845418, -1.1471292355538596, 1.8997009617770222, 0.8719008589738203, 0.38923656333796974, 0.18293318904446462, -0.9040501782889839, -0.07460671184535173, -1.8761783244026304, -2.6252175744621566, -0.9623638096194556, -1.8302285974293429, -1.310886349362646, -1.8338408208480337, -1.867215082452863, -1.443720971119556, 0.24016801835043625, 0.349142104414537, 1.7682860067645145, -0.013667589796851001, 3.0326738119286847, -0.5777453936360514, 2.378544439407548, -0.8680066442218346, 1.2479086829398958, -0.22709333270135537, -0.18140304722488151, 1.0192829060311617, 1.2918320446746518, 1.856527720190376, 2.5958620507988015, 2.2246058822174164, -0.3295129328716304, 0.931004193112985, -1.2499633281508404, -1.0174266537148482, -0.11463333481251745, -0.85489678029354, -0.9238816657086059, -0.39388040659810103, -0.9551415405586767, 0.2864794908025566, 0.267877160899876, 1.7797909329692658, -0.9137892613540066, 2.4451997129670064, 0.6845920906709118, 0.6560526466822445, -0.8800668306518084, 1.4576730255051797, 0.15819338751694276, 0.8664900127792602, 0.5997675039159617, 0.7844940636501301, 0.22190827773617378, -0.3730074594025894, -0.15799049592761943, -0.9173068351946382, -2.577949447477653, 0.9708462612219121, -0.5256542619779591, 0.15702162559531865, 0.28868264122972, 0.4465568758044623, -0.8952195792932685, -0.23269048867397488, 2.7913554553332673, -1.8795257120681563, 1.955119150732491, -0.7021745230004501, -0.32070350854972623, -0.9060436328821247, -0.06976761416327368, -2.0357728564638373, -0.06414422601918815, 0.17628852402630424, -0.7910691378308833, 0.8396141612276415, 0.2043945409472335, -0.7608972215279394, -0.21918065586434524, 0.31668137110889694, 0.9356275010818537, 0.1597480573217537, -0.6931769285669985, -1.585620945173841, 0.24181960314915854, 1.35155598059908, 0.8415278593154815, 0.2993665478387396, -0.07405922148042969, -0.40645755604992473, -0.23894039705968564, -0.35321910863397826, 0.15387857603687527, -0.2999586378402175, -1.4870056056243173, -0.04838488886475671, 1.4652068174085213, -0.501034732716812, -0.2518451684726291, -0.4047192048098953, 0.31438240803084094, -0.5128447185241524, -1.402599970536254, -0.7386814084292675, -0.4713823167885963, 0.01868519852492114, 0.20840824806532063, },
        { -0.764996012514054, 0.06549972798844983, -1.4350135337064354, 0.28446347040830516, -1.669367898819981, 0.4188232759671424, 0.6154558744309069, -0.04862297343526705, 2.110032398149813, 0.35576422531584173, 1.6836306232350116, 0.6331552252203195, 0.8082071833642197, -0.3869787775621203, 0.00824856408025908, 2.393858960856959, 0.7531140183716422, 1.4507438561997494, 0.3288513960051138, -1.7420216866253733, -0.2759823178440538, 0.26174940281909215, 1.016868571852836, -1.228541708041821, 0.08912083558387572, -0.9060537741735938, -1.0384238745484147, -0.17925915148112842, 0.4215180986160671, -0.018118735795737945, -2.084467787159757, -0.03170676346515351, -0.4039071835823988, 1.3334220264095693, 0.4202326559175691, 1.125473610467279, -0.8023276530083344, -0.044548512599736946, -0.30870957988623016, -1.0582573006150606, 0.25416159190495335, 0.8025796340172336, 1.0779348432022837, 0.14919650169527035, 0.07534533222535028, 1.4000976597583172, -0.79803074518103, 0.9602008899553656, 1.164509785098849, 0.12237491670475337, -0.38309316836605917, -0.35834213682121174, -0.1954762448034088, 0.20117843879958694, -0.8405526661637899, -1.4027236465585737, 0.5317217216989966, -1.0719782143044259, 1.3287611311506822, -1.7480339886919705, 0.28909798419485244, -0.7246065507907657, 0.17222037751317695, -0.15072221973521494, 0.1881840983804445, 1.0215005861215156, 0.6723627138092575, -0.06157650760971267, 1.4908338712790956, 0.3147457115698983, 0.26369178118672554, 0.9082327183684477, -0.5081165529429497, -0.2636243118368817, 0.10139207484102965, 1.0265989947681005, 1.69367782527816, 0.1542469464765364, -0.318040846988247, 0.33225043550096617, -0.07570734074891018, -1.1523302706465821, -0.6076553293150877, 1.8734204290666399, -0.20054533273209352, 0.23004430713610838, 0.9719338649846359, 0.22794425267163354, -0.12324835283147025, -0.6242859230083292, 0.30202419093240174, 1.1556380371761945, -0.6645971450187723, 0.5654330405549801, 2.0794079152829212, 2.1335545932432587, 0.2776201502621233, 0.8731656122673807, 2.0992503685845016, 1.8414505225470614, 1.9186027491843536, -0.5171254813196459, 0.3543530006621257, 0.015028091931373833, -0.12148971556284342, -0.4233850598142985, 0.2307063770904645, 0.5042506369018914, 0.2911981765278445, -0.8425874625086032, 0.31656095577461385, -0.673180343221256, -0.6314877291024787, 0.5575012135876566, -0.42073701388998136, -1.1594927418562295, 1.3626082361524499, 0.8605494458444704, -0.1997959022437594, 0.15397046509109016, 2.1167462273545974, -0.34948171556540686, 0.38686169958317074, -1.8808667654418014, -0.6495717982317745, -0.6082388277047241, 0.9363925327775462, 0.25752805442350557, -0.1618408897367845, 0.5501749310227965, -0.19474958222174038, 2.442009370369572, -1.0775175539616353, 2.0172939904122376, 0.053703631940901754, -0.9136256229649321, 1.829771562387345, 0.32632819560405385, -0.09372491086168697, -0.8520896188198405, -2.396959660808403, 1.8673540289625574, -2.6455263015496326, 0.7422458679417048, 1.1882193106715013, -0.1670493083147588, -0.15737878131964816, -0.5323686486822585, 0.8986279997373076, 0.17536461513817245, 0.19068974230475821, -2.5740850154946657, -1.1870803474589, -1.8069142274534327, -3.058249999104662, -1.0257032857051156, -1.649324526091671, 0.09531503628994552, -2.20999059846115, 1.0158309445291942, 0.6172402687614542, 2.3359783194291377, 1.9010010178620875, 0.9788267733186488, -1.4445360200678319, -0.8675960099251453, 1.1218894725755089, 0.5187917143605006, -0.5691679558083791, 1.0188953415437663, 1.2418670312898739, 0.3279210224663394, 0.16003123059969504, 0.26091768735297977, 0.15436276051025866, 0.05349356120584607, 0.20155246784100284, -0.24733260450932204, -0.41509203649597815, -1.9550203488858255, -0.4761403469796823, -1.072820499762985, -1.192730334078186, -1.3535690432901974, -0.33051525659185066, -1.7433692161651353, 0.22923901330965868, -0.10955420748889391, -1.2510103983628886, -1.582857600477456, -1.1860860339426413, 1.6096623948150373, -1.2135547479298272, -1.0933844274001152, -0.16002368995875216, -1.4089390462147091, 0.2534241914741574, 0.37227785065204005, -0.7371099606330977, 0.12694648998143201, -1.713327140103867, 0.4508499052413059, -0.8045894667246595, -1.5833005549255883, -1.6485077722423407, -1.8670265488263555, -0.37516561656502107, -0.057882676171105166, -0.9946278306276289, -2.444064083388897, 0.8780586723757066, 0.05694769220659955, -0.7333361857786952, -1.4533091456308909, -2.397551678479577, -0.23721693848511274, -0.1651663685347725, -2.85805392424456, 2.283578564560294, -1.892889399011789, -1.6699896303358295, -1.3308131301688952, -0.6476515312992999, 0.5584624354365402, 2.230322842305856, -0.48384828287769804, -0.5017736195526615, -1.3820389169078906, -0.5323232623018851, -0.35740399921659227, -0.8118694799031878, -1.9866664132263945, -2.339361758707716, -0.2686884828144444, -1.1104163955982895, -0.8226559861546762, -1.2265555419679515, -0.5367709212683335, -1.264738958972836, -1.0592389560977586, -1.946258926521079, -1.3877973240837571, -1.4640736526529163, -0.6225959520607615, -2.3383167018181337, -1.1598147234411127, -0.47873338892903944, -2.1107784390731035, -0.9951501190119452, -1.732685457096579, -0.5102059927509027, -0.663175345810078, -0.5583699735031954, -1.3030015916643207, 0.7792341991102936, 0.6591943871746473, -0.7579543789630022, -1.8037851546831716, -1.4029722619077605, -0.5219801051653025, 0.9204827155069893, 1.227873086483317, -0.06329932845148067, -1.509776645493632, 0.3973312871395903, -0.9020203834854876, -1.0341268579283494, -0.05997361653724105, -2.4469264997093414, -0.5899865172729061, -0.24340530797556484, 1.1925275822763817, -0.5317094743879197, -1.2756218697796153, -1.5304883634715278, -3.0018718837721465, -3.835392487618419, -2.462897922224837, 0.0033013741582979613, 0.7504008596385813, -1.6607242627655865, -1.8099014951859604, -1.092776693069562, -0.7467193072374908, -0.7809071564642708, -0.8039974039065354, -1.1444631350588759, -1.1411869083554749, 0.42095011513152536, 0.13848104379899537, 0.1623290567946423, -0.4084860942169166, 0.7473779034293103, -0.5323133724376828, -1.1669524131744011, -0.9023160353515223, -1.2162021570639368, -2.0662684417635386, -2.5156623912249945, -1.3471152719948252, -0.9502070091279528, -1.7484503273179592, -1.9483510203212664, -1.6304919492282006, -3.6475818444976595, -2.7843989726819216, -0.6626063223459452, 0.0645207976889447, 0.14761053046546957, 0.5502583335250855, 0.7274233394790317, 2.2456011085233207, -0.27029177516475655, -0.9167505616412612, 1.6095273203652944, 1.421809075350563, -0.5322333771819256, 0.8005426250343884, 1.168727549561419, 1.4619750558229294, -1.9266249452212219, -0.6390563317229285, -1.967056620921693, -1.405922413713082, -0.44402579428862343, 0.5075952230178267, -0.7986191696271089, 0.12982212990659006, 1.4750835879270772, -2.005017817860323, -1.7416649183481008, -2.7381087545597196, -1.9596238185256336, -1.1407210792762965, -0.09576207559183646, 0.3020723283272855, 0.13077318210125313, -1.0732215367046614, -0.8034261592416596, -0.09493700346448218, -0.3034233117194368, 0.7502082225026914, 1.4400239768405716, 1.0352693347100554, 1.6468358097617042, 0.3139036213615442, 0.5064753271997365, 0.9080757312860165, -1.177640124239805, 0.15093642728889675, 0.15741519796401363, 1.564717962835357, 0.2619867315899958, 1.125848903193408, 0.17555092897616953, 2.502676458751288, -0.4726798973458054, 0.11636209167037337, -0.5514379250194436, -1.2986462865111588, 0.9448018445031224, -0.7514499791172918, -0.2253305238150375, 0.06626633045741263, 0.2961190927306226, 1.1137808560991553, 0.37167029626416204, -2.00308340502754, 1.5488092082887606, 0.7733384876221, 1.010575129214747, 0.41673859175582467, 0.9722371628562808, 1.846001670539202, -0.5094435272017181, 1.5459880595082687, 0.8878425302100906, 0.9519908935342707, -0.07821428295453751, 0.39980696243655905, 0.5205672860234022, 1.0498227866743337, 0.6253923569789617, 0.8310740797369293, -2.025537700146351, -0.43885089298850555, -0.028302099568992222, 0.9377683289936329, 2.567490686072951, -0.2076056353280238, 1.1711044033820353, 1.8445096440783526, -0.6841718780283395, 0.6802923743402699, -0.27993476768746023, 0.7970998688397588, 0.6768575109457333, -0.25555584086673994, 0.394531827910471, 1.119197168447098, 0.9685374545913534, 3.046763761837293, 2.298568296010661, 2.3861492769905763, 1.3983143352771956, 0.7358125270198564, 0.7743541730014826, -0.4536145548060848, 1.5647014760818931, 0.6608327804582845, -0.41532204058538474, -0.022779515263863747, -0.4748209492114254, -0.80151076507825, 1.1538547407678081, 0.5239964638179062, 0.8103625312097208, -0.6962190742724155, -0.28089326690642824, -1.9831646283721742, 0.6948095163811082, -0.6670021396046707, 0.5356518545427184, 0.4165099763699938, 0.9565522809345242, -2.197519298415275, 1.743357744218546, -0.05316164989836186, 1.211122009666539, 0.760317406990802, 0.9971290577876523, 2.1440526921837284, 0.16582471431589066, 0.5543028712714217, -0.2745448411110272, 0.4004509542316381, 0.9182979741476275, 0.21668544541646678, 0.2377073412637512, 0.7489194458962991, -0.5085830279355026, -0.8103040578384546, 0.00586126828990327, -0.503663749258174, 0.09985701086479543, 2.7630235064288122, 0.44339412934198097, -0.734652325168144, -1.4494260722954528, 0.8021486906518949, -0.029826163787390152, 1.8072519217713476, -0.3393340493575419, 0.8623444985573323, 0.3972667915322961, 2.2526876566138574, 0.0908331843209439, 1.0236972404499507, 1.6624435200078365, 3.208280564407044, 0.4316230192282042, 0.9303039573328962, 0.08273305394599793, 1.307264786716498, 1.330605074524548, 0.7616763101016434, 0.5208251445146536, -0.45159865153288553, -0.7739684819980243, -0.1848142881426683, 1.2505903978678445, 1.9158454556333093, 1.5009167443426563, -0.5850359804929504, -0.5854908032889168, -0.883840912550177, -0.3005054568020925, 0.6709732589392928, -0.2704227313615977, 0.28214572740835503, -1.5587545230854944, -0.015320841687350782, 0.8718787861813543, 0.8252663358247588, 1.520854311035204, 0.7182775639088205, 2.4997136018457664, 1.4395074175893152, 0.18853132130484218, 1.4158296586271737, 1.5981241149932, 1.2590290894223555, 0.1884389008622065, -0.010925647861025154, 2.1253227395636003, -0.35975883675421677, -1.6703588435826295, 0.5018164310931214, 0.8684156946313795, -0.9177028565904581, 1.0345017425446608, 1.1669097329106668, 0.41449281590234355, 0.07370914290069025, -0.4983759061110022, 0.43222559857762355, -0.05058227033869019, 0.6048953302363823, 0.1219595296606426, -0.6297477687620779, 1.1603203310698478, 0.4363544671431989, 0.8681425134589881, 1.420026819337628, 0.42665588728103004, 0.03640755111164339, 1.0853494545932796, -0.2433181769198522, 1.77098478495175, 1.9839747556840324, -0.14708931291540195, 0.20363053139475276, -0.4554708822049987, 1.6299790634837192, -0.5223501311435269, -0.451715726211744, 0.5515352477659681, 2.8278500068244594, -0.2749944304679275, 1.0225352353680741, -0.6602199830419521, 0.07707041240146477, 1.3110909907688142, -1.2530546787636692, -0.36873785007086196, 0.5254934808411016, 0.78291424944593, -1.880133031614958, 0.48905596493990516, -1.888663101611233, -1.6483255064427118, -1.7381965566329183, -0.5451150341741973, 1.9297615392547618, -0.522846708811122, -1.418587860038451, 0.7705056956013961, 1.2810417447350086, 1.8760640675609674, -0.540004730217604, 0.9403431257455703, -0.6595295076805584, -0.8290365143586731, 0.8568275541374607, 1.9938947876832556, -0.10623652333911039, -1.1492322510712576, -0.7648673938338628, 0.6223611493046223, 0.46670246170618124, -0.4864036015016288, 0.6333592599010494, 0.8119627339699679, 0.49045110286618065, -0.7880583037280092, 0.7092364090532387, -1.27999681401388, 0.7381815833770549, -1.5576437205614493, -1.2032175309367383, 0.05336338882820499, 1.1318232627812548, -0.49003718401759105, -1.2668895270393656, -1.4576329836725024, -0.8691464343944606, 1.0430950474498915, 0.42019401204788953, 0.02056905304134073, -0.8471086057453425, 0.32733501845140445, 1.3928316945669843, -0.35194838295340536, 0.8276797600857514, -0.6839185391554239, -1.2463062899467443, -1.1532386676254482, -0.6938590968404459, -0.22638096277175535, -0.32047785346953267, 1.7093870325083278, 0.19422294854883085, -0.16529830371694823, -1.6332850754312507, -2.746236055780981, 0.4734206984355491, -0.04556264013336335, -1.4934322434964133, -1.599434887206479, 0.3786024624052865, 2.5038973967110065, 0.25030019584585733, 1.1721545722796058, -0.9238655904053423, 0.24975095751998158, 1.743969049544542, -0.38492515204259764, -0.5190663435006315, -1.697265515162305, -0.22842591039769874, 0.8111909125173792, -0.14506804848946458, -0.9438658735406681, 0.5366443521635339, -0.2148653508604884, -1.136919370241462, -0.047725139157554115, -0.4641817928453207, 0.39305232983032856, 0.06760963993128213, 0.7687830382612869, -0.7422263930980842, -3.156282506063093, -0.9290587723313702, -1.7256936675693866, -1.4444671858764857, -0.9642394814255515, -0.3716164028997795, -0.05401110575993342, -0.7161673292164746, -1.6121169610085544, -1.5052252034824034, -1.7503608944677975, -0.8457972882202699, -0.06221843357506613, -1.0187371021759022, -0.3808193525364218, 0.06716282928953073, -0.016902395112635, -0.2845488575740695, 1.5389955366261898, 0.043480500626634534, 0.6492042052756839, 1.241831738273015, -1.2187766284206274, -0.8071155759026641, -0.06507705143615326, -0.5052671213789458, 0.10336372793012227, -1.6812608086017242, -0.38380159783564916, 1.2425638998532886, -0.39146101063615285, -1.2419726562497426, -1.0212129904724507, -2.0434080862419757, -1.632815327766642, -1.2922934943624291, -1.486703965159041, -0.6296442399067552, -1.8250162715655223, -1.6609943718527167, -0.978469345344292, -0.5006068821223185, -1.203972666607637, 0.26708971620926686, 2.02960727551006, 0.3456942191516095, -1.904565773841931, -0.6419066857420778, -0.7238594606918262, -0.1422094454306215, -0.555103142525299, 0.5824407338647531, -1.5194134364532026, -1.7694020378848399, 0.45893253886243995, -1.090520601860071, 0.011286890566081963, 0.6101591540629469, 0.7562105263696738, -1.1508679000860549, -0.48994307884192795, 1.7850157823763413, -3.065582676942863, -1.0278496141239362, -1.291895854006598, -3.0721151616414253, -1.8529488324481735, -2.6845685713150162, -1.7932425187687264, 1.1203373876338079, -1.0665934103853518, 0.9421267592699851, -0.7611094550408763, -0.05909913989361645, -1.0576356232956399, -0.5084528340131477, 0.9239982280870085, -0.715825626401827, -0.593343543966343, 1.0268396853426358, 1.0694030155073069, 0.9527171799715618, -0.5598704190281086, 0.040744340534481525, 2.2967275660881294, -0.8088698262948784, 1.0857874103490694, 1.6867032994104376, 1.6844132502408038, -0.7942284918916018, 1.1584416958177768, 1.0773734690559362, 0.7985896958626808, 0.4612940416544013, 0.7056019306175079, -0.8857235930157796, 0.8006965251680209, -0.9199338472872306, 0.6300484684593164, 0.24628279628720454, -0.4632998098250677, -1.1204784940186734, -0.5132257860278508, -1.1649517526191424, 1.110794580467205, 0.09265270135212055, -0.8130923292006511, -0.1421755087465558, 0.05744570280144199, 0.4703298081923376, 0.6855573548005155, -0.27403420962529546, 0.9053151116978884, 0.188600693780689, 1.8412391640070644, 1.2024810010558786, 0.35630453565456377, -0.31578196261553976, -1.036441287496711, -1.8907238800312538, 1.2811154221961674, -0.04703320151922171, 0.7675089520721418, 0.4387651241146358, 1.8847383669202156, -0.14727771616874424, 1.7413378214215853, 1.0574106638262273, 1.4960928863282748, 2.4291752606531656, -0.5795124588076668, -0.5685336530284912, 1.6988650347244938, -0.598198556045822, -1.5822127333840694, 0.6012019988050263, -0.18056194522390023, 1.0458623351305836, -0.5678942426180117, 0.043592470086236665, 1.427007741622778, 0.728550868873468, -1.1336426694326593, -0.12803120044215605, 0.8788397914244278, 0.497082504303993, 0.6236682596898872, 0.051459072236908765, 1.6183598753043191, 0.39827598535232706, 1.290554243897481, -0.8500203897421957, 0.7358744342215134, -0.10615862560055855, -1.9500211307645277, 0.5168271609496563, 1.6506294231113043, 3.1445700399345, 0.9395699840109154, 1.581925631133082, 2.10347379714453, 0.4151316543856006, },
        { -1.2200826272260157, 0.5256479344442333, -1.2447787461723925, -1.3707770701971822, 0.2582070937660621, 0.404880679060455, -0.7787752674243259, 1.5440421085958138, 1.0585201931106352, 0.19397019778783864, 0.3167103498625459, 0.786387343709841, 0.8336485658912935, -0.36839801603155314, 2.1390718078446724, -0.15271890888044418, -0.1932017459493264, 0.4923940587626168, 1.439091295275281, -1.2282235874059462, -0.18259641508398244, 0.9944445323082968, -1.0208857419195858, -1.3015973558613954, -0.8434729553699987, 0.3397621089427668, -0.42393248236588293, 0.3757174075176451, 1.730555588715938, -1.954055329972183, 0.0016234707186160776, -1.6928798676376018, 0.42627016456390826, 0.4969693794163909, 0.49207091522530577, -0.1580942804136406, 0.0011492307909997234, 0.8769131958928, 0.6397637092103345, -0.18188154108776697, 0.48272548810081806, -0.8503844528177769, 1.8640965578321844, -1.4008644148746294, 2.292019457194706, -0.007434566580934088, -0.7975056499024215, -0.28035938747985795, 0.1394346725137888, 1.279549312377733, 0.36462843975608145, -2.7586041602918554, 0.024712491166695282, -0.814060847368737, -0.17752966479451102, -0.18221524639824616, -0.24795578551741287, 1.3412166417095557, -0.7588466285292711, -0.589705412258876, 0.5663805132978523, 0.736144788684361, -0.7635642490752432, -0.6712965793297292, -0.3765042419743655, -0.4380159250826068, 1.0871658387784222, 1.6019537833960302, 0.5399110374565184, 0.8082756305419041, 0.34831347483886677, -0.4648115986345426, -1.721350940526363, -0.02304378863937039, -0.8096731594760087, 0.8075222535242125, -1.1520478049925293, 1.7510528033512558, 0.6260638474284237, -0.5503618597225852, 0.5989148763509373, 1.787591591143735, -0.1789911037120348, -0.2605701934925614, 1.123818180810083, -1.825214252466679, -0.3016887454609219, -0.051134107223542655, 0.08199757965182444, -1.2884903049355003, 0.5457587785315392, 1.7990832650494877, 1.392844663019306, 0.013863440568098703, -1.5961986173178826, -0.1756929895887336, 0.25960330240803253, -0.4098015542126641, -1.0861350890688148, 0.8207175543020799, 1.5161464738548134, 0.6578891160577892, 1.8515580982221644, 0.016109708097348352, -1.9314960535456716, 0.5164895527277408, 0.22974194507250142, -1.4026065210863707, -0.010383372851408926, -0.35392207870005993, -0.6898338528252859, 0.6871725429859146, -0.8741312473177966, 1.222183161842599, -1.0067689956099881, -1.3076741408890282, 2.007167313842801, -0.3154310493973172, -0.11892019779826106, 0.5160184011321097, -1.2431507078101558, 1.6539161609265418, 0.7993461902355931, 0.06564365615494092, -0.2989962441299116, -1.5206788699152083, 2.146784312754201, 0.5494587938390383, 0.9631157826417877, 0.6767533680938661, -0.279414037019363, -0.7291206353424855, 0.7601523431337581, 0.6479388802867061, -1.2635744393308792, 0.060336144436979086, 0.8068291481906217, 0.4172770434378989, 0.3680595969073249, 0.7732377425025017, 0.1707269036527096, 1.8120968639354766, -1.5614843203150892, -0.04746583858067854, 1.2423489329022155, -1.38401343970988, 1.9748805277321027, -0.034525430447558486, 0.2684693294238775, -0.8338207304574523, -1.2180867288924189, -0.7966266630963986, 1.4636012138892618, 0.368273611229317, -0.8160394481637261, -0.48581003548153057, -1.2361423888829004, 0.5943656653787632, -0.18800085618508694, 0.5483360526910973, 0.24535814937925338, -1.3778334563476673, -1.3331713919099273, -1.2882196750613948, 0.015501008409129487, 0.712257186885519, -0.1853858000945434, 0.42487131186479704, -0.15463430831469438, 0.9994858377607416, 0.3341633466763658, 0.12137352642316768, -0.02050832997197524, -1.3626757965951963, 0.13192772960370275, -0.551195932997719, -0.49052415411366607, -0.377993588510156, 0.2364214208018026, -1.5117048968918705, -1.6625719945375101, -2.4529630733524934, -1.7619060686918124, 0.09218380608337479, 0.07131990767423939, 1.2293331247335975, 0.26172425691587037, -0.1174966547206031, 0.9897820564640635, -0.4347689365350623, -0.6437917830255512, -0.19587596261091106, -1.653051717392267, 0.12424802522370852, 1.003412531881494, 1.3174401360090322, -0.42943117531444075, -0.1625924194902124, 0.1109816572493698, 0.3107615349863378, -0.8814402419123792, -0.9126976609934656, -0.30378605899459765, 0.7290064634257228, -0.4871101748800047, 0.2455307176366746, 2.0485986321675043, -2.5004470308702844, -0.9374596552782254, -2.5921208975907732, -0.11636479501792914, 0.7912191743091086, -0.2753391194767599, -1.5612560094804104, 1.66533922313187, 0.11063548969978867, -1.8418305781769535, -0.5960450340231317, -0.35644130392477147, -0.316061530459613, 0.9871708627870509, -0.417123460186294, -1.226056981055203, 1.6416218842547563, -0.38526678194699676, -0.09075835159775852, -1.1417052690078635, -1.2307690774162683, -1.0089245123088157, -1.0659756867705468, -0.27399123057461006, -1.2808207548189192, -0.7258419054300982, -0.31299820706574055, -0.5758482169860076, -0.969156137431851, -0.5780995604028772, -1.1698665357678826, 0.7870972865143356, -0.4521108520663811, 1.3956417752852583, 1.6352988240550788, -0.28678830327374866, -0.16664592399733813, -1.6258989109341773, -0.7033587451337391, 0.2256720776796434, 0.5211791369614941, 2.1039976922356334, -0.9675509521537933, -0.015586169398011749, -0.2683396238265438, -0.16822546933371207, -0.3949774037486345, 0.5025605052614702, -0.06149113863243621, 0.9447351898161362, -1.7680427200863926, 0.3305718855762234, 0.7342729863155404, -1.2823776139817327, 0.7926387167645736, -1.0097051594838624, -2.1671343640704257, -0.6658000873710362, -0.44710073382823584, -0.26635317117196794, 2.0622435963894317, -0.33282403148659334, -0.4264619955634027, -0.3271212999697007, 1.2662832838078435, -1.9116288064025386, -0.28166771991942086, 0.9000795697930718, -0.7276076670599799, 0.9615555646100074, -1.6284832773323243, 0.7637148088874757, 1.2842094029139033, 0.41885084514711013, 1.26177935354334, 0.35837292206464416, -0.3472527375494219, 0.8924887895651878, 0.04236585590925605, -0.016549892348656132, 0.09468503026785455, -0.04236194410353575, 1.1767903065865972, -0.28267865140891946, -0.6814252905615504, -1.8790380311825583, -0.4872687952384518, -2.012942937594497, 0.11049848438840966, 0.7135704945833732, -0.9541448139692524, -0.884778140683197, -0.27091906813883154, -0.74265944996804, 1.0715680310260145, 1.1791079165675429, 1.4513776144404857, -1.0600256164987196, -2.1527028946134252, -1.3351746534028601, 1.474748381109024, -0.07215517566361737, -1.4086803824223257, -1.349686086686011, -0.27907295504972573, -0.8934665655589058, -0.2678917738777599, -0.41059561983104786, 0.12330329384226395, 0.9745526154036755, 0.5103006355632975, -0.22101793936212405, 0.9283043415168452, -0.4280513432209313, -1.1532039950034314, -0.01430208610731556, 1.4682571824754538, 0.10835209070490047, -1.0812428771049207, -0.3213813636409018, 1.7633428234867725, -0.6824140758096603, -0.6331238520126597, -0.564273030883201, 0.9921904150905835, -0.893719820185183, -0.25487221409004157, 1.4232497713905592, 0.9439870738586352, -1.7403824587548609, 1.0672833882587396, 0.254530206584464, -0.27579405556799536, -0.9353713921689146, 2.271639053858642, -0.8566029763895444, -0.8430627966029356, -0.005902175215524948, 1.6534886758258953, 0.20236058799627293, 0.1764000049241648, -0.10628854628975708, -1.382426190491362, -0.2488131634201715, 0.6150512438265674, -0.7732789130015589, 0.9085682629664411, -0.26318188708399415, -1.3546475837579208, 1.111105492120714, -0.1902514916569902, -0.8956476169000719, -0.14886359948918218, 1.3799213145769997, 1.207015232530944, 0.9633135731803052, -0.7048628928220211, 2.185912443767571, -0.0412962466958976, 0.3524938632748062, 1.9428521189111865, -1.2190030935586451, 0.7427528599585975, -0.21526059635710112, -0.24291658740117839, 0.8074855169791341, 0.21248768602787013, -1.881031623030983, -0.31150439526060053, -1.7187064703632216, -1.134189420579329, 1.0144922893699149, 0.9512515885041966, 0.3345146852318791, -2.1623545850753425, -0.5039991749801082, 1.2567230562667124, -1.3106220071883348, -0.41464350732098837, 0.19975169464944237, 0.17039946676262877, 0.31931854097055723, -1.278752637697729, 1.7778357049700968, 1.785922645122828, 1.0754804205758894, 0.7377348433841467, 0.5987430710530399, -0.5531661278133926, 0.06168927645005961, 0.5923143907389393, 0.259621529946352, 0.10070802465895316, -0.7095040535187018, 1.650871447055787, 0.8019948315885688, 1.0010029385660137, -0.37169514213401195, -0.0029747444133567343, 0.8628797417401369, -0.2683335872911344, -0.18360279794064985, 0.0031891688206353223, -0.8722225699587505, -0.20012724737074605, -0.1302339765704246, -0.22348787720951588, -1.2322390682544924, -0.16153639025820818, 1.8229591720828253, 0.8970717368562565, 0.11538107324093674, -0.2698629423985982, 1.3536211439654422, 0.10212862744722248, -0.8633894017123753, 1.0221199471934936, -1.0785143163827198, -0.7803052039669901, 0.08624016256140705, 1.3511591783838892, 0.5644071860344143, 0.0012697551697324597, -1.1810005845471212, -0.10515616145366734, 0.4035079906042876, -0.41647616539205073, -0.11289698851200924, -0.07673139791943304, 0.9182540775623883, 1.5902812228502106, 1.8972134956475866, -1.2429840014841298, 0.39713346365104485, -0.5058471019812849, 0.03700099922250919, 0.33214991586721326, -1.365749268608641, -1.1365584573315988, 0.27076644318984944, -0.7082979000741643, -0.6556611729618949, 0.5326724800237054, 0.12451341548898057, -1.0496107923806688, -0.3759916157364153, -1.1567187750018564, -0.18376289801417964, -0.8682663156381609, -0.5781563197401299, 0.37109846092528626, -1.8245932875560638, 1.4768171346852164, -0.18920038251112534, -1.1454862655638596, 0.24423671517962645, -0.36554643518414454, 0.9962246485495613, -0.9592539417183522, 0.13543674844105058, -1.429373573563387, -0.8323101991261561, -1.3826322260604047, 0.7876580143410075, -0.8219284727048405, 0.1504538987807367, -0.5136734983153155, 2.1283450490370743, -0.4367862107763849, -1.2670387106275829, 0.6085791438897971, 0.8494886315108039, -0.7421850500503981, 1.3180515817132832, 0.04441451148116443, 0.5786634251964122, -0.46155679371701785, -1.9691119914987032, 0.936129630610431, -1.5941092510894241, 1.034863846827418, 0.33339682099131773, -0.3675722753988174, 0.7834359922974026, -0.46460262839934485, 1.874014182308573, 0.2153015790276917, 0.4048604311715524, -0.5687025148542016, 0.5125085058184603, -0.1331687009077761, 0.24235427950764027, -0.07351275706884068, 1.7900989356412325, -0.4664752760373584, -1.352981153547751, 0.940455998902745, 0.6414527952177532, -0.12946954871553476, 2.2404359495692785, 0.01660951011753674, -1.659719396779957, -2.7125361188094366, 0.3571264415147754, -0.49496971223579417, -0.5534182998817873, -2.1773594453956315, -0.452565533724866, -1.2719854073613626, -0.3214694595003482, 0.157094517754232, -0.5887546022545534, 0.590560966421624, -0.29879300574760653, 0.9068332870541647, -1.1966568768964707, -0.6419466763591007, -0.6985673514223721, -1.1782327149848772, -0.3952164563499462, -0.27220135434428894, -1.1778716482897822, 0.42406401402221167, -0.5313523854952957, -0.3065810103795193, -0.3426024562275753, -0.9447357085337027, 0.0963927274654302, 1.7669678487462346, -0.504982222285252, -0.5045346408774006, 0.47406039348680235, -1.4591049570221797, -0.07405380404793056, -1.31771375992006, 0.2844512805834962, 0.46534595072771046, -0.39793189990359173, 0.24267922772078102, -0.3302154426355255, 0.08557773466478738, -0.45688478644889147, -0.25005928480494904, 0.7359788567815364, -0.8296266223964451, -2.045586054130156, -1.992438301717106, 0.5151704281442602, -0.19803914735204087, 0.2124620201490559, 0.4121372685618605, -0.8117583725205069, -0.1097407490367029, 0.0028027745053111524, 1.0781687172461523, -0.9407283771943041, 0.2634280495667379, 2.1802015346576207, 0.20327176068203032, 0.41732918146664383, -1.3118779554132423, -0.5270737513756911, 1.4681417940269113, -1.183460911001955, 0.45593824087108353, -0.29900757341285755, -0.9911079588086135, 0.6877991043132856, 0.5520409286816655, 0.7466347146505464, -0.39043029476596536, -1.3684939192543575, 0.8724806074173803, 0.1966489638533835, 0.6589009260487948, -1.5150188126859696, 1.5975791060445903, 0.9533784522881894, 0.5512961710607969, -0.13485079349961065, 0.5296140749071012, -0.0076010217079026075, 0.918268354794431, -1.234323589412068, 0.41867494153407475, -1.3943508193891037, -0.3870137739976318, 1.5573879018846255, -1.404662076297778, 1.6174683871179367, 0.42556195072954034, 2.050001788076984, -1.7149683579201098, -0.23650628839866758, -0.06501189775181984, -0.8545175912430271, -0.22763338363339783, -1.2512436415929324, -1.3899571597147444, 1.2074793026111825, -0.5142986807242332, 0.11493856950221434, -1.5455320523868625, 0.5720581976064282, -1.1373088811625895, -0.536134918196707, -1.987332777632818, -0.48634927297503133, 0.2272158352471355, 0.346720202504854, -1.2283360302124773, 0.6355508570274743, 1.30021953471668, -1.13660884996412, 1.8593527571046635, -1.3700711957587068, 1.1155023656696694, 0.7674104977598136, -0.26377371490949864, 0.06745458441668627, 0.7015162707877336, -0.5006380432312676, -2.8935072425338895, -0.7516147873809602, -1.082203700073977, -0.662317040819014, 1.1405068071049427, 1.3690874510641644, -1.5316735575231581, 1.7778706361576984, -1.800915788707707, -1.4718033488985998, -0.7133833778935458, -0.20655003510109302, 0.9214340208887362, -0.39188157284896824, 0.35337338885355024, -0.7764600466682178, 0.08558412322274152, -0.1062115282545175, 0.19329968534428402, -1.035145483371345, 0.8422385109100122, -0.13840685761145113, -1.9614570950669112, 1.3646970104980403, -1.4154926318198193, -0.020568517552713203, -1.3955167808251336, -0.4063062087171065, -0.4513287127630702, 0.8605005020081766, -1.7762385613119989, 1.2144710045267468, 0.6512183400878293, -0.055252209384426286, 0.6511231089805034, -1.151455429418593, -0.49863558103803374, 0.15757001833102766, 1.2402171032405858, 0.07507764381617411, -0.011435789696284993, 0.40541246265454844, -0.040081308645001354, -1.1697773533630385, -0.15077394781720435, 0.06501593486518281, -0.07976032854884638, 1.2606119837994423, -0.8623592161637037, -1.1622771844422264, -0.6757117696432646, 0.5403938086910892, -0.6411021327057472, -1.5061720660964852, -0.08961780306062497, -0.3234024907179207, 0.9622030080592333, -0.14559532347392595, 1.043124470456453, -0.047425341211266535, 1.4968897638049679, 0.09213481587414576, -0.7322234233582494, -0.10260437477002453, 0.7756854622946814, -0.14604914017191886, 1.7372967476929917, -0.7765223308063461, 1.1976763342877856, 0.08265136633785772, -0.33090996241340026, 0.4623682538145799, -0.9727909725732494, 0.7449975069685455, -0.6052997370926838, 0.16974092634921198, -0.37362113191607244, 2.2259024541229984, -1.8990169392739116, 0.03594102364852814, 0.515758727260009, -0.0429380661388474, -0.5246064802461398, -0.394112841430178, -0.7608734469926471, 0.5120802867205583, 0.583653454950251, -0.26584834058420964, 0.6421547066256982, 0.5946266499080298, -0.855457678930405, 0.622363848060829, 1.101180527209531, -1.0382608991933204, -1.188314829962224, 0.4307549990552837, 0.2789253356516932, 0.8809117440756795, 0.8752285845436638, 1.4825846996102767, 0.41860104285798777, 0.3204580317015775, 1.214999897756679, -0.6783027151124518, 0.4079707978249282, -0.6060485530843643, 1.2856333538469669, -0.5917969356990829, 0.8652627101875221, -0.7837483498597686, 1.13207219457112, -1.147844782444735, -0.5241228063133951, -0.4753670946838824, -1.3655526759458745, 0.5609993452079685, -0.7478660150791476, -0.28528885864708675, 0.7451770149020185, 1.0176301995187744, -0.6048940836412575, 1.467159631088898, 0.5874209840435038, -0.9810218570084068, 2.139445746119919, 1.8521448427041625, 1.3102966742456068, 1.947213444177829, -2.3812179919483603, 1.6575562174816683, -0.2772691494003757, 1.373982135561768, -0.6885721408128387, 0.47190574471243985, 0.39970404557273986, 0.21644416065268163, 1.1425368122774393, -0.3774924678597337, 0.9005933523601093, -1.706537037441179, -0.40711059422793816, -1.0549261987511622, 0.9481740721124464, -0.07503312075060166, 0.06908257848335968, -0.8307325644514001, 0.733411121027196, 0.20589668436114994, -0.3349561100139256, -0.9882703629642399, -0.8787903672538316, -0.8494751027230932, 0.022611667403555, -0.05311793225463733, -0.8370784741374242, },
        { 0.44452714749384853, -1.3434899199925163, 0.1839463649216475, -0.4982449213307647, 0.3361564452827304, 0.6052944303806888, -0.5938642444597176, -0.8648152824733824, -1.4218695875697018, 0.2572678015547042, 1.5421939469253834, -1.1808817561455596, 0.8888206864520808, 0.8443578205327118, -0.36819519548389784, -0.5856956978632163, -0.03642290233046649, -0.5791473394678488, -1.5126019709035285, -2.0446656014914772, -1.4134461074751739, 1.8329902859729443, -0.8954221195963235, -1.7170914601411758, -1.2204476564676205, 0.12021257221280963, 0.8174812305798115, -1.2674603222901006, 0.2159548137726649, 1.2084784664163024, 0.7461577744212283, 0.8586674927879988, 1.142752806036002, -0.015912432203820215, -1.3256565941790843, 2.0111386277073873, -0.6925699223521616, 1.2370449879379983, 1.065462935616372, -0.29047063331519324, -0.7572057605819996, 1.5645188735459123, 2.500761499289644, 1.2504586850305122, -1.0836313455883533, -0.9322322218361253, 1.4610676395599815, -0.6274709899020378, -2.339606851954811, 0.2578714847524631, -0.1516370987378547, 1.9710439820818006, -0.0647914817241356, 2.158295894735675, -0.9054810639297577, 1.0158665532862408, 0.3171383701820233, 1.0310621611013866, 1.81639478076773, -0.05416660593953743, -1.1276122957837198, -0.6740668196631151, -0.2138313702802458, -0.7505271633941033, 0.4461998693442869, -0.24712698796004576, 0.19332767752594376, 0.4980105583474629, -0.30105354828936265, -0.34931494664944224, -0.2714861830457152, -1.1808765883284265, -0.5889082312835096, 0.5663849439525174, -0.48055930636157507, -1.462840149685403, 1.5032933712647831, -0.765624613723659, 0.731697857308903, 0.6663333018174551, -1.7251952104321298, 1.0191110452916246, -0.2686893280018475, -1.9828145381777262, -0.8376219371950858, -0.7586706581340602, 1.147192600565263, -0.5232941966904912, 1.0433433976787945, 0.6587755655340682, -0.7446420002502154, 0.13967948164380095, -1.7399634782353395, 0.0006438945183637762, 2.9876162095184657, -0.2687358981085352, -0.8688775270286136, -0.6411589275100676, 0.25862196705447876, 0.23232119050668834, -0.25265854998669535, 2.138295193198138, 1.827888870207713, 0.5157877163624336, 1.2233924302059174, -0.08778832201723535, 0.032872590543514824, -1.195685320810588, -0.5135390865098503, 0.09839540341574629, -0.9760042023492431, -1.1080603197991181, 0.7332941535360502, -1.01506714816345, 1.0136333374921305, 0.9664424776985071, -1.5735795197395492, -2.0631339104110444, -1.757479820914366, 0.3749079927286573, -0.3802732250345656, 0.6242482567060875, 0.478934455865887, -2.108186910010991, -0.7859078071893681, -0.044136502920668015, -0.5813046712083428, 2.3876291835524937, 0.20322545093202918, 0.3087855671226022, 1.6882756125108425, 1.782467988163371, 0.7436010485593878, 1.2300765139658671, 2.756983745397926, -0.7311102720511121, 0.5955487915790003, -0.29879641361041637, -0.2543412894609522, -0.040669126086099475, 1.8048496475432403, -1.896598710383386, -0.36031823179231376, -1.0665482657269834, -1.0971359042477218, 0.8040258998978409, 0.46896539414278365, -0.5160912851897244, -0.4847716369609538, 0.061444765351446495, -0.039296151882200536, -0.8271391997615123, 0.6278651304619073, 0.32844187654645407, -1.667606092531683, -1.082086613665631, 0.04910526844828971, 1.0142305242789595, 1.6881407985370867, 2.4448125003739234, 0.04583791058529442, 2.4330964452045483, 1.3922810917950645, 0.6299807950319297, 0.0717167285114816, -1.2278926126324727, 0.5585247290067507, 0.9794428506479397, -0.23612511468846165, -0.34561138823391124, 0.4541808763082261, 0.4157910047215419, -1.2570119493447087, -0.7284506382477443, -1.0097339516244068, 0.011353300622698846, 0.5356692473407896, 0.316740625150481, -0.5906363295392538, -0.5130522478981925, -0.5562208956973846, 0.08946234246894352, 0.7372006366486483, 0.12909907358683695, -0.010872374314326043, -1.2568285667132972, -0.6915261063601019, 2.649958767574003, 0.7527774809707856, 1.6073591281664668, 0.9846136304351794, 0.9549633031023214, -0.9239295794214358, -0.8639218166881386, 2.622214832419834, -1.3041415781274943, 0.10270725430665542, -0.18992468498268367, -0.9027449704288836, -2.712215429871324, -1.4304971438861949, 0.09312862101639338, 0.30306619590195344, -0.9329846689138567, 1.2999493910822193, 1.298973424233415, 0.34338772496375763, 0.4209457954405924, -2.041369708064641, 0.5027571667149977, -1.2875234031391285, 0.7495241159691469, -2.039595261044864, 0.2040544419847259, 0.6666789709031199, 2.003535132485422, 2.3675352240015863, 2.8117587464158738, 1.1687681496744182, -0.5102721916505237, 1.6610347393614795, 0.3123412742483748, 1.0917912331124977, -0.5444031493097915, -1.3888038407847083, -0.007652634813457444, 0.11157478931721321, 1.7092837233007867, -0.6659690831652629, -0.6031734091124717, -1.1301905599649864, 0.14272216247989739, 0.050348882896891406, 0.18191265057700534, 0.49195447312451995, 0.9490862692481422, 0.7373393415447783, -0.45110460806262714, -0.34308464933665683, -0.878782775800424, 1.6083191073583936, 0.7371378966654638, 0.20335338345412346, 2.3934962547496785, 2.13925563155337, 1.09283917966492, 0.5500005665924386, 1.2471506526402207, 0.2744368462776161, -1.4680417613415189, -1.2868932806157383, 1.5297092220994482, 0.05228965788798611, 0.2866685831176853, -0.11529926963439996, -0.7035171176952913, -0.8446744905598709, -2.6361548918975677, 0.31109175852051185, -0.08565164295747839, 1.291449962217937, 0.9773944116674038, -0.6447846430217923, 1.2841429806637186, -0.8125847589190688, -0.8183911322493519, -2.0029708133184707, -2.4057518142843053, -1.351864409304477, 0.7496760049888362, 1.4221992182213266, 1.8694306180111315, 1.6623339014769334, 1.858368911994025, -0.9434030144605734, 0.7607706162270472, 0.5170397459267094, -0.08372163128792567, 0.7536005869038368, 0.608023576034078, 1.2239241919765116, 1.5157087220496508, 1.0222603577642064, -0.11270462290458885, -2.0087655615833913, 0.9616291630551143, 0.5347496457067706, -0.5791449399769916, 0.6883209797287624, 1.4650365939228434, 1.1158526822032848, -1.6933418792136807, -0.8162084052233047, -2.0619051516114237, -3.8525735121480817, -2.8349516767952623, -0.0965545589710915, 0.6260154517874916, 2.6244988548529107, 2.518459225230255, 3.4887502100591723, -1.5836495123658094, 0.184988869546228, -0.4992340862492442, 0.20153035996471708, -1.2231491813027378, -0.6745095053482775, -0.7354079903478637, -0.9073509336132792, -0.22287521514752595, -1.8265137788949488, -1.0948799183120153, 0.08261972847489212, -0.23522294160799118, 0.9101450114481392, 0.9263755905064088, 2.066597722531936, -0.8091343775190029, 1.8819168548010485, 0.16671826427532796, -1.6018381212346229, -0.11664233323929019, -1.3192029791176785, 0.25299137944079936, -0.27602247997177426, 1.9583887091812922, 3.0082531918529347, 1.7268242157713938, 0.5020089283122763, -0.8145312654731266, -1.2273264760093963, 0.9051115631424005, -2.0835631633669602, -0.16131746524590107, 0.597104492264541, 0.732863662886486, 1.3401643436700332, -0.19790755898960308, -1.5596997770686802, -0.14346474216230173, -0.5576970311796227, -1.5619894506334788, 0.6728557691720105, 0.7648072762525095, 0.7553041149569952, -0.7052905812030593, -1.5401957461160254, 0.16486830680401338, -0.955487875130098, -0.47033026529741745, -0.756849995812615, 0.797595779602619, -0.24539983020298303, 2.878462466373281, 0.00602468063727871, -0.9258240605939839, -0.020776606816853196, 0.1705250106827345, -0.0246718008569296, 0.3210762038822384, -1.4275803323261476, -2.2923005745712053, -0.035762533498358354, 0.3798041389840098, -2.0702382108361896, 1.4964040102068072, 0.7046664847347383, -0.28465565630251416, -0.6507952983493386, 0.2914087879403488, 0.10872663370220899, 0.8006906207293683, 0.8938533776854146, -0.2856824469607824, -0.07258886357854454, 0.23156227770097612, -0.6193845045119746, 0.1849648182660658, -1.1220773100137447, 1.550084429529112, 0.9404785839875289, 0.9514933249495211, -1.5671831042166893, -0.6750583946005558, 0.5816763310139591, 0.5878785116613973, 0.3936730936401645, 0.900901169510905, -1.460069233070525, -0.20452220326168663, -1.247962754527039, -0.2626972157993305, 0.4085421546423188, 1.1077164517107267, -0.6845628014999445, 1.2087389962126425, -0.07036008643040438, 0.9025207069637952, 0.44436128383282286, 0.09033092099452623, -0.07592654223155669, -0.16740876108243266, 0.9133791982926049, 1.4385010329734227, 0.5162427693611085, 1.9162172115270422, -0.4854422281421572, -0.9086187046110872, 0.7524215609631235, -0.29296635725334935, 2.3194095668964207, -0.5970661915709304, 0.0941187711770197, 0.14185003694467338, 0.8286887757298966, 1.337874731684266, -0.8993118599930459, -0.953959309776614, -0.8328990757637886, -0.9024380332192312, 1.3743487520731035, 0.9484698245515416, 1.4046356855683555, 1.0375938411671013, 0.3248125514166665, -0.7390563457358326, -2.7296726918868113, 0.37105982361010065, -0.42157008990969214, 0.1937846448518815, -0.2672060857913503, 0.3525156127965328, 0.4804703755333496, -1.990538323345943, 1.0209991197894228, -0.10476945358622647, -0.4091912457919134, 0.14710766202283165, -0.1213851094931266, 0.29858253652507977, 0.781021015404846, 0.22832235331522266, -1.3044847339116683, -0.15248444096856775, -1.3700294230638101, 0.608092638949588, -0.19189987132567715, 1.6449605488808372, -0.4710541942593592, -0.6076333937486191, 1.7547406590153167, 0.8976383122650065, -0.5463295152650225, -0.01698703019675066, -0.9783099525346568, 0.6372149271549146, 0.28734824281166266, 0.1432859019996758, -0.1670338877850134, 0.23979221121410135, 1.0373553073485613, 0.6447146310559273, -0.5379622980642526, 1.3234754345667343, 1.3747799709570774, 1.0228471505279457, -0.6019261674101356, -0.44039749399536293, 1.0552483934940426, -0.47763767531065543, -0.8215695878347854, -1.0146524150072365, 0.2196159071148564, -1.9214004820559374, -0.5418555496025823, 0.8463696267921337, 2.4610852496418594, -0.17143950223698934, -0.699742037626797, 1.399284854604697, -1.0814980740916582, 0.24680950473582797, 0.7389994019172388, -0.23162055880977753, 2.190401883311953, 0.22169065988563177, -0.15861665320126175, 1.2022204485166823, -1.0062618142005555, 1.3091833893411187, -1.6120612523326454, -0.7645599836122852, -0.08967816299787966, 0.748616889043763, 0.10579917405591764, -0.15378007036867872, 0.08054943030046699, -0.6910843667826887, -1.0211019335895437, -0.7008066771898303, 0.5402314898551586, -0.46457224179248796, -0.8097297890796477, -0.14082384435147027, -0.28485152261551394, 0.429038801317274, -0.2260869489632503, -0.9304944094543739, 0.4012156238058815, -1.4577777339074958, 1.0707429849443706, -0.8682559162964009, 0.9862881808773091, -0.21105599923453439, -0.04547202728756183, 1.411557938196883, 1.221896627964352, 0.00976822498460235, -1.114833676113992, 1.9915906874606926, -0.9364672254743889, 0.8300246284005054, 0.482745197419245, -1.4926789046465685, -0.30008626426733326, -3.1468047441942333, -0.052026873407092576, -1.4736738145634394, 0.08539111940772211, 0.10856604557274056, -1.045055780572465, -0.08504716268491516, -0.6723324055373954, -0.2768876468915057, -0.5272857215847878, -0.17959050649607372, 1.3869804157985908, -0.9710497632257996, -0.6197465476901601, 0.06203961101898878, -0.7144022896620756, -0.3342391386319443, 2.2001390750664322, 0.25246389121538493, 2.23802008279824, 1.0794115796881334, 1.3475139126902627, -0.6201873271430418, 0.6937394606542091, 1.1465013130252455, -0.46602887857903297, 0.8227557179472854, -0.20520547723398103, 0.6360016374372334, 0.05364973853040777, -1.3600004945933573, -0.8617523939685737, -0.8733672281817165, 0.31031705157635187, -0.6493803635228591, -0.15246971994631447, -0.056440590563359705, 0.7944279160847239, -0.20520890140982959, 1.2990502179874044, 1.0132997837558368, -0.058772148402785565, -0.10995546731436638, 1.8421942342639976, 2.3856439262265723, -0.8340948348862092, 1.8555039454035676, 0.9638207442294628, 1.3217560397228048, -1.1010498927497685, 1.0224555428736322, -1.0050912122924565, 0.030253918351290782, -0.8961761202643416, 1.1680822671893762, 0.10899585028515965, -1.2693320421119807, -0.42606035960554267, 1.3355116669757199, -1.0952702838454562, 0.0028035312073713303, -0.742326044816278, 0.4202267085370587, 1.2206153045764117, 0.6977489606183054, 1.600425434552637, 0.43197986484311807, -0.1921131742240174, 0.06365885340940125, 2.7199570668713067, 0.7510423243708904, -0.020342231110893148, 0.9806413888079045, -0.37313793977613097, -0.7019927093140486, -0.035452642050340495, 1.2199438799381355, 0.24610592391161804, -0.5245381849143467, 0.5192436712215152, 0.05085063807949157, -1.9864670120472405, -0.3427759482964005, 0.9338973227254601, 2.412698149592509, 0.657162085166373, 1.4144868114612001, -0.9984025173574518, 1.2181934252541609, 0.09222014552820924, 0.3373819741181156, 0.4213314955022545, -0.09786514363605026, 0.9434357759792061, 1.4400610432245744, 0.09963593266742952, 1.9512996874522635, 1.1564767747091578, 0.7805194143079174, -0.7070098005568989, 0.29450186454250626, -0.27189953838717695, 0.8856975302259105, 0.5876957466466141, 0.7155595800813983, 0.834929692024824, 1.8230155444109462, -0.7996735326038844, 1.215816149731502, 0.033781482472215914, 0.04397704290067113, -1.0140266512032048, 0.36158486871388007, 1.273685215893364, -0.7522318266641503, 1.2906016922160841, 2.040529951550871, -1.8012124452398015, -1.153588780950874, 0.3534358120817867, -0.5442934982267218, -0.8546724086313082, -1.970893127218292, -1.9443467972555242, -0.4780638412507224, -0.2964561414626842, 0.15146982332613676, -0.35380636956922834, 0.6992966912681751, 0.4809160001817874, -1.5792895374476215, -0.14361091020667502, 0.958099044809566, 0.6181393501149723, 0.8734523287593938, 1.7591871545178681, -0.4663184370394984, -0.8370928732675064, 1.112598773918341, -1.1928865229439125, 0.33755195036699703, 0.7529218708532143, -1.0681866487969556, 1.0494300928736777, -0.768367697627393, -0.9293522182268322, 0.0989189342430904, 1.4203346246151956, -0.9729044602694709, -1.519664377956944, -0.43476411231420237, 0.31709205798083895, 1.1216889368534502, 0.14114260789633717, 0.6808783713285866, -1.4853834718505636, -0.22160923123968432, -1.5404880705080555, -0.9198071672201521, 0.031132815993365863, 0.5746533658139131, -1.9030629520828866, 1.6718702477548768, 1.3566992657336912, -0.6667715485839651, 0.5988857327109386, 0.11425539451560224, 0.5305242602063865, -0.45246721785111166, -1.6738061472547328, 0.4581625651850521, 0.24428771083821255, -0.08523821461905665, 0.6509688953829578, 0.23044212607983916, 1.317950356126014, -0.6847502585044047, -0.3732790299706527, 0.566592059105234, 0.684610218663482, -0.22424519069501214, -0.11614334895687403, 1.605381705633511, 0.6162817341836737, -1.297853107484189, -2.15026406573876, 1.3843188035139293, 1.5738573357181882, 0.38431622269071836, 2.0893523179360947, 1.778038006168887, -1.62540243121608, 0.09272672816390597, 0.904474015862135, -1.8610201669268167, 1.0338124285038213, 1.3997517968273594, -0.40223301340851153, 0.9687640454660477, -1.2915901663996294, 1.2114928211145612, -1.1350524665848536, 0.4340952438111381, 0.1627640530235729, 0.6380822213318477, 0.39532948170082394, 1.4432161032196718, 0.5351861172473233, 1.3490890203043486, 1.8352835504651484, 0.017839926183429066, -2.6522213906885654, 0.8506681181111319, 1.3726931133208502, -0.34372922246459786, -1.6355691820433806, 0.8978093610879088, -0.24698893258747742, 1.1334999652219422, 0.3658733505526858, -1.8957013980620205, 2.1816477427016947, -0.5163898899668637, -0.6876745599823346, 0.6231529683529697, 1.099256138034601, -2.056583313137162, 0.19454335456350316, -0.048307986386193935, 0.7567389374099234, 0.037224716761971595, -0.04617195291723253, -0.12097192558650054, 0.9430513619321071, 0.5147312191612293, -1.1536940128822157, 1.4771783575009234, 2.580667366010862, 1.0654279403779237, -0.9953323471727691, 2.640368941962955, -0.44578145601773966, -0.42318647534195336, 0.33645635400043666, 0.05150775198712217, -0.6860158394420818, -0.44842447713849864, 0.20456083025964714, -1.6023265854490634, 0.9579793661633645, 0.16673528959231482, -1.0029117833721264, 0.46611698853325767, -1.3913547902677768, 0.8437902697503602, 0.7633671724427665, -2.1753730794971444, -0.33671101153991784, -0.8241660702217591, },
        { -0.18565257239561087, -3.1058928611092713, -0.8998798677111106, -0.25165721936631513, -0.06912912032458376, -1.1809909503220781, 0.5975251327899784, 0.9226267116705412, 0.7253082137299289, -0.48845126485273194, -0.7218304995629123, 1.6078597949450935, -1.1240669695209247, -1.7531544710392208, -0.8885673964160875, 0.23820265387768727, 0.020878155140236256, -1.0117247713294133, 0.5573140353678138, -0.6388362009860173, -1.209889180104455, 1.6238383899447177, -0.7003315308470561, 0.6592712470521774, -0.9742983431302511, -1.8096125901753004, 0.1016306924777831, -1.9214336043223377, 0.00932152120749917, -0.08552741099945528, -0.9767076517868996, -1.4850471280367434, -0.8337605372085001, -1.4924940619240465, -0.7225834407605863, -0.6216194394570056, 0.13789259221340164, 0.6539058137874354, 0.6278226839026374, 1.420445762844199, -2.307660199971974, -0.22596552726159957, 0.06609190547696, -0.901979977441001, -1.3482987955878725, 0.5326448381041995, 1.1828422265447327, 0.6640312210851353, -0.5430353640434735, -0.41367243062916115, 0.676588240557079, 0.5763757791629613, -1.272344632672267, -0.6637323407328815, 1.3756252799626805, -0.7290571771016313, 0.6722345142934312, -0.21682859018269787, -0.39221838952295174, -1.193573153311587, 1.8497883075298345, 0.7749433576271642, -0.9980780918306816, 0.140543459459734, 0.0880954584964412, 0.9002388266133845, -0.032216414957560766, 1.5713642685156688, 0.5293392861508232, 0.9279271387235338, 0.15331817441798667, 0.24343950186788538, 0.011875833658351998, -0.06284127968368185, 1.2183938946638502, -0.5839984605783354, -0.28862238911888655, -0.40977764985520476, 0.5965448739118016, -0.7329882078307862, -2.5513915874690745, -0.1844800124948514, -0.3834838060259358, 2.046468767502896, 1.9087030739572721, 0.5488293558984352, -0.9364167430713134, -0.9391631771826903, -1.3003398522341765, 1.473289708722994, 0.09651121265556142, 1.8458630841840051, -1.4755537964460617, -0.15042244678823014, -1.5515356134611757, 2.016906748847008, -0.21761482904316523, -0.09296785106693824, 0.00545229677477245, -1.7293353830754268, -0.4065160480279484, -0.962077207768216, 0.3511279796401956, -1.8446017802300465, -0.6980707809608829, -0.5121962194441958, 0.9094378820480693, -0.3136730318134258, 0.8071724206441803, 1.4577028649316612, -1.1292195171949824, 1.2559227899875023, -0.2715379114776467, -0.6577956807802929, -1.6150020205081939, -0.17656074336961114, -0.998822008729282, 1.8945287620616569, -0.1887900018623587, 0.4230411108286843, 1.3485636821610043, 1.8595431263282853, 0.47026046876257815, 0.7779288133098854, -1.9321027565564652, -0.671065524354722, -0.3366226888461247, 1.1427254419456099, 1.3522582976119433, -1.3421686827886485, -0.34637747570770216, -0.7727111062142955, -0.29222200847896856, 0.17454675151445986, 1.1288915028959434, 0.4979774050802162, -0.9250032348491771, -0.5379789889377372, 1.4711545762443266, -0.2554893922862245, -0.2915421582757042, 0.8756934162301442, -0.6143060609512394, -0.7807132003638473, 0.05690386123298979, -0.8414142828816443, -0.9888907471663679, -0.20046302221612275, -0.7846475439343327, 0.5667931094582388, -0.3304463915062197, -1.0401531997450761, 0.05356063804033608, 0.051011565729705666, -0.5000472886882011, -2.1817467016790757, -0.8929352876116952, 0.612264345003728, -0.038076324691648275, 0.6494040361743346, 1.36952458750083, -0.8016773839760307, -1.1882224621610507, 1.0467074250874404, -0.3561144125647796, 0.738533808575063, -0.0067535745846618095, -1.5082550521801434, -1.4234290171535862, 0.5240611227319972, -0.42561693103729376, 0.05240896526325796, 1.5385171421614154, 0.8205623925350648, 0.16758239734488434, -0.2779242444171809, -1.108635131114047, -2.034047782390668, -2.3132043453683835, -0.32476969308096365, -1.392734607077292, -0.29287595981485454, -0.5863984099309248, -0.8306456142067052, 1.6637459401242145, -0.3870481675748038, -0.9339214618059974, 0.24543994422256518, -0.012383157743357477, 1.7057242613633903, -0.35763598972946875, 0.0008050828771372457, -2.6662568952691483, -0.6439316445093279, 0.8256557815101399, -0.5114586575121113, -0.47740431586776017, -1.7898591140510356, -0.8951079529694854, 0.3346251199046535, -2.675457054362618, 0.5584155816606571, -0.5717932229967467, -1.8753676819122949, -1.9285233231996572, -1.0581169745510772, -0.4687236867187994, -0.5767223957714761, -2.555846007883322, -0.37970064215511584, -0.7694156703355043, -0.0795764311662183, -2.3886847713521226, -0.5730812828898058, 2.205669475221258, -1.7902671435127546, -0.11730586332213194, -0.029382528011326785, -1.70122803464877, -0.5748123820170209, -2.2233297390966005, -1.4076210878554876, -1.5241930733419522, 1.0146827294006435, 0.9208524650159112, 0.8313224766474936, -1.0505224823677248, 0.403968284074455, 0.6158989599676171, 1.4494285162524803, -1.1742542419191877, -0.32395487315008437, -1.2533585222743324, -1.9748691922193033, -1.8942195761349576, -1.8113628481572048, -0.7049251866387801, -0.5287895696543975, -0.09961650332178078, 0.09426313849487478, 0.7988542112882935, -0.8019169655395146, 0.08504237272386521, -1.2057526087342445, -0.5548901422006818, -1.587373912085881, -0.6800423669420324, -1.9392974037814237, -1.5324742462960115, -3.2342351971771506, -0.4381220778462672, -0.21383063202310215, -1.3774022803349422, 1.7693913174066633, 0.38784441451829027, 1.1097712564408595, -0.3240651112049213, -0.7064346702279075, 0.19211229518816586, -1.8829207372246302, 0.48194156458880805, -0.32983379335148244, -0.02908073949245003, -1.348606505638774, 0.47410495673832687, 0.4553320845567978, -1.4735036111987974, -0.12753710079486524, 0.7464544977085771, -0.3344026893532209, -1.148796800902024, -1.063462249248848, -0.5643924684948038, -0.2934502053319785, 0.2449194673884424, 0.5739123776958576, -1.5471185909366327, -2.1362461482208537, 1.0038119731141641, -0.9828225281335164, -1.2458449797289721, -1.1784226805962181, -0.9176360635240578, 0.11775149677324928, 0.07380736961817057, 0.4104019783879223, 0.7621199227436591, 2.048002305712943, -0.25489664931860373, 0.2648600132756339, -0.8772583673512404, -1.1927936269996193, -0.7738006418949884, -0.3122831348747654, -0.28219953861768937, -0.1403286781763623, 1.4628010081838083, 0.4652055861990494, -0.41672452245221253, -0.97926105313375, -0.1395508922297879, -1.9498006313804888, 1.193361658294376, -0.2465132372706633, -1.1145985362656492, -2.2979217761267527, 0.5761580401250334, -1.3991231571314178, -0.8328845512313584, 2.0635768404992767, -1.2751326916581287, 0.4720389295401021, 2.20984512539767, 0.26049183026073586, 1.2549505810997574, -1.0032972555029749, -0.02244407710219445, -0.2118229330409431, 0.8095454389180063, 0.2928075606709334, 0.6356227925264082, 0.5484172138561391, -0.3520381690117437, -1.2027848789627407, -1.9394913270590046, 0.33129043615000414, -0.2266175903037394, 0.10634871949970241, 1.4064673567182295, 0.38978847902560376, -1.1678922594839283, -1.0795535967426428, 0.414604497362172, -0.9869430189944578, -0.13449376374785257, -0.2857620525479498, -0.8241889912784764, -0.6759832550989846, -1.040460390635087, -0.3055055481737366, -0.14145849975973449, 1.6133250835490975, 1.4039957499221598, 1.2736296229496562, 1.7870976948440682, 1.2723780062237058, 0.8211559294095054, 2.0153215012283643, 1.409685656590428, -1.6410186624352985, -1.2278013742815233, -2.189907043726321, -1.1348920426632934, 1.5561584340269288, -0.18934357578127714, 1.2545524829739785, -1.100493673932347, 0.625219751123802, 1.6808435208163333, 2.3762589267772425, 1.6512038676896548, -0.6522194840720811, -0.3751308438459106, 0.7920886415810875, 1.0841492296115418, -1.4318927800926866, 1.393654639295988, 0.8410433290395174, 0.3405068188300738, 0.016743090528824226, 1.5358767359135572, 2.892149554221145, 0.5572301403741486, 0.012846772278863213, 0.981492404601522, 0.14001947994389935, -2.143589709173584, -4.799310993962584, 0.48845707594030546, -0.5224400492705193, -2.4501521300274796, -0.16092809258272633, 0.29038695475943455, -1.7761060828042081, -0.3859249417527218, 2.067426830949414, 2.063640120665612, 2.3422966448996183, -0.3377416223414844, -1.9095483905980948, -1.7687140665020389, 0.9640303773574221, -0.6291376229223072, -1.062571168373337, 0.8181467351010031, -1.9927369516840414, 0.5241546516721195, 0.9668193383062693, 2.0282160700900627, -1.3679443510052793, 2.37693071142227, 1.3280195284089584, 1.7784755515342276, 0.9562262525796164, -3.5297922803967428, -1.6223941485873075, 0.4880305391127416, 0.1465845123527439, -0.03878747684325299, -2.007323299379602, 0.13948073656770732, -2.0581419767025384, 0.7979074491285603, 1.5043841178408974, -0.13876550075776967, 2.1937594963218583, 1.4736532311618566, -1.2324256569724943, -2.866534540257068, -1.260174957522849, -0.8773922307199548, -0.40093313351477805, 1.201525689822987, 0.025490219030937622, 0.12746538646649486, 0.4461638722399973, -0.5155572010977865, 3.4795081265653964, 0.8700974759858503, -0.05421960803056571, 0.6707608171003225, 0.9403380045839407, -2.861078476281124, -1.0720496410731208, -0.5970439214651868, -1.957502213304527, -2.0827162070621914, -1.1202705042261818, 1.2120013354977128, 0.44227239308140476, 1.4612929246701554, 0.8254201129733314, 1.5857604539932175, 0.2900295898187695, -0.8408854744715325, 0.2816118390876934, 0.17945420420884212, -0.11644022322426202, 1.2288987072783617, -0.8609589079786878, -0.24154744448226967, 0.5373998046251469, -1.0480963065306472, 1.6872312199803707, 1.5371948696338245, 2.525534520042993, 0.5535434755833049, 3.552404581886844, 0.4925255696764779, -1.937963156110015, -1.2902994968998867, -1.3828445007291732, -0.7554091988824622, -1.1964978075246382, -2.423201406962679, 0.0708482512060145, 0.5060126095181526, 0.15532438125455092, 1.7109438429541368, 0.881823086363472, 0.31858932674527524, 1.3399931620319123, 0.5460486739844156, 0.5289406202173162, 0.18688422061534207, 0.8625451064948162, 1.7301671996312282, 2.1391943329484966, -1.337832260706759, -3.6498268115806356, -0.6842526274622387, -0.13097878087730352, -0.3160133679853418, 0.21255761012732757, -0.24450288983253973, 1.869057207025631, 1.0029429485554695, -0.275434173097816, -1.5870334304066576, -0.09261597587584465, 0.79734245301491, -2.0177994605784795, -0.6379522024262999, 1.143116718475298, 1.0078987851542132, 1.0273303557072835, 1.7608452932445429, -0.8723161621390682, 1.4989832587247534, 1.574563572829664, 0.6100638262276349, -1.500457892116466, -0.9758295779568812, -0.8477016217656964, -0.7088357082954563, -0.522051491629967, -0.5015191509479769, -1.3453871668188764, -0.9390824654501747, -1.047299422758961, -1.1516956722318155, 1.5773399493754, 1.8022135545405669, 2.1890283539047513, 1.0091988678548158, -0.1343177867603318, -0.4890202580373321, -0.42515134912762287, -1.9669496970374623, -0.9748559089327501, -0.6924096119286215, -0.9821273545787435, 2.1280528329204733, 1.4571858229774326, 0.8762216830369904, -0.08628223632632505, 1.5763904654077734, -0.8807221474883753, -0.6130566227626684, -0.03143526479377812, -1.5080713415971758, 0.39837146464519796, 0.8686219380490775, 0.8206745710252545, -0.2835043993420699, 1.3941438659899577, -0.8945240540085793, 0.7630055085857758, -0.20902623848104196, 0.321098893152086, -1.5966238730740574, 1.6377920833479358, 2.1999060375498867, 1.571788996025786, 0.7070902703174907, 0.31002327058720197, 1.269324935250919, 0.42978302794927586, 0.3151120432600526, 0.9505306150116672, -0.1724973139886079, 0.6663987544008121, -0.12120342855849027, 0.38288429436097393, -1.1745063312569615, -0.2704647684159309, -1.573521617089738, 0.7277308517641798, 1.4578621101686833, -0.47112562693043886, 0.6476401507097654, -0.9776692155990214, 0.6867866102950789, -0.6470831578249148, -0.2526054564521058, -0.4999145768809976, -1.5196921099227352, -0.6923240844140806, 0.6848359153332608, 1.1964042849134724, 1.104522221252486, 0.36449745532987543, 1.4509984431597955, 1.9008772896447867, 1.0210711970945177, 1.9708204358308794, 1.4744616424004429, 1.7287607993207657, 0.5574249149357013, -0.7661086284370793, 0.20180748287220815, -0.814269652316605, -1.6033061650661953, -0.18807729260034353, -0.7484195010847262, -0.39700475088848897, -0.5481454455334018, -0.924538944067675, 0.43895046109007935, -0.42978952097054446, -0.1785120903358796, 1.3692926296947132, -0.830795499930344, -1.1514301521656582, 0.19868063369627736, -1.4791298650520657, -0.15759969819339065, -0.826305770404384, 1.1463647732866755, -1.0525374028876604, 0.27543203319081955, -1.1217504349228482, 1.7378639656249335, 0.8139549402241456, 0.9525221340362037, 0.8487992121833806, 1.1526417420048698, -0.517996249421132, 0.8305986444115715, 0.03709995844056714, 0.32476375428512766, 0.7764272196716162, 1.1786561296562004, -1.0851260480028284, -1.6107695037247145, 0.8974528498680209, -0.06825494278754128, -0.32843594037153123, -0.057424752463225356, -1.0621025096116528, -0.7902176432745275, 0.3524561795225562, -0.8880156957418064, -1.0552103320621538, 0.21616007326985218, -1.1400053540471289, 0.13589148128798686, 0.5860452597742434, -0.5261925486554461, -0.547986578247444, 1.6927880752498352, -0.5311166012125514, -0.41345370006876997, -0.09122171483595164, -2.0733331979977163, -0.08065935867328446, -1.2202912276406583, 0.24504753535562795, 0.22966087380767572, -1.5204440103158543, -0.9811002147078788, -0.7203191225469661, 0.5287245578788087, -0.031931723973058365, -0.3455232066411715, -0.6750805889848654, -1.029593885667926, 1.682751074753607, -0.5698239398996334, 0.9393057610915899, -1.229886300863363, 2.5735054944014584, -0.06762683573572512, 0.441284411303523, 1.5640678094423888, 0.5439538310439589, -0.6392913579080188, 0.23776404057912887, 0.9726256364035379, -1.186250125812437, -0.15165665966380856, 1.9441476641016397, 0.4792784756483083, 0.47426928242916255, 0.6800649976066699, 0.15390002968885638, -0.9596329548570657, -0.49167865955519013, -0.028797048117739997, 0.024670051721433602, -0.888463162911875, 1.0760783858958287, 0.0723952411801154, -0.848011984033704, -0.9077847398686943, 0.46912978821159146, 0.6615978075075516, -0.2602725154406271, -0.44832093241310844, -1.821164531097853, -0.8800562689088066, 1.102608271125202, -0.4848249586626279, 1.0798366313763545, -0.14954797475132495, -0.5799255332876483, -0.30140044007704664, -0.8665937121549416, -0.1744492848100973, 1.9777391266638535, -0.4832735014436562, -0.03245267091992271, -0.14151884394711944, 0.02325572328609124, -0.49324295852762107, -1.2633847141102295, 0.05879514232316456, -1.0858505124145512, 0.15880995309710794, 0.5334294903465426, -0.9357503692651328, -1.884575944751669, 0.4822423953636406, -0.4982335463222226, -1.632536919546839, -0.20419621249362563, -0.7078662221945636, -0.3288947681302721, -2.868312064693269, -1.147012731799934, 2.0053774158447943, 1.24894288406214, -0.2578795210820422, -0.8761647061576517, -0.8259598160348229, -2.5676768291933776, -0.8838192188497599, -0.11651355612458911, 0.17421490956430558, -1.0827075439889964, -0.13327011160115063, -1.0155406683972774, -0.009268686604164945, 0.7723828187000382, 0.30051509669425164, -0.7708330509340895, -0.43197961240600713, -0.20459082859361682, 0.5010192425614145, -0.6123716496889153, -0.4887436221066538, 3.1008680071884287, 0.5047743955105229, 0.7588178939724798, -2.255546611170607, -1.2828471258038137, -2.099590863275345, 0.5698566567532193, 0.5843380695790491, 1.8776875742895123, -1.8091149852956518, 0.7491612163895882, 0.9869678901904061, -0.8649503078358491, 0.7189216612197022, 1.3925916540463992, -1.6530549172778155, -0.49593941989500184, -1.3402462005610163, -1.8977646028794264, 0.5913965588567355, 0.21506364556071272, 0.8932647108978236, 0.8980217746922898, 0.13673810273505443, 1.4859153876761886, -1.9793381297472719, -0.621380385644441, -0.6012163242699864, 0.8036720567693367, -0.4455607676977274, -0.5182657410562881, -1.286994692445806, -0.5915443716739622, 0.9495213227667496, 0.07416901397655112, 0.010293025011882322, 0.2072819377602541, -1.250155520067088, 0.15956063578988003, -0.24845649081986496, -0.23356750203480267, 0.6814810172558191, -0.14010355331508234, -1.1075187107929518, -0.40412626899234116, -0.33163307949432047, 0.6141670649197033, 0.45518809435478774, -1.2694923455285305, 0.8828758898473631, -0.4020315137248324, -0.8188132159265902, 0.05812149874336236, },
