int **weights[2] = {
(int *[30])    {
(int [784])        { 136, 395, 2122, -24103, -1773, -10265, 16270, -12174, -23667, -4101, 10343, -14766, -9333, 8663, 14091, 1530, 22258, 3675, -3626, -11061, 9846, 15227, -5272, 4523, -1715, 1902, 14208, 6147, -6558, 20235, 23477, -8593, -803, 2700, 23042, 709, 5379, -6513, -8021, 4728, -1452, -9398, -8112, -3679, -11950, -13722, 1560, -10750, 11571, 11292, -2427, 11529, 16608, 12334, -1876, -2340, -18873, 13880, -2577, 3574, -12993, 434, -5797, -2345, -1712, -3577, -17629, -5716, 935, -15095, -3981, 828, 11495, 1824, 6237, -8207, 9276, 9144, -12437, -5425, -9521, -746, -3172, -2345, -13177, 5694, -6906, -5995, 5694, -19288, 5051, 10112, 3920, -3360, 25035, -19410, 10515, 2262, 2353, -16471, -16772, -3403, -2314, -4696, 9612, 5744, 9083, -13679, -14438, 16063, 7353, -14885, 9916, 4572, 3513, -5209, -6452, 1673, -2160, 13483, 20323, -14107, 2509, -6841, 1355, 8121, 7452, -6895, -1028, -17068, -3481, 13444, -96, 9119, -17338, -23796, -1478, -27412, -3177, -6699, 1700, -11295, 4376, -2199, -1938, 1776, 15189, 11260, 5934, -914, 4747, -4439, 296, -16917, -10646, 4209, 3534, -1381, -9588, -7365, -14959, -13846, -9613, 7404, 175, 6002, -5031, -9975, 0, 958, -5216, -7718, -3107, 11465, -310, -2507, -1228, -670, -8368, -26286, -13209, -24145, -27413, -16008, -20394, -8849, -7663, -5415, -10485, -14164, 20299, 5962, 1833, -1363, -20669, 4527, 5609, 10369, 2136, -6254, 3169, -1138, 4806, -2110, -11038, -14201, -35499, -21908, -16669, -15964, -30442, -31279, -26891, -3888, -23798, -13496, -35894, -25347, -12568, 3080, 12542, -3135, 4107, -8051, -8601, 25541, 7988, 12029, 26679, 21222, -7048, 10712, -19126, -8379, -3763, -19982, -40133, -37660, -34091, -5530, -29946, -18733, -12501, -7929, -439, -1196, 992, 9568, -20271, 29105, 12137, -6146, 4214, -8832, -10877, -98, -6804, 16290, 12702, -20115, 4351, 3815, -3592, -6697, 1528, -19906, -42255, -18401, -5397, 9410, -1010, -1714, 8491, 3224, 441, 4130, -17196, 2857, 5835, -79, 9035, -385, 14985, -8729, -3355, 35, -2392, 16499, -4381, 4027, -9025, 12919, -7394, -7212, -10947, 8156, 12303, 14396, 6800, 1932, 2023, 13563, -9402, 2683, -21740, -7962, -1339, -9361, -609, -7658, 6724, 4674, -2874, 1357, -5635, -5103, 10171, 2714, -9210, 5131, 7511, -15436, 19641, 15389, 22683, -3878, -6033, -2278, -7130, 4068, -557, -2197, 2161, -12436, 11745, -7821, 9099, -3910, 5418, 3644, -11261, -8038, -12263, -14200, -5261, -3102, 21510, 21380, 18331, -1491, -10938, 13804, -4986, -13746, -16276, -1794, -7822, 2290, -7515, -12950, -2953, 8333, 689, 10476, -9838, 9335, 11048, 19979, -31193, 2998, 11277, 10798, 19340, 8036, 4935, 27944, 28144, -17212, -6611, 8505, -1982, 3188, 1943, -12076, 7918, 13091, 2104, 18801, -12462, 5441, 17867, 3240, -320, 13955, 10437, 644, 4499, 24238, -805, -4167, 3012, 22249, 18690, 18065, 28734, 343, -7228, -313, 1889, 20910, 11554, 22189, 8877, -5948, 2766, 30806, 6739, -16644, -7890, -6246, 5, 136, 8166, 15063, 5621, -19713, 9619, -210, 24404, 17209, 26050, -1061, 24135, 7558, 9950, -2541, 4924, 6437, 7790, 15790, -149, 22871, 24197, 15345, -1587, 9487, 911, -7292, 22226, -11875, -1774, 17746, -10043, 12708, 11873, 33131, 9078, 9594, -9919, -878, -984, -2094, 30563, 26755, 15611, 16992, 24299, 8805, 26780, 6606, 13151, 9454, 7411, -17137, -419, 2604, 5457, 2505, 8967, -17388, -12237, 34151, 10013, 15760, 16544, 9115, 2636, -1522, -8502, -2094, 7272, 15383, 4221, 7311, 15059, 2033, 4447, 10045, 13861, 19186, 7264, 12478, -9054, 14589, 1664, -18214, -4943, -15564, 6623, 20205, 21398, -1374, 27117, -15909, -5592, -13686, 13221, 2618, 11903, 13372, 21605, 10129, 20574, -6760, 18365, 3432, 1178, -687, -4686, 8118, 740, 3338, 3399, -6182, -1975, 6702, 9913, 17418, -5154, 3149, -9120, 3125, -2990, -13460, -2647, 9389, 1613, 10266, -158, 1291, 8744, -5256, -1334, -5703, 5924, 678, 12244, 5683, 2988, -4667, -4223, -9668, 574, 5759, 15089, -6126, -2509, -20516, -8399, -13602, 16032, -8064, -4881, -2927, 14561, -15914, 3815, -10347, -6717, -27072, -12305, -11213, -566, 18154, 1819, 6602, -15032, 10082, -2875, -891, 3327, -5625, -7291, 2565, -6745, 10775, -10043, 3863, -15533, 4572, -10753, -6025, -23093, -20066, -9419, -31466, -1608, -33863, -15708, -24777, -9128, 4802, 3097, 10395, -3310, -1098, -11011, 5193, -8752, 10010, 3353, 2511, -16531, -3760, -28369, -901, -16649, -208, -20840, -15429, -20770, -23814, -10023, -14665, -24286, -6758, -11415, -18359, -24634, -9454, 19306, -15867, 7321, 3817, 920, 4316, -2773, 137, -17271, 4949, -12449, -12599, -23265, -4771, -19325, -4875, -8434, -25685, 6728, -4258, -20105, -5533, -3638, -2570, -3159, -12080, -21510, -7107, -15914, -9060, -5792, 9712, -7052, -13591, 10048, 12471, -12957, -31646, 2441, -6725, -15354, -22110, -14301, -15744, 3475, 882, 4190, -10035, 12978, -5782, -5778, 2889, -14608, -5251, -19278, -20460, -236, -2979, 235, -429, 6878, -22452, -1209, -528, -12672, -3897, 7851, -23132, -12631, -10034, 11377, 1803, -1984, -6636, -13998, -6575, -7108, -8392, -6480, -35957, -9228, -386, 1849, -30150, -12362, 9334, -7449, -4359, 2295, -7849, 10544, 8921, 4884, -12758, -14021, -20998, 12362, -4685, 1162, -41, -30100, -6835, -26613, -13046, -13178, -2567, -580, 3605, -17612, -18544, -2341, -3627, -8826, -7565, 5787, -10078, -23948, 11779, -7310, 17644, -10061, -26844, 8264, -12680, -6979, 6946, -13002, 10889, -5470, -15104, -4613, 7668, 10792, -8907, 5607, -3600, 2104, -856, -9094, 8509, 24337, 4931, 18810, 4593, },
(int [784])        { -9573, -9617, 23187, 12830, -8974, -3489, 8376, 23987, 3656, -21746, 18261, -2970, 17497, -18407, -978, 8035, -12003, -2351, 6775, 8563, 5548, -2894, 5040, 11237, -8378, 4821, 14508, -3554, -1676, 7887, 12476, 4509, 15105, 5021, 804, 6941, 12874, -4208, -892, -9674, -798, 4968, 18244, -9430, -1826, 6158, 3531, 5555, -15867, 11937, -3562, 7169, 7677, -4142, -5707, 3899, -19386, 6268, 4013, -15144, -31, -19298, 275, 13634, -5600, 4989, 6664, -12732, 2693, 12947, -9530, 15084, 8825, -1524, 3314, -5138, 13868, -4587, 10151, -9596, 7502, 9450, 21541, -10997, 9231, 1476, -21182, 21007, 12864, -48, 7877, 2506, 17231, -6155, 10232, 17938, -322, 11312, -110, -5341, 4715, -13049, -1720, 2277, 16193, 19965, 7441, -19454, 950, 2137, -9401, -34140, -9668, -12640, 11368, -825, -11050, -2950, 20630, -9506, -6140, -10416, 12520, 3462, -9131, -2007, 19568, -3085, -8993, -22874, -11663, -6483, -4833, 16269, -14608, 19108, 8437, -13098, -7387, 13243, 21458, -2495, 4361, -3759, -2096, 7477, 1127, -19, -6276, 15021, 15138, 10780, -1411, -3708, -1951, -9255, 4024, 7010, 21635, 16020, 8455, 15703, 14152, 1901, 12035, -438, 12617, 495, 7174, -890, 1195, 13744, -6575, 16241, 9993, 18392, 15504, 11973, 7256, 4272, -9320, -19236, -4897, 4367, -6412, 4000, -17757, -3532, -14136, -666, -15328, 12850, 4094, 3184, 2080, 11868, -2835, 9583, -19850, 8810, -5485, -7924, 12615, 12769, 4510, 1984, -7343, 7846, -11279, -24044, -8725, 2332, -2613, -28686, -1035, -13958, -14750, -6666, 1548, -14839, 13716, 7633, 3582, -325, 7501, -6465, 25165, -790, -3953, 30937, -5283, -6264, 19332, -7218, -6875, 10705, 1205, 5429, -15744, -29055, -16976, -31422, -5602, -16041, -14695, -26090, -16883, 3081, -19781, 87, 25150, 11863, 18260, -15580, 11117, 4724, -11394, 948, -5986, 14422, 1665, -5743, -5793, -7053, -8134, -13095, -25385, -20596, -18351, -3767, -25435, 1785, -7261, -1024, 8013, -17766, 11794, 3540, -3621, 1621, 13461, 1330, 11396, 9002, -15541, 523, -5580, -17142, -9648, -11648, -12039, -10461, -9564, -16339, -29755, -25858, -36678, -4928, 1757, -1880, 5024, -1311, -18431, 3551, -5055, -180, -8469, 1169, 24017, 6774, 9297, -9198, -11154, -67, -27173, -3786, 3157, 4538, 8272, -14309, 1104, -13464, -29512, -32731, -4221, -4912, -4699, 462, -13936, -11724, 3344, -8316, 16089, -4586, 8063, 2021, 9839, -5040, -12676, -1401, -5294, -2173, 9537, -2528, -3734, -2601, -15756, 12038, 336, 22851, -4578, -1237, 7236, -7567, -13594, -21566, -9349, -5423, -11529, -10075, -3194, -15723, 4974, 2255, 5349, 25873, -16424, 412, 1799, -21880, 14494, -4637, 6317, 12796, 17293, 12683, 11548, 26175, 19095, 10536, -222, -5075, 3047, 2355, -9340, -2574, -7090, -3188, -1346, 8241, -9361, 1998, 9661, -12492, -4329, 7037, -1789, 5035, 912, 11978, 23499, 4620, 6323, 17350, 28315, -4852, 25952, -3230, 18456, 13116, 3944, -4699, -17254, -11958, 11049, 7179, 1668, -9837, 3222, 5669, 3900, -19182, 11856, 13131, 4164, -24501, 1111, -13234, 4758, 29722, -7770, 14711, 6304, 40805, 13959, 6773, 9732, 4995, 3806, -13423, -1084, -13351, -961, -17190, 14040, 20048, 18043, 10838, -8077, -15971, 3058, 4483, 5154, 4601, -3203, 14125, 9800, 9850, -1207, -11402, 35002, 24794, 17418, 30211, 13797, 5847, -3775, 7249, 1848, -6045, 11932, 4283, 8822, -13424, 3581, 6806, -9759, -132, 16670, 910, -4041, 11506, 19901, 4780, 9291, 5375, 1946, 8074, 19101, 39586, 26395, 5990, 12805, -7419, 1302, -1579, 1307, 21643, -1802, 3945, 15943, -5491, 5981, 329, 9567, 8543, 12115, 5652, -6780, -9581, -1226, -10722, -5005, -10986, -8007, -3165, 4104, 18268, 24662, 10421, 24960, -6311, 12073, 4455, -7291, 16782, 6654, 5111, 11341, 353, -14424, -6455, -3655, 9061, 15739, 9253, -6681, 16136, -585, -4276, 4102, -1652, -12986, 2400, -532, -1501, -6061, 13001, 8517, 852, 1382, -488, -1217, -2512, 10290, -1549, 9033, 12499, 4343, 14487, -7732, 4819, 450, 4879, -4904, 2398, 590, 4265, -10377, -11125, 4080, 1633, -6187, -32478, 3088, 10370, 7562, 368, 4499, 21224, -3896, -3685, 9070, 8524, -11004, 4968, 8971, 13796, 8579, 6458, 12584, -6935, 12419, -2594, -7119, -4802, 8760, -6835, 6062, 111, 8077, 5047, 6341, 9761, -5862, 16258, 15956, 6731, 8885, 6627, 6274, 11164, -4493, 10325, 4706, -883, 14424, 2902, 6671, 12876, -3347, 12095, 8085, 7852, 9838, -5063, -10641, 7247, 15526, -2399, -3831, -9642, -4646, 18550, 15950, 3609, 13454, 1110, 10133, 4554, -1282, 4718, -11803, 12904, -1036, 8242, -5622, 12066, -2392, -3626, 13474, -10437, 4746, 2856, -3476, -6484, 653, -1182, -9770, -4742, -19252, 13244, 13369, 12721, 15619, 7004, 7315, -9757, -7458, 636, -10094, -2169, 621, 2419, 13717, -3378, 13161, -346, -12784, -1205, -14825, -4975, 9482, 6135, -3459, -5360, 22480, 3027, -216, -10224, 5393, -70, -10047, 10156, -5335, 6483, 16507, -2695, 20736, 6185, -20029, 6663, 8287, -4667, 9763, 3308, -25693, -6480, -24677, -6202, -10341, -12581, -9542, -17742, -2941, 3113, -19935, -10342, -15619, -2275, -9771, -2893, 6794, 168, 7004, -5088, 2713, -717, 223, -17327, 2638, 8920, -9712, 7594, 8033, -1011, -2056, 8997, -28357, -10357, -18246, -4137, -27499, -22535, -27390, -3646, -24434, -9115, -698, -1867, -2639, -4935, 4684, 9966, 6690, -2525, 17611, 8474, -2882, 15747, 3138, -1026, 25607, -310, 5798, -27740, -9299, 1886, -10431, -12081, -323, -6896, 4589, 6327, 1495, -10976, 5321, 224, -410, 3127, 4429, -1773, -8616, 2949, },
(int [784])        { 3949, -2530, -10038, 10, -5506, -8595, -8052, -10362, -1093, 990, 13964, 7275, -1103, 773, -12653, -9738, -2914, 304, 2543, 12663, 14888, 4458, 5268, 3275, 512, -8147, 8045, -23805, -276, -14913, -9476, -4591, 7777, 7535, 11787, 10630, 17042, 10812, 5895, -15357, -1915, 3566, 14230, 6535, -25814, 2827, 5821, 2135, -3465, 5084, 1149, -9760, 129, -1225, -3643, -11860, -4315, -5251, -7411, -8464, -1681, 8566, -13894, 44, -16118, 9841, -6365, 10701, 6161, 17791, 736, -2121, -1285, -6669, -614, 7021, 10763, -6637, -3789, -6460, 1980, -7088, 11822, -1934, 1103, 8372, 14153, -1354, -14191, -1833, 14579, 4109, -11335, -7389, 2355, -9120, -26652, 9426, 9621, -3935, -912, 9022, 22107, 7155, 15142, 19646, 17920, 9818, -8119, 3310, 9038, 1052, -7665, -3854, 8943, -4806, -13231, 18066, -9344, 2202, 3185, -14399, 4492, -7973, -5050, -23383, -5088, -9554, -9979, -11625, -7145, 13420, 8801, 19026, 24708, 4122, 8682, -5508, -4950, 10502, -9768, 6372, -7771, 12335, -19838, -92, 15724, -29437, 7695, -12166, 9687, -19932, -12598, -5508, -9875, -18532, -10749, -13342, -12051, -4613, -4288, 11474, 15090, 10222, 5982, -2931, 622, 9109, 2490, 14699, 13179, 4686, 1271, 4673, 21836, 13340, 9854, 20895, -8091, -8405, -12045, -5345, -3708, 1910, 3221, -551, -6584, -996, -23467, -10773, 14085, 11511, -6652, 14977, 7863, 26072, 11668, 541, 2478, 20253, 7548, 3692, 6479, 7125, 2556, 13267, 2455, 475, 5727, -11971, -6756, 0, -2115, 14548, -7622, 4999, 3668, -10686, -5707, -16939, 27283, -14713, -261, -2145, 530, -3526, 9408, -10891, -7007, -11056, -4463, -3265, 12759, -4452, 12235, -820, -11055, -21760, -9377, 7014, -15481, -4917, -1046, -20955, -7827, -14002, -18053, 5823, -5311, -10711, 11115, 10591, -1562, -432, -8823, 7482, 876, 16323, -5656, 4187, 525, -1102, 10688, -1290, 28171, -3237, 825, -8819, -558, -4833, -1879, 6573, -8944, 1763, -21990, -17536, -25774, -9274, 5791, -8359, -9511, -10445, 11075, -21267, -3071, 2114, -288, -11202, -13963, 11980, 15905, 470, 4328, 4521, 13572, 3540, -7908, 8808, -9270, 8623, 12265, 3461, -9358, -13374, -16564, 2309, -5597, -4277, 9902, 3359, 11734, 10523, 17688, -7566, 9950, 12151, -7587, 3065, 15762, -4074, 10386, -3462, -545, 8070, 8954, 21771, 11617, -20980, -2061, 6102, -200, -5006, -30520, -23901, -14772, -6049, 1305, -7691, 10212, 9031, -1926, -3896, 12515, 16122, 9192, 20556, -6329, 14879, -14785, 1352, -13058, 10391, 5644, 7394, 15230, 420, -2159, -10493, -11420, -35171, -4544, -12877, 2834, 13919, -6278, -15837, -3885, -6229, 4943, 9320, 21578, -386, 7252, -14265, -38, 638, 14021, -3700, -4964, 1469, 12758, 18490, 4703, 14552, 15037, 350, 12834, 10829, -9125, 424, -13970, 9378, -2972, -2478, 15639, 4086, 5335, 17467, 12585, 1057, 3303, 13608, 16273, 15641, 3076, -5905, -17182, -3744, 13170, 9454, 6681, 19138, 40673, 26322, 5559, -4083, -6030, -193, -4647, 838, 3795, 19028, -1682, -1344, -2175, -9533, 9599, 12320, 10809, -17444, 2042, 3631, -16393, -17077, -7696, 14784, 14441, 24514, 20069, 11862, 13214, 13654, 27780, 17038, 959, 163, -9907, 4375, -1852, -5968, -12072, -4983, 4627, -10812, 11799, 8645, 23100, -5546, 9164, 9863, -10194, -1146, -12623, 20769, 6244, 16121, 2763, 26502, 6568, 28660, 11347, -11217, 4178, -4861, 3148, 10858, -9620, -27885, 7330, 719, 4393, -35233, -859, 20945, 16052, -16298, 4307, 14866, -12693, -9365, -13182, 1766, 6852, 9883, 5761, 7675, 1134, -12019, -17443, -10117, -2246, -6713, 3508, 298, 5353, 5559, 3501, -3438, -16843, -32517, -12700, -11571, -15351, -4535, -3714, 9084, 1754, 9336, 2857, 22325, 5240, -1047, 3141, -4329, -9569, -335, -11677, -9615, -2356, -1700, 9027, -1638, -77, 14146, -16636, 11224, -37619, -20424, -27639, -5771, -3245, -11402, -271, 28734, 15083, -1901, 10149, -6002, -6491, -19304, -26085, 5191, -8660, -29855, -29172, -33816, -9012, -8054, -2125, -336, -1536, 12841, -13899, 3501, -8128, 7539, -23484, -20756, -13057, -25231, -13588, -1861, -18322, 22024, 14393, -1844, -9969, 5710, -7190, -579, -29988, -26882, -13329, -39470, -11576, 3904, 5021, 9831, -19196, -17364, 2475, 341, -6715, -15500, -15349, -20330, -15808, -23016, -18974, -12769, 8684, -17786, -12250, -11120, -1584, -9430, -20988, -15724, -27006, -11815, -5707, -705, -11568, 10577, -10115, -7962, 20810, -11363, -4217, -3367, 4586, -3480, -17639, -20509, -6487, -9305, -20700, -24108, -11349, -11998, -14945, -3789, -19344, -20881, -16933, -28974, -19305, -5618, -12108, -11840, -6230, -16025, 11266, 4978, -9757, 11246, -803, -4854, 7933, -1704, 3936, 2932, 10149, -12807, 5, -15242, -18186, -32566, -24954, -21528, -30235, -13092, -13785, -10089, -15698, -1610, -6525, 243, 7466, -299, -6823, 15040, -15436, -97, -3577, 10218, -4243, -1375, 11789, 12770, 2795, -14653, 17056, -12033, -22400, -457, -19587, -13760, -13197, 10255, 9729, -10574, 8158, -2264, 9282, 11239, -8109, -2450, -7170, 13485, 3885, -8584, 481, 12827, 10285, 20394, 21939, 18916, -11939, -7933, -3339, 12650, -7082, 1876, 937, 13334, 5975, -14731, -2121, -9259, 5581, -2310, -12905, 16909, -1152, -3029, -5287, -552, -5557, -1494, -13450, 2143, 13144, 2004, -9282, 26603, 10658, 26742, -5858, -3970, -219, -4301, 30270, 10468, -6140, -23654, 2306, 1519, 12523, 2891, -11905, 1933, 4260, 8712, 6276, -5199, 1362, -6639, -5281, -10407, -6946, -11555, 419, -37, -20989, 25895, -8973, 9623, 6691, 9267, 3905, 9820, -8598, -17044, -3015, -12644, -20654, -12114, -21095, 8447, -5288, -1483, -6850, 13978, },
(int [784])        { -1467, -298, 13363, -2415, -10414, 14752, 11509, -3571, 898, 4163, 18990, 1672, -169, -4248, -15845, -339, 10255, -5833, -1983, -7710, 20131, -8215, -1880, 7680, -5701, -322, -17443, -1290, -20900, -10636, 450, -11839, -5820, -16052, 5688, 5402, 13087, 22485, 5691, -2728, 4420, -2428, -410, 21443, -7301, -4532, -4797, 5434, 6169, 6104, 1893, -1790, -7792, -10206, -2533, 3751, 658, 5307, 9084, -4893, 379, 6290, 7554, -8766, 18347, -3441, -9231, 2074, -6781, -1972, 14280, 4556, 925, -2681, 14725, 6315, 9202, -9103, -9889, 17161, -2735, -18873, -4304, 3882, -1361, -3684, -8744, 10590, -12571, 4631, -14100, 5966, -12429, -3370, -16617, 7898, 6044, 4098, -2180, 3969, 6387, -3412, 24345, 5713, -7886, 1027, -6099, -7364, 9718, 4988, 995, 6431, -4735, 22027, 4905, 7007, 25, 5120, -2435, 16312, 17800, -2959, -6713, 4857, -5348, -2911, 5834, -2753, 25518, 7926, -10235, -7216, -11372, 3656, 6245, -21585, -9732, -5139, -5058, 7501, 13016, -26580, -15236, 19204, 5705, 3228, 9429, 5785, -4570, 1647, 293, 6015, -11131, 8403, -4538, 3890, -5011, -14121, -18685, -7250, 5180, -3691, -6579, 9269, -9435, -1841, -13985, -235, 16682, 1516, -88, 16909, 22006, -2594, 9913, -5260, -232, 15406, -3361, 25105, 1378, -12187, -158, -1702, -3784, 8238, 1116, -475, 1658, -17430, -244, 8048, 21285, -4835, -7929, 10046, -3949, 11352, -2260, -5193, 6697, 12354, -111, 9806, 9689, 10870, -12540, -1326, 305, 7719, 19090, 12094, -4432, 5334, 10187, -7031, 7865, -8589, -5436, 2349, 9207, 13686, 3744, 714, -11157, 11174, -21052, 9400, 10659, 17620, 15290, 13584, 21290, 2875, 4594, 18278, -6926, -6537, 16527, -1133, 6432, 6820, -8444, 7534, 6578, 3405, 20342, 1776, 6677, 15200, 4296, -4673, -1339, -4225, 3462, 21069, 4860, -3834, 9511, 3471, 13363, 12504, -25283, -125, 6090, -4052, 10456, -6650, 15282, 13990, -194, 11879, 6930, 5332, 13625, 16342, 24415, -976, 12157, -30166, 13439, -4536, 3540, 5747, 24366, 15702, -14922, -11910, -24521, -238, -4622, -387, -1245, 20658, -508, 24646, 8776, 2540, 1125, 2275, 10131, 8812, 13593, 1006, 16108, 5405, -2241, 17440, -1070, 14532, -5471, 20174, 3857, -4303, 313, -6939, -3269, 9686, 2799, 9283, 11767, 15008, 28047, 19049, 4656, 17699, 7072, 17314, -11130, -8784, -13996, 13306, 12323, 10443, -4151, -20446, 12281, -8044, 9149, 2609, 3668, -1276, -19436, 2184, 10232, -8081, -7171, -21629, -9073, 8859, 20682, 10023, -9252, 6976, -7130, -7958, -26638, -19262, 255, -25461, 13915, -1930, 7814, 7239, 4036, 11174, -7198, 2525, -2335, 4643, -6208, -22662, -21681, -24564, -16871, -35975, -28954, -36324, -5629, -3583, 14966, -3650, 883, -19324, -15572, -12469, -4747, 255, 25219, 10465, -23824, -1175, -16421, 2884, 12644, -11070, -8030, -11463, -4497, -11859, -6464, -10435, -3991, -44651, -26161, -21843, 8621, -10316, 4056, 8127, 9412, 23165, 10961, 6736, 23052, -11676, -4108, 8178, -2783, 24934, 6953, -2557, -2779, 1335, 9581, 489, 6128, -20985, -25656, -1583, -20693, -10547, -25912, -17940, 7582, -12670, -56, -7116, 9301, 28897, 33606, 9237, 19105, -21297, 13687, -8666, 7721, 144, -4438, 5908, -1331, -8552, -20231, -13312, -14223, -21983, -16865, -11592, -18196, -23019, -13435, -16867, -2039, -8065, 4455, 6121, -5556, 26725, 748, 17963, 776, -27695, -11006, -1622, -10924, -6752, 8737, 15457, -2585, 21258, 7350, 4890, -11068, -9647, -17881, 407, -33284, 647, 4054, -957, 1202, 3767, -5491, 8355, 5960, 21596, 16276, 631, 21193, -14646, 1902, 3786, 4201, 2210, 4344, 7572, 7158, 301, -7076, 6026, 7570, 1689, -8384, -10678, -31281, -15833, -14760, -4816, 22403, -1264, 4238, 24473, 12242, -14562, 16201, 14995, 9772, -6331, -9237, -3490, -19616, -2102, 1690, -5693, -1819, 27447, 11465, 17554, 17079, -15586, -7340, -23651, -2199, -17733, -274, 211, 9812, -3962, -4475, 1899, 451, 1761, -7457, -7193, -4841, -9082, -12187, -14441, 17535, 10722, 633, -2624, -17171, 13365, -7745, 9361, 6077, 17377, 9317, 8192, 729, 16759, -6493, -3651, 17584, -8802, -1487, -29602, -11380, -19099, -9229, -19985, 10607, 346, 13549, -5751, -719, 6208, -4464, -4274, -7942, -3179, 17091, 7834, -3135, 11951, 4156, 14500, -10945, 11902, 13234, -2490, 6924, -8145, 19082, -8569, -12544, -14899, -1911, -24749, -22356, -20919, -5314, 15169, -7252, -7252, -3688, -12111, -12072, 12626, 5814, 14796, -781, 18467, -520, 3787, 18863, -9744, 9053, -1574, 5410, -1904, 14333, -3330, -24882, -7453, 2341, -24898, -15652, -33236, 6737, -5268, 2269, -11125, 10827, -1327, -16779, 4714, 7705, 24687, 22717, 15959, -11853, 7392, 975, -5565, -9749, 2512, 1340, -2419, -2798, -117, 4857, -20419, -24742, -9021, -17549, -7903, -16510, -8222, 10521, -22126, 8938, 10052, -7135, 2881, 8410, 9335, 20035, 12461, 12826, -4959, 6987, 2151, 3940, 3406, 5331, -194, -15816, 14392, 6356, -12667, -13056, -12008, -23365, -14143, 11802, -3902, -12945, 5131, 9264, -24940, 12871, 2484, 4705, 4498, 7098, 2133, 12765, 9625, 5243, 8038, 14939, 8772, 2475, 9698, -6336, -7768, 16572, 2431, -14691, -9580, -13201, -20291, -7968, -9194, 25836, -4004, 7384, 3812, 6617, -1977, 5185, 212, -8298, -2544, -238, -8601, 13794, -336, -3745, 1677, 6341, -2706, 8037, 1489, 16922, 7267, 11124, 10009, 3177, -19828, 6202, -2714, -3711, -2157, 382, 6296, 17853, 7296, 16118, -6107, -14358, 15420, -8608, -11775, -4386, 64, -13150, -11985, 15581, -5672, -5686, 20431, -972, -12078, 1425, 4264, -12648, -2797, 6635, -9885, 897, 14171, },
(int [784])        { 6488, 5734, -19740, 2264, 9054, 7348, -8812, 7410, -5900, 4217, 17616, -11488, -6739, -25855, 6290, 2525, -20610, 8071, 6064, -4747, -11534, -4558, 14342, 10572, 2779, -11589, -5792, 5949, -1474, 1517, -731, -3966, -7689, 5626, -9351, -2713, -86, -3835, -428, 933, -4999, 3005, 9736, 619, 1665, 4929, 13822, 5240, -12398, -5705, 8369, 4120, -17887, 23743, 1165, -18110, -13425, -5675, 4136, 6727, -8493, -9261, 1280, -8648, -10730, 454, -10049, -6787, -798, 2975, -9910, -10492, -3855, -23761, 2773, 1023, 5441, -11283, 8929, 5520, 5405, -12737, 16854, 10648, -20576, -1239, -3588, 3475, -8393, 5395, 45, -22218, 2097, -5068, -5399, -3405, -6162, 3287, -254, 1975, 1429, -19839, -11103, 9801, 13798, 3655, 3391, -13752, 15580, -6980, 1695, -16721, -16299, -3114, -14830, -1750, -10654, 7201, -14299, 2779, -16684, -18441, -7876, -4235, -6267, -22981, -10221, 8597, 74, -11630, 20531, 14514, 9120, 11643, 9696, 7311, 19655, 4214, 25140, -14210, -4878, -10943, 5511, -849, 13370, 9042, -19111, 5730, 5023, 1245, 14584, 12073, 15537, -874, -15334, 7050, -2650, 15765, 4715, 7404, 13666, 2831, 15423, 192, 3151, -7688, 11133, 1275, 9106, -4593, 18274, -5899, -22077, 14553, -9348, -8599, -8797, 1865, -4924, 21, -3607, -984, -14649, -6211, 3175, 15129, 4549, 14826, 14606, 8826, 4700, 9619, 6921, 5250, -18415, 13280, 10633, 120, 1344, -18658, -3956, -9946, 11885, 4599, 8339, -1448, 23612, -1780, 8412, -5110, -10361, 6259, 3047, 5101, 15732, 18709, 7984, 20369, 4114, -8645, 5428, 2391, 10542, -7464, -3416, -13010, 9289, -8094, -14827, -25225, -7604, -7841, -4691, 89, 9130, 21136, 13731, -6252, -2126, -10047, 5799, 18692, 3818, -2643, -4165, 1605, -19926, -9379, -15838, -5163, 19919, -3437, -5531, -1512, -2824, 12171, -19274, 5335, -12028, 438, 2686, -7598, 15572, 12396, 6698, -10648, -37443, -11131, -38268, -37385, -56833, -63102, -44230, -52234, -37516, -11979, -15839, -10931, -12752, -4936, -2493, 8858, 12746, -2210, -3819, 3467, 2320, 6127, 20606, 21426, 1490, 12763, 7918, -16919, -31769, -20958, -18314, -22374, -29901, -54344, -61729, -39290, -35941, -27931, 1789, -11375, -17224, -6221, -1076, -18822, -164, 5625, 11641, 15449, 11444, 7300, 6445, -5217, 2508, -12966, 19926, -4180, 5381, -1174, 15723, 12965, 21010, 12837, -2922, -20417, -17307, -35144, -31438, -11100, -9620, 4095, 24666, 5644, -10384, 5474, 3038, 16694, 10515, -1498, 6248, -3668, 759, 8519, -6920, -8342, -18918, -3732, 10405, 9753, 1207, 3561, 23776, 3119, -5159, -23024, -2257, -8451, 9458, 7658, -19502, -6378, 3670, -958, 6145, 11263, 1174, 4479, -9428, -2461, 520, 14556, 4431, 5000, -11154, -20903, -2117, 915, -7845, -1232, -10091, -9912, -154, -30121, -20467, -14108, -16155, -1159, -22816, 18245, -11920, 8567, 8149, -6586, 482, -16094, 11913, 5756, 13285, -15685, -1932, -5724, 3509, -11567, 2830, 15567, -983, -1496, 12401, -9744, -1376, 13229, -853, -3928, 1256, -7290, 1798, -6141, 12169, 7221, -7138, -1226, -5164, 2170, -18406, -2080, -4743, 2964, -9919, -1834, -14252, -21295, 2589, -1117, 3016, -2534, 6054, -5863, -20954, -4688, -7345, 2543, 1277, -5740, -11547, 10832, 26179, 5364, 9195, -4553, -3294, -14560, -10095, -26901, 4576, -2577, 5508, -4246, -20420, -9511, -1198, 5328, -15920, 3242, 4014, -10697, 18140, -9843, -10389, 1091, 12905, 20312, 2060, -6514, -7053, 8703, 11746, 4537, -14885, -18517, -11193, -25695, -12175, -8198, -2717, -23948, -27598, -13331, -10608, -2764, 9903, -1323, -2892, -5844, -25733, 3658, 12283, 15244, -17415, 2716, -10058, 4553, -4538, 10204, -25316, -2920, -21588, -5376, -9663, -13885, -25789, -37813, -31132, -18850, -15857, -6114, 1238, 1653, -7494, -1121, 4297, 13313, -2057, 15220, 6594, 3821, 5738, 6438, 19062, 2541, -12649, 2397, 17006, 4695, 3079, -9412, 4882, -6147, -22034, -2501, -16444, -12456, -687, 15923, 24209, 517, 4492, -12595, -5896, 3745, -9144, -21019, 15864, -6236, -8511, -5933, -5319, 5138, -7594, -316, 4733, 10797, -22591, 1834, -15497, -5931, 15097, 15710, -4424, -5908, -12349, -2039, 13828, 16498, -3626, 9613, -6192, -518, 19268, 17203, 17843, 12903, -2903, -6797, 8274, 12235, -11605, 7227, -6169, 22651, 617, -9390, 18097, 695, -4145, 1287, 13197, 4052, 4798, 1546, 15538, 829, 14568, 17506, 3839, 9186, -2737, 23754, -6220, 1998, -5306, -1151, -9629, 1823, 13880, -1991, -5174, -4537, -8912, -11793, 3083, -11159, 6189, 9968, -16860, 4029, 4658, -3307, 9543, 17675, 938, 19633, 12242, 4184, -2321, 19765, 14181, 11959, 9966, -6737, -12259, 6561, -6567, -11268, 5876, -5983, -9359, -7609, 9800, -2222, -6690, -10472, 10019, -141, 4591, -13785, 1192, -6584, -15621, -3153, 18528, -8908, -3518, 28755, 19930, 862, -126, 1631, 3021, -3303, -166, -12535, 4407, -271, -1083, -20805, -15602, -6463, -4830, -8001, -2905, 302, -9735, 10425, 6667, 7369, 11206, 5424, 20814, 19982, 5562, 6734, 9419, 15001, -20720, -3239, -11018, -6183, 11828, -4087, 508, 5657, -25739, 2281, -18054, 1593, 661, -3193, 16626, 5433, 736, 1635, 4092, 1546, 17461, -10049, 988, -3776, -3679, 14260, -7414, 18108, -15874, -3, -18528, -728, 3720, -2155, 3769, 7189, 769, -15857, 3358, -16333, 3536, 10102, 10257, 3571, -13256, 5429, 13970, 11827, 23782, 15306, 8789, 5411, 4608, -3479, 12334, 5554, -6333, 11322, 6936, 5341, 13168, 19802, 5724, 9347, -2142, 15216, -1423, -18083, -24093, -10771, 10371, 3043, -7875, 8893, 2031, 7134, 2593, 2689, -12475, 12461, -128, 19116, -137, -17446, 8749, 10623, },
(int [784])        { -15749, 10355, 8024, -8643, 265, -2652, 7891, 19993, 3301, -3437, -7004, 4090, 32500, 11497, -1175, -572, 10111, 10914, -6035, 2731, -1935, -7147, -3920, 8485, 9070, -9633, -159, -3427, -4739, -4089, 10995, 9756, 10262, 154, 8517, -5586, 2194, -952, 309, -707, -3338, 10144, 6749, -2845, 4594, 2179, -10997, 14521, 7858, -3015, 12943, -6929, 5688, -13320, 1914, 14812, 7435, -9724, -10962, 3824, -4632, 7708, 7585, -2746, 943, -22285, -3249, 1874, -3494, -10881, 246, 3474, -7068, -9945, 2404, 116, -19030, -362, 9872, 39947, 12995, -7678, 4236, 5944, 3317, -7988, 17605, 5304, 7304, 7600, -13823, -3661, -4247, -7230, 14953, 3172, -5492, 9099, -34083, -2509, -3645, -32184, -8198, -22988, -18502, -14753, -8305, -27460, -13305, 1482, -7982, -17195, -8582, -14670, -19724, 2897, -5757, -7599, 5050, 6649, -14713, 11863, 4093, 14219, -9518, -346, 9672, -20362, -19400, 280, -6426, 30, 18628, -7107, 7531, -687, -13507, 10224, -11597, 9239, 6913, 14627, 10948, -2245, -20104, -24571, 25696, 1452, -14579, 131, 6147, 4733, -5751, 11350, 17301, 6226, 11986, -268, 12476, 12329, -19983, -1038, -24155, 4222, -23178, -4028, -10187, 2535, -9996, 17184, -11700, -16186, 6759, 709, 5434, 1242, -5449, -21072, -5068, 10125, 371, -12241, -10861, 4, 2300, -17228, 22678, 4033, -4085, 15529, 15054, 1322, -13527, -10327, 3425, 13957, -12884, -6649, -1906, -19588, 10477, -2790, -9415, 13476, -4136, 4102, -2247, -6636, 3746, 16907, -751, -6203, 2250, 3831, 11148, 9861, -1503, 5571, 261, -19234, 1727, -11615, 2308, 632, -5522, -19595, -19803, -5494, 17614, 23128, -16720, -16858, 9899, 4182, 728, 11441, 6769, -9979, -1381, -4904, -25, 9516, 12876, -4326, -10050, 702, -16, -8712, 172, -33890, -19410, -13237, 10648, -16072, -8465, -2143, 13083, 1983, -6643, 2374, 4991, -11174, 11924, -1018, -3694, -4851, 8521, -17067, 1650, 26414, 13383, 10653, 12094, 6317, -1392, 21131, -5711, 3254, 8585, 17634, 6887, -4766, -5968, -17601, 6622, -18398, 5981, 4974, -5801, 3549, -12763, 18478, 4411, 4405, -18393, -29085, -20413, 13642, 14339, 13114, -233, 18851, 14243, 15230, -9913, -25013, 5850, 10430, -4349, 1804, -1043, 2642, 14650, 2194, 6376, 812, -3167, 1862, -658, 2685, 5958, 3860, -20931, -33966, -39701, -5116, 5836, 3753, 15244, 6531, 8462, 18185, 10269, -4782, -3141, 17971, -6811, -6027, -10245, 15592, -9798, 13126, 17001, -2390, -4510, -3960, -3296, -784, 824, 5914, -18505, -22651, -25713, -17693, 18538, 17575, 5287, 17624, 16412, 5909, 9453, 4501, 18439, -14953, -1887, -12031, -2177, 6564, 906, 7171, -8272, 7484, 1128, 6096, 1961, 10974, 3694, 10817, -6206, -25419, -42377, -1000, 20753, 7534, 18242, 4573, 13309, 12552, -7040, -5302, 4357, 9923, -13255, -5957, 1463, -9649, 3263, 18319, -581, 19060, 6038, -6355, -5885, 6337, 11978, 12929, -24636, -11567, -25679, 12305, 24613, 11768, 10696, 742, -2089, 1565, 7247, 1140, 5246, 4356, -7827, 4746, 15198, -14360, 13152, 4212, 9011, 18765, 4204, 9967, 21146, 10181, -4993, -22832, -16732, -29657, -7071, 2489, 147, 4428, 2389, 5491, -7599, 469, -13611, -12020, -4805, 4122, 15045, 12258, -6784, -12199, -7358, 13886, 2259, 6506, 10475, 6072, 12094, 20504, 1979, -23671, -14381, -24175, 3046, 8005, 14321, -5718, 2178, -3825, 5396, 2199, 17545, -11342, 5455, -11912, 8163, 9532, -10337, -6709, 4461, 7314, 8977, 740, 12617, 22465, 2325, 2133, -8483, -6454, -11721, 12918, 8494, -3508, 5268, -12143, -796, 5953, -5056, -3612, -11844, 6425, 1670, 16240, -2079, 15623, -5882, 1943, -3959, 23770, 10446, 13795, -4463, 10351, -6588, -9388, -19047, -6035, -3005, -728, -23186, -904, -562, -5644, -21461, -9465, 5062, -1780, -10012, 8138, 13024, 4387, -5227, 1250, 6256, -7089, -17539, 3403, 13585, -759, -6434, 16512, -18386, -17420, 5101, -1690, 11976, 13899, -22651, -12894, 626, -8650, -10657, 11180, -460, 3793, 3981, 7369, 18695, -10660, 24237, -20717, -8245, 9956, -4696, -3648, -15817, 19733, -1526, -4013, -2670, 330, -12592, -5410, -9426, -6493, 6948, -3632, -6940, 5724, -17090, -7976, -2272, 1170, 3521, -862, -8497, 9800, -4372, 13775, 14119, 15430, -33933, 9167, 17375, 260, -16746, -5245, -13104, 1245, 13197, -5431, 1121, 8599, -9661, -22162, -21422, 5528, -804, -13053, -7767, -8146, 1448, 3233, 8905, -11495, -1221, 3962, -13146, -6393, -5004, -9615, 5886, 5205, -8415, 2217, -3577, 11903, -12590, 4594, -11254, -5436, 7456, 6987, -25002, 10075, -8760, 15574, 3820, 8268, 3893, -9493, -3068, 9261, 3319, 1817, -12073, 9638, -24307, -5588, -4842, -11601, 3068, 10527, 5829, -1068, 3309, 6795, -14239, 4502, -13853, -1728, -5946, -11847, -14927, 6344, -14954, -2811, -9776, 6502, 12403, 4604, 8491, -15760, 4893, -13143, 3786, 6624, 2730, -9878, -2459, -11157, -8159, -13337, -4188, -4272, 8908, -21178, -286, -2532, 4826, 3551, -10858, 9225, 12642, -13688, 7817, 17046, -16740, 2910, 3505, -5531, 1525, 2832, -12366, -19334, 616, -3339, 8296, 12439, -10497, -13818, 12426, 12875, 3688, 11292, -11499, -18218, -9128, 5812, 5948, 3782, -11890, 5820, 4325, -18957, -7400, 8572, 2013, -4714, -16704, -8607, 7477, 664, -1536, -5204, -1712, 5936, -7641, 22508, 5165, -10419, -3369, 14938, -4985, -14992, 3944, -3568, 1321, 15743, 6612, -11394, -1903, 17527, -3836, 2865, -21514, -2972, 515, 7126, 15645, 6591, 287, -14021, 4818, 2027, -6439, 10976, -12984, -9694, 7883, 3579, -5275, 7397, -16919, -3920, -1975, 7016, -9755, -4658, -27510, 9761, -5050, 9673, },
(int [784])        { -3538, -12850, 358, 2358, 25673, 6896, 3355, 16943, 9032, -14497, 12611, 20899, 2120, 19860, -2173, 5837, -143, 2872, 14041, -12972, -2885, 20063, -3390, -15803, 1252, 4314, 6747, 10614, 2222, -12558, -3621, 7556, -19577, -11585, -16485, -1841, -11105, 13122, -15007, -7186, -5697, -2996, -5583, -725, 13130, -20382, 12922, -4576, -15017, -16680, -10162, 4581, -6988, 14674, 18569, 5309, 3079, 1771, 17164, 10550, -837, 10514, 4998, 13819, -3787, 14036, 8843, -5821, 3002, 7716, 83, 6731, -810, 7459, -15843, 10200, -13050, 14500, -1617, 12100, -11823, 445, 1477, 3080, -2163, 3976, -10007, 7006, 14318, 6224, -4385, 11411, -1721, 3653, 22893, -775, 20144, 29870, 26388, 10056, 5570, 4132, 4748, -14369, 6299, 15257, 13932, -1745, 12523, 9578, -27726, -637, 14130, -12627, -17649, 12813, -3019, 14337, 18976, -6866, 7369, 12241, 15580, 19159, -7492, -10414, 9620, 8527, -291, -1156, 14165, 15984, 24498, 16974, -5125, -10227, 1886, -1285, -10646, -16561, 22148, -1532, 8035, -14091, 24437, 9960, 7838, 12882, 10344, 17604, -1496, 10565, -8067, 5796, -1442, -10070, 22568, 16345, 19834, 2273, -14628, 3110, -86, -5685, -183, 9546, 13145, -10236, 152, 12848, -8419, -12329, 10392, -4819, 5193, 502, -15754, 9388, -3522, 1514, 3862, 27263, 10886, 8242, 4717, 4278, -18715, 3370, 5872, -9935, -32066, -19157, -27281, -11852, -19458, 22107, -3088, 827, 19335, 4845, 3370, 14984, -1476, 916, -15984, 452, -14774, 9823, 1042, -7434, -14705, -9939, -12093, -22571, -17121, -23722, 5170, -11260, -10606, -15818, -24147, -4064, -10652, -551, 3577, -8828, -1422, -426, 8933, -8853, -8277, 9460, -2255, -5434, 9691, -10237, 131, -1193, -25545, -24956, -12979, -7262, -20604, -15956, -20790, -20204, -7058, -22236, -27560, -19854, -2040, -19224, 215, 13657, 12208, -4543, 11548, 5944, -2971, 2636, 12532, -969, -4940, 2600, -10636, -17366, -9927, -14249, -39021, -19754, -15140, -18321, -17544, -4883, -10156, -29702, -13954, -10472, -1242, 13585, 5988, -2714, -1760, -1277, -687, 2903, -2814, -1407, -18119, -17209, -19795, -24585, 943, -16313, 25156, -24957, -19857, -474, -26995, -2233, -2831, -463, -24011, 2016, -3140, 3200, -49, 13038, 1258, -9605, -14802, -2701, 9565, -9124, -17159, -13273, -15768, -30513, -24702, -13884, -6908, -642, 25684, -6445, -4033, -18754, 1520, 12816, -5688, 11247, -2499, -15473, 5920, -16624, 63, 2885, -3463, 16270, 6484, 9024, 7270, -12198, 2051, -22386, -14679, -1534, -7078, -15661, -15846, -7708, 5821, -7480, 20380, 4637, 7011, -21730, -6622, 1633, -5403, 13530, 10711, 2848, 2588, -9013, -2244, -2136, -13638, -127, -6792, -10042, -19883, -7621, -20319, -17564, -18541, -9523, 3982, -1170, 16308, -1913, 19348, -12047, 124, -5553, -15909, -4828, -3253, -1645, 23210, 5871, 1286, 21017, -6808, 5616, -10481, 11370, -7363, 8310, 4960, 532, -6510, 3671, 1151, -4971, -11866, 2786, 20206, 10185, 9323, -1321, 3232, 8464, 18555, 8654, 2017, 11902, 328, 4634, 16761, -3118, 1309, -12744, 4088, -7287, -24550, -9109, 5629, -15156, 5196, -18721, 4967, -12931, -5386, 13924, 13663, 12966, -5207, -11114, 1206, -14859, 6010, 27539, 6382, 10494, 8871, 11546, -3497, 567, -6204, 14404, 9878, -873, 2841, -2486, 9954, -14110, -7765, -17647, -922, -2801, -10237, 17923, 6692, 4430, -13960, -5904, 3148, 21905, -2185, 12023, 3682, -8215, 3996, 17334, 4564, -9593, -17770, -6974, -6562, 14055, -4137, -15267, 592, -10259, -623, 6829, 14555, -12106, -11647, -19865, 4027, -1967, 3895, 8285, -3424, 2337, 11445, -279, 2876, -4371, 544, -14193, -11152, 3002, 675, 18008, -8174, 4593, 23829, 953, -6778, -4366, 6937, -7669, 2258, 8372, 13124, 14076, 3628, 6848, 1106, 7932, 6738, 3403, 11764, 7457, 7329, -3057, -6320, 21190, 2798, -7704, -3292, -15955, -1276, 5110, 6571, 14302, 8055, -4776, -7789, -11721, 14946, -964, 35437, -14889, 14745, 19912, 10646, 6895, 9580, 4391, -7808, 14203, 6600, 7228, -4143, -5019, -9502, 5109, -2933, 6682, 13245, 21739, 4433, 22310, 11281, 19826, 15851, 41314, 15360, 20110, 18869, 13469, 13822, 17393, 17465, 2370, 27241, 2702, 16169, -24202, 17605, -1626, -8365, -2996, -16029, 512, -11457, -12654, 6226, 6425, 15568, 17832, 5523, -889, 22838, 19172, 38134, 23375, 15301, 18982, 16156, -1187, 12235, 23085, 9413, -5315, -15746, -12419, 5425, 897, 14704, 17621, 6819, 1760, -19675, -2639, -5336, -668, 18138, 13696, 15088, 7453, 2449, 956, -2182, -7978, 5189, 6118, 1952, 2690, -16622, 10934, 9441, 13609, 4718, -4516, -6998, 8852, -953, 12126, -6112, -358, -8209, -12416, -10781, -18211, -3856, -2491, 27574, -5455, 15287, 8715, 6162, 1438, 13432, -8404, -11937, 6752, -8517, 7061, -1794, 4410, 190, 17674, 6812, 8874, -15621, -4409, -12194, 757, -1858, 12396, 403, -23833, 16715, -1067, 10154, -9825, -2224, -2530, 13694, 2468, -1354, 17284, -5572, 20583, 5305, 21381, 17071, -3940, -1437, -7710, 7380, -12651, 6589, 9092, -10273, -8388, -11335, 352, 7631, -3905, -6062, 13205, -11273, -21058, 7427, 115, -19856, 5233, 17551, -9360, 24306, -121, 5785, 2460, 8067, -10906, -16357, -4413, 612, 13267, 21565, 10097, -3724, -3218, 5434, -5205, 6542, 6738, 13247, 2870, 8677, 9855, 10063, -9729, -2131, -8816, 9567, 10951, 1865, -3373, -14783, -6754, 3628, -10561, -4651, 4204, 21935, 10127, -3841, -2299, -29789, 6986, 12776, -35363, 11463, -1461, -12832, 6158, -12068, 12847, -9170, 768, -22056, 5220, -2113, -1567, -16995, -11469, 5099, -13590, 8976, -2999, -6888, 2784, -789, 5091, 22129, -15614, 4893, -13396, },
(int [784])        { -4306, -17689, -21714, -5414, 8457, -15985, 6090, -5251, -11747, 1197, 583, -3946, 7417, -8493, 15244, 939, -6093, -8849, -16262, -11248, -10121, -7672, 4553, -12171, -2011, 10597, 23326, -1423, 3050, -14553, 14156, -12308, 3826, 988, 2273, -16363, 11837, -13926, 10408, 21847, 2725, -4971, -1695, 595, 709, -11560, -10832, -3161, 5358, 688, 14897, 5194, 110, 9397, 13994, 2850, -5918, -506, 1468, -8974, 4615, -1363, -3758, -5324, 31059, 13262, 7518, -22311, 6898, 11096, -15214, -5093, -3449, -19181, 25333, 6643, -855, -13774, -8363, 4094, -219, -17449, -3618, -3826, 923, 10388, 11072, 16607, -3507, -9512, -2857, 10749, 1741, -18826, -11107, -757, -980, -24700, -33144, -12885, -12401, -6944, -10597, 6526, 1187, 1249, 3060, 5265, -5286, -10470, -5466, 18805, -388, -3392, -5977, -21941, 77, 8756, 14919, -4960, 14010, 3096, -9192, -2342, -2400, 4460, -9843, -5389, -13469, -7709, -13463, 3902, 1232, 6249, 1522, 10732, 7592, -16224, 10125, -18197, -15211, 9928, 686, -16990, 9627, -5679, 6767, 405, -11566, -3116, -6961, -12260, -7741, -6271, 4072, -5826, -24387, -11533, -12298, 12751, 10946, -6137, -8713, 17793, -5083, -5460, 5356, -3800, 6164, -1242, -8929, 14835, 7273, 18416, 2210, -2150, -5343, -1766, 2290, 159, -6614, -4780, -3877, -11423, -9830, 6363, 381, -16261, 6753, -12374, 22360, 10536, 9669, 35645, -24621, -8669, -7299, 5284, 7078, -1595, 1179, 2449, 8868, -1310, 11017, -10674, -9658, -19511, -3292, -27894, -21849, 3955, 1647, 4682, 8673, 13816, -3113, 7729, 6914, 27305, 158, 2236, 13247, -7841, -3584, -3797, -4396, -77, 1581, 10256, 7394, 3946, -6949, 9279, 2347, -6124, 6419, 2753, -27285, -14868, -4610, -4773, 6416, 3532, 1920, -10155, 241, 13839, 25719, 29001, -2764, -11208, 8054, 8102, 3867, 5230, -13038, -11564, 10564, -219, 14795, -344, -6777, 3240, 2224, -2821, -19489, -10894, -13232, -3330, -10294, 8302, -4092, 11397, 9251, 26247, 24463, -2759, -4590, 3517, -14820, 4927, -14578, -6845, 989, -2504, 5369, 6353, 1632, -7426, -1920, -5071, 15201, 30804, 37021, 10752, 17304, 3740, -1282, -4411, 21537, 6996, 9637, 18756, 17517, -14312, 5472, 17658, 2682, 4100, -13614, 11481, -1751, 4292, -15516, 25274, 25299, 6645, 18113, 24490, 29392, 26315, 27781, 16981, -2383, 10033, 9865, -10345, 19064, 7490, 19022, 9609, -6313, 137, -6127, 6536, 24672, 16164, 12499, -7644, 8610, 6598, 3426, 25839, -5234, 3920, 22093, 23812, 40341, 37346, 24626, 32226, 41909, 15628, 21498, -7209, 9357, -9208, -6158, -16194, -2708, 1938, -7541, -12772, 20078, -21446, 18531, 7745, 3773, 15137, -1809, 4243, -2073, 263, 13892, 13733, -4091, -987, 10477, 3808, 22287, 8595, 23833, 6403, -1940, -9527, -5392, -12714, -20726, -1844, 2819, -6089, 258, -864, 15634, -486, 7409, 7187, -1005, -2899, -15589, 18135, -14228, -14205, 8793, -4232, 7137, 2748, 26, 10665, -8485, -11217, -13185, 7729, 7418, -2697, -12490, -7322, -25216, 6972, 18761, 1828, -3513, -12357, -12336, 8340, -14075, -4864, -9981, 9088, -1582, -5365, 2472, 12582, 2284, 4159, 4213, 9164, -2692, 23190, -978, -280, -5469, 8822, 2361, 1481, -9722, 1675, -2348, -12178, 9306, -4361, -5990, -1540, -11809, -749, -11847, -11029, 8373, -3132, 3538, -3844, 4331, 3736, -13781, -3450, 16190, 9558, 11895, 5320, 2948, -16829, -6262, -1271, 5937, -20112, -13265, 5814, -64, -316, 9716, 8704, -3422, -637, -9560, 3104, -16762, -14903, -9286, -14190, 2259, -4657, 10673, 9490, 11967, -6847, -559, 18219, -18597, -14988, 1097, -23552, -7886, 11206, -6344, -7387, -3422, 1415, 7386, -8877, 4442, -32202, 1748, -10747, -28799, -19998, -7970, -12562, 1812, -5749, 7826, -6892, -2021, 9135, -8034, -1206, -931, -19111, -24850, -20329, -5637, -7505, 11014, 6767, 1652, 8294, -97, 12933, 5978, 5120, -8720, -15481, -15364, -25749, -22023, -3184, -1513, 27515, -4189, 6598, 18681, -3979, -10048, -7744, -21465, -20791, 9241, -14414, -5750, -974, 9101, -15718, -8147, -12597, -8526, 9361, 13254, -11323, -2946, 2126, -5914, -9939, -20912, -27417, -1466, 8607, -2027, 7502, 15054, 717, 5803, -1139, 898, -16246, -9759, 1935, -15533, 680, 1105, -8688, 308, 423, 2407, -4128, 12747, 1745, 1801, -8211, 10577, -532, -26749, -3991, 7528, 22626, 8233, -6778, -4565, -4526, -7119, 12554, -21817, -26948, -8401, -2588, -6148, -4007, -4490, 7183, 8486, -3066, -6274, 6222, 7259, 12692, 959, -5129, -7392, -3799, -533, 6768, -3944, 8742, 3757, 5069, -5633, 2615, 5687, -19051, -19329, -7291, -1615, -4370, 4367, -236, -3215, -3727, 2897, 9455, -1385, -4888, -10302, 5618, 7596, -510, -12246, 10570, -2739, -20307, -1286, 33115, 17464, 18955, 2011, -7037, -13385, -27641, -15922, -8273, -1950, -15437, 1223, -11696, 11705, 613, 3894, 32986, 24483, 23183, 2899, -4678, 1276, 15002, 8833, -11815, -5907, -8997, -388, 1233, 21689, 7699, -13327, 6638, 1836, -8840, -9202, -12908, -332, -8145, -3615, -1233, -2027, -5238, -5108, -1504, 18793, 5934, 18077, -6513, -18739, -7726, 9649, -5105, -564, -15788, 15321, 14040, 5216, 4150, 9212, -1938, -3283, -7217, 20544, -12340, 1239, 690, -4101, 10848, 8559, -617, 21991, 18533, -10124, 9336, 6012, -1301, 16842, -17216, -19277, 11420, -8772, 1988, -5893, -14886, 9346, -12869, -15006, -370, -1192, -10065, -21051, 8435, 2786, -1604, -157, -5455, -15869, -6917, -9116, -7658, -18315, -3365, -2158, -11601, -1066, -4101, 3286, -28886, -2504, 57, -2920, 1586, 14281, -10517, -501, -5384, -2572, -17736, -7781, 17308, 10730, -21789, 388, -7895, },
(int [784])        { -1082, -1905, 5867, 5580, 2749, 15979, -21616, -11417, 6954, -11460, 1142, 2703, 5754, -12323, 1485, -853, 2419, 1687, 6497, 1043, 9374, -2307, 1263, -10399, -401, 4199, 5748, 18782, 2399, -2059, -1574, -2664, -21697, 10820, 5335, -12079, 8572, 13875, 1083, 24107, 5281, 5157, 17735, 14514, 10453, -7775, 6329, -16689, 13564, 7731, 12755, -3116, 12831, 167, 3053, -11915, -3422, 3545, -2597, 3578, -1938, 5844, 1285, -5617, 26466, 13246, 13506, 20221, 4520, 3936, -1648, 13880, 9572, 15771, 13075, 7139, -1980, 2136, -11040, 10002, -9033, 4179, 7409, -193, -2205, -9888, 18039, 18473, 7866, -27405, 5347, -4366, -12526, 12725, 10701, -5964, 9524, -5133, 20380, 11905, 12230, 16332, 13331, 13448, 11384, -8622, 5079, -451, -4978, 6685, -4242, -479, 7143, -6184, -1774, 8159, 9345, 7780, 23676, -18039, -12543, -1819, 3305, 7210, -14667, -6320, -15933, 20962, 8926, 15113, 11427, -15539, 3898, 6, -9016, -3625, 1835, -5802, -1638, -468, 7000, 10161, -6671, -1239, -5109, -16338, 4680, -6305, -12187, -3350, 2987, -7378, -9105, 7923, -6340, 9944, -863, -9698, -20150, -15103, -8079, -2957, -10110, 22477, 794, -4863, -1561, -6292, 3024, -1269, -4413, -6271, -8373, -20783, 6807, -27906, 10535, -6354, 5713, 8539, 15780, 4913, 26623, 12412, 11855, -8952, -27915, -15934, -14663, -8604, -2552, 12975, -32, -934, -13822, 270, 4703, -10514, -6907, -20981, -5806, -1926, -15934, -5159, -4732, -1280, -8005, -358, 13111, -3, 12732, 13314, 6298, -11784, -17662, -4537, -11703, -4282, -6334, -13456, -17867, 2481, 7548, 12741, 2172, -8822, -8441, -11364, -11199, -4870, -11881, -6153, -19891, 695, -5775, -15053, 8104, 11797, 29317, -5205, -13952, -8177, -23934, -12171, 6441, -13301, 8542, 16750, -947, 9116, -13419, 5626, 18180, -9912, 9061, -8260, 8924, 5367, -18493, -5814, -21470, 2711, 13605, -10294, 1353, 25227, -841, -14994, -19410, -32818, 7981, -2738, -2583, 4462, -16334, -1824, 538, -9594, 3813, -2565, -3995, -15963, -2362, -2120, -14520, -8544, -3863, 19218, -1050, -16024, -2681, 30387, 47040, 32687, 620, -9945, -15675, -12160, -22015, 4397, 6368, -7341, 6840, 11488, 18116, -19728, -20359, 12379, -895, -8708, -5053, 5488, -177, -18604, 26546, 20904, 18315, 2601, 35576, 36086, 19465, -11319, -9874, -3924, 14548, 16700, -4239, 6950, 15167, -7882, 12231, 12915, -11088, -8859, 2107, 7830, -3674, 12701, -10936, 4233, 12161, 1868, 45980, 17743, 26064, 37220, 20869, 17977, -18324, -15845, -152, 9495, -4800, -9234, 6998, -12896, -2476, 11009, 14437, 13451, 5812, 2170, -24422, 1701, 8310, -14355, 12000, 2526, 15948, 32915, 24686, 33069, 26691, 40753, 14606, -5983, -1111, -9641, 2705, 8898, -3504, 3076, -6546, 14997, 7760, -649, 9927, 26195, 9997, -12140, -3221, 1003, -4128, 3771, -6509, 14882, 15967, 27461, 28963, 8339, 16540, -7291, -5848, -21706, -8789, -6131, -6830, -2778, -12220, 3674, 3034, 1640, 9728, 5500, 18158, 15848, 10372, -7491, -13377, -19419, -8829, -8090, 15634, 16477, -15847, 7083, 35222, 14395, 3911, 4506, 7819, -15521, 1605, 2853, -17907, -15906, -2738, 531, 13610, 2879, 1863, -8288, 11512, 11096, -15649, 9082, -13476, 2649, 4788, -3548, 6808, 4786, -10282, -8176, 728, 16110, 23244, 2676, -421, 308, -29648, -10137, 6570, -7476, -5594, -14333, -8520, 6079, 15594, -4543, 2363, 14860, 4187, -18095, -9893, -11696, -16028, 16801, 664, -13019, 2641, -14559, -348, -11533, -9213, -19439, 712, 11571, 351, -16902, -14290, -1205, -8763, -3838, -10830, 1332, 2614, 2607, -9903, -13189, -4556, -13821, 8550, 22393, -62, -2065, -3314, -20094, -21835, -5298, -25640, -15548, -2431, -10810, 3725, -471, -26906, -11810, 419, -2718, -11748, 5664, -3593, -10074, -10405, -3373, -17566, -34401, -8035, -6718, 9635, 4286, 3979, -3289, -43, -8041, -16939, -7520, -1209, -14141, 3381, -1613, 300, -13890, -2438, 1663, 18894, -14783, 5476, -2391, 5265, 17126, -11970, -9015, -10142, -4678, -11623, -23790, -14129, -21891, 8297, -1198, -8268, 11771, 8038, -18627, -6496, -13655, -18052, 1402, -18178, -6281, -5515, -1710, 22126, -2053, 25719, 5258, -6283, 8764, -163, -11529, -14131, -8914, -6556, -6252, 18785, -2356, 23221, -5108, -6940, -10299, -11110, -13691, -29626, -1319, -29721, -19162, -11004, -8090, -10707, 13200, 10928, 14998, 5417, -3990, 29232, -20922, 2968, -13760, -16889, -12880, 1672, 3317, 14400, 18306, 4438, -827, -508, 3925, 7256, -14126, 451, 2332, -16222, 1784, 9805, -3183, -2504, 6494, 1770, 1243, 13741, -6088, 8397, -2677, -7485, 8455, -11595, -11085, 10160, -8613, 2532, 1030, -8175, 8379, -9800, -2154, -13452, -5694, -14188, -3614, 6395, 1942, -3064, -15811, 16537, -22429, 6866, -6976, 2147, 4469, 7723, -2087, 1957, -13683, 20467, -5712, 3775, 12820, -2652, 20156, -3033, -3497, 1564, -2466, -10927, 28620, -10966, 21287, -2775, 9906, 14797, 7037, 2977, -13300, -5656, 6364, -14640, 585, -15282, 505, 4400, 27105, -15474, 4727, -5730, -5705, -5154, -848, -6502, -2670, -2577, -10405, -16659, 3420, -7764, 7464, 12507, 13037, -11222, 7528, -9197, 3064, 5177, -13672, -9369, 23369, -3141, 8591, 8153, 9175, 16593, 12423, -9367, 9545, 5086, -12402, -9444, -16411, 14956, 363, 5464, 13737, 4150, -2063, -9453, 18154, 7115, 7299, 17928, 10280, -4601, 3745, 16113, 121, -933, 16514, 23956, 6636, 1530, -5116, 894, -10829, -6397, 8658, 15013, 11601, 2313, -12154, -20288, -2901, 462, -7377, 5740, 5415, 5232, 1289, -4214, 132, 357, -4489, -1872, 7712, -8933, -15002, -736, 40, 6929, -10324, 7373, 4903, -4752, 8305, },
(int [784])        { 9980, 4116, 5022, -20990, 5461, 26272, 3656, 7837, -18238, 4332, 25809, -6610, -18296, -2408, -2661, 10173, -4179, -5732, -4599, -2326, 14429, 11664, 308, 5763, -9663, 1651, -24611, -17453, 21440, -12795, -8871, 7485, 3123, 782, -4065, 9208, -7262, -5856, 11493, -5152, 7402, 1609, -16792, 11896, 16913, -6001, 10664, -2068, 10456, 15959, -8019, -9174, -2077, -3180, -7232, 6262, -28906, -10607, -8145, -21628, 13411, -5007, -4789, -746, -10126, -7646, 18635, -11764, -4749, -10837, -4209, 2426, 1617, -5997, 4374, -4882, -9816, -15844, -3497, 6846, -2544, 763, -2708, 7409, 712, -12333, -14084, -238, -11154, -18140, -9220, -12527, 27604, 11423, 14879, -37014, 6152, -8566, 1437, 20946, 4335, -5255, 26601, 4389, -22300, 6327, 10497, 15538, -8754, -6415, -9891, 2363, -10068, -9436, -2409, -11358, -314, 4489, 6323, -14010, 1591, 8553, -1344, 764, -10311, -21929, -11008, 23243, 15556, 14884, 20613, -18474, -287, 5814, -3449, 4831, -11807, -8071, 8697, 2473, 4041, 10088, -5953, -1460, -6769, -2552, -7505, -14856, -15251, -6906, -14060, -10820, 5079, 6276, 4736, 3471, 39299, 31055, 3872, 1354, -10152, -15424, -6090, -9008, -7091, -1976, -9183, -2302, 7504, 6432, -482, 4397, -21180, -11620, 11924, 4392, -2446, -9744, -15508, -1668, -12756, 22429, -8920, 18075, 45693, 43740, 11406, 5338, -22931, -3084, -6387, -7614, 2719, -9187, -13137, -8582, 6525, 2881, -1013, -13808, 10749, -8643, -6701, 1939, 5611, -2491, -6112, 3254, -11054, -3546, 21306, 17249, 41956, 26356, -14204, 8558, 6709, 9327, -148, 1417, -5637, -3095, 1141, 4525, 4014, -3976, -5052, 5671, 4177, 2477, 15689, -6928, 5607, 14629, -6203, 5079, -15423, -18180, 6152, 18374, 46139, 6572, -10098, 10872, -18733, 5427, 1082, -4945, -3440, -10555, 10841, -546, -14931, -12547, -940, -5711, -714, -10339, 10279, 2255, 12961, -7565, -1168, -9390, 2161, -12356, 8726, 21953, 23313, -220, -17911, -2311, -3836, -1330, 5592, -8167, 4042, -7661, 2746, 7615, 1790, -8498, -7505, 4211, -15847, -2969, 5959, -9865, -15810, -6981, -3873, -18058, -26688, -2125, 18928, 34436, 21275, -7935, -2661, -10669, -3379, 12210, -12619, 3408, -1067, 19094, 4154, -17602, 12033, -3636, 11202, -27255, -6070, -8432, -2088, 22224, -3242, 6750, -10148, -21316, -34218, -6859, 23170, 26305, 11288, -4035, -1730, -13184, -5572, -2477, -2289, -1468, 10886, -398, 7521, -1157, -4179, 2807, -3854, 7231, -2098, 1558, 4856, -10502, -21558, -2606, -7767, -18650, -30316, 15542, 41854, 13891, -6471, -11780, -17165, -439, 2322, 3897, -1395, 17041, 7024, 1445, -5335, -11107, -11839, -18057, -14173, -12491, -456, -335, -1903, -1490, -24910, -25973, 4990, -10023, 1390, 18012, 38981, 15490, -8360, 608, -13079, 6559, -13757, 3983, 7950, -6603, 9634, 13318, -1676, -9633, -6141, -3866, -7802, -7975, -2025, -20995, 5384, 11885, 6568, 1058, -12030, -749, 28269, 16712, 19661, 2658, -165, -19770, 4923, -15632, -8166, 2369, 11989, -9617, -14556, 8013, -14929, 9349, 11891, 11096, -770, 989, -2145, -4808, -14455, -16669, -11397, 1427, -10178, 15509, 24059, 3940, -11548, -1545, 10949, 747, -937, -770, -11460, 6014, -19471, 5199, 12854, -3253, -13104, 4882, -3525, 20265, -10798, 7585, -4173, 17231, -6795, -5565, 1995, 2840, 1188, 23390, 26920, -639, 1999, -7309, 9607, -8612, 8241, 11798, -1561, -9654, 16236, -3532, 11258, 35, 7259, -412, 9143, 15456, -16836, -9351, -6968, -4160, -1269, 10558, 492, 17189, 21793, 20426, 9942, 10199, -10759, -943, -5665, -1289, -19288, -9211, 15131, -3544, 3671, 11651, 4524, 14696, 17860, -5877, -6556, 15201, 1038, 1728, 5855, -7518, -10183, -132, -7477, 5751, 20793, 13687, -22094, -12159, 15078, 10723, -5121, 2761, -1545, 5838, -2695, -1761, -5670, -9633, -2582, -4107, 7658, -15243, -9302, 5927, -934, 8851, -6273, -2438, 5284, 5525, 7496, 17771, 5172, 17905, 7613, 4656, -5631, -4945, -822, 3209, 843, -5187, -8088, 6687, -6284, 14537, 5105, 2080, -8742, 19878, -3587, 13195, 4379, 7747, 4978, 1668, 4528, 20001, -7633, 23236, 2382, 5201, -10223, -6903, -22000, -3919, 993, 6722, -5993, 11664, -9668, 11870, 27044, -3396, -7249, 20766, -3007, -7661, 4756, 6564, 9218, -2339, 12648, -6134, 32587, 906, 9673, 1276, -20867, 2702, 2419, 10509, 4089, 8059, 5001, 9900, -8510, 4940, -3919, -14668, 1056, 2256, 18194, 6853, -5863, 967, 8849, 3439, -5281, 12414, 7967, -6589, 12079, 3981, -4661, 15707, 3338, -9548, 19940, -7500, 9112, 12564, -517, 1621, -258, -6654, -1580, 637, 24087, 6765, 7854, -13824, -5527, -8236, 7536, -6720, 3662, 13449, -12323, -9976, 5065, 6001, 3362, -12629, -2551, 4382, 12231, 8454, -1610, 2678, -4129, 18927, 5281, 12441, 7616, -2784, 18432, -5579, 3935, -1882, -5943, -9965, -11191, 19821, -9789, 6716, -8616, -22003, -2569, -5035, 10026, 6150, -3, 334, -21809, -17554, 12452, -5033, 1764, 1155, 9227, 485, 8076, 15750, -8529, -959, 3167, 2528, -10264, -7192, 1956, 10156, -2116, 11364, 10676, -2586, -12684, -4040, -6889, 12656, 6064, 11528, -1252, 10804, 117, -5337, -8614, 8914, 4127, 2616, 9450, 739, -23140, -1669, -10385, 17979, 11659, 6379, 4127, 17849, 17673, -7302, 19441, 13775, 2082, 16912, 13226, -8694, 16023, 22211, 8211, 13026, 1733, 3529, 3113, 11399, 1541, 10854, -3300, 6357, 5746, 2556, -6153, -5170, 12511, -664, -17207, -2682, 1329, 18521, 17063, 8377, 3019, 554, -8660, 6906, -1014, -1740, -18904, 1156, 6042, 1299, 13382, 403, 12082, -5688, 19152, -1414, 5945, 4235, 10397, 24902, 3172, 2693, },
(int [784])        { 17199, 8505, -1642, 1992, -6949, -304, 11070, -16666, 12851, 12062, -3878, 6614, -12184, 9126, -4603, 12983, -2283, -6916, 8170, -3430, 281, -18619, -3594, 4095, 428, 6395, -10536, 5631, 9991, -879, 2131, -3455, -3562, 5691, 1717, 643, 17137, 4704, -24469, -1150, -27525, -13973, -1156, -10621, -2009, 4571, 9210, 6128, -13343, 14307, -19262, 23967, 2941, 6918, 56, 6949, -5311, 3694, -3588, 3172, -15385, 9522, -165, -1857, 7967, 999, -5532, 257, -21375, -19995, -15360, 6949, -16726, 2676, -8223, 476, -4398, 3224, 2808, 4081, -1993, 17956, 7248, -11043, -14405, 17750, 16884, -2052, -14325, -1278, 5344, -3751, 16169, -18226, -8207, -28529, -6904, -13311, 7215, -10217, -13398, -1162, -12747, -5351, 1491, 19768, -5605, 17460, -4294, 1579, 8268, -21067, 1443, -5759, -2056, 8026, -1920, -6116, 16368, 7428, -12470, -5784, -11484, 3804, 25915, 13289, -12838, 6068, 768, -8055, 24551, 16054, 10368, -12106, 814, 8290, 19152, 16437, -2239, -9761, 2108, -197, -15482, 15341, 17711, -12930, 6542, -14757, 3597, 3977, -18921, 3146, -5222, -3821, 3000, -12113, 26441, -4489, -7685, -11747, 3858, 3999, -7219, 1038, 20705, 14489, 8888, -14325, 4868, 17338, -10756, 11113, 10590, -17716, -830, 18954, 11229, 8381, 6750, 4481, 11359, -9157, 4480, -4428, -5458, -12479, 10249, -7077, -3780, 2274, 315, 20604, 11063, -5180, 9961, 8405, -1883, 64, 17144, -8334, 17953, 2440, 10304, -3211, 17472, 13108, 6262, -12427, 5401, 9210, 7768, -12813, 29853, 4772, -3943, -2174, 15825, 6151, 7374, 5429, 12965, 17870, -12294, -12756, 7929, -9019, 347, 12968, 1562, 2102, -4575, 22680, 17031, 16328, 22583, 4100, 7120, 8075, 1600, 1688, 6529, 3306, 11430, 3868, 5761, 4874, -11219, 7425, 10356, 17700, 20800, 11502, 2183, 9871, 18336, -4579, 1851, 927, 4681, 24100, 14887, 9748, -4743, -1096, -2331, -10654, 8691, -8507, 1285, 12320, 10150, 2736, 7175, 6901, -4837, 2358, 9614, 33058, 14370, -11943, 5977, 521, -2023, -2037, 2685, 13381, 19274, 17358, -3375, 22388, 19493, 2233, 12874, 14400, -8360, -8044, 15365, -14757, 7921, 22503, -4874, 4913, 14482, -1359, 9918, -1968, 22088, 1166, -15243, -4440, 18832, -9494, 5342, 5643, -11579, 12796, 8562, 5074, 18585, 3391, -7458, 19503, 22467, 27806, 17514, -11535, 8068, -9694, 6530, -6192, -1851, 7638, -2875, 2901, -2063, 354, -19412, -8931, -7373, 15224, 1658, 13554, -3393, 5466, -7417, -4651, 14237, 15494, 23016, 19751, 14982, 27072, 2078, -13558, -5765, 1895, 10183, 182, 7168, -9433, -2294, -2937, 5227, 3612, 27511, -4971, 6111, -6238, -3776, -15303, 18587, -4517, 20617, 17297, -10490, 11363, 9232, 4548, 21707, 29585, 17427, 14966, -13546, -212, 17958, 810, -16670, -3794, -10257, -7482, -3299, 6376, -15346, -14274, 2262, -14896, -508, 6622, -2950, 8219, -451, 1041, 5169, 9203, 2525, 7509, 22747, 12013, 17971, 13125, 9639, 3399, -15324, 376, -15740, -12728, -24120, -1471, -12277, 7957, -7464, 7011, -20716, 9981, -14141, -22775, -41159, -22277, -44037, -20426, 5044, -2480, 5990, 4819, 22424, 19199, 6246, -2368, 8856, 4255, -9881, 7213, 13266, -917, 5168, -11625, -4125, 17138, -2226, 9886, 2048, 4020, -9616, -20948, -33464, -22693, -7905, -19627, -22575, -7593, 10170, 741, 9149, 17662, -7923, 1057, -16578, -26185, -15224, -18552, -10033, -2577, -22246, -20283, 10899, 7911, 2257, -14737, 5440, -9955, 6322, -9148, 3998, -13506, -18774, -26244, -51705, -14734, -3905, -88, -2679, -11296, -4569, -827, -12656, -18387, -3134, -4276, -22851, 9357, -8890, -14201, -8840, 1355, -3708, -3697, -946, 2794, 1484, 687, 1629, 4688, -18982, -3399, -26378, -33995, -15765, 4256, -15984, -999, -27566, -9962, -22038, -4863, -18515, -3800, -21474, -2644, 2921, 2224, -4854, -6720, 15346, 1568, 21702, 16202, -1073, -4635, 8114, -2359, -9391, 6635, -7925, -10171, -27141, 2280, -8948, -11648, 17375, -13742, -6673, -10112, 3138, -7284, -9039, -13817, -19658, -22108, -3231, -3266, 3255, 6565, 4147, -6021, -5075, -11911, -3489, -3884, -7513, -14061, -2375, -14891, -3780, -13489, -19821, -21449, -11936, -7794, 12412, -2248, -18403, 1559, -36055, 2602, -14004, 5057, -2848, -10285, 950, 6199, 12603, 11120, -3318, -8026, -4165, 944, 17046, -9535, -8991, 7561, -1628, 6852, -15149, 9366, -8751, -7683, -6957, -15250, -61, 18977, -2837, -20710, -17274, -2478, -13670, 15404, 5430, -3529, 3191, -3957, -9686, -11844, -967, 323, 2137, 5310, 3602, -8234, -16794, 9950, 14073, -3474, -7648, -7975, -4381, -13542, -4351, -34092, -1021, -2539, -19481, 3851, 5589, 10744, 15752, -1847, 14831, -4791, -6155, -1632, -13420, -19763, -14250, -9732, -122, 5517, -64, 160, -682, 5946, 8147, -671, 8706, 12317, -18715, 15325, -23786, -15650, 6400, 19359, 1533, 3328, 11565, 2118, 6226, -8485, -6561, 12999, 1813, 3300, -399, -2267, 18464, 15110, 6275, 9262, 19007, 10121, 22739, 19370, 21159, -13413, -8935, 1566, -4173, -5907, 7714, -7847, -9675, 5652, 4497, -3150, -218, -5964, 1352, -7099, 13888, 10353, 17930, -5337, 26576, 24758, 14585, 12207, 8659, 26809, 23627, 62, 5553, 12836, 21050, 3039, 14953, 4052, 5429, -3689, -7241, 22722, 3165, -5733, -5911, -13977, 10556, 9453, -1491, 11486, 5158, 201, -2230, -4078, 19461, 1244, 11732, -1003, 2422, 6909, 12178, 11650, -18962, -19858, 5182, 413, 1970, 21161, -3873, -2539, -7429, 9242, 6654, -3902, -6447, -11319, 8116, 12852, -16485, 6388, -5307, -7594, 1211, -2797, 12959, -6490, 8870, 15840, -2125, -4907, 2528, 3451, 15189, -61, -212, -12256, -14999, 2484, },
(int [784])        { 15542, -15244, -13194, 7060, 16604, 4890, -12111, -16375, 8924, 940, -12591, -13591, 6571, -2679, 602, 399, 2379, -4391, -1681, -775, -9955, -25912, 9731, -3924, 14928, 717, 4509, 4800, -13106, -2052, 12762, -5190, 5744, 1239, -6290, -15275, 6931, -33174, 4501, -2916, 14178, 9830, 7900, -2346, -2479, -5086, -14596, 1647, -2078, 2209, -8347, 9026, -5694, 7358, 7259, 33600, 10186, -1341, 20450, -8384, -2914, 10458, -9976, -2549, -6090, -3899, -7764, 3935, -2532, 11133, 13973, -11531, 2187, -10013, -25700, 1382, 11581, 7737, 36338, -9208, -5553, 18853, 26929, 5099, -14161, -2375, 1798, -1983, -17347, -421, 3062, -8300, 66, -16429, 10851, -19501, -770, 1051, 6121, -15062, -975, 1212, -14706, 14078, 8756, -6925, -26251, 21083, 3410, -27830, -5303, -10402, 7327, 9832, -7591, 4806, -7274, 12008, -8176, 9040, -20562, 19900, 9042, -11129, -11679, -13751, -7215, 8450, -7770, 11634, -14533, -7114, 23009, -439, -5957, -8036, -6705, 7676, -16884, 11810, -1035, 11882, 7071, -17725, 9439, 11394, 1477, -8351, -5789, -8247, -18910, -7270, 6584, 7591, 105, 11272, 4867, 9985, 11769, -1369, 18454, -26319, 2691, -11694, 10797, -563, -8275, -9384, -4695, -4919, 3509, 736, -3663, 10767, -2925, -2843, -10181, -7799, 7168, 16700, -1596, 24740, -7959, 6616, 19518, -6488, 9549, 12498, -6248, 835, 5675, -17355, -17825, -9083, -6643, -9002, 948, -9300, -2356, 25659, -4437, -6511, -13544, -3778, -9793, 982, -46, -3318, 2491, -5616, -6878, -3680, 5321, -1891, 1006, 11431, 12774, 1734, 10289, -1453, 8456, 4431, -14984, 9229, -16132, 6914, 10880, -4774, -4711, 1034, 9742, -9788, 9421, 16053, -1791, -341, 1625, -26284, 4645, 1655, 10895, 25085, 8178, -2287, -6911, -4270, -9512, 1938, -21519, -12048, 17848, -17077, 12667, -897, -7084, 21924, -4294, 3384, 7673, -3340, 14896, 1243, -11912, -10970, -8430, -6120, -13422, 9025, -3629, 16974, 7880, 1181, 2850, 6995, -1733, -1061, -34217, -7294, -9300, 4094, 3909, -5243, 8114, -25104, 6690, 11947, 7772, 24955, -12533, -7876, -10834, 21312, -8316, -5507, -27, 4868, -1364, 10913, 9315, 27336, 4461, -319, 10387, 11351, 8545, -17838, -3407, 857, -3641, 13451, 20305, 18087, 11021, 9334, 11903, 11211, -13520, 7456, -20416, -18628, 1146, -13661, 12349, 8061, -4411, 6137, 5837, 10608, 34456, 25505, 17878, 7611, 31736, -17783, 6391, -8028, 11347, 13923, -4440, 19163, 19242, 12850, 6220, 11909, 29104, -1788, -5001, -174, 2748, -5321, 12414, 3329, -7252, -99, -1382, 22496, 15423, 19966, 26921, 35231, 12143, 28911, 8938, -17266, 15960, -15412, 6792, 13620, 10677, -8454, 9992, 2895, 574, 1628, -5288, 5006, -12781, -8860, 430, 350, 1051, -9736, -993, 5878, -7395, 7905, 51284, 12782, 4863, -5230, 14102, 13222, -11076, 4219, -29012, 14961, -2734, -12901, -17965, -7676, -12966, 1375, -73, -146, 1576, -12081, 10490, 4692, -7667, -7058, -3165, 2409, -4043, 6012, -2011, 7179, 16698, -6533, 10792, 2937, -8612, 17515, 47, -3515, -9912, -5013, 2614, 3746, 15832, -11525, -5906, 5918, -4475, 15078, -6852, -10179, -8565, 6007, -8257, -13071, -4896, 394, 12502, 487, 5983, -7772, 20074, -8864, 4943, -2468, -1147, -2246, 6789, 10715, 5462, 2652, -9201, 3064, 14965, -3529, -362, -1525, -16894, -4352, -16472, -11477, -4254, 7205, -16470, -2927, 12144, 3183, 886, -10155, 3786, -3047, 248, 23090, -2729, -27102, -1773, 7340, -1420, 9954, 3734, 17946, 7807, 8068, -6875, -16541, -9887, -18114, -9489, -10047, 8971, -15161, 10022, -11088, 10461, -2248, -28396, 2057, 6135, -9463, -10494, -14346, 13262, 12143, -6450, -7150, -10796, -21393, 16211, -6921, 25110, 566, -269, -15362, -16429, -1121, 3079, 18742, 21098, -13386, 2441, 85, -5200, -12375, 3955, -7966, 18114, -8608, -19977, 397, -17082, -6505, -18716, -1883, -2106, -20700, -1837, 16168, -733, -4408, 6343, -15735, -16102, -11018, -12670, 2350, -29892, -11020, 794, -7339, -6464, -9192, -5899, 11159, -6919, -17242, -29738, 13161, 6775, -27812, -1238, -22226, 1717, 7477, -5967, 25351, 2331, 5891, 3634, 2477, -1510, -10159, -16692, -23761, -858, 3900, 5751, -10058, -20311, 851, -8030, -1057, -13045, 3080, 25680, 12113, -14842, 6189, -21706, -7611, 8852, -5999, -8247, 12283, 10705, 665, 18508, 30452, -7762, -14363, 3432, -2245, 758, -3617, -19617, -10760, -7143, -26368, -31205, 6651, -4293, 8421, 17729, 16032, 7817, 5611, -8821, 3762, 8682, 17976, 5427, -19366, 6662, 8742, 2018, 11426, 10411, 18545, -9994, -15097, -29805, 3082, -32070, 2664, -23126, -20611, 5068, -17998, 14442, 4152, -5269, -8054, -16715, -11018, -1933, -15225, 398, 100, 1127, -6289, 3436, -1405, 13925, 19884, -4008, 3371, -15268, -3164, 1454, -14020, -19168, -5333, -10792, 4141, 9035, -4152, 11821, -20306, 8321, -9427, -3621, 11606, -4080, -4204, -7549, -10845, -4647, -7832, 10121, -1646, -5459, 16638, 16383, 12382, 680, -917, -19358, 5065, -20835, 4857, 13980, -10342, -10583, 13604, -6697, -14141, 1481, -7406, -521, -11875, 12881, 4766, -10682, -1457, -53, 14629, 5376, 19259, 317, 9964, -9690, 10309, -117, -2361, 2440, 6164, 2377, 6617, 8129, -16200, -1250, 2055, 13563, 5460, 18883, 3350, -2343, 7900, 12305, -1087, 7404, -9230, 10857, -1015, -13386, -8291, 10986, 13842, 19314, 19598, -8270, 3106, 10418, 3893, -4884, -9803, -14500, 4209, -3343, 2071, 2622, -4832, -7369, 12158, 2741, -6641, -3206, 1087, 7189, 1703, 5285, -4338, 22638, -5967, -15832, 12751, -8526, -490, 8899, 9535, 12074, -15196, 16651, 7194, 17109, 3336, 10054, -15130, 8883, -1072, },
(int [784])        { -10844, 3828, 13197, -3265, -4397, -5077, -11044, 13037, -10282, 1851, 1314, -8363, -3544, -12062, 12032, 10083, 30312, 7149, 1350, -4030, -5063, 6927, -7770, -15628, -15894, 4947, -1021, 1617, -17410, 15963, 14882, -5038, 10963, 11528, -804, -17725, 1789, 16179, -3860, 12713, -6800, -8350, -3377, 5321, 632, 386, 4873, 1970, 10749, -4504, 3585, -7323, 7159, -14582, -1733, -12759, 3899, -20833, 5462, 5269, -9062, -2048, 5802, -14413, -8104, 19000, -4964, -18013, 8369, -11062, -11515, -4931, 2839, 18005, 322, 12436, -1066, 2806, 16448, -12932, 3374, 2331, 9145, -2256, -14771, 4061, -1339, -3497, 5662, -10602, 26949, 14810, -13028, 5012, 8185, 4447, 1114, 22399, 11229, -12091, -13236, 1910, 10234, -16318, -16442, 10746, 351, 5562, -2340, -8371, 17255, 2784, -6740, -8, -9603, 11392, -9536, -553, -7531, 40, 11726, 4682, 1275, 3166, -5117, -3046, -1558, -14137, -3156, 10001, -23427, 9175, 824, 4697, 3121, 2619, -2496, -5294, 18525, 13222, 6549, 21076, -16688, 20381, -3628, -12033, -813, 5783, -21306, 23103, -2202, -1791, 2715, -17700, 12439, -9329, 5721, 9906, 2152, 230, -7024, -2950, 12987, 3696, -6868, -240, 9722, -9923, -2316, -12433, -19254, -17955, -1603, -5517, -13347, 8827, -4874, 1274, 9435, -4418, 11954, -9508, 13599, 2073, -11140, -4222, -1376, 15064, -12024, 24395, 2939, 3776, 911, -428, 3214, -7430, 412, -5122, -11709, -19684, -2694, -15772, 5125, -883, 16952, -1812, 5108, 6507, -7898, 6702, -13073, -12710, -6563, 7106, -18851, -1016, -199, 1781, 3191, -1816, 5990, -4906, -5032, -17278, -7281, 12259, 7285, 4848, -5306, 3998, -3090, 10236, -1424, 1932, 4671, 13629, 17488, -2774, -6289, 6636, -12802, -9458, -8101, -3286, 15735, -18293, 3534, -1275, -16748, 6164, -17292, 7444, 4884, 1405, -422, 8518, -7908, -1833, 8826, 1851, -12532, -5784, 4998, 3527, 4162, -14412, 4028, 12060, 584, -3294, 3382, -7850, -5345, 9388, -8102, -9816, 2094, -4015, -20362, 10077, 10584, 10833, 665, -2902, -15845, -4017, -19044, 4920, -7513, 3546, 22472, -9568, 17792, 7694, 13297, 11961, 23389, 12920, 785, -8334, 7780, 4455, 1461, -3793, -16682, 1782, 8157, -256, 6068, 13522, 12803, -13526, -6896, -3723, 18028, 18269, 3240, 26551, 8283, 4885, -16401, -3187, -970, 1025, 11756, 2194, -7235, -13938, -3318, 5506, 6777, 12353, 12622, -12397, 4609, 11870, 597, 12189, 405, -41, -5304, 25839, 1798, 16451, 10780, 14425, -8765, 8905, -799, -5103, -14287, 6288, 8837, 13571, 8525, 7577, -3575, 12668, 1522, -14086, 27540, 563, -6844, -13392, 289, -12055, 6821, -12096, 10237, -912, -10706, 7240, -4347, 5122, -10680, -10284, -3999, 4892, -754, 6477, 8564, 20399, -13594, -3621, 12635, 730, -10687, 5965, 6145, -3834, -3476, -14441, -2866, -8043, 4486, -10783, -10391, 13960, 15981, 9604, 3084, 9389, -3777, -1750, -3002, 3793, -8703, -11774, 1625, 6577, 9129, -5807, -15829, -18147, 12010, -10914, -642, 1596, -20583, -8592, -7004, -12328, 19669, -4822, 11950, 3971, 6044, 2567, 1961, 2460, -17529, -1918, -9875, -1793, 354, 17768, 21693, 29188, -9810, 4196, -3492, -7026, -4078, -11126, -5633, -10965, 8148, 22683, 1301, -6923, -7432, -16678, -28387, -10732, 6902, 22716, 26960, 28919, 8747, -4303, -6755, -12532, 15276, 13099, 12554, -8009, -10927, -15049, -20349, -2348, -12662, -9487, -16085, 3831, 15342, -2005, -5336, 22842, 1219, -13856, -10917, -21831, -3209, 38433, 36484, 55486, 51178, 49940, 47208, 29342, 25231, 13095, -11431, -3531, -13078, -7514, -11508, -12693, -19698, -3866, -8626, 6110, 10670, 18974, 8745, -1255, 5148, -5952, -21841, -10534, -15354, 1529, 18280, 20999, 25920, 34744, 45688, 33203, 19331, -11208, -10195, -17518, -12758, -19624, -2439, 4942, -26533, -6081, -1709, 2357, 2635, -14873, 13721, -8635, 1659, -1417, -30875, -23992, -15268, 3185, -13540, 11602, -11517, 4205, 14215, -4960, 2207, -5307, -1690, 12760, -5241, 1429, 547, -23267, 5363, 14634, -92, -11264, 8037, -6726, 25, -5597, 3608, -15061, -2342, -12911, -18811, -2194, -8793, -7367, 1446, -20106, -17751, -19203, -13656, -6710, -2477, -882, -1000, 1007, -6579, 8149, -11875, 3873, 6547, 10449, 6799, -2071, -14662, 17592, -8289, -24664, -20383, 2562, -1374, -7421, 2677, -1606, -11046, -2312, -18734, -5366, -13994, -4064, 1975, -1496, 8972, -550, 8695, 1476, 3970, -5229, -4832, 10045, 3653, -14343, -3796, 1235, 3520, -6679, -2858, 12638, 12397, 4472, -341, 10180, -6779, -15367, -5296, 2289, -1049, -4393, -5821, -8514, 1824, -8813, -5098, 8428, -9092, 13855, -6289, 3830, -8923, -15727, -6043, -3222, 5291, -6997, -21407, -4822, -7251, -3626, -3811, -18471, -4189, -15262, -9154, 323, -5586, -5869, -2619, -1776, -884, -8259, 6341, -2532, 5106, 8642, -12653, -11875, 3166, -1314, 794, 8481, -5311, 1528, -13717, 854, -11570, -26421, -5317, -263, -27471, -12288, -5147, -19815, -5083, -15260, 5126, -9940, -4993, 1289, 12715, -17995, -19272, -7098, 1628, 22880, 6759, 11812, 6187, -7296, -5597, -5472, 5213, 4427, -18054, -23739, -13361, -3945, -31238, -18540, -13456, 4362, -8580, 14916, 10364, 1550, 9097, -3945, -3486, 11997, -7098, 7521, -5239, 3207, -9059, -2078, 12687, -22683, 27699, -5534, 4738, -9028, -14973, -10532, 10668, -3254, -1695, -2414, -3865, 2298, 2162, 26484, 14445, 18357, 13377, -1846, -2327, -3204, -3481, -6545, -11601, 5727, 9459, 9398, 12766, -19407, 6947, 1996, -12426, -5267, 561, -8238, -4772, 13366, 14165, -6101, -2164, -2038, -13937, 8432, -10420, 1805, -6870, -7232, -1507, -1506, -9268, -8026, -10298, 12749, 2033, -14351, },
(int [784])        { 26305, 13837, -1941, 10621, -1899, -3358, -6674, 20490, -5047, 7071, -9247, -16478, 1044, -2084, 2030, 3642, -7834, 16385, 9154, 2876, 4750, 24736, 9432, -6787, -199, -11914, 1928, 12947, 4832, 4859, 19725, -410, -3424, 4032, -10483, 8638, 11166, 7028, 14908, 6875, 1015, 5360, 14229, 6854, -4617, 9527, -12526, 4594, -2496, 15628, 2573, -2025, -546, 4979, -1489, -2650, 4943, -1782, 1676, -828, -16197, -1818, -11004, -5660, -1267, 11629, 11316, -9838, -1442, -3831, 9105, -7562, -11471, 16709, 5236, 24667, -10215, 23560, -7573, -10428, -8961, 11270, 7969, -9284, 9037, 1811, -2082, -1142, 5535, 2868, -10789, -20738, 5780, -18589, -8818, -15200, 5401, 1132, 196, 10446, 18407, 7098, 5381, -7248, 11199, 5719, 2330, 12730, -2741, -6116, 16503, 19554, 3643, 14551, -3517, -7842, 19395, 1007, 2799, -15271, -2616, -898, -12014, 2807, 11269, 5415, -1685, 2177, 4243, 9302, 18961, 8448, -8568, 8937, -15789, -4451, -1852, -10219, -12476, -21963, -605, -536, -1660, 10901, 12492, 1189, -16656, -352, 3459, 2475, 12106, 852, -20158, -22713, 3432, -3399, -12164, -9303, 12505, 3379, 9240, -9802, 5399, -7679, 8486, -13899, 4302, -5928, 4414, 742, 7497, 7570, -6178, 7117, -18064, -5114, 1186, 3785, 3930, -3997, -1528, -7124, 10619, -11015, 1122, 12075, 12562, 7545, 11810, -5498, -8213, -20750, 6097, -2133, 428, -2837, -3340, 2129, 1248, -3463, 6324, 6993, 22237, 10212, -7674, 4755, -12085, -13157, 15061, -2278, 3295, 14009, 3699, 10102, 2970, 550, 4806, 8273, -17559, -13037, 4731, -7125, -4262, -17419, -19901, -11515, 18243, 7802, -9016, -6561, -6940, -9417, -10330, -18559, -20754, 2842, -15754, -35689, -3370, 9051, 4946, -25, 16390, -11891, 9856, -9183, 170, -33699, -8793, -1746, -2818, -35, 5124, 4675, 3810, -3043, -18338, -2278, -11492, -6097, -16396, 2321, 3949, -6630, -4936, -27605, -36269, 11269, 7724, 13396, 11199, 1109, -63, -18329, 2992, -13561, -16846, -3853, 21359, -4526, -11864, -1547, -865, -10415, -337, -8545, -15160, -12145, 15997, -18877, -5602, -20740, -7957, -31102, -27557, 9992, 6932, 18837, 404, 2076, -11090, -8723, -21086, -26181, -6303, -5007, -1826, -5884, -554, 910, 8820, -6437, -12182, 5905, -5348, -24739, -6539, -11007, -7649, -17023, -4080, -17740, -1210, 23744, 24150, 21324, 10346, 1420, 3809, 1818, -11369, -23515, 758, -14152, 11673, 4229, 7716, 5011, 1633, -6580, -1262, -22632, -6432, 4195, 1577, 4447, 7699, 7053, -9689, 22674, 16249, 11078, 16072, 30407, 26601, 6153, 17727, -8368, -9584, 1952, 7757, -2479, 5311, 12860, 4979, 15007, -14045, -15228, 7587, 6697, -6898, 6216, 4519, 13465, -2862, -316, 4429, 27993, 22692, 1656, 16555, 27582, 24635, 18988, 4292, -9923, -190, -21516, -13731, 2348, -3730, -1221, -7734, 2895, -11066, -2173, 2182, 16153, 10747, 854, 20346, 2049, -5268, -3859, 10643, 3191, -2800, -1942, 25933, 27775, 8601, 14424, -23065, -18114, -28302, -6069, 5496, 4197, 13249, 1769, 6667, -5638, -3019, 366, 15811, 10079, 8145, -14656, 9515, 2847, 3050, 9554, 1845, 2945, 3652, 24669, 13575, -6328, -1296, -1234, -5593, -9100, -3561, 6183, 4040, -2771, -10807, -8078, 6750, -2576, -7041, 12789, 14607, -3026, 2970, 7436, -4527, 1441, 2120, -1880, 13082, 7810, -4168, -4043, -354, -9549, 9099, -9231, -26133, -2001, -15952, -16741, -6171, -18001, -1980, -11819, -4144, -3195, 873, -6858, 9254, 15060, -6183, -2683, 16092, 2336, -7350, -1331, -3258, 5157, -6626, 2062, -3131, -12728, 8963, -5948, -11513, -14467, -17587, -7695, -2162, 1037, 19873, 11842, -11005, 1897, 7412, 11758, 8348, 21069, -13324, -6306, -21410, -2937, -20061, -13622, 5648, -18728, 15726, 11275, 33506, 3109, -2073, -2249, -8587, 16747, -22556, -23588, -2109, -6243, -8792, -572, 6278, 6276, -7334, 9218, 14661, 449, -4250, -23434, -18105, -11121, -16792, -23783, -8993, -14499, -949, -7937, 8585, 4099, 1196, 16995, 11644, -6758, 1756, -14658, -7301, 10553, -20425, -9948, 5841, 19822, -1416, 3185, 8859, 9408, -3918, 3962, -3319, -8225, -18767, -5532, -19854, -11939, -13909, -18826, 20400, 9418, -1271, -16870, 3877, -7812, -7129, 2519, -2464, -7773, -384, -8969, 3344, 3069, 12368, 7143, -1265, 1213, -7833, 3301, 7440, -19744, 2204, -17021, -4688, -16847, -27008, -10535, -10354, -193, 4716, 8244, -6555, 4186, 4799, 5007, -8398, 9161, -14676, 5659, 5974, -264, -3403, 6695, -1919, -1203, -3461, -18907, 635, -10531, -4460, -6867, -30897, -10666, -25896, -19798, -16561, -9596, 2274, -1454, 6852, -2349, -11501, -11340, -3369, -17905, -13621, 3564, 4595, -19200, 7758, -2876, 20255, -13015, -5654, -282, 9773, -16654, -9635, 8033, 3957, -2778, -20584, -16093, -15845, 823, -13952, 12758, 8241, 9247, 3483, 15862, -4196, -21608, 6135, 17453, 435, -269, -17518, 651, -9969, 21850, 2139, -5797, 9918, 5511, 13579, -3014, -11481, 6749, -7603, -17598, 1356, -16892, -3476, -4585, 6904, -6258, 14993, 5659, 3165, -5206, -15501, -6435, -8861, -4534, -11835, 2403, 9391, 9932, 11948, 23658, 24984, 10358, 11597, -11345, 7697, 5077, -3908, -2438, -987, -4922, -9721, -7582, -7474, 27, -2761, -90, -5564, 32108, 2992, -16055, 6707, -16753, 1430, 12029, 943, -12942, 12791, -815, -1408, -8670, -17897, -11958, -10493, 930, 14762, 14198, -4242, -1819, -5121, 10839, -10704, -5032, 8572, 9298, 15312, 5211, -5759, -2241, 1135, -18897, -5358, -3885, -4165, 19239, -16644, -2430, -5338, 8516, -9334, -6088, 16913, -22964, 5632, 15883, 13175, 10796, 10328, 10667, -7659, 3926, -5982, 6114, 11492, -2972, -6267, -13360, },
(int [784])        { 8214, 18852, -6207, 123, -11008, 1987, 8287, -11393, -25633, 4915, 3145, 17436, 7226, -14812, -7992, -9405, 19348, 12318, 7990, -8530, 7397, -3234, 30163, 440, -4873, -13010, -3298, -5515, -2408, -14193, 1072, 5640, 16746, -7592, -841, -1950, 4163, 26277, -2984, 379, 9105, -1766, -7106, 4286, 11440, 16052, 12127, -415, 5083, -11164, 11125, 7063, -3038, -14820, 11742, -17401, 5731, -11083, -4258, -7090, 2305, 2311, 11343, -9220, -10352, 12942, -7446, -9994, -14057, -10120, 11105, 3336, 10943, -9955, 13446, -1382, -6446, 15395, -28397, -2198, -1217, -10673, -191, 8291, -5381, 7628, -1058, -2428, -54, -5195, 3057, 2374, -7882, -1279, -7329, 4694, 10800, -11332, -7369, -9578, -12784, -10463, 13876, 6304, -4354, 19895, 5538, 3516, 8899, 9564, 10286, 5528, -1173, -7347, 15057, 602, 1448, -381, -25452, -4871, -8871, 21, -5735, 9153, 1737, 1710, -4210, -637, 8032, 2719, 13138, 11590, 9580, 10959, -5322, -6222, 3973, -3514, -9846, 10024, 17436, 2458, -917, -18843, -5347, -546, 1617, -3122, 7023, 13902, -22858, -4336, -671, -8820, 20332, 11347, 4034, -3267, -19320, 12589, 3572, -10491, -7332, 8360, 3669, -10186, -5900, -4313, 11167, -9822, 7771, 5434, 11762, 5438, 3812, 15869, 17923, 15983, -13255, 9799, -11521, -13799, 1893, -3255, 13720, 1086, 6487, 14440, 3033, -5816, -1846, -8538, 7744, 2198, 10563, 6183, -2561, 7545, 9799, 3978, 1598, -7959, 8822, -1112, 7190, 6177, -7666, 22089, 9823, 10339, 4355, 896, 7706, 6318, -3627, 863, 1471, 2516, 2163, 3123, -358, -4914, 3131, -13269, 12264, 2882, -1012, -6024, 1787, -12821, -4273, -160, -11504, -697, -640, -2006, -12100, 1966, 4734, 679, -12375, 2325, -4140, -12162, 7372, 6868, -8095, -3101, 7579, -10832, 7997, 12168, 594, 6751, 11038, 12681, -8511, 9528, 10876, 2439, 15570, -50, -2555, -459, -24647, 5495, 28720, -3575, -8365, 298, 8416, -11337, 4643, 19288, 2187, 17563, 8894, 406, 9322, 6613, 8624, -9757, 6491, -13886, -12146, -14392, 3522, 28652, 15829, -14703, 14363, -12063, -8052, 9607, 2800, -8061, 7522, 3089, 33597, 235, 1888, -7931, 4165, 11367, 508, 3883, -3240, 8508, -3572, -7029, 7404, 8003, 8013, -168, 1363, -5668, -16111, 19388, -11641, 4734, 9448, -15518, 7321, -1252, 695, 5335, 10522, -8938, -11762, -2553, -926, 16485, -11364, -6529, -20140, 3099, 4514, 10438, -11541, -8225, -111, -16467, -4405, 9411, 14444, 10248, 11220, 10311, 15120, 1522, 8829, -5877, 133, -1126, 16284, -6288, -8333, -13181, -1228, -3463, -7282, -5222, 2427, -3496, -8540, 1973, 17734, -4067, -18612, 3081, -9267, 5236, 15559, 245, 1683, 7326, 9055, -7718, -5276, 15269, 5556, -16, 6379, 3114, 9539, 12745, -12722, 3259, -5221, 8134, -11063, -7637, -8160, -3722, -16726, -12584, 8535, 19110, 9198, 5121, 11471, 4767, 1985, -5446, 6537, -2592, 31020, -3247, 5265, 5864, -5913, 19729, -12049, 9716, -4222, 419, -6848, -1868, -20779, 3578, -1079, 3508, 6364, -13524, -9542, -5702, 15824, 20485, 13043, 17099, -10766, 769, 2841, 8733, -2270, 10921, 19452, 1684, -5519, 9070, 5619, 15392, -3621, -31, -3767, 2787, 10306, -1710, -18796, -1000, -1989, -4014, -2660, -6403, 1970, -10100, 1926, -15040, 3175, 18818, 4878, 15187, -5481, 7450, 4178, 3493, 8158, 15229, 6268, -8693, -8972, 15163, -13952, -6226, -5162, -14707, -13444, 6367, -2676, 13725, -106, 2727, 4169, 1571, -1410, -9213, -9799, 3493, -3399, -12466, 9695, 5577, 5679, 3474, 8602, -3683, 8507, 7907, -4695, -1616, -10162, -3920, 655, -11134, 803, -10220, 1910, -15447, -14932, 18138, -2893, -4061, 19624, 5777, 13095, 5653, -4339, -4154, 8683, -4337, 7618, -4955, -6992, 3535, 4114, -6299, 6724, 1802, -5241, 10493, 10474, -12530, -4183, 17016, 1877, 16123, 16701, -10047, -4464, 6442, -5843, -667, -12042, -6077, 14793, 2542, -13033, 5772, 12048, 5766, -4589, 8270, 7754, 7199, -6463, 17012, 10537, 1644, -3168, -3470, -9294, 2816, -12284, -10630, 2767, 19290, 967, 4215, 7685, 11034, 4984, 13984, 13243, -5565, 16924, -11637, 9958, -7272, -6526, -7503, -7676, -2080, 6753, -6695, 11139, 740, 2509, 4357, 5228, 2758, 18020, -20293, 7695, 12233, -2530, 3781, 23772, 5763, -8084, 2827, 11573, -2762, 7258, 5060, 3933, 5683, 172, 6430, -2766, 18068, 3236, 7913, 4914, 5393, -1983, -8200, 11394, 12690, -6620, -15939, -3469, -3444, -3225, 10131, -257, -8667, -3616, 14472, 7049, -1739, 7105, -4101, 12816, 2365, -6160, -4511, -10676, -5109, -6303, 1577, -7900, -11215, 19566, 4788, -7523, 4369, -1803, -4808, -7256, 23824, 10132, 3239, -3156, 12584, -1760, -14454, 12743, -14216, -17508, 3594, 3199, 504, 1760, 13273, 2256, 3439, -12437, 12449, 3395, -1429, -252, -12816, -2979, -4311, 3488, -11306, 12542, -12850, -12630, 11901, -2409, 1953, 3242, 5326, 794, 116, 12566, -3612, 1724, 6498, 2003, -6989, 3978, 1130, -11649, 6360, -7044, -19354, -4393, 14728, -5798, -2137, -5683, 904, 980, -5832, 6579, -5583, 10465, -13463, 7605, -6052, 10870, 12241, -1363, 17380, 9413, 11402, -9903, -8982, 853, -10645, -4166, -9224, -9687, 13775, 8481, 12508, 17429, 1335, 5430, -14655, -7730, 9213, -19729, -3571, 6196, -13069, 1270, 247, -7962, 13517, -10606, -865, 12455, -5269, -2373, 15271, -2290, 2877, 8788, 14997, 9429, 20792, -11465, 16122, -8133, -1107, -4814, 4910, -458, -3995, 6459, 11290, -13678, -25497, 6044, -665, -2753, 4207, 1430, -129, -2409, 14140, -4008, -10702, -3085, -5703, -4085, -1344, 1558, 1894, 1016, 14279, },
(int [784])        { -6132, -72, 12297, -2030, 3128, 17226, -3763, -38, -12012, 1958, -1941, -878, -9810, 22839, 22195, 4774, -19855, -9386, -27914, -1931, -1373, -20757, 15537, -9149, -2738, -14581, -5975, -1249, -10404, 4763, 8257, -8894, -22568, -12665, -8936, -16016, -5266, 10930, -15439, 218, 2221, -14118, 257, 9701, -7814, -5874, 795, -4384, 14073, -11640, 9150, -9494, 10688, 9717, -1727, 10826, -18764, 20561, 14186, 385, 999, 2842, -19728, 11393, 777, -22517, 3889, -3811, -6869, -1278, 2699, -18504, 3434, 7317, -3740, -3822, 2360, 10528, -8143, -2522, 10592, 2495, 9366, -1315, -4429, -1950, 1074, -7680, -2554, -1294, 8319, 5026, 5971, -3169, -349, -5041, 5152, -14450, -16740, -9776, -14181, -14651, 11590, 35, -2326, 1001, 4363, -3993, 7963, -4090, -15305, -11878, 4577, -8519, -3698, -3271, -282, -24534, 4417, -7205, -9865, 2725, -3176, -16969, -16781, -12477, -17590, -22357, 1167, 3163, 7915, 18124, 6012, -6461, -8997, 2054, -3574, -22265, 656, -8806, -6725, 5942, -4179, 7237, 2996, -2762, 4461, -5918, -1125, -4885, -11444, -6868, -16188, 3307, -12610, 8734, 9474, -23218, -17043, -7304, -1259, -1650, 5138, -421, 13227, -10057, 4638, 25225, -2761, -350, -24619, 5473, 20175, -11927, -765, 433, 2810, -4669, -13752, -6998, -31273, -29276, -9793, -19165, -13491, 9583, -7636, 3829, 4038, 3226, -2040, 8642, -13648, 10313, 1130, 9675, 14907, 16229, 14323, 8727, -11416, -3036, 18304, -9479, -3098, 337, -16072, -24966, 1880, -22695, -1823, 10659, -9835, 8835, -17987, 1478, 550, -13020, 17683, 5718, -4098, 9689, 8921, 2983, 1689, -9611, 2710, -5521, -19780, 5002, -4874, -1281, -9558, -6549, -14276, -30170, -22537, -28141, 4398, 8737, -9677, 7706, -1568, 3380, 5654, 8852, -10698, -2081, -5089, -1643, -6001, 10918, 6781, 9629, 15514, 10760, 2823, 2773, 6146, 516, 5473, 680, -6867, 4413, -25890, -10846, -11913, -11256, 21078, 3684, -7715, 4132, -4066, -15547, 9255, -5070, 5801, 3902, 22389, -6909, 11887, -4526, 3327, 18, -15421, -24218, -6953, 11523, -19782, 380, -3710, -17462, -15521, -12747, -10093, 26019, 14115, 9181, 10813, 7955, 2694, -1225, 3353, 14424, 9072, 13643, 183, -60, -2771, 3850, 250, 11737, -3027, 274, -11913, -7688, -3440, -6500, -8474, -4044, -20337, 3035, 14233, 13314, 33513, -6496, 26486, 595, -16489, 24293, 3322, -4181, 11792, 10854, 16128, 4775, 3634, 11029, -6926, -2925, -1982, -13243, 4859, 13041, -25075, -9525, -2623, -4566, 3605, -12767, 9260, 11378, -1214, -12946, -23898, -1670, 6711, -13616, -22495, 5604, -5731, 13842, 2181, 4762, -8438, 1058, -7087, 1240, -6611, -17034, -5742, -773, -519, -5574, -1356, 4915, 8554, 495, -489, -4245, -4557, 1817, -5014, -14694, -14493, -1740, 1427, -3911, -16800, 519, 11718, 15506, 9221, 539, 26819, -2599, -5727, 9457, 626, -15579, -7179, -899, 12133, -1009, 861, -17728, 7287, -8397, -6451, -9115, -19229, -16374, -23978, -12803, 939, 1878, 1578, -8502, 17707, 1983, 4345, 7375, -19276, 2701, -13057, -5518, -4385, 8481, 16570, -1506, -9899, 6809, 2179, -11384, -10288, 6349, 6777, -40, -6215, -17207, -4295, -10120, -16846, -1070, 9740, 19951, 1537, 1584, 10838, 3243, 1969, 613, 2156, 11903, 2126, -16212, -8588, 2403, -3061, -3604, -4369, 6777, 1995, 7667, -10007, 13271, -13760, -12934, -10044, 5538, -24572, -799, -3012, -9901, 5023, 16489, 2414, 15750, 6364, -2599, 5369, 1737, 3222, -543, -19873, 9571, -4351, 12692, 11087, 6421, -5092, -10566, 4028, -7748, -9532, -22685, -10174, -7360, 1930, -12365, 18959, -19266, 5280, -2511, 15304, 14066, -200, -272, 4843, -18887, 4319, -14432, -2103, -2858, 7594, 13988, 14575, -6785, -14054, 7527, -6438, 6109, 10673, -17337, 922, 1200, -3706, -1606, 5599, -1806, -15701, 21305, 5846, 4500, -3834, 7026, -2878, -4055, -17911, -2442, 10222, 11074, 6366, 27422, 1624, 17709, -3255, -6323, -20156, -8526, -8480, -15085, 4838, 1629, 582, -24802, -617, -9072, 11041, -9560, 20781, -2626, -29720, 175, -10840, -5438, 3918, -5928, -8133, -11352, -6539, 2990, 2975, 3088, -7753, -10437, -12584, -10031, -9580, -19334, -5663, -5712, -7005, 9377, -1691, 9856, -419, 14609, -4643, -753, -13679, -3976, -15569, 1904, -11545, -10755, -4238, -3490, -9402, -5838, -3752, -8392, -444, -3537, -13189, -7553, -3217, -7008, 557, -15697, 6255, 7381, -1131, 3111, 3540, -7589, 4908, -13007, 4076, -3397, -6875, 13340, -4385, 8999, -15961, 7081, -24478, -2882, -1555, 9935, 8533, -8486, -13996, -19759, -10407, -731, 7976, 25771, -1961, -20544, -3308, 17336, -3306, 4156, 5731, -3687, 16776, 15739, 469, 4929, 467, -207, 2534, 4865, -8818, -6571, -3743, 4324, 4708, -11679, -14172, -12384, 665, -6774, -1409, 9921, -11354, 16938, 7154, 3359, -2625, 26740, -8791, 2529, 5898, 4608, -10220, -5989, -12633, -6591, -18613, 13015, 4795, -6029, 2670, -6537, 144, 26923, -16679, -6108, -8798, 2859, 13193, 2881, 9272, 8773, -9022, 9119, -1180, -16254, 2953, 3957, 6722, -13486, -9025, -2648, 17521, 2741, 1317, -1937, -4031, -7054, -9081, -1043, -5351, -8704, -14863, 14730, 8250, -10243, -11665, -2617, -1983, 3670, 5803, 16787, 10720, -1458, 6042, 8545, -4945, 9514, 12153, -765, -21987, -10043, 4475, 10553, 7055, -3631, -15767, 10001, -20165, -637, 756, -14190, -2425, -43, -9021, -1946, 2674, -434, -15968, 4221, 1308, -2424, 1622, 3508, 14927, -7871, 12954, -27883, -10069, -16341, -198, 798, 7921, -1506, -1869, 5975, 8378, 1174, -2208, -4400, 4158, -11226, 9096, -665, 2405, -5115, 2131, 6241, -9230, -18317, },
(int [784])        { -128, 2339, 812, 17191, -19098, 5478, 5889, 2637, 3444, 8811, 7373, -4908, -528, -5475, -5245, 5128, 8912, -5233, 14, -2990, 4694, 4751, -17863, -4516, -1323, 4216, 81, 1292, 10711, 3835, -5501, 11908, -2326, -1991, 3282, 3926, -1439, -8838, 2724, 1724, -10531, -13084, -7376, -5440, 6797, 5741, -1524, -21002, 8233, 7659, 5434, 4946, 3530, 8845, 4413, -14842, -3961, -8426, -103, -17579, 10580, 23499, 2090, -3027, -10270, 10670, 5363, -9323, -35, -1904, 5293, 4598, 11378, 7555, 4231, 8999, -12836, -275, -5737, -3844, 0, 1799, 142, 22329, -7811, 3022, 6719, -108, -2130, -14753, -17696, 11614, 8997, -792, 11767, 2052, 16382, -342, -11118, -3619, 356, -15084, -16196, -22066, -11436, 8479, 396, 2041, -18879, -9700, -7009, -6837, 5467, -11000, 22980, -1424, 2418, -2064, 3199, 718, -17528, -4398, 9309, 17299, 8551, 19974, -1123, -5438, -17653, -5893, -6389, -25919, -12081, -7892, -338, 7273, -14752, 6928, -2946, -19470, 20861, 18311, -11801, 187, 13784, 18462, 4413, 29540, 7801, 9388, 25136, 443, 13639, -165, -3190, 6335, -1829, -10455, -22618, -15669, -39847, -20513, -21515, -17190, 13381, -9925, -5367, 5773, -339, 12634, 1706, -125, 12764, 2273, 23868, -6305, 3522, -8716, 6027, 14091, -2697, 5432, -14768, 20957, -4507, -10590, 11192, -7665, -31148, -8693, -23088, -2799, -4174, -3744, 6282, -8932, -6387, 16142, -16399, 2871, 21448, 11991, -2192, -20339, 3758, 1571, -4909, 5294, -1111, 17241, 12680, 3568, -11564, -7491, -18521, -23509, -34186, -28661, -19996, -21444, -10165, 5047, -2920, 18590, -4105, -7100, -3780, 5830, -6322, 12187, 5614, -3206, -13697, -15226, 16036, -10007, 9353, 5272, 25486, 2087, 15585, 15443, -19362, -16090, -34766, -22096, -25315, -15587, -6718, 4674, -13950, 14685, -13397, -5177, -259, -20892, 3094, 1028, -2926, -675, -9213, -21112, -7897, -18524, -9722, 17555, 24797, 42931, 22016, 20457, 13248, -12948, -24950, -21146, -29357, -3568, -13978, -7472, 20922, -6849, -578, -1377, 4784, -1416, -9747, 10953, -3125, -8683, -27051, -15898, -30833, -3620, -15651, 24109, 42419, 14828, -5394, 5571, -7013, -16662, -21338, -15649, -15246, -16393, -2769, 4268, -22397, -16831, 6136, 7880, -17961, -9682, -13757, 2566, -509, -17523, 11338, -8796, 1281, -120, 7562, 15315, 28823, 11590, -7597, -7926, -13248, -14958, -22908, -20054, 4637, -5207, -3380, -16225, -12716, -26783, -26428, 12408, 6532, -9450, -5208, -11020, -14626, -13574, -22051, 12561, 15725, 12572, 13939, 8735, 23750, -7913, -4928, -595, -17317, -28336, -18717, -8206, -2987, 2884, 108, -6728, -5965, 10574, 17036, -1271, 5121, -27749, 6081, -26221, 3461, 543, -1360, 3709, 6210, -3018, 13882, 14144, -4863, 5996, 25324, 2378, -10562, 6226, 6512, -2401, -3251, 4876, 12021, -15681, -17370, 4811, 2925, -14719, -12140, 14203, 703, 13639, -15153, -5026, 3056, 12549, -25672, -19113, -15104, -197, 14698, -4759, -83, -20379, -21796, 9104, -6590, 12085, -4772, 3560, -8273, -12800, -353, 9771, 23919, -5528, 13716, 5403, -12249, 7115, -648, -3967, 106, -4559, -2418, 5227, -4688, 18190, 5532, 4000, -7383, -1291, -13544, -4332, 2856, -5430, -4718, 10071, 1207, 14505, -13115, -806, 40, -15057, -16816, 15326, 5478, 1574, 8734, -14010, 18320, -22870, -10313, -9805, 6060, 9196, 16321, -24976, -12221, -22074, 11552, 23489, 850, 4980, 26030, 2166, 5919, -17019, 1372, 37, -13133, 7484, 11507, -19834, 11469, -5298, -6752, 2974, 1721, -574, -14358, -19643, -32932, -29026, 9002, -1674, -14987, 7304, -7591, 9278, -8801, 9553, -175, 8136, -10301, -3882, 1613, -14332, 11459, 153, 3744, 584, -13968, 3497, -1692, -9743, -4349, -22365, -34688, -21837, -25271, -19613, -14148, -16959, -3713, -6196, -5598, 4601, 8499, 15118, 19662, 7475, -12039, -11395, 6799, 16446, -7879, 4591, -4991, 658, 2056, -13918, 4296, 1818, 30, -691, 7512, -12483, -12583, -2770, -10289, -13019, 6153, 25744, -2258, 28554, 2997, -5946, 710, -758, -2049, 1842, 4866, -13635, 6743, -6834, -13679, -4515, -7526, -11901, 5807, -6407, 9181, 912, -15674, 753, -10508, 12839, 5115, -6514, 7212, 7244, -22557, -4044, -8811, -1328, -1816, -2417, -3428, -6874, 5261, 20359, -9569, 3114, 22641, 962, 821, -7538, -6772, -2126, -10439, -10087, -19608, -930, -24806, -10731, -17119, 4065, -7506, 3131, 15341, 12208, -3450, 5831, -12905, -16706, -4072, -8125, -17453, 17101, 5459, 313, 9755, -14593, 4409, -14042, -2805, 5626, 727, -917, 12841, -14425, -14850, 2737, -15293, -15100, 265, -2750, 11669, -1160, 24009, -4188, -10540, -3803, 5406, 16, 6156, -2009, -12967, -8526, -10449, 6520, -3624, 18772, -4683, 14123, -16060, 11211, -11266, -5152, -616, -2280, -4662, -4885, -20170, -1017, 10091, -11131, 11158, -20857, -17148, -12490, -24004, -22363, -3931, 9126, 16020, 3516, -3544, 7813, -6269, 31332, -5126, 9044, 9294, -16561, -61, 10062, -10237, -4877, 10036, -20819, 1052, -8780, -11383, -89, -13281, 15417, -10745, 13885, -7774, 16306, -2646, -6514, 241, -16846, -5195, 1744, 13052, 13122, -328, 17735, 11824, 31109, 9416, -1954, 9104, 6247, 266, -2278, 2659, -18648, -7910, -15602, 3880, 9224, 6963, -6461, -6415, 10017, 9263, -23056, 12439, -4247, 3003, 1331, -7652, -6311, 8026, 8502, -10417, -15281, -1354, -16449, -6887, 709, 4797, -20599, -5499, 8943, 19083, -6602, 14324, -4698, 3037, 1760, 4163, 951, -9944, -1276, -5778, 19535, -5041, 5505, -3221, -3333, -79, -3332, 324, -19033, -1970, -3353, 3569, 16239, -7983, 419, -1764, -4256, -4832, 8002, 13664, -7640, 1406, -1434, -9090, 10967, -4928, -14325, },
(int [784])        { 18123, -5697, 5261, 6149, -8360, -9754, -4174, 10456, 3434, 20348, -8350, -15591, -7219, 7412, 2075, 5571, 4621, 15217, -3614, -17777, 10265, -1716, -13166, 1627, 15337, -2639, 11834, -3079, -5905, 10842, 8747, 8860, 3396, -5706, -2303, 9715, -3391, -10836, -1989, -5657, 8953, 10694, 6637, 11784, -11585, -3554, 9776, -1612, -11652, -6319, -6204, 5242, -11647, -11619, 3147, 8266, 3147, 18135, 5896, 4770, -7242, -7271, 2416, 11286, -10889, 12464, 16674, 28351, 22302, -3207, -15632, -21996, -80, 9407, 4359, 8990, 16571, -25428, -10174, -12498, 7048, 3635, -1500, -4595, -5707, 4111, -5251, 7385, -6676, -1296, -28053, 12452, 3795, 7665, -7444, 1980, -8043, -1979, -3618, -5286, -1800, -7559, -11162, -8048, 5556, 2528, -4172, -6727, 2608, -8457, -5334, -906, 2368, -4182, 10583, -6547, -15731, -10783, -3653, 14103, -9055, -5667, -11780, -10830, -11759, -29090, -1697, -23152, -20835, -1584, -30324, -20987, -2126, -6647, -1118, -5595, -3778, 11834, 2552, 638, -2783, 9731, -1504, -2027, 10749, 3875, -8351, 3938, -32481, -11343, -7793, -10325, -10563, -17241, -1550, 6514, 13943, 6063, 7007, 4847, 8701, 2771, -8649, 484, -3220, -8058, 8089, 268, -20479, -6367, -12714, 7298, 7939, 8199, 2952, -17818, 2140, 8036, -251, -19822, -10539, 3827, -9874, -17627, -3864, -9921, 2025, 16767, -59, 10486, -7311, 21122, 10082, 13454, -12790, 17423, 10732, -2953, 3845, 8518, -12771, -7296, -8302, -17632, -1079, -7182, -3199, 8659, 17168, 807, -1909, 4609, -213, 3016, 7297, -12677, 8508, 14501, 10883, 15969, -5650, 740, 8396, -15110, -9717, -18277, 6796, -7057, 11052, 1741, 3370, -894, -15207, 1630, -15251, -4657, -12, 2857, 2193, 5701, 18136, 8683, -9951, 8540, 21038, -1454, -12259, 25144, 4128, 12790, -2394, 8148, 1931, 16758, -14461, 11455, -9604, -12791, 4864, -10679, 2998, 7198, -10046, 3212, -6014, 7703, 2258, 12425, -1741, 16041, 17341, 9656, -16711, 7192, 7039, -3292, 21148, 22443, 2366, -2196, -3600, 4858, -6322, -10920, -67, -6290, -16493, 19170, -3724, 22236, 4188, 4546, 24190, 18186, -10950, -11438, -13520, -8844, 3879, 4673, 13750, -3562, 894, 10868, 9956, 4037, 17374, -10835, -2694, 11492, 3883, -1641, 10312, -28449, 4120, 3855, 12050, 6154, -2406, -9607, 23369, 5271, 7201, -3940, -30418, -34573, -8935, -14175, -4916, 18743, -17914, -6309, 4545, 17648, -14071, -7924, 4934, -9901, 10132, 13356, -19164, -11213, -8776, 4923, -1270, -10230, 5267, 2315, 4251, -3269, 813, -3408, -36147, -42074, -24014, -19001, -26415, -3713, -7236, -21231, -14590, -8319, 5202, 5412, 6173, -16408, 8329, 4416, 7643, -22328, 9647, -737, 22161, 23327, 9347, -2709, 13033, 14568, 1948, -9512, -15314, -17914, -20096, -15684, -13984, 6760, -7059, -7893, 2276, 15494, 2256, 20516, 8781, 13848, -648, 20, -3677, 8833, 12448, 3795, -3077, -6104, 10706, 3231, -4470, -3637, -11002, -29919, -13066, -11909, -25058, -18948, -29003, -1481, 11118, 5684, -9314, -20700, -11413, 2882, 10798, 14835, -4237, 4339, -9789, 24276, 12149, 19851, 18859, 18822, 20711, 2741, -18003, -20867, -19907, -11515, -17462, -9497, -10714, -13718, -12923, 25, 17908, -139, 1150, 12631, 4401, -10307, 5823, 3039, -5333, -9668, -91, 18987, 10702, -16664, 4811, 4084, 3969, -35505, -19319, -25089, -23443, -15192, -513, -10138, -444, -17215, -17488, 12220, -1070, 3920, 98, 6371, -2614, -8646, 2595, -13081, 8811, -3508, -1039, 16791, 6633, 7139, -6857, 14489, 687, -16553, -21397, -10990, 10285, 210, -710, 8801, 2431, 2557, 7730, -6243, 8439, -3527, 20198, 7172, -14355, -7148, 1420, 7457, 14418, -11233, -442, -10477, 6624, 14626, 7347, 14645, -24921, -25750, 401, -7342, -4284, -6391, 7974, 11327, -9010, 14719, -777, 7399, -10099, 9059, -16087, 8092, -15239, 7720, -7218, 10629, 32671, 1199, -6052, 5422, 7973, 3908, 28302, -11317, -4262, 14635, -5282, 5882, -286, 11544, 10754, -2044, -3141, 9113, 15591, 8804, 3042, 276, 6689, 10186, 939, 9025, -4268, -8119, 10166, 114, -8269, 6183, -5133, -6526, -3066, 16839, 9907, -6377, 8722, -5535, -3457, 2924, -20247, -3843, 2638, -32671, -9523, -13569, 13098, -3394, 9065, -785, 8981, 2597, -137, 990, -13440, 6386, -8129, 11502, 4357, -1926, 20115, 21874, 10512, 10970, 2262, 2287, -20188, -9816, 77, -5304, -679, -15829, 8587, 3493, -10369, 7176, 10988, -1151, -2470, -503, 9323, -7972, -2755, -10375, 7230, -5482, -4820, -2764, 5677, 9661, 7674, 6483, 6247, 5162, -3149, 15917, -5738, -1736, 12622, 6405, 27062, -650, -8101, -3103, 6241, -2034, -9754, -3342, -7218, 5361, 2624, 8244, -7857, 1908, -4562, 7564, -4465, 1931, 16798, 9598, 2359, 1020, 9660, -1944, -14043, 12590, -5952, -20570, -14892, 8879, -5260, 6891, 8031, -329, 1232, -3691, -182, 3144, -5480, -1984, 7304, -12990, 1576, -9847, -20044, -834, 3896, 11473, 4192, -2817, 5222, 22462, 10851, -6087, 4567, -4071, 7754, -2692, 12521, -8667, 13089, -6986, -655, 9603, -3931, 5498, 1791, -1716, -14204, 807, -9031, 12140, 6346, 242, 5609, -8081, 19271, 8653, -17069, -5352, 2718, 6367, 16812, 1943, -3956, -16754, 6234, -5588, -24971, -9484, -2958, -3959, 9979, 4329, 2464, 10957, -1920, -13273, 8528, -2547, 5056, 4134, -9025, 8615, -5992, 6040, 1782, -6842, -4982, 6656, 9401, -4382, -21594, 6118, 14009, -18921, -11623, 12713, 5975, 8409, 8754, 18035, 5208, 1718, 278, 2471, -3635, 2667, -5955, 19748, -11738, -5920, 2447, 7814, -1678, -15343, 7765, -9103, 3547, -4765, 6285, 17633, 7441, 8991, -17189, -13694, 2625, 17770, },
